#! FIELDS rc1 external1.bias der_rc1
#! SET min_rc1 -0.4013782820328796
#! SET max_rc1 0.5142977446494907
#! SET nbins_rc1 600
#! SET periodic_rc1 false
-4.013782820328796186e-01 0.000000000000000000e+00 0.000000000000000000e+00
-3.998496075309057041e-01 0.000000000000000000e+00 0.000000000000000000e+00
-3.983209330289317895e-01 0.000000000000000000e+00 0.000000000000000000e+00
-3.967922585269578750e-01 0.000000000000000000e+00 0.000000000000000000e+00
-3.952635840249839605e-01 0.000000000000000000e+00 0.000000000000000000e+00
-3.937349095230100460e-01 0.000000000000000000e+00 0.000000000000000000e+00
-3.922062350210362425e-01 0.000000000000000000e+00 0.000000000000000000e+00
-3.906775605190623279e-01 0.000000000000000000e+00 0.000000000000000000e+00
-3.891488860170884134e-01 0.000000000000000000e+00 0.000000000000000000e+00
-3.876202115151144989e-01 0.000000000000000000e+00 0.000000000000000000e+00
-3.860915370131405844e-01 0.000000000000000000e+00 0.000000000000000000e+00
-3.845628625111666699e-01 0.000000000000000000e+00 0.000000000000000000e+00
-3.830341880091927553e-01 0.000000000000000000e+00 0.000000000000000000e+00
-3.815055135072188408e-01 0.000000000000000000e+00 0.000000000000000000e+00
-3.799768390052449263e-01 0.000000000000000000e+00 0.000000000000000000e+00
-3.784481645032710118e-01 0.000000000000000000e+00 0.000000000000000000e+00
-3.769194900012971527e-01 0.000000000000000000e+00 0.000000000000000000e+00
-3.753908154993232382e-01 0.000000000000000000e+00 0.000000000000000000e+00
-3.738621409973493237e-01 0.000000000000000000e+00 0.000000000000000000e+00
-3.723334664953754092e-01 0.000000000000000000e+00 0.000000000000000000e+00
-3.708047919934015502e-01 0.000000000000000000e+00 0.000000000000000000e+00
-3.692761174914276356e-01 0.000000000000000000e+00 0.000000000000000000e+00
-3.677474429894537211e-01 0.000000000000000000e+00 0.000000000000000000e+00
-3.662187684874798066e-01 0.000000000000000000e+00 0.000000000000000000e+00
-3.646900939855058921e-01 0.000000000000000000e+00 0.000000000000000000e+00
-3.631614194835319775e-01 0.000000000000000000e+00 0.000000000000000000e+00
-3.616327449815580630e-01 0.000000000000000000e+00 0.000000000000000000e+00
-3.601040704795841485e-01 0.000000000000000000e+00 0.000000000000000000e+00
-3.585753959776102340e-01 0.000000000000000000e+00 0.000000000000000000e+00
-3.570467214756363195e-01 0.000000000000000000e+00 0.000000000000000000e+00
-3.555180469736624049e-01 0.000000000000000000e+00 0.000000000000000000e+00
-3.539893724716884904e-01 0.000000000000000000e+00 0.000000000000000000e+00
-3.524606979697145759e-01 0.000000000000000000e+00 0.000000000000000000e+00
-3.509320234677406614e-01 0.000000000000000000e+00 0.000000000000000000e+00
-3.494033489657667468e-01 0.000000000000000000e+00 0.000000000000000000e+00
-3.478746744637928323e-01 0.000000000000000000e+00 0.000000000000000000e+00
-3.463459999618190288e-01 0.000000000000000000e+00 0.000000000000000000e+00
-3.448173254598451143e-01 0.000000000000000000e+00 0.000000000000000000e+00
-3.432886509578711998e-01 0.000000000000000000e+00 0.000000000000000000e+00
-3.417599764558972852e-01 0.000000000000000000e+00 0.000000000000000000e+00
-3.402313019539233707e-01 0.000000000000000000e+00 0.000000000000000000e+00
-3.387026274519494562e-01 0.000000000000000000e+00 0.000000000000000000e+00
-3.371739529499755417e-01 0.000000000000000000e+00 0.000000000000000000e+00
-3.356452784480016271e-01 0.000000000000000000e+00 0.000000000000000000e+00
-3.341166039460277126e-01 0.000000000000000000e+00 0.000000000000000000e+00
-3.325879294440537981e-01 0.000000000000000000e+00 0.000000000000000000e+00
-3.310592549420799391e-01 0.000000000000000000e+00 0.000000000000000000e+00
-3.295305804401060246e-01 0.000000000000000000e+00 0.000000000000000000e+00
-3.280019059381321100e-01 0.000000000000000000e+00 0.000000000000000000e+00
-3.264732314361581955e-01 0.000000000000000000e+00 0.000000000000000000e+00
-3.249445569341843365e-01 0.000000000000000000e+00 0.000000000000000000e+00
-3.234158824322104220e-01 0.000000000000000000e+00 0.000000000000000000e+00
-3.218872079302365075e-01 0.000000000000000000e+00 0.000000000000000000e+00
-3.203585334282625929e-01 0.000000000000000000e+00 0.000000000000000000e+00
-3.188298589262886784e-01 0.000000000000000000e+00 0.000000000000000000e+00
-3.173011844243147639e-01 0.000000000000000000e+00 0.000000000000000000e+00
-3.157725099223408494e-01 0.000000000000000000e+00 0.000000000000000000e+00
-3.142438354203669348e-01 0.000000000000000000e+00 0.000000000000000000e+00
-3.127151609183930203e-01 0.000000000000000000e+00 0.000000000000000000e+00
-3.111864864164191058e-01 0.000000000000000000e+00 0.000000000000000000e+00
-3.096578119144452468e-01 0.000000000000000000e+00 0.000000000000000000e+00
-3.081291374124713323e-01 0.000000000000000000e+00 0.000000000000000000e+00
-3.066004629104974177e-01 0.000000000000000000e+00 0.000000000000000000e+00
-3.050717884085235032e-01 0.000000000000000000e+00 0.000000000000000000e+00
-3.035431139065495887e-01 0.000000000000000000e+00 0.000000000000000000e+00
-3.020144394045756742e-01 0.000000000000000000e+00 0.000000000000000000e+00
-3.004857649026018152e-01 0.000000000000000000e+00 0.000000000000000000e+00
-2.989570904006279006e-01 0.000000000000000000e+00 0.000000000000000000e+00
-2.974284158986539861e-01 0.000000000000000000e+00 0.000000000000000000e+00
-2.958997413966800716e-01 0.000000000000000000e+00 0.000000000000000000e+00
-2.943710668947061571e-01 0.000000000000000000e+00 0.000000000000000000e+00
-2.928423923927322425e-01 0.000000000000000000e+00 0.000000000000000000e+00
-2.913137178907583280e-01 0.000000000000000000e+00 0.000000000000000000e+00
-2.897850433887844135e-01 0.000000000000000000e+00 0.000000000000000000e+00
-2.882563688868104990e-01 0.000000000000000000e+00 0.000000000000000000e+00
-2.867276943848365844e-01 0.000000000000000000e+00 0.000000000000000000e+00
-2.851990198828627254e-01 0.000000000000000000e+00 0.000000000000000000e+00
-2.836703453808888109e-01 0.000000000000000000e+00 0.000000000000000000e+00
-2.821416708789148964e-01 0.000000000000000000e+00 0.000000000000000000e+00
-2.806129963769409819e-01 0.000000000000000000e+00 0.000000000000000000e+00
-2.790843218749671228e-01 0.000000000000000000e+00 0.000000000000000000e+00
-2.775556473729932083e-01 0.000000000000000000e+00 0.000000000000000000e+00
-2.760269728710192938e-01 0.000000000000000000e+00 0.000000000000000000e+00
-2.744982983690453793e-01 0.000000000000000000e+00 0.000000000000000000e+00
-2.729696238670714648e-01 0.000000000000000000e+00 0.000000000000000000e+00
-2.714409493650975502e-01 0.000000000000000000e+00 0.000000000000000000e+00
-2.699122748631236357e-01 0.000000000000000000e+00 0.000000000000000000e+00
-2.683836003611497212e-01 0.000000000000000000e+00 0.000000000000000000e+00
-2.668549258591758067e-01 0.000000000000000000e+00 0.000000000000000000e+00
-2.653262513572018921e-01 0.000000000000000000e+00 0.000000000000000000e+00
-2.637975768552280331e-01 0.000000000000000000e+00 0.000000000000000000e+00
-2.622689023532541186e-01 0.000000000000000000e+00 0.000000000000000000e+00
-2.607402278512802041e-01 0.000000000000000000e+00 0.000000000000000000e+00
-2.592115533493062896e-01 0.000000000000000000e+00 0.000000000000000000e+00
-2.576828788473323750e-01 0.000000000000000000e+00 0.000000000000000000e+00
-2.561542043453584605e-01 0.000000000000000000e+00 0.000000000000000000e+00
-2.546255298433846015e-01 0.000000000000000000e+00 0.000000000000000000e+00
-2.530968553414106870e-01 0.000000000000000000e+00 0.000000000000000000e+00
-2.515681808394367724e-01 0.000000000000000000e+00 0.000000000000000000e+00
-2.500395063374628579e-01 0.000000000000000000e+00 0.000000000000000000e+00
-2.485108318354889712e-01 0.000000000000000000e+00 0.000000000000000000e+00
-2.469821573335150566e-01 0.000000000000000000e+00 0.000000000000000000e+00
-2.454534828315411421e-01 0.000000000000000000e+00 0.000000000000000000e+00
-2.439248083295672276e-01 0.000000000000000000e+00 0.000000000000000000e+00
-2.423961338275933131e-01 0.000000000000000000e+00 0.000000000000000000e+00
-2.408674593256193708e-01 0.000000000000000000e+00 0.000000000000000000e+00
-2.393387848236455118e-01 0.000000000000000000e+00 0.000000000000000000e+00
-2.378101103216715972e-01 0.000000000000000000e+00 0.000000000000000000e+00
-2.362814358196976827e-01 0.000000000000000000e+00 0.000000000000000000e+00
-2.347527613177237682e-01 0.000000000000000000e+00 0.000000000000000000e+00
-2.332240868157498814e-01 0.000000000000000000e+00 0.000000000000000000e+00
-2.316954123137759669e-01 0.000000000000000000e+00 0.000000000000000000e+00
-2.301667378118020524e-01 0.000000000000000000e+00 0.000000000000000000e+00
-2.286380633098281379e-01 0.000000000000000000e+00 0.000000000000000000e+00
-2.271093888078542233e-01 0.000000000000000000e+00 0.000000000000000000e+00
-2.255807143058803088e-01 0.000000000000000000e+00 0.000000000000000000e+00
-2.240520398039064498e-01 0.000000000000000000e+00 0.000000000000000000e+00
-2.225233653019325353e-01 0.000000000000000000e+00 0.000000000000000000e+00
-2.209946907999586208e-01 0.000000000000000000e+00 0.000000000000000000e+00
-2.194660162979847062e-01 0.000000000000000000e+00 0.000000000000000000e+00
-2.179373417960108195e-01 0.000000000000000000e+00 0.000000000000000000e+00
-2.164086672940369049e-01 0.000000000000000000e+00 0.000000000000000000e+00
-2.148799927920629904e-01 0.000000000000000000e+00 0.000000000000000000e+00
-2.133513182900890759e-01 0.000000000000000000e+00 0.000000000000000000e+00
-2.118226437881151614e-01 0.000000000000000000e+00 0.000000000000000000e+00
-2.102939692861412468e-01 0.000000000000000000e+00 0.000000000000000000e+00
-2.087652947841673878e-01 0.000000000000000000e+00 0.000000000000000000e+00
-2.072366202821934733e-01 0.000000000000000000e+00 0.000000000000000000e+00
-2.057079457802195588e-01 0.000000000000000000e+00 0.000000000000000000e+00
-2.041792712782456443e-01 0.000000000000000000e+00 0.000000000000000000e+00
-2.026505967762717297e-01 0.000000000000000000e+00 0.000000000000000000e+00
-2.011219222742978152e-01 0.000000000000000000e+00 0.000000000000000000e+00
-1.995932477723239007e-01 0.000000000000000000e+00 0.000000000000000000e+00
-1.980645732703499862e-01 0.000000000000000000e+00 0.000000000000000000e+00
-1.965358987683760716e-01 0.000000000000000000e+00 0.000000000000000000e+00
-1.950072242664021571e-01 0.000000000000000000e+00 0.000000000000000000e+00
-1.934785497644282981e-01 0.000000000000000000e+00 0.000000000000000000e+00
-1.919498752624543836e-01 0.000000000000000000e+00 0.000000000000000000e+00
-1.904212007604804691e-01 0.000000000000000000e+00 0.000000000000000000e+00
-1.888925262585065545e-01 0.000000000000000000e+00 0.000000000000000000e+00
-1.873638517565326678e-01 0.000000000000000000e+00 0.000000000000000000e+00
-1.858351772545587532e-01 0.000000000000000000e+00 0.000000000000000000e+00
-1.843065027525848387e-01 0.000000000000000000e+00 0.000000000000000000e+00
-1.827778282506109242e-01 0.000000000000000000e+00 0.000000000000000000e+00
-1.812491537486370097e-01 0.000000000000000000e+00 0.000000000000000000e+00
-1.797204792466630952e-01 0.000000000000000000e+00 0.000000000000000000e+00
-1.781918047446892361e-01 0.000000000000000000e+00 0.000000000000000000e+00
-1.766631302427153216e-01 0.000000000000000000e+00 0.000000000000000000e+00
-1.751344557407414071e-01 0.000000000000000000e+00 0.000000000000000000e+00
-1.736057812387674926e-01 0.000000000000000000e+00 0.000000000000000000e+00
-1.720771067367936058e-01 0.000000000000000000e+00 0.000000000000000000e+00
-1.705484322348196913e-01 0.000000000000000000e+00 0.000000000000000000e+00
-1.690197577328457768e-01 0.000000000000000000e+00 0.000000000000000000e+00
-1.674910832308718622e-01 0.000000000000000000e+00 0.000000000000000000e+00
-1.659624087288979477e-01 0.000000000000000000e+00 0.000000000000000000e+00
-1.644337342269240332e-01 0.000000000000000000e+00 0.000000000000000000e+00
-1.629050597249501742e-01 0.000000000000000000e+00 0.000000000000000000e+00
-1.613763852229762596e-01 0.000000000000000000e+00 0.000000000000000000e+00
-1.598477107210023451e-01 0.000000000000000000e+00 0.000000000000000000e+00
-1.583190362190284306e-01 0.000000000000000000e+00 0.000000000000000000e+00
-1.567903617170545161e-01 0.000000000000000000e+00 0.000000000000000000e+00
-1.552616872150806016e-01 0.000000000000000000e+00 0.000000000000000000e+00
-1.537330127131066870e-01 0.000000000000000000e+00 0.000000000000000000e+00
-1.522043382111327725e-01 0.000000000000000000e+00 0.000000000000000000e+00
-1.506756637091588580e-01 0.000000000000000000e+00 0.000000000000000000e+00
-1.491469892071849435e-01 0.000000000000000000e+00 0.000000000000000000e+00
-1.476183147052110844e-01 0.000000000000000000e+00 0.000000000000000000e+00
-1.460896402032371699e-01 0.000000000000000000e+00 0.000000000000000000e+00
-1.445609657012632554e-01 0.000000000000000000e+00 0.000000000000000000e+00
-1.430322911992893409e-01 0.000000000000000000e+00 0.000000000000000000e+00
-1.415036166973154541e-01 0.000000000000000000e+00 0.000000000000000000e+00
-1.399749421953415396e-01 0.000000000000000000e+00 0.000000000000000000e+00
-1.384462676933676251e-01 0.000000000000000000e+00 0.000000000000000000e+00
-1.369175931913937105e-01 0.000000000000000000e+00 0.000000000000000000e+00
-1.353889186894197960e-01 0.000000000000000000e+00 0.000000000000000000e+00
-1.338602441874458815e-01 0.000000000000000000e+00 0.000000000000000000e+00
-1.323315696854720225e-01 0.000000000000000000e+00 0.000000000000000000e+00
-1.308028951834981080e-01 0.000000000000000000e+00 0.000000000000000000e+00
-1.292742206815241934e-01 0.000000000000000000e+00 0.000000000000000000e+00
-1.277455461795502789e-01 0.000000000000000000e+00 0.000000000000000000e+00
-1.262168716775763921e-01 0.000000000000000000e+00 0.000000000000000000e+00
-1.246881971756024776e-01 0.000000000000000000e+00 0.000000000000000000e+00
-1.231595226736285631e-01 0.000000000000000000e+00 0.000000000000000000e+00
-1.216308481716546486e-01 0.000000000000000000e+00 0.000000000000000000e+00
-1.201021736696807340e-01 0.000000000000000000e+00 0.000000000000000000e+00
-1.185734991677068195e-01 0.000000000000000000e+00 0.000000000000000000e+00
-1.170448246657329605e-01 0.000000000000000000e+00 0.000000000000000000e+00
-1.155161501637590460e-01 0.000000000000000000e+00 0.000000000000000000e+00
-1.139874756617851315e-01 0.000000000000000000e+00 0.000000000000000000e+00
-1.124588011598112169e-01 0.000000000000000000e+00 0.000000000000000000e+00
-1.109301266578373302e-01 0.000000000000000000e+00 0.000000000000000000e+00
-1.094014521558634156e-01 0.000000000000000000e+00 0.000000000000000000e+00
-1.078727776538895011e-01 0.000000000000000000e+00 0.000000000000000000e+00
-1.063441031519155866e-01 0.000000000000000000e+00 0.000000000000000000e+00
-1.048154286499416721e-01 0.000000000000000000e+00 0.000000000000000000e+00
-1.032867541479677576e-01 0.000000000000000000e+00 0.000000000000000000e+00
-1.017580796459938985e-01 0.000000000000000000e+00 0.000000000000000000e+00
-1.002294051440199840e-01 0.000000000000000000e+00 0.000000000000000000e+00
-9.870073064204606950e-02 0.000000000000000000e+00 0.000000000000000000e+00
-9.717205614007215497e-02 0.000000000000000000e+00 0.000000000000000000e+00
-9.564338163809824045e-02 0.000000000000000000e+00 0.000000000000000000e+00
-9.411470713612432593e-02 0.000000000000000000e+00 0.000000000000000000e+00
-9.258603263415041140e-02 0.000000000000000000e+00 0.000000000000000000e+00
-9.105735813217649688e-02 0.000000000000000000e+00 0.000000000000000000e+00
-8.952868363020258236e-02 0.000000000000000000e+00 0.000000000000000000e+00
-8.800000912822866783e-02 0.000000000000000000e+00 0.000000000000000000e+00
-8.647133462625480882e-02 0.000000000000000000e+00 0.000000000000000000e+00
-8.494266012428089430e-02 0.000000000000000000e+00 0.000000000000000000e+00
-8.341398562230697977e-02 0.000000000000000000e+00 0.000000000000000000e+00
-8.188531112033306525e-02 0.000000000000000000e+00 0.000000000000000000e+00
-8.035663661835917848e-02 0.000000000000000000e+00 0.000000000000000000e+00
-7.882796211638526396e-02 0.000000000000000000e+00 0.000000000000000000e+00
-7.729928761441134943e-02 0.000000000000000000e+00 0.000000000000000000e+00
-7.577061311243743491e-02 0.000000000000000000e+00 0.000000000000000000e+00
-7.424193861046352039e-02 0.000000000000000000e+00 0.000000000000000000e+00
-7.271326410848960586e-02 0.000000000000000000e+00 0.000000000000000000e+00
-7.118458960651574685e-02 0.000000000000000000e+00 0.000000000000000000e+00
-6.965591510454183233e-02 0.000000000000000000e+00 0.000000000000000000e+00
-6.812724060256791780e-02 0.000000000000000000e+00 0.000000000000000000e+00
-6.659856610059400328e-02 0.000000000000000000e+00 0.000000000000000000e+00
-6.506989159862011651e-02 0.000000000000000000e+00 0.000000000000000000e+00
-6.354121709664620199e-02 0.000000000000000000e+00 0.000000000000000000e+00
-6.201254259467228747e-02 3.349642200140294790e-01 1.260819954528152209e+02
-6.048386809269837294e-02 6.767093007098807789e-01 1.453897810638628130e+02
-5.895519359072445842e-02 9.943144599235083092e-01 1.640155693608616900e+02
-5.742651908875054390e-02 1.309896928403805560e+00 1.823842290191959137e+02
-5.589784458677668488e-02 1.618394845826546913e+00 1.995307577247360200e+02
-5.436917008480277036e-02 1.927383813504963683e+00 1.949922060667743438e+02
-5.284049558282885584e-02 2.222536511598953268e+00 1.897818350560935414e+02
-5.131182108085494131e-02 2.507264188086821832e+00 1.868740895403741149e+02
-4.978314657888102679e-02 2.788061204638140111e+00 1.838987775770108613e+02
-4.825447207690711227e-02 3.050175816933389683e+00 1.811279674849799619e+02
-4.672579757493319774e-02 3.315760354993230408e+00 1.774747000694807184e+02
-4.519712307295928322e-02 3.577855822590567669e+00 1.743220509412780359e+02
-4.366844857098536870e-02 3.851011017523102709e+00 1.719573752293092070e+02
-4.213977406901145417e-02 4.121110650665272601e+00 1.699212076794541133e+02
-4.061109956703759516e-02 4.387251900713017960e+00 1.692178160448859501e+02
-3.908242506506368064e-02 4.640394300921776960e+00 1.674949401967317613e+02
-3.755375056308976611e-02 4.887353255656229578e+00 1.649656914878144960e+02
-3.602507606111585159e-02 5.135932737480864319e+00 1.610621819413930780e+02
-3.449640155914196482e-02 5.385603379880077313e+00 1.578975654312976076e+02
-3.296772705716805030e-02 5.636965423608671699e+00 1.545295217086948867e+02
-3.143905255519413577e-02 5.876212797877119698e+00 1.520045645496034581e+02
-2.991037805322022125e-02 6.099644285369731023e+00 1.489134659333874424e+02
-2.838170355124630673e-02 6.313127525184000888e+00 1.450769554787472089e+02
-2.685302904927239220e-02 6.534850472651079656e+00 1.400987001848799878e+02
-2.532435454729853319e-02 6.749505297096064282e+00 1.343631559425428748e+02
-2.379568004532461867e-02 6.964049321028024764e+00 1.289148083167337404e+02
-2.226700554335070414e-02 7.163755439385521839e+00 1.246924300401967969e+02
-2.073833104137678962e-02 7.353687164124504960e+00 1.209220216069309828e+02
-1.920965653940290285e-02 7.527256487203199953e+00 1.157770956608925985e+02
-1.768098203742898833e-02 7.690940728549762184e+00 1.106982134146304020e+02
-1.615230753545507381e-02 7.846900601883568527e+00 1.052193514618446670e+02
-1.462363303348115928e-02 8.005785669285874206e+00 1.011660334215487040e+02
-1.309495853150724476e-02 8.161631636760539266e+00 9.746091341018785670e+01
-1.156628402953333024e-02 8.304705413145079262e+00 9.436281602089022158e+01
-1.003760952755947122e-02 8.441720659706170693e+00 9.144346274828293986e+01
-8.508935025585556700e-03 8.572510717967553262e+00 8.878969915178976180e+01
-6.980260523611642176e-03 8.710254796959134183e+00 8.551769273161872320e+01
-5.451586021637727653e-03 8.843547296816907988e+00 8.183382162741121135e+01
-3.922911519663813129e-03 8.969756795059097954e+00 7.878098098779885561e+01
-2.394237017689898606e-03 9.088813627304773490e+00 7.575236300440940340e+01
-8.655625157159840821e-04 9.204206093196319216e+00 7.250532902330277807e+01
6.631119862579304414e-04 9.313072832750528107e+00 6.770100875572053667e+01
2.191786488231844965e-03 9.412604401969581147e+00 6.287172975214654969e+01
3.720460990205759488e-03 9.509010181910468873e+00 5.831977158958763852e+01
5.249135492179618501e-03 9.599727717597289711e+00 5.381756265214450963e+01
6.777809994153533024e-03 9.680881195319066990e+00 4.898859075694929999e+01
8.306484496127447548e-03 9.745182855386950393e+00 4.413442113306574299e+01
9.835158998101362071e-03 9.804651398487919778e+00 3.915400451548942584e+01
1.136383350007524884e-02 9.861276272958541256e+00 3.366891355356774795e+01
1.289250800204916336e-02 9.911508985151940010e+00 2.793550538525211735e+01
1.442118250402307789e-02 9.953082188974157418e+00 2.265951001865736814e+01
1.594985700599699241e-02 9.987744475205481365e+00 1.843868872861816754e+01
1.747853150797090693e-02 1.001114168549958094e+01 1.411934799408364505e+01
1.900720600994482146e-02 1.002369827849550177e+01 9.402159978662279372e+00
2.053588051191868047e-02 1.002677066541919260e+01 4.571409923080910431e+00
2.206455501389259499e-02 1.002727134724649716e+01 -3.709374544600961277e-01
2.359322951586650952e-02 1.002705038847967245e+01 -5.193685546812921494e+00
2.512190401784042404e-02 1.002049027111843316e+01 -9.000505075394602983e+00
2.665057851981431081e-02 1.000500469518714652e+01 -1.266577995013925140e+01
2.817925302178822533e-02 9.981390963026782970e+00 -1.602563089606250557e+01
2.970792752376213985e-02 9.947411762689554848e+00 -2.001796198000818094e+01
3.123660202573605438e-02 9.908349928538655149e+00 -2.459165028899318273e+01
3.276527652770996890e-02 9.873553259363156087e+00 -2.965126527215863916e+01
3.429395102968388342e-02 9.830079729921592957e+00 -3.436800152369814754e+01
3.582262553165774244e-02 9.781790932130626004e+00 -3.911332378895176021e+01
3.735130003363165696e-02 9.721261866643288840e+00 -4.272110310232842778e+01
3.887997453560557148e-02 9.651124100897241931e+00 -4.683248955001602809e+01
4.040864903757948601e-02 9.567218939390301102e+00 -5.252088590867421658e+01
4.193732353955340053e-02 9.479629819056370366e+00 -5.799476528728734337e+01
4.346599804152731505e-02 9.383475555390582201e+00 -6.347540861939651791e+01
4.499467254350122958e-02 9.294345152602275562e+00 -6.837710940746138988e+01
4.652334704547514410e-02 9.192433602147957572e+00 -7.306292111836626191e+01
4.805202154744905862e-02 9.070679868266452672e+00 -7.677280029512957071e+01
4.958069604942297315e-02 8.943528540495222501e+00 -8.119256069599543935e+01
5.110937055139683216e-02 8.811458545542166121e+00 -8.495078484212555736e+01
5.263804505337074668e-02 8.675998429944627333e+00 -9.055977105221661816e+01
5.416671955534466121e-02 8.534229855363470563e+00 -9.545331731722993140e+01
5.569539405731857573e-02 8.393612716827313136e+00 -9.871618501672330126e+01
5.722406855929246250e-02 8.238459846197002889e+00 -1.017587890218650273e+02
5.875274306126637702e-02 8.084854568282295872e+00 -1.052212639513461312e+02
6.028141756324029155e-02 7.909981023481083895e+00 -1.087519614014684493e+02
6.181009206521420607e-02 7.733263079031221565e+00 -1.123550465198919284e+02
6.333876656718812059e-02 7.561630718594408052e+00 -1.168839314016195630e+02
6.486744106916203512e-02 7.387967879200552090e+00 -1.200419537506342493e+02
6.639611557113589413e-02 7.202967912863282862e+00 -1.234803750005704188e+02
6.792479007310980865e-02 7.013534925603870818e+00 -1.255124938357464828e+02
6.945346457508372318e-02 6.816686907532968576e+00 -1.277895118306864504e+02
7.098213907705763770e-02 6.606837860586082911e+00 -1.310921407261128877e+02
7.251081357903152447e-02 6.403409107539751233e+00 -1.342587246194105433e+02
7.403948808100543899e-02 6.197241560706810759e+00 -1.365757363042505688e+02
7.556816258297935351e-02 5.991303533422453143e+00 -1.383954782775444414e+02
7.709683708495326804e-02 5.779777395478586044e+00 -1.392549616163875896e+02
7.862551158692718256e-02 5.557658589222569390e+00 -1.388649035721055327e+02
8.015418608890109708e-02 5.335588989268259752e+00 -1.391171803573804198e+02
8.168286059087495610e-02 5.115169456097085288e+00 -1.393339541848093859e+02
8.321153509284887062e-02 4.897918537290223640e+00 -1.391121356630757191e+02
8.474020959482278514e-02 4.687931816569701482e+00 -1.381340141200714982e+02
8.626888409679669967e-02 4.484045487488661053e+00 -1.353687755377745248e+02
8.779755859877061419e-02 4.276760243551429141e+00 -1.322716431213045212e+02
8.932623310074452871e-02 4.067278930491617928e+00 -1.287547992958504892e+02
9.085490760271844324e-02 3.864731786389661750e+00 -1.261956563112344583e+02
9.238358210469235776e-02 3.668157943072014149e+00 -1.237275078595417170e+02
9.391225660666627229e-02 3.488310633942315775e+00 -1.210938502440024109e+02
9.544093110864018681e-02 3.313586107530959168e+00 -1.171481096932710813e+02
9.696960561061404582e-02 3.146927669193743782e+00 -1.125064021740963653e+02
9.849828011258796034e-02 2.968797716661754293e+00 -1.082856775945050742e+02
1.000269546145618749e-01 2.796540951993129909e+00 -1.052904788917080765e+02
1.015556291165357894e-01 2.632914675350132683e+00 -1.028060145463810642e+02
1.030843036185096762e-01 2.485946961125979016e+00 -1.001821600520129039e+02
1.046129781204835907e-01 2.347422247367987325e+00 -9.758940185962963199e+01
1.061416526224575052e-01 2.209396243712788532e+00 -9.363615924059648421e+01
1.076703271244314197e-01 2.058609239248248457e+00 -9.050336293300976820e+01
1.091990016264053343e-01 1.916741303076200609e+00 -8.871754087680960765e+01
1.107276761283792488e-01 1.782126971289152095e+00 -8.743997874889227262e+01
1.122563506303531078e-01 1.655103366336742710e+00 -8.733439888762380576e+01
1.137850251323270223e-01 1.537405625723081926e+00 -8.578333642065611286e+01
1.153136996343009368e-01 1.413039119407308419e+00 -8.307298585871562580e+01
1.168423741362748514e-01 1.276712249188065584e+00 -8.170437651397848811e+01
1.183710486382487104e-01 1.149274301460259551e+00 -8.122427923784194093e+01
1.198997231402226249e-01 1.012363560120704165e+00 -8.169442783472699432e+01
1.214283976421965394e-01 8.980482529077207232e-01 -8.322362945945981494e+01
1.229570721441704539e-01 7.886936863976785617e-01 -8.355549287165331407e+01
1.244857466461443685e-01 6.677473323102489644e-01 -8.289401777238835223e+01
1.260144211481182830e-01 5.404721251681792182e-01 -7.518109970279854792e+01
1.275430956500921420e-01 4.062614784937963464e-01 -6.622492615749592915e+01
1.290717701520660565e-01 2.651872225590707899e-01 -5.874685891261377435e+01
1.306004446540399710e-01 1.357476048797252588e-01 -5.159326083667534846e+01
1.321291191560138856e-01 9.532535839852585013e-03 -4.368140519023783952e+01
1.336577936579878001e-01 0.000000000000000000e+00 0.000000000000000000e+00
1.351864681599617146e-01 0.000000000000000000e+00 0.000000000000000000e+00
1.367151426619356291e-01 0.000000000000000000e+00 0.000000000000000000e+00
1.382438171639095437e-01 0.000000000000000000e+00 0.000000000000000000e+00
1.397724916658834582e-01 0.000000000000000000e+00 0.000000000000000000e+00
1.413011661678573727e-01 0.000000000000000000e+00 0.000000000000000000e+00
1.428298406698312317e-01 0.000000000000000000e+00 0.000000000000000000e+00
1.443585151718051462e-01 0.000000000000000000e+00 0.000000000000000000e+00
1.458871896737790608e-01 0.000000000000000000e+00 0.000000000000000000e+00
1.474158641757529753e-01 0.000000000000000000e+00 0.000000000000000000e+00
1.489445386777268898e-01 0.000000000000000000e+00 0.000000000000000000e+00
1.504732131797008043e-01 0.000000000000000000e+00 0.000000000000000000e+00
1.520018876816747189e-01 0.000000000000000000e+00 0.000000000000000000e+00
1.535305621836486334e-01 0.000000000000000000e+00 0.000000000000000000e+00
1.550592366856225479e-01 0.000000000000000000e+00 0.000000000000000000e+00
1.565879111875964624e-01 0.000000000000000000e+00 0.000000000000000000e+00
1.581165856895703214e-01 0.000000000000000000e+00 0.000000000000000000e+00
1.596452601915442360e-01 0.000000000000000000e+00 0.000000000000000000e+00
1.611739346935181505e-01 0.000000000000000000e+00 0.000000000000000000e+00
1.627026091954920650e-01 0.000000000000000000e+00 0.000000000000000000e+00
1.642312836974659240e-01 0.000000000000000000e+00 0.000000000000000000e+00
1.657599581994398386e-01 0.000000000000000000e+00 0.000000000000000000e+00
1.672886327014137531e-01 0.000000000000000000e+00 0.000000000000000000e+00
1.688173072033876676e-01 0.000000000000000000e+00 0.000000000000000000e+00
1.703459817053615821e-01 0.000000000000000000e+00 0.000000000000000000e+00
1.718746562073354966e-01 0.000000000000000000e+00 0.000000000000000000e+00
1.734033307093093557e-01 0.000000000000000000e+00 0.000000000000000000e+00
1.749320052112832702e-01 0.000000000000000000e+00 0.000000000000000000e+00
1.764606797132571847e-01 0.000000000000000000e+00 0.000000000000000000e+00
1.779893542152310992e-01 0.000000000000000000e+00 0.000000000000000000e+00
1.795180287172050138e-01 0.000000000000000000e+00 0.000000000000000000e+00
1.810467032191789283e-01 0.000000000000000000e+00 0.000000000000000000e+00
1.825753777211528428e-01 0.000000000000000000e+00 0.000000000000000000e+00
1.841040522231267573e-01 0.000000000000000000e+00 0.000000000000000000e+00
1.856327267251006718e-01 0.000000000000000000e+00 0.000000000000000000e+00
1.871614012270745864e-01 0.000000000000000000e+00 0.000000000000000000e+00
1.886900757290484454e-01 0.000000000000000000e+00 0.000000000000000000e+00
1.902187502310223599e-01 0.000000000000000000e+00 0.000000000000000000e+00
1.917474247329962744e-01 0.000000000000000000e+00 0.000000000000000000e+00
1.932760992349701890e-01 0.000000000000000000e+00 0.000000000000000000e+00
1.948047737369441035e-01 0.000000000000000000e+00 0.000000000000000000e+00
1.963334482389180180e-01 0.000000000000000000e+00 0.000000000000000000e+00
1.978621227408919325e-01 0.000000000000000000e+00 0.000000000000000000e+00
1.993907972428658470e-01 0.000000000000000000e+00 0.000000000000000000e+00
2.009194717448397616e-01 0.000000000000000000e+00 0.000000000000000000e+00
2.024481462468136761e-01 0.000000000000000000e+00 0.000000000000000000e+00
2.039768207487875351e-01 0.000000000000000000e+00 0.000000000000000000e+00
2.055054952507614496e-01 0.000000000000000000e+00 0.000000000000000000e+00
2.070341697527353642e-01 0.000000000000000000e+00 0.000000000000000000e+00
2.085628442547092787e-01 0.000000000000000000e+00 0.000000000000000000e+00
2.100915187566831377e-01 0.000000000000000000e+00 0.000000000000000000e+00
2.116201932586570522e-01 0.000000000000000000e+00 0.000000000000000000e+00
2.131488677606309667e-01 0.000000000000000000e+00 0.000000000000000000e+00
2.146775422626048813e-01 0.000000000000000000e+00 0.000000000000000000e+00
2.162062167645787958e-01 0.000000000000000000e+00 0.000000000000000000e+00
2.177348912665527103e-01 0.000000000000000000e+00 0.000000000000000000e+00
2.192635657685265693e-01 0.000000000000000000e+00 0.000000000000000000e+00
2.207922402705004838e-01 0.000000000000000000e+00 0.000000000000000000e+00
2.223209147724743984e-01 0.000000000000000000e+00 0.000000000000000000e+00
2.238495892744483129e-01 0.000000000000000000e+00 0.000000000000000000e+00
2.253782637764222274e-01 0.000000000000000000e+00 0.000000000000000000e+00
2.269069382783961419e-01 0.000000000000000000e+00 0.000000000000000000e+00
2.284356127803700565e-01 0.000000000000000000e+00 0.000000000000000000e+00
2.299642872823439710e-01 0.000000000000000000e+00 0.000000000000000000e+00
2.314929617843178855e-01 0.000000000000000000e+00 0.000000000000000000e+00
2.330216362862918000e-01 0.000000000000000000e+00 0.000000000000000000e+00
2.345503107882656590e-01 0.000000000000000000e+00 0.000000000000000000e+00
2.360789852902395736e-01 0.000000000000000000e+00 0.000000000000000000e+00
2.376076597922134881e-01 0.000000000000000000e+00 0.000000000000000000e+00
2.391363342941874026e-01 0.000000000000000000e+00 0.000000000000000000e+00
2.406650087961613171e-01 0.000000000000000000e+00 0.000000000000000000e+00
2.421936832981352317e-01 0.000000000000000000e+00 0.000000000000000000e+00
2.437223578001091462e-01 0.000000000000000000e+00 0.000000000000000000e+00
2.452510323020830607e-01 0.000000000000000000e+00 0.000000000000000000e+00
2.467797068040569752e-01 0.000000000000000000e+00 0.000000000000000000e+00
2.483083813060308898e-01 0.000000000000000000e+00 0.000000000000000000e+00
2.498370558080047488e-01 0.000000000000000000e+00 0.000000000000000000e+00
2.513657303099786633e-01 0.000000000000000000e+00 0.000000000000000000e+00
2.528944048119525778e-01 0.000000000000000000e+00 0.000000000000000000e+00
2.544230793139264923e-01 0.000000000000000000e+00 0.000000000000000000e+00
2.559517538159003514e-01 0.000000000000000000e+00 0.000000000000000000e+00
2.574804283178742659e-01 0.000000000000000000e+00 0.000000000000000000e+00
2.590091028198481804e-01 0.000000000000000000e+00 0.000000000000000000e+00
2.605377773218220949e-01 0.000000000000000000e+00 0.000000000000000000e+00
2.620664518237960094e-01 0.000000000000000000e+00 0.000000000000000000e+00
2.635951263257699240e-01 0.000000000000000000e+00 0.000000000000000000e+00
2.651238008277437830e-01 0.000000000000000000e+00 0.000000000000000000e+00
2.666524753297176975e-01 0.000000000000000000e+00 0.000000000000000000e+00
2.681811498316916120e-01 0.000000000000000000e+00 0.000000000000000000e+00
2.697098243336655266e-01 0.000000000000000000e+00 0.000000000000000000e+00
2.712384988356394411e-01 0.000000000000000000e+00 0.000000000000000000e+00
2.727671733376133556e-01 0.000000000000000000e+00 0.000000000000000000e+00
2.742958478395872701e-01 0.000000000000000000e+00 0.000000000000000000e+00
2.758245223415611846e-01 0.000000000000000000e+00 0.000000000000000000e+00
2.773531968435350992e-01 0.000000000000000000e+00 0.000000000000000000e+00
2.788818713455090137e-01 0.000000000000000000e+00 0.000000000000000000e+00
2.804105458474828727e-01 0.000000000000000000e+00 0.000000000000000000e+00
2.819392203494567872e-01 0.000000000000000000e+00 0.000000000000000000e+00
2.834678948514307018e-01 0.000000000000000000e+00 0.000000000000000000e+00
2.849965693534046163e-01 0.000000000000000000e+00 0.000000000000000000e+00
2.865252438553785308e-01 0.000000000000000000e+00 0.000000000000000000e+00
2.880539183573524453e-01 0.000000000000000000e+00 0.000000000000000000e+00
2.895825928593263598e-01 0.000000000000000000e+00 0.000000000000000000e+00
2.911112673613002744e-01 0.000000000000000000e+00 0.000000000000000000e+00
2.926399418632741889e-01 0.000000000000000000e+00 0.000000000000000000e+00
2.941686163652481034e-01 0.000000000000000000e+00 0.000000000000000000e+00
2.956972908672219624e-01 0.000000000000000000e+00 0.000000000000000000e+00
2.972259653691958770e-01 0.000000000000000000e+00 0.000000000000000000e+00
2.987546398711697915e-01 0.000000000000000000e+00 0.000000000000000000e+00
3.002833143731437060e-01 0.000000000000000000e+00 0.000000000000000000e+00
3.018119888751175650e-01 0.000000000000000000e+00 0.000000000000000000e+00
3.033406633770914795e-01 0.000000000000000000e+00 0.000000000000000000e+00
3.048693378790653941e-01 0.000000000000000000e+00 0.000000000000000000e+00
3.063980123810393086e-01 0.000000000000000000e+00 0.000000000000000000e+00
3.079266868830132231e-01 0.000000000000000000e+00 0.000000000000000000e+00
3.094553613849871376e-01 0.000000000000000000e+00 0.000000000000000000e+00
3.109840358869609966e-01 0.000000000000000000e+00 0.000000000000000000e+00
3.125127103889349112e-01 0.000000000000000000e+00 0.000000000000000000e+00
3.140413848909088257e-01 0.000000000000000000e+00 0.000000000000000000e+00
3.155700593928827402e-01 0.000000000000000000e+00 0.000000000000000000e+00
3.170987338948566547e-01 0.000000000000000000e+00 0.000000000000000000e+00
3.186274083968305693e-01 0.000000000000000000e+00 0.000000000000000000e+00
3.201560828988044838e-01 0.000000000000000000e+00 0.000000000000000000e+00
3.216847574007783983e-01 0.000000000000000000e+00 0.000000000000000000e+00
3.232134319027523128e-01 0.000000000000000000e+00 0.000000000000000000e+00
3.247421064047262274e-01 0.000000000000000000e+00 0.000000000000000000e+00
3.262707809067000864e-01 0.000000000000000000e+00 0.000000000000000000e+00
3.277994554086740009e-01 0.000000000000000000e+00 0.000000000000000000e+00
3.293281299106479154e-01 0.000000000000000000e+00 0.000000000000000000e+00
3.308568044126218299e-01 0.000000000000000000e+00 0.000000000000000000e+00
3.323854789145957445e-01 0.000000000000000000e+00 0.000000000000000000e+00
3.339141534165696590e-01 0.000000000000000000e+00 0.000000000000000000e+00
3.354428279185435735e-01 0.000000000000000000e+00 0.000000000000000000e+00
3.369715024205174880e-01 0.000000000000000000e+00 0.000000000000000000e+00
3.385001769224914026e-01 0.000000000000000000e+00 0.000000000000000000e+00
3.400288514244653171e-01 0.000000000000000000e+00 0.000000000000000000e+00
3.415575259264391761e-01 0.000000000000000000e+00 0.000000000000000000e+00
3.430862004284130906e-01 0.000000000000000000e+00 0.000000000000000000e+00
3.446148749303870051e-01 0.000000000000000000e+00 0.000000000000000000e+00
3.461435494323609197e-01 0.000000000000000000e+00 0.000000000000000000e+00
3.476722239343347787e-01 0.000000000000000000e+00 0.000000000000000000e+00
3.492008984363086932e-01 0.000000000000000000e+00 0.000000000000000000e+00
3.507295729382826077e-01 0.000000000000000000e+00 0.000000000000000000e+00
3.522582474402565222e-01 0.000000000000000000e+00 0.000000000000000000e+00
3.537869219422304368e-01 0.000000000000000000e+00 0.000000000000000000e+00
3.553155964442043513e-01 0.000000000000000000e+00 0.000000000000000000e+00
3.568442709461782103e-01 0.000000000000000000e+00 0.000000000000000000e+00
3.583729454481521248e-01 0.000000000000000000e+00 0.000000000000000000e+00
3.599016199501260393e-01 0.000000000000000000e+00 0.000000000000000000e+00
3.614302944520999539e-01 0.000000000000000000e+00 0.000000000000000000e+00
3.629589689540738684e-01 0.000000000000000000e+00 0.000000000000000000e+00
3.644876434560477829e-01 0.000000000000000000e+00 0.000000000000000000e+00
3.660163179580216974e-01 0.000000000000000000e+00 0.000000000000000000e+00
3.675449924599956120e-01 0.000000000000000000e+00 0.000000000000000000e+00
3.690736669619695265e-01 0.000000000000000000e+00 0.000000000000000000e+00
3.706023414639434410e-01 0.000000000000000000e+00 0.000000000000000000e+00
3.721310159659173000e-01 0.000000000000000000e+00 0.000000000000000000e+00
3.736596904678912145e-01 0.000000000000000000e+00 0.000000000000000000e+00
3.751883649698651291e-01 0.000000000000000000e+00 0.000000000000000000e+00
3.767170394718390436e-01 0.000000000000000000e+00 0.000000000000000000e+00
3.782457139738129581e-01 0.000000000000000000e+00 0.000000000000000000e+00
3.797743884757868726e-01 0.000000000000000000e+00 0.000000000000000000e+00
3.813030629777607872e-01 0.000000000000000000e+00 0.000000000000000000e+00
3.828317374797347017e-01 0.000000000000000000e+00 0.000000000000000000e+00
3.843604119817086162e-01 0.000000000000000000e+00 0.000000000000000000e+00
3.858890864836825307e-01 0.000000000000000000e+00 0.000000000000000000e+00
3.874177609856563897e-01 0.000000000000000000e+00 0.000000000000000000e+00
3.889464354876303043e-01 0.000000000000000000e+00 0.000000000000000000e+00
3.904751099896042188e-01 0.000000000000000000e+00 0.000000000000000000e+00
3.920037844915781333e-01 0.000000000000000000e+00 0.000000000000000000e+00
3.935324589935519923e-01 0.000000000000000000e+00 0.000000000000000000e+00
3.950611334955259069e-01 0.000000000000000000e+00 0.000000000000000000e+00
3.965898079974998214e-01 0.000000000000000000e+00 0.000000000000000000e+00
3.981184824994737359e-01 0.000000000000000000e+00 0.000000000000000000e+00
3.996471570014476504e-01 0.000000000000000000e+00 0.000000000000000000e+00
4.011758315034215649e-01 0.000000000000000000e+00 0.000000000000000000e+00
4.027045060053954240e-01 0.000000000000000000e+00 0.000000000000000000e+00
4.042331805073693385e-01 0.000000000000000000e+00 0.000000000000000000e+00
4.057618550093432530e-01 0.000000000000000000e+00 0.000000000000000000e+00
4.072905295113171675e-01 0.000000000000000000e+00 0.000000000000000000e+00
4.088192040132910821e-01 0.000000000000000000e+00 0.000000000000000000e+00
4.103478785152649966e-01 0.000000000000000000e+00 0.000000000000000000e+00
4.118765530172389111e-01 0.000000000000000000e+00 0.000000000000000000e+00
4.134052275192128256e-01 0.000000000000000000e+00 0.000000000000000000e+00
4.149339020211867401e-01 0.000000000000000000e+00 0.000000000000000000e+00
4.164625765231606547e-01 0.000000000000000000e+00 0.000000000000000000e+00
4.179912510251345137e-01 0.000000000000000000e+00 0.000000000000000000e+00
4.195199255271084282e-01 0.000000000000000000e+00 0.000000000000000000e+00
4.210486000290823427e-01 0.000000000000000000e+00 0.000000000000000000e+00
4.225772745310562573e-01 0.000000000000000000e+00 0.000000000000000000e+00
4.241059490330301718e-01 0.000000000000000000e+00 0.000000000000000000e+00
4.256346235350040863e-01 0.000000000000000000e+00 0.000000000000000000e+00
4.271632980369780008e-01 0.000000000000000000e+00 0.000000000000000000e+00
4.286919725389519154e-01 0.000000000000000000e+00 0.000000000000000000e+00
4.302206470409258299e-01 0.000000000000000000e+00 0.000000000000000000e+00
4.317493215428997444e-01 0.000000000000000000e+00 0.000000000000000000e+00
4.332779960448736034e-01 0.000000000000000000e+00 0.000000000000000000e+00
4.348066705468475179e-01 0.000000000000000000e+00 0.000000000000000000e+00
4.363353450488214325e-01 0.000000000000000000e+00 0.000000000000000000e+00
4.378640195507953470e-01 0.000000000000000000e+00 0.000000000000000000e+00
4.393926940527692060e-01 0.000000000000000000e+00 0.000000000000000000e+00
4.409213685547431205e-01 0.000000000000000000e+00 0.000000000000000000e+00
4.424500430567170350e-01 0.000000000000000000e+00 0.000000000000000000e+00
4.439787175586909496e-01 0.000000000000000000e+00 0.000000000000000000e+00
4.455073920606648641e-01 0.000000000000000000e+00 0.000000000000000000e+00
4.470360665626387786e-01 0.000000000000000000e+00 0.000000000000000000e+00
4.485647410646126376e-01 0.000000000000000000e+00 0.000000000000000000e+00
4.500934155665865521e-01 0.000000000000000000e+00 0.000000000000000000e+00
4.516220900685604667e-01 0.000000000000000000e+00 0.000000000000000000e+00
4.531507645705343812e-01 0.000000000000000000e+00 0.000000000000000000e+00
4.546794390725082957e-01 0.000000000000000000e+00 0.000000000000000000e+00
4.562081135744822102e-01 0.000000000000000000e+00 0.000000000000000000e+00
4.577367880764561248e-01 0.000000000000000000e+00 0.000000000000000000e+00
4.592654625784300393e-01 0.000000000000000000e+00 0.000000000000000000e+00
4.607941370804039538e-01 0.000000000000000000e+00 0.000000000000000000e+00
4.623228115823778683e-01 0.000000000000000000e+00 0.000000000000000000e+00
4.638514860843517273e-01 0.000000000000000000e+00 0.000000000000000000e+00
4.653801605863256419e-01 0.000000000000000000e+00 0.000000000000000000e+00
4.669088350882995564e-01 0.000000000000000000e+00 0.000000000000000000e+00
4.684375095902734709e-01 0.000000000000000000e+00 0.000000000000000000e+00
4.699661840922473854e-01 0.000000000000000000e+00 0.000000000000000000e+00
4.714948585942213000e-01 0.000000000000000000e+00 0.000000000000000000e+00
4.730235330961952145e-01 0.000000000000000000e+00 0.000000000000000000e+00
4.745522075981691290e-01 0.000000000000000000e+00 0.000000000000000000e+00
4.760808821001430435e-01 0.000000000000000000e+00 0.000000000000000000e+00
4.776095566021169581e-01 0.000000000000000000e+00 0.000000000000000000e+00
4.791382311040908171e-01 0.000000000000000000e+00 0.000000000000000000e+00
4.806669056060647316e-01 0.000000000000000000e+00 0.000000000000000000e+00
4.821955801080386461e-01 0.000000000000000000e+00 0.000000000000000000e+00
4.837242546100125606e-01 0.000000000000000000e+00 0.000000000000000000e+00
4.852529291119864197e-01 0.000000000000000000e+00 0.000000000000000000e+00
4.867816036139603342e-01 0.000000000000000000e+00 0.000000000000000000e+00
4.883102781159342487e-01 0.000000000000000000e+00 0.000000000000000000e+00
4.898389526179081632e-01 0.000000000000000000e+00 0.000000000000000000e+00
4.913676271198820777e-01 0.000000000000000000e+00 0.000000000000000000e+00
4.928963016218559923e-01 0.000000000000000000e+00 0.000000000000000000e+00
4.944249761238298513e-01 0.000000000000000000e+00 0.000000000000000000e+00
4.959536506258037658e-01 0.000000000000000000e+00 0.000000000000000000e+00
4.974823251277776803e-01 0.000000000000000000e+00 0.000000000000000000e+00
4.990109996297515949e-01 0.000000000000000000e+00 0.000000000000000000e+00
5.005396741317255094e-01 0.000000000000000000e+00 0.000000000000000000e+00
5.020683486336994239e-01 0.000000000000000000e+00 0.000000000000000000e+00
5.035970231356733384e-01 0.000000000000000000e+00 0.000000000000000000e+00
5.051256976376472529e-01 0.000000000000000000e+00 0.000000000000000000e+00
5.066543721396211675e-01 0.000000000000000000e+00 0.000000000000000000e+00
5.081830466415950820e-01 0.000000000000000000e+00 0.000000000000000000e+00
5.097117211435689965e-01 0.000000000000000000e+00 0.000000000000000000e+00
5.112403956455429110e-01 0.000000000000000000e+00 0.000000000000000000e+00
5.127690701475168256e-01 0.000000000000000000e+00 0.000000000000000000e+00
5.142977446494907401e-01 0.000000000000000000e+00 0.000000000000000000e+00
