#! FIELDS rc1 external1.bias der_rc1
#! SET min_rc1 -2.4582568335538943
#! SET max_rc1 2.5449600125462224
#! SET nbins_rc1 500
#! SET periodic_rc1 false
-2.458256833553894349e+00 0.000000000000000000e+00 0.000000000000000000e+00
-2.448230346888363052e+00 0.000000000000000000e+00 0.000000000000000000e+00
-2.438203860222831754e+00 0.000000000000000000e+00 0.000000000000000000e+00
-2.428177373557300456e+00 0.000000000000000000e+00 0.000000000000000000e+00
-2.418150886891769158e+00 0.000000000000000000e+00 0.000000000000000000e+00
-2.408124400226237860e+00 0.000000000000000000e+00 0.000000000000000000e+00
-2.398097913560706562e+00 0.000000000000000000e+00 0.000000000000000000e+00
-2.388071426895175264e+00 0.000000000000000000e+00 0.000000000000000000e+00
-2.378044940229643966e+00 0.000000000000000000e+00 0.000000000000000000e+00
-2.368018453564112669e+00 0.000000000000000000e+00 0.000000000000000000e+00
-2.357991966898581371e+00 0.000000000000000000e+00 0.000000000000000000e+00
-2.347965480233050073e+00 0.000000000000000000e+00 0.000000000000000000e+00
-2.337938993567518775e+00 0.000000000000000000e+00 0.000000000000000000e+00
-2.327912506901987477e+00 0.000000000000000000e+00 0.000000000000000000e+00
-2.317886020236456179e+00 0.000000000000000000e+00 0.000000000000000000e+00
-2.307859533570924881e+00 0.000000000000000000e+00 0.000000000000000000e+00
-2.297833046905393584e+00 0.000000000000000000e+00 0.000000000000000000e+00
-2.287806560239862286e+00 0.000000000000000000e+00 0.000000000000000000e+00
-2.277780073574330988e+00 0.000000000000000000e+00 0.000000000000000000e+00
-2.267753586908799690e+00 0.000000000000000000e+00 0.000000000000000000e+00
-2.257727100243268392e+00 0.000000000000000000e+00 0.000000000000000000e+00
-2.247700613577737094e+00 0.000000000000000000e+00 0.000000000000000000e+00
-2.237674126912205796e+00 0.000000000000000000e+00 0.000000000000000000e+00
-2.227647640246674499e+00 0.000000000000000000e+00 0.000000000000000000e+00
-2.217621153581143201e+00 0.000000000000000000e+00 0.000000000000000000e+00
-2.207594666915611903e+00 0.000000000000000000e+00 0.000000000000000000e+00
-2.197568180250080605e+00 0.000000000000000000e+00 0.000000000000000000e+00
-2.187541693584549307e+00 0.000000000000000000e+00 0.000000000000000000e+00
-2.177515206919018009e+00 0.000000000000000000e+00 0.000000000000000000e+00
-2.167488720253486711e+00 0.000000000000000000e+00 0.000000000000000000e+00
-2.157462233587955414e+00 0.000000000000000000e+00 0.000000000000000000e+00
-2.147435746922424116e+00 0.000000000000000000e+00 0.000000000000000000e+00
-2.137409260256892818e+00 0.000000000000000000e+00 0.000000000000000000e+00
-2.127382773591361520e+00 0.000000000000000000e+00 0.000000000000000000e+00
-2.117356286925830222e+00 0.000000000000000000e+00 0.000000000000000000e+00
-2.107329800260298924e+00 0.000000000000000000e+00 0.000000000000000000e+00
-2.097303313594767626e+00 0.000000000000000000e+00 0.000000000000000000e+00
-2.087276826929236329e+00 0.000000000000000000e+00 0.000000000000000000e+00
-2.077250340263705031e+00 0.000000000000000000e+00 0.000000000000000000e+00
-2.067223853598173733e+00 0.000000000000000000e+00 0.000000000000000000e+00
-2.057197366932642435e+00 0.000000000000000000e+00 0.000000000000000000e+00
-2.047170880267111137e+00 0.000000000000000000e+00 0.000000000000000000e+00
-2.037144393601579839e+00 0.000000000000000000e+00 0.000000000000000000e+00
-2.027117906936048541e+00 0.000000000000000000e+00 0.000000000000000000e+00
-2.017091420270517244e+00 0.000000000000000000e+00 0.000000000000000000e+00
-2.007064933604985946e+00 0.000000000000000000e+00 0.000000000000000000e+00
-1.997038446939454648e+00 0.000000000000000000e+00 0.000000000000000000e+00
-1.987011960273923350e+00 0.000000000000000000e+00 0.000000000000000000e+00
-1.976985473608392052e+00 0.000000000000000000e+00 0.000000000000000000e+00
-1.966958986942860754e+00 0.000000000000000000e+00 0.000000000000000000e+00
-1.956932500277329456e+00 0.000000000000000000e+00 0.000000000000000000e+00
-1.946906013611798159e+00 0.000000000000000000e+00 0.000000000000000000e+00
-1.936879526946266861e+00 0.000000000000000000e+00 0.000000000000000000e+00
-1.926853040280735563e+00 0.000000000000000000e+00 0.000000000000000000e+00
-1.916826553615204265e+00 0.000000000000000000e+00 0.000000000000000000e+00
-1.906800066949672967e+00 0.000000000000000000e+00 0.000000000000000000e+00
-1.896773580284141669e+00 0.000000000000000000e+00 0.000000000000000000e+00
-1.886747093618610371e+00 0.000000000000000000e+00 0.000000000000000000e+00
-1.876720606953079074e+00 0.000000000000000000e+00 0.000000000000000000e+00
-1.866694120287547776e+00 0.000000000000000000e+00 0.000000000000000000e+00
-1.856667633622016478e+00 0.000000000000000000e+00 0.000000000000000000e+00
-1.846641146956485180e+00 0.000000000000000000e+00 0.000000000000000000e+00
-1.836614660290953882e+00 0.000000000000000000e+00 0.000000000000000000e+00
-1.826588173625422584e+00 0.000000000000000000e+00 0.000000000000000000e+00
-1.816561686959891286e+00 0.000000000000000000e+00 0.000000000000000000e+00
-1.806535200294359989e+00 0.000000000000000000e+00 0.000000000000000000e+00
-1.796508713628828691e+00 0.000000000000000000e+00 0.000000000000000000e+00
-1.786482226963297393e+00 0.000000000000000000e+00 0.000000000000000000e+00
-1.776455740297766095e+00 0.000000000000000000e+00 0.000000000000000000e+00
-1.766429253632234797e+00 0.000000000000000000e+00 0.000000000000000000e+00
-1.756402766966703499e+00 0.000000000000000000e+00 0.000000000000000000e+00
-1.746376280301172201e+00 0.000000000000000000e+00 0.000000000000000000e+00
-1.736349793635640903e+00 0.000000000000000000e+00 0.000000000000000000e+00
-1.726323306970109606e+00 0.000000000000000000e+00 0.000000000000000000e+00
-1.716296820304578308e+00 0.000000000000000000e+00 0.000000000000000000e+00
-1.706270333639047010e+00 0.000000000000000000e+00 0.000000000000000000e+00
-1.696243846973515712e+00 0.000000000000000000e+00 0.000000000000000000e+00
-1.686217360307984414e+00 0.000000000000000000e+00 0.000000000000000000e+00
-1.676190873642453116e+00 0.000000000000000000e+00 0.000000000000000000e+00
-1.666164386976921818e+00 0.000000000000000000e+00 0.000000000000000000e+00
-1.656137900311390521e+00 0.000000000000000000e+00 0.000000000000000000e+00
-1.646111413645859223e+00 0.000000000000000000e+00 0.000000000000000000e+00
-1.636084926980327925e+00 0.000000000000000000e+00 0.000000000000000000e+00
-1.626058440314796627e+00 0.000000000000000000e+00 0.000000000000000000e+00
-1.616031953649265329e+00 0.000000000000000000e+00 0.000000000000000000e+00
-1.606005466983734031e+00 0.000000000000000000e+00 0.000000000000000000e+00
-1.595978980318202733e+00 0.000000000000000000e+00 0.000000000000000000e+00
-1.585952493652671436e+00 0.000000000000000000e+00 0.000000000000000000e+00
-1.575926006987140138e+00 0.000000000000000000e+00 0.000000000000000000e+00
-1.565899520321608840e+00 0.000000000000000000e+00 0.000000000000000000e+00
-1.555873033656077542e+00 0.000000000000000000e+00 0.000000000000000000e+00
-1.545846546990546244e+00 0.000000000000000000e+00 0.000000000000000000e+00
-1.535820060325014946e+00 0.000000000000000000e+00 0.000000000000000000e+00
-1.525793573659483648e+00 0.000000000000000000e+00 0.000000000000000000e+00
-1.515767086993952351e+00 0.000000000000000000e+00 0.000000000000000000e+00
-1.505740600328421053e+00 0.000000000000000000e+00 0.000000000000000000e+00
-1.495714113662889755e+00 0.000000000000000000e+00 0.000000000000000000e+00
-1.485687626997358457e+00 0.000000000000000000e+00 0.000000000000000000e+00
-1.475661140331827159e+00 0.000000000000000000e+00 0.000000000000000000e+00
-1.465634653666295861e+00 0.000000000000000000e+00 0.000000000000000000e+00
-1.455608167000764785e+00 0.000000000000000000e+00 0.000000000000000000e+00
-1.445581680335233488e+00 0.000000000000000000e+00 0.000000000000000000e+00
-1.435555193669702190e+00 0.000000000000000000e+00 0.000000000000000000e+00
-1.425528707004170892e+00 0.000000000000000000e+00 0.000000000000000000e+00
-1.415502220338639594e+00 0.000000000000000000e+00 0.000000000000000000e+00
-1.405475733673108296e+00 0.000000000000000000e+00 0.000000000000000000e+00
-1.395449247007576998e+00 0.000000000000000000e+00 0.000000000000000000e+00
-1.385422760342045700e+00 0.000000000000000000e+00 0.000000000000000000e+00
-1.375396273676514403e+00 0.000000000000000000e+00 0.000000000000000000e+00
-1.365369787010983105e+00 0.000000000000000000e+00 0.000000000000000000e+00
-1.355343300345451807e+00 0.000000000000000000e+00 0.000000000000000000e+00
-1.345316813679920509e+00 0.000000000000000000e+00 0.000000000000000000e+00
-1.335290327014389211e+00 0.000000000000000000e+00 0.000000000000000000e+00
-1.325263840348857913e+00 0.000000000000000000e+00 0.000000000000000000e+00
-1.315237353683326615e+00 0.000000000000000000e+00 0.000000000000000000e+00
-1.305210867017795318e+00 0.000000000000000000e+00 0.000000000000000000e+00
-1.295184380352264020e+00 0.000000000000000000e+00 0.000000000000000000e+00
-1.285157893686732722e+00 0.000000000000000000e+00 0.000000000000000000e+00
-1.275131407021201424e+00 5.257939840013179378e-01 5.867977450881518564e+01
-1.265104920355670126e+00 2.171544253682341719e+00 6.384456821430921281e+01
-1.255078433690138828e+00 3.456741591931240976e+00 6.806257026739976368e+01
-1.245051947024607530e+00 4.463109440883741286e+00 7.131769653357250149e+01
-1.235025460359076233e+00 5.253229559721987130e+00 7.365920695162563447e+01
-1.224998973693544935e+00 5.883520078451731194e+00 6.997138115253014234e+01
-1.214972487028013637e+00 6.401367430635296785e+00 5.429920963312437721e+01
-1.204946000362482339e+00 6.824284532078706889e+00 4.147905077715189748e+01
-1.194919513696951041e+00 7.150659645064266101e+00 3.081406756515304934e+01
-1.184893027031419743e+00 7.385430874902397136e+00 2.179359433688096104e+01
-1.174866540365888445e+00 7.541465184947838907e+00 1.395701468681870594e+01
-1.164840053700357148e+00 7.615847267036443213e+00 6.841787018776752660e+00
-1.154813567034825850e+00 7.615633087091332243e+00 4.014822513359346812e-01
-1.144787080369294552e+00 7.552677816411616618e+00 -5.256656627282469074e+00
-1.134760593703763254e+00 7.438361389849340810e+00 -1.008369513347774138e+01
-1.124734107038231956e+00 7.282918294931853609e+00 -1.423607261198112539e+01
-1.114707620372700658e+00 7.087358293756999217e+00 -1.756816627854635016e+01
-1.104681133707169360e+00 6.864539096473372126e+00 -2.016516467639414856e+01
-1.094654647041638063e+00 6.623601669277022097e+00 -2.217516982394400316e+01
-1.084628160376106765e+00 6.374390526951415836e+00 -2.362634222718823551e+01
-1.074601673710575467e+00 6.114087262812191170e+00 -2.465492975220550420e+01
-1.064575187045044169e+00 5.854377417739627276e+00 -2.519779359176323652e+01
-1.054548700379512871e+00 5.593775539730245328e+00 -2.542335906779155508e+01
-1.044522213713981573e+00 5.329287370954951086e+00 -2.534826048952583122e+01
-1.034495727048450275e+00 5.069469336887522104e+00 -2.508858890008005105e+01
-1.024469240382918978e+00 4.810895050930859895e+00 -2.470975973963131622e+01
-1.014442753717387680e+00 4.560904879270758272e+00 -2.426207093089682942e+01
-1.004416267051856382e+00 4.315469389611109818e+00 -2.370747204776585093e+01
-9.943897803863250839e-01 4.082061711350576161e+00 -2.294518911989431942e+01
-9.843632937207937861e-01 3.858886506314924247e+00 -2.213421647483356480e+01
-9.743368070552624882e-01 3.636566497433243228e+00 -2.113609232421498163e+01
-9.643103203897311904e-01 3.421744111071511441e+00 -2.006188711211989073e+01
-9.542838337241998925e-01 3.216749016126442484e+00 -1.895302929436124373e+01
-9.442573470586685946e-01 3.028691043467809152e+00 -1.787836575943674688e+01
-9.342308603931372968e-01 2.850185073518503032e+00 -1.687198015148050700e+01
-9.242043737276059989e-01 2.691687572429060538e+00 -1.572836589653913819e+01
-9.141778870620747011e-01 2.549402443120108330e+00 -1.456444556729764273e+01
-9.041514003965434032e-01 2.415146434697742706e+00 -1.347306898449519430e+01
-8.941249137310121053e-01 2.289489752465740935e+00 -1.254211680435795273e+01
-8.840984270654808075e-01 2.167219666215647322e+00 -1.162408787028179091e+01
-8.740719403999495096e-01 2.059563988110770794e+00 -1.084867424285401150e+01
-8.640454537344182118e-01 1.961441918357852643e+00 -1.037523997201035897e+01
-8.540189670688869139e-01 1.865873550958198734e+00 -1.001695157636586764e+01
-8.439924804033556160e-01 1.771157374503502524e+00 -9.850938215118221208e+00
-8.339659937378243182e-01 1.684697453215058260e+00 -9.622627174239120507e+00
-8.239395070722930203e-01 1.603946696082378054e+00 -9.597316314867548215e+00
-8.139130204067617225e-01 1.509130390809620081e+00 -9.693331686300849626e+00
-8.038865337412304246e-01 1.410798120600688321e+00 -9.840662623432587353e+00
-7.938600470756991268e-01 1.301786745897182129e+00 -9.955029225479107069e+00
-7.838335604101678289e-01 1.202408235716770690e+00 -1.026200954261225462e+01
-7.738070737446365310e-01 1.097290347551712841e+00 -1.063088530741769233e+01
-7.637805870791052332e-01 9.895413093851743724e-01 -1.075563508682383862e+01
-7.537541004135739353e-01 8.792008252198115770e-01 -1.077442979554263580e+01
-7.437276137480426375e-01 7.730176966610926570e-01 -1.071831939997085392e+01
-7.337011270825113396e-01 6.557784348094912730e-01 -1.081906293635383776e+01
-7.236746404169800417e-01 5.380423983062172510e-01 -1.080124004809541205e+01
-7.136481537514487439e-01 4.307180730360187226e-01 -9.869269570022375149e+00
-7.036216670859174460e-01 3.305013538635783732e-01 -8.768779559451763461e+00
-6.935951804203861482e-01 2.271158804900537120e-01 -7.709753281346313436e+00
-6.835686937548548503e-01 1.176363330678142916e-01 -6.540457736829784707e+00
-6.735422070893235524e-01 1.430545441740349588e-02 -5.366207568941701034e+00
-6.635157204237922546e-01 0.000000000000000000e+00 0.000000000000000000e+00
-6.534892337582609567e-01 0.000000000000000000e+00 0.000000000000000000e+00
-6.434627470927296589e-01 0.000000000000000000e+00 0.000000000000000000e+00
-6.334362604271983610e-01 0.000000000000000000e+00 0.000000000000000000e+00
-6.234097737616670631e-01 0.000000000000000000e+00 0.000000000000000000e+00
-6.133832870961357653e-01 0.000000000000000000e+00 0.000000000000000000e+00
-6.033568004306044674e-01 0.000000000000000000e+00 0.000000000000000000e+00
-5.933303137650731696e-01 0.000000000000000000e+00 0.000000000000000000e+00
-5.833038270995418717e-01 0.000000000000000000e+00 0.000000000000000000e+00
-5.732773404340105738e-01 0.000000000000000000e+00 0.000000000000000000e+00
-5.632508537684792760e-01 0.000000000000000000e+00 0.000000000000000000e+00
-5.532243671029480891e-01 0.000000000000000000e+00 0.000000000000000000e+00
-5.431978804374167913e-01 0.000000000000000000e+00 0.000000000000000000e+00
-5.331713937718854934e-01 0.000000000000000000e+00 0.000000000000000000e+00
-5.231449071063541956e-01 0.000000000000000000e+00 0.000000000000000000e+00
-5.131184204408228977e-01 0.000000000000000000e+00 0.000000000000000000e+00
-5.030919337752915999e-01 0.000000000000000000e+00 0.000000000000000000e+00
-4.930654471097603020e-01 0.000000000000000000e+00 0.000000000000000000e+00
-4.830389604442290041e-01 0.000000000000000000e+00 0.000000000000000000e+00
-4.730124737786977063e-01 0.000000000000000000e+00 0.000000000000000000e+00
-4.629859871131664084e-01 0.000000000000000000e+00 0.000000000000000000e+00
-4.529595004476352216e-01 0.000000000000000000e+00 0.000000000000000000e+00
-4.429330137821039237e-01 0.000000000000000000e+00 0.000000000000000000e+00
-4.329065271165726259e-01 0.000000000000000000e+00 0.000000000000000000e+00
-4.228800404510413280e-01 0.000000000000000000e+00 0.000000000000000000e+00
-4.128535537855100301e-01 0.000000000000000000e+00 0.000000000000000000e+00
-4.028270671199787323e-01 0.000000000000000000e+00 0.000000000000000000e+00
-3.928005804544474344e-01 0.000000000000000000e+00 0.000000000000000000e+00
-3.827740937889161366e-01 0.000000000000000000e+00 0.000000000000000000e+00
-3.727476071233848387e-01 0.000000000000000000e+00 0.000000000000000000e+00
-3.627211204578535408e-01 0.000000000000000000e+00 0.000000000000000000e+00
-3.526946337923222430e-01 0.000000000000000000e+00 0.000000000000000000e+00
-3.426681471267909451e-01 0.000000000000000000e+00 0.000000000000000000e+00
-3.326416604612596473e-01 0.000000000000000000e+00 0.000000000000000000e+00
-3.226151737957283494e-01 0.000000000000000000e+00 0.000000000000000000e+00
-3.125886871301970515e-01 0.000000000000000000e+00 0.000000000000000000e+00
-3.025622004646657537e-01 0.000000000000000000e+00 0.000000000000000000e+00
-2.925357137991344558e-01 0.000000000000000000e+00 0.000000000000000000e+00
-2.825092271336031580e-01 0.000000000000000000e+00 0.000000000000000000e+00
-2.724827404680718601e-01 0.000000000000000000e+00 0.000000000000000000e+00
-2.624562538025405622e-01 0.000000000000000000e+00 0.000000000000000000e+00
-2.524297671370092644e-01 0.000000000000000000e+00 0.000000000000000000e+00
-2.424032804714779665e-01 0.000000000000000000e+00 0.000000000000000000e+00
-2.323767938059466687e-01 0.000000000000000000e+00 0.000000000000000000e+00
-2.223503071404153708e-01 0.000000000000000000e+00 0.000000000000000000e+00
-2.123238204748840730e-01 0.000000000000000000e+00 0.000000000000000000e+00
-2.022973338093527751e-01 0.000000000000000000e+00 0.000000000000000000e+00
-1.922708471438214772e-01 0.000000000000000000e+00 0.000000000000000000e+00
-1.822443604782901794e-01 5.468761197626292869e-02 4.209081418985738843e+00
-1.722178738127588815e-01 1.245146628948674561e-01 4.872823037498585919e+00
-1.621913871472275837e-01 2.009792093807334368e-01 5.489206613807141366e+00
-1.521649004816962858e-01 2.799454747063698790e-01 6.243608855446544759e+00
-1.421384138161649879e-01 3.510798740532337092e-01 6.964324276099717714e+00
-1.321119271506336901e-01 4.220232991775034748e-01 7.047891424615926326e+00
-1.220854404851023922e-01 4.885732640512756575e-01 7.040751763742052916e+00
-1.120589538195710944e-01 5.503748811383815109e-01 6.952583418831749462e+00
-1.020324671540397965e-01 6.260146093392791045e-01 6.793688233307947577e+00
-9.200598048850849864e-02 6.982773568490401317e-01 6.759690083883968192e+00
-8.197949382297720078e-02 7.613435058664954624e-01 6.710615126000994302e+00
-7.195300715744590292e-02 8.304546996396275915e-01 6.687262299342630278e+00
-6.192652049191460506e-02 8.980790587798388458e-01 6.708633893692835137e+00
-5.190003382638330720e-02 9.611137195167565039e-01 6.522815939478211256e+00
-4.187354716085200934e-02 1.028839298945101177e+00 6.331520435723183127e+00
-3.184706049532071148e-02 1.094862229961123035e+00 6.327763242138818356e+00
-2.182057382978941362e-02 1.159070726783973271e+00 6.213191813056706536e+00
-1.179408716425811576e-02 1.223015163928806714e+00 6.121720434927561350e+00
-1.767600498726817904e-03 1.280023879728211966e+00 6.146504341656484627e+00
8.258886166804479956e-03 1.333106409062217779e+00 6.107090314253165175e+00
1.828537283233577782e-02 1.395795843565935002e+00 6.037144320658714314e+00
2.831185949786707567e-02 1.453419548279640594e+00 5.949353640859407655e+00
3.833834616339837353e-02 1.511872541888955368e+00 5.903474170597641901e+00
4.836483282892967139e-02 1.577392157729249789e+00 5.913229040851742724e+00
5.839131949446096925e-02 1.641165894955648241e+00 5.967794347346240258e+00
6.841780615999226711e-02 1.700175700250849076e+00 5.837232192937899633e+00
7.844429282552356497e-02 1.755581876270035480e+00 5.750528452767988519e+00
8.847077949105486283e-02 1.814926214446863639e+00 5.579163241449377253e+00
9.849726615658616069e-02 1.872913001011536238e+00 5.313537116591195542e+00
1.085237528221174585e-01 1.931466513525215589e+00 5.051240147106189404e+00
1.185502394876487564e-01 1.981065151026953686e+00 4.830368201986613208e+00
1.285767261531800543e-01 2.029995516794006249e+00 4.715106986684025614e+00
1.386032128187113521e-01 2.071266600341097330e+00 4.439890391728729568e+00
1.486296994842426500e-01 2.110153248192318642e+00 4.168338654314029945e+00
1.586561861497739478e-01 2.147627814749213826e+00 3.888111450131062075e+00
1.686826728153052457e-01 2.184491923919097189e+00 3.745603909665522480e+00
1.787091594808365436e-01 2.228341449555447440e+00 3.593522423000755861e+00
1.887356461463678414e-01 2.260091232537746464e+00 3.539089262618995146e+00
1.987621328118991393e-01 2.290850920360519183e+00 3.449108561609383283e+00
2.087886194774304371e-01 2.321307489613605668e+00 3.435853971127664774e+00
2.188151061429617350e-01 2.356617627573186269e+00 3.366457604107175872e+00
2.288415928084930329e-01 2.390299563359057800e+00 3.180056082839997966e+00
2.388680794740243307e-01 2.426112913338840826e+00 3.163957069605944916e+00
2.488945661395556286e-01 2.455977658201781821e+00 3.146746658661656593e+00
2.589210528050869264e-01 2.492123255011456706e+00 3.038662587646488333e+00
2.689475394706182243e-01 2.522029346695667584e+00 2.862659610620170714e+00
2.789740261361495222e-01 2.547189348657816765e+00 2.729206185027229559e+00
2.890005128016808200e-01 2.577324966224921354e+00 2.516494829839770908e+00
2.990269994672121179e-01 2.606359054489278293e+00 2.384923392152328958e+00
3.090534861327434157e-01 2.625978588774465550e+00 2.095111458083898093e+00
3.190799727982747136e-01 2.643641811711571421e+00 1.888165736261724126e+00
3.291064594638060115e-01 2.663943057575664852e+00 1.645982389718977590e+00
3.391329461293373093e-01 2.678428931891513542e+00 1.340744871778147385e+00
3.491594327948686072e-01 2.695101684099071804e+00 1.021574096717746682e+00
3.591859194603999050e-01 2.702189325984257096e+00 8.132063272283966970e-01
3.692124061259312029e-01 2.711346032465083766e+00 5.607415287900348044e-01
3.792388927914625008e-01 2.712223553479979898e+00 2.275298515975421321e-01
3.892653794569937986e-01 2.711754572012551989e+00 -6.599912181845761505e-02
3.992918661225250965e-01 2.708787045075204958e+00 -3.799232522484648489e-01
4.093183527880563943e-01 2.707514612737277560e+00 -6.527212380238045508e-01
4.193448394535876922e-01 2.699864486323797053e+00 -9.503183517176932993e-01
4.293713261191189901e-01 2.686756307806192012e+00 -1.090499142373007935e+00
4.393978127846502879e-01 2.671811538743014580e+00 -1.260929545495336201e+00
4.494242994501815858e-01 2.657008729873126640e+00 -1.448324018725833273e+00
4.594507861157128836e-01 2.636744318090713080e+00 -1.625949747519700228e+00
4.694772727812441815e-01 2.616062489650012424e+00 -1.730381722759776641e+00
4.795037594467754793e-01 2.602884802382220641e+00 -1.825453032596007441e+00
4.895302461123067772e-01 2.585327639271721267e+00 -1.876481608325533346e+00
4.995567327778380751e-01 2.563571030463972278e+00 -2.035948472876992543e+00
5.095832194433693729e-01 2.544488978113978561e+00 -2.087555996438060557e+00
5.196097061089006708e-01 2.526367993628497288e+00 -2.206906940906951053e+00
5.296361927744319686e-01 2.503727502907416635e+00 -2.423306677307889956e+00
5.396626794399632665e-01 2.483666360503107740e+00 -2.605186636576625414e+00
5.496891661054945644e-01 2.452874627723026890e+00 -2.788860657370123342e+00
5.597156527710258622e-01 2.427435794472351915e+00 -3.024882966245844518e+00
5.697421394365571601e-01 2.394787259499288723e+00 -3.225137086985121915e+00
5.797686261020884579e-01 2.359912281517011934e+00 -3.325988952377547658e+00
5.897951127676197558e-01 2.324118948543162588e+00 -3.478576541246707787e+00
5.998215994331510537e-01 2.283946288532511915e+00 -3.476991671115887694e+00
6.098480860986823515e-01 2.241199490855411369e+00 -3.571990792462397479e+00
6.198745727642136494e-01 2.203000053656829493e+00 -3.543278138789899057e+00
6.299010594297449472e-01 2.170247664100237728e+00 -3.558004378566211212e+00
6.399275460952762451e-01 2.134887347444710315e+00 -3.542701910138829735e+00
6.499540327608075430e-01 2.104254521456958571e+00 -3.444628133123942337e+00
6.599805194263388408e-01 2.069290613972100346e+00 -3.369829036853697612e+00
6.700070060918701387e-01 2.039520949390837501e+00 -3.378035871961996506e+00
6.800334927574014365e-01 2.003169446941054588e+00 -3.505383591702869062e+00
6.900599794229327344e-01 1.968910413923566693e+00 -3.604165377763103972e+00
7.000864660884640323e-01 1.938571108087700168e+00 -3.789124489306965327e+00
7.101129527539953301e-01 1.903324031824070062e+00 -3.943033652229625208e+00
7.201394394195266280e-01 1.864301737397696002e+00 -4.206780813822613929e+00
7.301659260850579258e-01 1.818780845702431037e+00 -4.377621531540406785e+00
7.401924127505892237e-01 1.773516186439593412e+00 -4.614256503115621300e+00
7.502188994161205216e-01 1.724338459796214806e+00 -4.887969342812062301e+00
7.602453860816518194e-01 1.673942870613885248e+00 -5.057528598199125369e+00
7.702718727471831173e-01 1.617728632044780568e+00 -5.227756441722094749e+00
7.802983594127144151e-01 1.564247807813725188e+00 -5.371995340336990665e+00
7.903248460782457130e-01 1.506262600925268202e+00 -5.562634582460764143e+00
8.003513327437770108e-01 1.448479513715390965e+00 -5.695439620183396556e+00
8.103778194093083087e-01 1.396231601320202742e+00 -5.830372706234115299e+00
8.204043060748396066e-01 1.340141434861976677e+00 -5.936501249855370865e+00
8.304307927403709044e-01 1.280158449230576423e+00 -6.065671236668072730e+00
8.404572794059022023e-01 1.215779371776932294e+00 -6.138282409407021412e+00
8.504837660714335001e-01 1.153285965735143748e+00 -6.165207809052835941e+00
8.605102527369647980e-01 1.089361328672545426e+00 -6.351567955890256023e+00
8.705367394024960959e-01 1.022506125828936518e+00 -6.552262814731702356e+00
8.805632260680273937e-01 9.560740900942370502e-01 -6.630886462949512783e+00
8.905897127335586916e-01 8.908085336534234955e-01 -6.707602991298353245e+00
9.006161993990899894e-01 8.303257748384140768e-01 -6.802644542004575356e+00
9.106426860646212873e-01 7.593924871707109503e-01 -6.983470360204544036e+00
9.206691727301525852e-01 6.831796774523368754e-01 -7.051489449243296015e+00
9.306956593956838830e-01 6.153135022164235579e-01 -7.243387477893376669e+00
9.407221460612151809e-01 5.432424522776280185e-01 -7.456171871513885385e+00
9.507486327267464787e-01 4.712197178275587817e-01 -7.782322082307437938e+00
9.607751193922777766e-01 3.891646042153098506e-01 -7.573861119466465119e+00
9.708016060578090745e-01 3.154894764792075534e-01 -6.813746312947325912e+00
9.808280927233403723e-01 2.298168104904902975e-01 -6.136877360742748699e+00
9.908545793888716702e-01 1.432164551969847821e-01 -5.418070740408206021e+00
1.000881066054402968e+00 5.003228898715406103e-02 -4.699745998625394883e+00
1.010907552719934266e+00 0.000000000000000000e+00 0.000000000000000000e+00
1.020934039385465564e+00 0.000000000000000000e+00 0.000000000000000000e+00
1.030960526050996862e+00 0.000000000000000000e+00 0.000000000000000000e+00
1.040987012716528159e+00 0.000000000000000000e+00 0.000000000000000000e+00
1.051013499382059457e+00 0.000000000000000000e+00 0.000000000000000000e+00
1.061039986047590755e+00 0.000000000000000000e+00 0.000000000000000000e+00
1.071066472713122053e+00 0.000000000000000000e+00 0.000000000000000000e+00
1.081092959378653351e+00 0.000000000000000000e+00 0.000000000000000000e+00
1.091119446044184649e+00 0.000000000000000000e+00 0.000000000000000000e+00
1.101145932709715947e+00 0.000000000000000000e+00 0.000000000000000000e+00
1.111172419375247244e+00 0.000000000000000000e+00 0.000000000000000000e+00
1.121198906040778542e+00 0.000000000000000000e+00 0.000000000000000000e+00
1.131225392706309840e+00 0.000000000000000000e+00 0.000000000000000000e+00
1.141251879371841138e+00 0.000000000000000000e+00 0.000000000000000000e+00
1.151278366037372436e+00 0.000000000000000000e+00 0.000000000000000000e+00
1.161304852702903734e+00 0.000000000000000000e+00 0.000000000000000000e+00
1.171331339368435032e+00 0.000000000000000000e+00 0.000000000000000000e+00
1.181357826033966330e+00 0.000000000000000000e+00 0.000000000000000000e+00
1.191384312699497627e+00 0.000000000000000000e+00 0.000000000000000000e+00
1.201410799365028925e+00 0.000000000000000000e+00 0.000000000000000000e+00
1.211437286030560223e+00 0.000000000000000000e+00 0.000000000000000000e+00
1.221463772696091521e+00 0.000000000000000000e+00 0.000000000000000000e+00
1.231490259361622819e+00 0.000000000000000000e+00 0.000000000000000000e+00
1.241516746027154117e+00 0.000000000000000000e+00 0.000000000000000000e+00
1.251543232692685415e+00 0.000000000000000000e+00 0.000000000000000000e+00
1.261569719358216712e+00 0.000000000000000000e+00 0.000000000000000000e+00
1.271596206023748010e+00 0.000000000000000000e+00 0.000000000000000000e+00
1.281622692689279308e+00 0.000000000000000000e+00 0.000000000000000000e+00
1.291649179354810606e+00 0.000000000000000000e+00 0.000000000000000000e+00
1.301675666020341904e+00 0.000000000000000000e+00 0.000000000000000000e+00
1.311702152685873202e+00 0.000000000000000000e+00 0.000000000000000000e+00
1.321728639351404500e+00 0.000000000000000000e+00 0.000000000000000000e+00
1.331755126016935797e+00 0.000000000000000000e+00 0.000000000000000000e+00
1.341781612682467095e+00 0.000000000000000000e+00 0.000000000000000000e+00
1.351808099347998393e+00 0.000000000000000000e+00 0.000000000000000000e+00
1.361834586013529691e+00 0.000000000000000000e+00 0.000000000000000000e+00
1.371861072679060989e+00 0.000000000000000000e+00 0.000000000000000000e+00
1.381887559344592287e+00 0.000000000000000000e+00 0.000000000000000000e+00
1.391914046010123585e+00 0.000000000000000000e+00 0.000000000000000000e+00
1.401940532675654882e+00 0.000000000000000000e+00 0.000000000000000000e+00
1.411967019341186180e+00 0.000000000000000000e+00 0.000000000000000000e+00
1.421993506006717478e+00 0.000000000000000000e+00 0.000000000000000000e+00
1.432019992672248776e+00 0.000000000000000000e+00 0.000000000000000000e+00
1.442046479337780074e+00 0.000000000000000000e+00 0.000000000000000000e+00
1.452072966003311150e+00 0.000000000000000000e+00 0.000000000000000000e+00
1.462099452668842448e+00 0.000000000000000000e+00 0.000000000000000000e+00
1.472125939334373745e+00 0.000000000000000000e+00 0.000000000000000000e+00
1.482152425999905043e+00 0.000000000000000000e+00 0.000000000000000000e+00
1.492178912665436341e+00 0.000000000000000000e+00 0.000000000000000000e+00
1.502205399330967639e+00 0.000000000000000000e+00 0.000000000000000000e+00
1.512231885996498937e+00 0.000000000000000000e+00 0.000000000000000000e+00
1.522258372662030235e+00 0.000000000000000000e+00 0.000000000000000000e+00
1.532284859327561533e+00 0.000000000000000000e+00 0.000000000000000000e+00
1.542311345993092830e+00 0.000000000000000000e+00 0.000000000000000000e+00
1.552337832658623906e+00 0.000000000000000000e+00 0.000000000000000000e+00
1.562364319324155204e+00 0.000000000000000000e+00 0.000000000000000000e+00
1.572390805989686502e+00 0.000000000000000000e+00 0.000000000000000000e+00
1.582417292655217800e+00 0.000000000000000000e+00 0.000000000000000000e+00
1.592443779320749098e+00 0.000000000000000000e+00 0.000000000000000000e+00
1.602470265986280396e+00 0.000000000000000000e+00 0.000000000000000000e+00
1.612496752651811693e+00 0.000000000000000000e+00 0.000000000000000000e+00
1.622523239317342991e+00 0.000000000000000000e+00 0.000000000000000000e+00
1.632549725982874289e+00 0.000000000000000000e+00 0.000000000000000000e+00
1.642576212648405587e+00 0.000000000000000000e+00 0.000000000000000000e+00
1.652602699313936885e+00 0.000000000000000000e+00 0.000000000000000000e+00
1.662629185979468183e+00 0.000000000000000000e+00 0.000000000000000000e+00
1.672655672644999481e+00 0.000000000000000000e+00 0.000000000000000000e+00
1.682682159310530778e+00 0.000000000000000000e+00 0.000000000000000000e+00
1.692708645976062076e+00 0.000000000000000000e+00 0.000000000000000000e+00
1.702735132641593374e+00 0.000000000000000000e+00 0.000000000000000000e+00
1.712761619307124672e+00 0.000000000000000000e+00 0.000000000000000000e+00
1.722788105972655970e+00 0.000000000000000000e+00 0.000000000000000000e+00
1.732814592638187268e+00 0.000000000000000000e+00 0.000000000000000000e+00
1.742841079303718566e+00 0.000000000000000000e+00 0.000000000000000000e+00
1.752867565969249863e+00 0.000000000000000000e+00 0.000000000000000000e+00
1.762894052634781161e+00 0.000000000000000000e+00 0.000000000000000000e+00
1.772920539300312459e+00 0.000000000000000000e+00 0.000000000000000000e+00
1.782947025965843757e+00 0.000000000000000000e+00 0.000000000000000000e+00
1.792973512631375055e+00 0.000000000000000000e+00 0.000000000000000000e+00
1.802999999296906353e+00 0.000000000000000000e+00 0.000000000000000000e+00
1.813026485962437651e+00 0.000000000000000000e+00 0.000000000000000000e+00
1.823052972627968948e+00 0.000000000000000000e+00 0.000000000000000000e+00
1.833079459293500246e+00 0.000000000000000000e+00 0.000000000000000000e+00
1.843105945959031544e+00 0.000000000000000000e+00 0.000000000000000000e+00
1.853132432624562842e+00 0.000000000000000000e+00 0.000000000000000000e+00
1.863158919290094140e+00 0.000000000000000000e+00 0.000000000000000000e+00
1.873185405955625438e+00 0.000000000000000000e+00 0.000000000000000000e+00
1.883211892621156736e+00 0.000000000000000000e+00 0.000000000000000000e+00
1.893238379286688033e+00 0.000000000000000000e+00 0.000000000000000000e+00
1.903264865952219331e+00 0.000000000000000000e+00 0.000000000000000000e+00
1.913291352617750629e+00 0.000000000000000000e+00 0.000000000000000000e+00
1.923317839283281927e+00 0.000000000000000000e+00 0.000000000000000000e+00
1.933344325948813225e+00 0.000000000000000000e+00 0.000000000000000000e+00
1.943370812614344523e+00 0.000000000000000000e+00 0.000000000000000000e+00
1.953397299279875821e+00 0.000000000000000000e+00 0.000000000000000000e+00
1.963423785945407118e+00 0.000000000000000000e+00 0.000000000000000000e+00
1.973450272610938416e+00 0.000000000000000000e+00 0.000000000000000000e+00
1.983476759276469714e+00 0.000000000000000000e+00 0.000000000000000000e+00
1.993503245942001012e+00 0.000000000000000000e+00 0.000000000000000000e+00
2.003529732607532310e+00 0.000000000000000000e+00 0.000000000000000000e+00
2.013556219273063608e+00 0.000000000000000000e+00 0.000000000000000000e+00
2.023582705938594906e+00 0.000000000000000000e+00 0.000000000000000000e+00
2.033609192604126203e+00 0.000000000000000000e+00 0.000000000000000000e+00
2.043635679269657501e+00 0.000000000000000000e+00 0.000000000000000000e+00
2.053662165935188799e+00 0.000000000000000000e+00 0.000000000000000000e+00
2.063688652600720097e+00 0.000000000000000000e+00 0.000000000000000000e+00
2.073715139266251395e+00 0.000000000000000000e+00 0.000000000000000000e+00
2.083741625931782693e+00 0.000000000000000000e+00 0.000000000000000000e+00
2.093768112597313991e+00 0.000000000000000000e+00 0.000000000000000000e+00
2.103794599262845288e+00 0.000000000000000000e+00 0.000000000000000000e+00
2.113821085928376586e+00 0.000000000000000000e+00 0.000000000000000000e+00
2.123847572593907884e+00 0.000000000000000000e+00 0.000000000000000000e+00
2.133874059259439182e+00 0.000000000000000000e+00 0.000000000000000000e+00
2.143900545924970480e+00 0.000000000000000000e+00 0.000000000000000000e+00
2.153927032590501778e+00 0.000000000000000000e+00 0.000000000000000000e+00
2.163953519256033076e+00 0.000000000000000000e+00 0.000000000000000000e+00
2.173980005921564373e+00 0.000000000000000000e+00 0.000000000000000000e+00
2.184006492587095671e+00 0.000000000000000000e+00 0.000000000000000000e+00
2.194032979252626969e+00 0.000000000000000000e+00 0.000000000000000000e+00
2.204059465918158267e+00 0.000000000000000000e+00 0.000000000000000000e+00
2.214085952583689565e+00 0.000000000000000000e+00 0.000000000000000000e+00
2.224112439249220863e+00 0.000000000000000000e+00 0.000000000000000000e+00
2.234138925914752161e+00 0.000000000000000000e+00 0.000000000000000000e+00
2.244165412580283459e+00 0.000000000000000000e+00 0.000000000000000000e+00
2.254191899245814756e+00 0.000000000000000000e+00 0.000000000000000000e+00
2.264218385911346054e+00 0.000000000000000000e+00 0.000000000000000000e+00
2.274244872576877352e+00 0.000000000000000000e+00 0.000000000000000000e+00
2.284271359242408650e+00 0.000000000000000000e+00 0.000000000000000000e+00
2.294297845907939948e+00 0.000000000000000000e+00 0.000000000000000000e+00
2.304324332573471246e+00 0.000000000000000000e+00 0.000000000000000000e+00
2.314350819239002544e+00 0.000000000000000000e+00 0.000000000000000000e+00
2.324377305904533841e+00 0.000000000000000000e+00 0.000000000000000000e+00
2.334403792570065139e+00 0.000000000000000000e+00 0.000000000000000000e+00
2.344430279235596437e+00 0.000000000000000000e+00 0.000000000000000000e+00
2.354456765901127735e+00 0.000000000000000000e+00 0.000000000000000000e+00
2.364483252566659033e+00 0.000000000000000000e+00 0.000000000000000000e+00
2.374509739232190331e+00 0.000000000000000000e+00 0.000000000000000000e+00
2.384536225897721629e+00 0.000000000000000000e+00 0.000000000000000000e+00
2.394562712563252926e+00 0.000000000000000000e+00 0.000000000000000000e+00
2.404589199228784224e+00 0.000000000000000000e+00 0.000000000000000000e+00
2.414615685894315522e+00 0.000000000000000000e+00 0.000000000000000000e+00
2.424642172559846820e+00 0.000000000000000000e+00 0.000000000000000000e+00
2.434668659225378118e+00 0.000000000000000000e+00 0.000000000000000000e+00
2.444695145890909416e+00 0.000000000000000000e+00 0.000000000000000000e+00
2.454721632556440714e+00 0.000000000000000000e+00 0.000000000000000000e+00
2.464748119221972011e+00 0.000000000000000000e+00 0.000000000000000000e+00
2.474774605887503309e+00 0.000000000000000000e+00 0.000000000000000000e+00
2.484801092553034607e+00 0.000000000000000000e+00 0.000000000000000000e+00
2.494827579218565905e+00 0.000000000000000000e+00 0.000000000000000000e+00
2.504854065884097203e+00 0.000000000000000000e+00 0.000000000000000000e+00
2.514880552549628501e+00 0.000000000000000000e+00 0.000000000000000000e+00
2.524907039215159799e+00 0.000000000000000000e+00 0.000000000000000000e+00
2.534933525880691096e+00 0.000000000000000000e+00 0.000000000000000000e+00
2.544960012546222394e+00 0.000000000000000000e+00 0.000000000000000000e+00
