#! FIELDS rc2 external2.bias der_rc2
#! SET min_rc2 -2.1665853103107864
#! SET max_rc2 2.038306491363059
#! SET nbins_rc2 600
#! SET periodic_rc2 false
-2.166585310310786383e+00 0.000000000000000000e+00 0.000000000000000000e+00
-2.159565457553401124e+00 0.000000000000000000e+00 0.000000000000000000e+00
-2.152545604796014977e+00 0.000000000000000000e+00 0.000000000000000000e+00
-2.145525752038629719e+00 0.000000000000000000e+00 0.000000000000000000e+00
-2.138505899281244460e+00 0.000000000000000000e+00 0.000000000000000000e+00
-2.131486046523859201e+00 0.000000000000000000e+00 0.000000000000000000e+00
-2.124466193766473943e+00 0.000000000000000000e+00 0.000000000000000000e+00
-2.117446341009088684e+00 0.000000000000000000e+00 0.000000000000000000e+00
-2.110426488251703425e+00 0.000000000000000000e+00 0.000000000000000000e+00
-2.103406635494317278e+00 0.000000000000000000e+00 0.000000000000000000e+00
-2.096386782736932020e+00 0.000000000000000000e+00 0.000000000000000000e+00
-2.089366929979546761e+00 0.000000000000000000e+00 0.000000000000000000e+00
-2.082347077222161502e+00 0.000000000000000000e+00 0.000000000000000000e+00
-2.075327224464776243e+00 0.000000000000000000e+00 0.000000000000000000e+00
-2.068307371707390985e+00 0.000000000000000000e+00 0.000000000000000000e+00
-2.061287518950005726e+00 0.000000000000000000e+00 0.000000000000000000e+00
-2.054267666192619579e+00 0.000000000000000000e+00 0.000000000000000000e+00
-2.047247813435234320e+00 0.000000000000000000e+00 0.000000000000000000e+00
-2.040227960677849062e+00 0.000000000000000000e+00 0.000000000000000000e+00
-2.033208107920463803e+00 0.000000000000000000e+00 0.000000000000000000e+00
-2.026188255163078544e+00 0.000000000000000000e+00 0.000000000000000000e+00
-2.019168402405693286e+00 0.000000000000000000e+00 0.000000000000000000e+00
-2.012148549648307583e+00 0.000000000000000000e+00 0.000000000000000000e+00
-2.005128696890922324e+00 0.000000000000000000e+00 0.000000000000000000e+00
-1.998108844133537065e+00 0.000000000000000000e+00 0.000000000000000000e+00
-1.991088991376151807e+00 0.000000000000000000e+00 0.000000000000000000e+00
-1.984069138618766104e+00 0.000000000000000000e+00 0.000000000000000000e+00
-1.977049285861380845e+00 0.000000000000000000e+00 0.000000000000000000e+00
-1.970029433103995586e+00 0.000000000000000000e+00 0.000000000000000000e+00
-1.963009580346609884e+00 0.000000000000000000e+00 0.000000000000000000e+00
-1.955989727589224625e+00 0.000000000000000000e+00 0.000000000000000000e+00
-1.948969874831839366e+00 0.000000000000000000e+00 0.000000000000000000e+00
-1.941950022074453663e+00 0.000000000000000000e+00 0.000000000000000000e+00
-1.934930169317068405e+00 0.000000000000000000e+00 0.000000000000000000e+00
-1.927910316559683146e+00 0.000000000000000000e+00 0.000000000000000000e+00
-1.920890463802297887e+00 0.000000000000000000e+00 0.000000000000000000e+00
-1.913870611044912184e+00 0.000000000000000000e+00 0.000000000000000000e+00
-1.906850758287526926e+00 0.000000000000000000e+00 0.000000000000000000e+00
-1.899830905530141667e+00 0.000000000000000000e+00 0.000000000000000000e+00
-1.892811052772755964e+00 0.000000000000000000e+00 0.000000000000000000e+00
-1.885791200015370928e+00 0.000000000000000000e+00 0.000000000000000000e+00
-1.878771347257985669e+00 0.000000000000000000e+00 0.000000000000000000e+00
-1.871751494500599966e+00 0.000000000000000000e+00 0.000000000000000000e+00
-1.864731641743214707e+00 0.000000000000000000e+00 0.000000000000000000e+00
-1.857711788985829449e+00 0.000000000000000000e+00 0.000000000000000000e+00
-1.850691936228443968e+00 0.000000000000000000e+00 0.000000000000000000e+00
-1.843672083471058487e+00 0.000000000000000000e+00 0.000000000000000000e+00
-1.836652230713673228e+00 0.000000000000000000e+00 0.000000000000000000e+00
-1.829632377956287970e+00 0.000000000000000000e+00 0.000000000000000000e+00
-1.822612525198902267e+00 0.000000000000000000e+00 0.000000000000000000e+00
-1.815592672441517008e+00 0.000000000000000000e+00 0.000000000000000000e+00
-1.808572819684131749e+00 0.000000000000000000e+00 0.000000000000000000e+00
-1.801552966926746047e+00 0.000000000000000000e+00 0.000000000000000000e+00
-1.794533114169360788e+00 0.000000000000000000e+00 0.000000000000000000e+00
-1.787513261411975529e+00 0.000000000000000000e+00 0.000000000000000000e+00
-1.780493408654590271e+00 0.000000000000000000e+00 0.000000000000000000e+00
-1.773473555897204568e+00 0.000000000000000000e+00 0.000000000000000000e+00
-1.766453703139819309e+00 0.000000000000000000e+00 0.000000000000000000e+00
-1.759433850382434050e+00 0.000000000000000000e+00 0.000000000000000000e+00
-1.752413997625048347e+00 0.000000000000000000e+00 0.000000000000000000e+00
-1.745394144867663089e+00 0.000000000000000000e+00 0.000000000000000000e+00
-1.738374292110277830e+00 0.000000000000000000e+00 0.000000000000000000e+00
-1.731354439352892127e+00 0.000000000000000000e+00 0.000000000000000000e+00
-1.724334586595506869e+00 0.000000000000000000e+00 0.000000000000000000e+00
-1.717314733838121610e+00 0.000000000000000000e+00 0.000000000000000000e+00
-1.710294881080736351e+00 0.000000000000000000e+00 0.000000000000000000e+00
-1.703275028323350648e+00 0.000000000000000000e+00 0.000000000000000000e+00
-1.696255175565965390e+00 0.000000000000000000e+00 0.000000000000000000e+00
-1.689235322808580131e+00 0.000000000000000000e+00 0.000000000000000000e+00
-1.682215470051194428e+00 0.000000000000000000e+00 0.000000000000000000e+00
-1.675195617293809391e+00 0.000000000000000000e+00 0.000000000000000000e+00
-1.668175764536424133e+00 0.000000000000000000e+00 0.000000000000000000e+00
-1.661155911779038430e+00 0.000000000000000000e+00 0.000000000000000000e+00
-1.654136059021653171e+00 0.000000000000000000e+00 0.000000000000000000e+00
-1.647116206264267912e+00 0.000000000000000000e+00 0.000000000000000000e+00
-1.640096353506882432e+00 0.000000000000000000e+00 0.000000000000000000e+00
-1.633076500749496951e+00 0.000000000000000000e+00 0.000000000000000000e+00
-1.626056647992111692e+00 0.000000000000000000e+00 0.000000000000000000e+00
-1.619036795234726434e+00 0.000000000000000000e+00 0.000000000000000000e+00
-1.612016942477340731e+00 0.000000000000000000e+00 0.000000000000000000e+00
-1.604997089719955472e+00 0.000000000000000000e+00 0.000000000000000000e+00
-1.597977236962570213e+00 0.000000000000000000e+00 0.000000000000000000e+00
-1.590957384205184511e+00 0.000000000000000000e+00 0.000000000000000000e+00
-1.583937531447799252e+00 0.000000000000000000e+00 0.000000000000000000e+00
-1.576917678690413993e+00 0.000000000000000000e+00 0.000000000000000000e+00
-1.569897825933028734e+00 0.000000000000000000e+00 0.000000000000000000e+00
-1.562877973175643032e+00 0.000000000000000000e+00 0.000000000000000000e+00
-1.555858120418257773e+00 0.000000000000000000e+00 0.000000000000000000e+00
-1.548838267660872514e+00 0.000000000000000000e+00 0.000000000000000000e+00
-1.541818414903486811e+00 0.000000000000000000e+00 0.000000000000000000e+00
-1.534798562146101775e+00 0.000000000000000000e+00 0.000000000000000000e+00
-1.527778709388716516e+00 0.000000000000000000e+00 0.000000000000000000e+00
-1.520758856631330813e+00 0.000000000000000000e+00 0.000000000000000000e+00
-1.513739003873945554e+00 0.000000000000000000e+00 0.000000000000000000e+00
-1.506719151116560296e+00 0.000000000000000000e+00 0.000000000000000000e+00
-1.499699298359174815e+00 0.000000000000000000e+00 0.000000000000000000e+00
-1.492679445601789334e+00 0.000000000000000000e+00 0.000000000000000000e+00
-1.485659592844404076e+00 0.000000000000000000e+00 0.000000000000000000e+00
-1.478639740087018817e+00 0.000000000000000000e+00 0.000000000000000000e+00
-1.471619887329633114e+00 0.000000000000000000e+00 0.000000000000000000e+00
-1.464600034572247855e+00 0.000000000000000000e+00 0.000000000000000000e+00
-1.457580181814862597e+00 0.000000000000000000e+00 0.000000000000000000e+00
-1.450560329057476894e+00 0.000000000000000000e+00 0.000000000000000000e+00
-1.443540476300091635e+00 0.000000000000000000e+00 0.000000000000000000e+00
-1.436520623542706376e+00 0.000000000000000000e+00 0.000000000000000000e+00
-1.429500770785320896e+00 0.000000000000000000e+00 0.000000000000000000e+00
-1.422480918027935415e+00 0.000000000000000000e+00 0.000000000000000000e+00
-1.415461065270550156e+00 0.000000000000000000e+00 0.000000000000000000e+00
-1.408441212513164897e+00 0.000000000000000000e+00 0.000000000000000000e+00
-1.401421359755779195e+00 0.000000000000000000e+00 0.000000000000000000e+00
-1.394401506998393936e+00 0.000000000000000000e+00 0.000000000000000000e+00
-1.387381654241008677e+00 0.000000000000000000e+00 0.000000000000000000e+00
-1.380361801483622974e+00 0.000000000000000000e+00 0.000000000000000000e+00
-1.373341948726237716e+00 0.000000000000000000e+00 0.000000000000000000e+00
-1.366322095968852457e+00 0.000000000000000000e+00 0.000000000000000000e+00
-1.359302243211467198e+00 0.000000000000000000e+00 0.000000000000000000e+00
-1.352282390454081495e+00 0.000000000000000000e+00 0.000000000000000000e+00
-1.345262537696696237e+00 0.000000000000000000e+00 0.000000000000000000e+00
-1.338242684939310978e+00 0.000000000000000000e+00 0.000000000000000000e+00
-1.331222832181925275e+00 0.000000000000000000e+00 0.000000000000000000e+00
-1.324202979424540239e+00 0.000000000000000000e+00 0.000000000000000000e+00
-1.317183126667154980e+00 0.000000000000000000e+00 0.000000000000000000e+00
-1.310163273909769277e+00 0.000000000000000000e+00 0.000000000000000000e+00
-1.303143421152384018e+00 0.000000000000000000e+00 0.000000000000000000e+00
-1.296123568394998760e+00 0.000000000000000000e+00 0.000000000000000000e+00
-1.289103715637613279e+00 0.000000000000000000e+00 0.000000000000000000e+00
-1.282083862880227798e+00 0.000000000000000000e+00 0.000000000000000000e+00
-1.275064010122842539e+00 0.000000000000000000e+00 0.000000000000000000e+00
-1.268044157365457281e+00 0.000000000000000000e+00 0.000000000000000000e+00
-1.261024304608071578e+00 0.000000000000000000e+00 0.000000000000000000e+00
-1.254004451850686319e+00 0.000000000000000000e+00 0.000000000000000000e+00
-1.246984599093301060e+00 0.000000000000000000e+00 0.000000000000000000e+00
-1.239964746335915358e+00 0.000000000000000000e+00 0.000000000000000000e+00
-1.232944893578530099e+00 0.000000000000000000e+00 0.000000000000000000e+00
-1.225925040821144840e+00 0.000000000000000000e+00 0.000000000000000000e+00
-1.218905188063759359e+00 0.000000000000000000e+00 0.000000000000000000e+00
-1.211885335306373879e+00 0.000000000000000000e+00 0.000000000000000000e+00
-1.204865482548988620e+00 0.000000000000000000e+00 0.000000000000000000e+00
-1.197845629791603361e+00 0.000000000000000000e+00 0.000000000000000000e+00
-1.190825777034217658e+00 0.000000000000000000e+00 0.000000000000000000e+00
-1.183805924276832400e+00 0.000000000000000000e+00 0.000000000000000000e+00
-1.176786071519447141e+00 0.000000000000000000e+00 0.000000000000000000e+00
-1.169766218762061438e+00 0.000000000000000000e+00 0.000000000000000000e+00
-1.162746366004676180e+00 0.000000000000000000e+00 0.000000000000000000e+00
-1.155726513247290921e+00 0.000000000000000000e+00 0.000000000000000000e+00
-1.148706660489905662e+00 0.000000000000000000e+00 0.000000000000000000e+00
-1.141686807732519959e+00 0.000000000000000000e+00 0.000000000000000000e+00
-1.134666954975134701e+00 0.000000000000000000e+00 0.000000000000000000e+00
-1.127647102217749442e+00 0.000000000000000000e+00 0.000000000000000000e+00
-1.120627249460363739e+00 0.000000000000000000e+00 0.000000000000000000e+00
-1.113607396702978702e+00 0.000000000000000000e+00 0.000000000000000000e+00
-1.106587543945593444e+00 0.000000000000000000e+00 0.000000000000000000e+00
-1.099567691188207741e+00 0.000000000000000000e+00 0.000000000000000000e+00
-1.092547838430822482e+00 0.000000000000000000e+00 0.000000000000000000e+00
-1.085527985673437223e+00 0.000000000000000000e+00 0.000000000000000000e+00
-1.078508132916051743e+00 0.000000000000000000e+00 0.000000000000000000e+00
-1.071488280158666262e+00 0.000000000000000000e+00 0.000000000000000000e+00
-1.064468427401281003e+00 0.000000000000000000e+00 0.000000000000000000e+00
-1.057448574643895745e+00 0.000000000000000000e+00 0.000000000000000000e+00
-1.050428721886510042e+00 0.000000000000000000e+00 0.000000000000000000e+00
-1.043408869129124783e+00 0.000000000000000000e+00 0.000000000000000000e+00
-1.036389016371739524e+00 0.000000000000000000e+00 0.000000000000000000e+00
-1.029369163614353822e+00 0.000000000000000000e+00 0.000000000000000000e+00
-1.022349310856968563e+00 0.000000000000000000e+00 0.000000000000000000e+00
-1.015329458099583304e+00 0.000000000000000000e+00 0.000000000000000000e+00
-1.008309605342197823e+00 0.000000000000000000e+00 0.000000000000000000e+00
-1.001289752584812343e+00 0.000000000000000000e+00 0.000000000000000000e+00
-9.942698998274270838e-01 0.000000000000000000e+00 0.000000000000000000e+00
-9.872500470700418251e-01 0.000000000000000000e+00 0.000000000000000000e+00
-9.802301943126561223e-01 0.000000000000000000e+00 0.000000000000000000e+00
-9.732103415552709746e-01 0.000000000000000000e+00 0.000000000000000000e+00
-9.661904887978857159e-01 0.000000000000000000e+00 0.000000000000000000e+00
-9.591706360405000131e-01 0.000000000000000000e+00 0.000000000000000000e+00
-9.521507832831147544e-01 0.000000000000000000e+00 0.000000000000000000e+00
-9.451309305257294957e-01 0.000000000000000000e+00 0.000000000000000000e+00
-9.381110777683440149e-01 0.000000000000000000e+00 0.000000000000000000e+00
-9.310912250109585342e-01 0.000000000000000000e+00 0.000000000000000000e+00
-9.240713722535732755e-01 0.000000000000000000e+00 0.000000000000000000e+00
-9.170515194961880168e-01 0.000000000000000000e+00 0.000000000000000000e+00
-9.100316667388023140e-01 0.000000000000000000e+00 0.000000000000000000e+00
-9.030118139814171663e-01 0.000000000000000000e+00 0.000000000000000000e+00
-8.959919612240319076e-01 0.000000000000000000e+00 0.000000000000000000e+00
-8.889721084666462048e-01 0.000000000000000000e+00 0.000000000000000000e+00
-8.819522557092609460e-01 0.000000000000000000e+00 0.000000000000000000e+00
-8.749324029518756873e-01 0.000000000000000000e+00 0.000000000000000000e+00
-8.679125501944902066e-01 0.000000000000000000e+00 0.000000000000000000e+00
-8.608926974371047258e-01 0.000000000000000000e+00 0.000000000000000000e+00
-8.538728446797194671e-01 0.000000000000000000e+00 0.000000000000000000e+00
-8.468529919223342084e-01 0.000000000000000000e+00 0.000000000000000000e+00
-8.398331391649485056e-01 0.000000000000000000e+00 0.000000000000000000e+00
-8.328132864075633579e-01 0.000000000000000000e+00 0.000000000000000000e+00
-8.257934336501780992e-01 0.000000000000000000e+00 0.000000000000000000e+00
-8.187735808927923964e-01 0.000000000000000000e+00 0.000000000000000000e+00
-8.117537281354071377e-01 5.318278624959802414e-01 8.765410173479961031e+01
-8.047338753780218790e-01 1.869942005587923006e+00 9.891687011370947857e+01
-7.977140226206362872e-01 3.117027404666906421e+00 1.089678140366657573e+02
-7.906941698632509175e-01 4.248445531266291653e+00 1.177454246888742802e+02
-7.836743171058656587e-01 5.248627978475813194e+00 1.252389484714867223e+02
-7.766544643484804000e-01 6.153188877591681205e+00 1.237234675773242714e+02
-7.696346115910946972e-01 6.943818634196510686e+00 1.096887409115085887e+02
-7.626147588337095495e-01 7.649380098315411658e+00 9.593058375492636003e+01
-7.555949060763242908e-01 8.265555441717125973e+00 8.320261780672738894e+01
-7.485750533189385880e-01 8.791589777596179545e+00 7.144736209844006680e+01
-7.415552005615533293e-01 9.217033112755654400e+00 6.007281285853728292e+01
-7.345353478041680706e-01 9.569930109005731822e+00 4.956389923947598675e+01
-7.275154950467824788e-01 9.851213133563049951e+00 3.977397042541031880e+01
-7.204956422893971091e-01 1.008914679158871053e+01 3.079863947000156443e+01
-7.134757895320118504e-01 1.026412759682225584e+01 2.265248808593205609e+01
-7.064559367746265917e-01 1.037021188748065015e+01 1.586539854220014689e+01
-6.994360840172408889e-01 1.042313138162656116e+01 9.925904964425825483e+00
-6.924162312598556301e-01 1.044145425794521032e+01 5.172725388511661748e+00
-6.853963785024703714e-01 1.042757458378923019e+01 1.136944046860966617e+00
-6.783765257450846686e-01 1.038176108711288848e+01 -1.801553919440311846e+00
-6.713566729876994099e-01 1.033076072979048377e+01 -3.032075409388698795e+00
-6.643368202303141512e-01 1.026671402234642727e+01 -3.226352875104882667e+00
-6.573169674729286704e-01 1.021433083938046593e+01 -3.000000322841648526e+00
-6.502971147155431897e-01 1.016895858961220611e+01 -2.425330203822692710e+00
-6.432772619581579310e-01 1.013766116433264131e+01 -1.094827682881555297e+00
-6.362574092007726723e-01 1.015736465824867807e+01 3.465774515707660264e-01
-6.292375564433869695e-01 1.019664616036052962e+01 1.678819607856107066e+00
-6.222177036860018218e-01 1.023085865256064508e+01 2.885709354337274490e+00
-6.151978509286165631e-01 1.025731997460048106e+01 3.782463621330170778e+00
-6.081779981712308603e-01 1.030490579582750854e+01 4.201512230467878695e+00
-6.011581454138456015e-01 1.035508995658104681e+01 3.657286510074624353e+00
-5.941382926564603428e-01 1.038456468688003653e+01 2.810916930177208339e+00
-5.871184398990747511e-01 1.041690338706104058e+01 2.119841773570644516e+00
-5.800985871416893813e-01 1.043448196643125669e+01 1.288493664980336240e+00
-5.730787343843041226e-01 1.043260113649501619e+01 -1.900340438060330872e-01
-5.660588816269188639e-01 1.041410078617163038e+01 -1.944427637373250528e+00
-5.590390288695331611e-01 1.039396838999138595e+01 -3.217814135604848857e+00
-5.520191761121480134e-01 1.037966842375484333e+01 -5.050390374458101128e+00
-5.449993233547627547e-01 1.034777033267034341e+01 -6.975681739459212771e+00
-5.379794705973770519e-01 1.029156568576341613e+01 -8.447365687424767344e+00
-5.309596178399917932e-01 1.021859399946353619e+01 -1.000887895638650527e+01
-5.239397650826065345e-01 1.015867887255424762e+01 -1.179616757262376581e+01
-5.169199123252209427e-01 1.006237341910091487e+01 -1.413510405560949224e+01
-5.099000595678355729e-01 9.944799379497396785e+00 -1.594880351511666916e+01
-5.028802068104503142e-01 9.839608503359912106e+00 -1.750946349981057537e+01
-4.958603540530650555e-01 9.711492220768370487e+00 -1.885526689508753506e+01
-4.888405012956793527e-01 9.565894795378760307e+00 -2.026027444457960058e+01
-4.818206485382940940e-01 9.387404931947855857e+00 -2.089526654396775740e+01
-4.748007957809088353e-01 9.228187809344436943e+00 -2.110521953079392787e+01
-4.677809430235231325e-01 9.062427129468566989e+00 -2.145147155205419764e+01
-4.607610902661378738e-01 8.894982026416350607e+00 -2.127983713956135858e+01
-4.537412375087526151e-01 8.736437438302587566e+00 -2.072021529353632729e+01
-4.467213847513671343e-01 8.595556474451154116e+00 -1.926398725181068627e+01
-4.397015319939816536e-01 8.463244044312705938e+00 -1.779618944904432709e+01
-4.326816792365963948e-01 8.333746786113298555e+00 -1.576335250684283373e+01
-4.256618264792111361e-01 8.217678986559761256e+00 -1.337902193621693137e+01
-4.186419737218254333e-01 8.111366190759270012e+00 -1.109962952809188153e+01
-4.116221209644402856e-01 8.035101391669261517e+00 -8.742152858361730949e+00
-4.046022682070550269e-01 7.978921513596162640e+00 -6.339109954373677525e+00
-3.975824154496693241e-01 7.955862993860577603e+00 -4.011657487871801209e+00
-3.905625626922840654e-01 7.955794386115620398e+00 -1.819150927413123897e+00
-3.835427099348988067e-01 7.957259788815271406e+00 4.024100007750455732e-01
-3.765228571775132149e-01 7.981870215968598359e+00 1.942755455998536718e+00
-3.695030044201278452e-01 8.018247859386910648e+00 2.972184581985072516e+00
-3.624831516627425865e-01 8.052134337334074132e+00 3.556767270759152222e+00
-3.554632989053573278e-01 8.089977270020746403e+00 3.722815586333064530e+00
-3.484434461479716250e-01 8.139614780294667895e+00 3.878013308342023624e+00
-3.414235933905864773e-01 8.171479964116429073e+00 3.501742012722087072e+00
-3.344037406332012186e-01 8.187564494929226555e+00 3.087268104759395726e+00
-3.273838878758155158e-01 8.205542819190746684e+00 2.717938291142274476e+00
-3.203640351184302570e-01 8.217130558705200372e+00 2.608937659068106374e+00
-3.133441823610449983e-01 8.229490612972689689e+00 2.496892966713504247e+00
-3.063243296036592955e-01 8.227687349205197620e+00 3.136146200772464976e+00
-2.993044768462740368e-01 8.234969534566744187e+00 4.514685734408478979e+00
-2.922846240888887781e-01 8.242929603408860828e+00 5.986294335381126430e+00
-2.852647713315035194e-01 8.273120852219307153e+00 7.851596465286566406e+00
-2.782449185741178166e-01 8.314892990067470180e+00 1.036322855186511838e+01
-2.712250658167325579e-01 8.391632809666990767e+00 1.366088368881780291e+01
-2.642052130593472992e-01 8.504488785943383533e+00 1.747216435041118743e+01
-2.571853603019615964e-01 8.625771867158206874e+00 2.169793314904956105e+01
-2.501655075445763377e-01 8.768301069672393311e+00 2.614911169876021191e+01
-2.431456547871910789e-01 8.956973998224938782e+00 3.082469916728151915e+01
-2.361258020298054872e-01 9.186661269517891526e+00 3.492195002804467663e+01
-2.291059492724201174e-01 9.461489745493999237e+00 3.860146173957586768e+01
-2.220860965150348587e-01 9.766092561868042310e+00 4.210779519545134519e+01
-2.150662437576496000e-01 1.010874999083650039e+01 4.501582907419991386e+01
-2.080463910002638972e-01 1.047874148451762011e+01 4.727698131003561599e+01
-2.010265382428786385e-01 1.084310228164341794e+01 4.876332159657534504e+01
-1.940066854854933798e-01 1.121425456226008777e+01 4.941185692687895425e+01
-1.869868327281076770e-01 1.158167708926031025e+01 4.907694169392382122e+01
-1.799669799707224183e-01 1.192834598819753467e+01 4.820563277171670791e+01
-1.729471272133371595e-01 1.227574847432602922e+01 4.669154285328411902e+01
-1.659272744559517898e-01 1.260977464520781410e+01 4.510300215139428559e+01
-1.589074216985661980e-01 1.293012934645086176e+01 4.284477523515188579e+01
-1.518875689411809393e-01 1.321122160660934952e+01 4.048164116360008080e+01
-1.448677161837956806e-01 1.349271443217690347e+01 3.822996661194951429e+01
-1.378478634264099778e-01 1.375641904296964668e+01 3.538412444162720760e+01
-1.308280106690249411e-01 1.400926662183164240e+01 3.239255649900592715e+01
-1.238081579116396824e-01 1.422189469800049011e+01 2.901175914418548629e+01
-1.167883051542539796e-01 1.442342869271816852e+01 2.621019108227941885e+01
-1.097684523968687209e-01 1.461203335355400412e+01 2.277052511121050316e+01
-1.027485996394834622e-01 1.475966190961825220e+01 1.909604670468269916e+01
-9.572874688209798144e-02 1.488368441579091694e+01 1.512490690850766484e+01
-8.870889412471250068e-02 1.496671212069998802e+01 1.154009535828880750e+01
-8.168904136732724197e-02 1.505113842801470980e+01 7.772726000558339621e+00
-7.466918860994198326e-02 1.509117176706734398e+01 3.817902830336333597e+00
-6.764933585255628046e-02 1.509693340411990903e+01 2.134341356718280347e-01
-6.062948309517124379e-02 1.507101281650048463e+01 -3.461071493978889357e+00
-5.360963033778598508e-02 1.503199240021423577e+01 -6.538011294145480434e+00
-4.658977758040028228e-02 1.496906261319237075e+01 -1.025987470726340334e+01
-3.956992482301502356e-02 1.488004451066366585e+01 -1.345625595195945579e+01
-3.255007206562976485e-02 1.477464467167641970e+01 -1.634745386867287920e+01
-2.553021930824406205e-02 1.464072229308575146e+01 -1.907376014145436827e+01
-1.851036655085880334e-02 1.450775335458974524e+01 -2.184527776336091165e+01
-1.149051379347354462e-02 1.433091033047260510e+01 -2.474534865996219324e+01
-4.470661036088285911e-03 1.414656241258288816e+01 -2.763351898882024216e+01
2.549191721297416890e-03 1.394936621295757817e+01 -3.042922746724568484e+01
9.569044478682675603e-03 1.373206293927352561e+01 -3.266914948934191187e+01
1.658889723606793432e-02 1.349848606678443730e+01 -3.539484451083366423e+01
2.360874999345363712e-02 1.323197557296138172e+01 -3.749587916672325605e+01
3.062860275083889583e-02 1.294021216596433987e+01 -3.964349648055767261e+01
3.764845550822415454e-02 1.263855770826591396e+01 -4.165181180787568138e+01
4.466830826560985734e-02 1.234739610184382030e+01 -4.310750650597849187e+01
5.168816102299511606e-02 1.202308738622370043e+01 -4.420268488031650378e+01
5.870801378038037477e-02 1.169875482288150437e+01 -4.465937721463102861e+01
6.572786653776563348e-02 1.136364733176849739e+01 -4.431697448231981440e+01
7.274771929515133628e-02 1.102547035326146130e+01 -4.370040158839376687e+01
7.976757205253659500e-02 1.070597945517353367e+01 -4.353659382998291960e+01
8.678742480992185371e-02 1.039552267337514380e+01 -4.237736028046915493e+01
9.380727756730755651e-02 1.009695305012893840e+01 -4.083469781060297521e+01
1.008271303246928152e-01 9.829225810777412420e+00 -3.880463492755237809e+01
1.078469830820780739e-01 9.570853862374580245e+00 -3.651476919509848784e+01
1.148668358394637767e-01 9.291191319398066639e+00 -3.403869832116696870e+01
1.218866885968490354e-01 9.048259092068022369e+00 -3.175962894923701185e+01
1.289065413542342942e-01 8.832219162653913713e+00 -2.946009197796184864e+01
1.359263941116195529e-01 8.639619096813394350e+00 -2.779727918373302487e+01
1.429462468690052557e-01 8.462187321066444667e+00 -2.567155313055312860e+01
1.499660996263905144e-01 8.316512952497014055e+00 -2.337528227300441230e+01
1.569859523837757731e-01 8.166043484846746026e+00 -2.169055912909697170e+01
1.640058051411614759e-01 8.028897971085701357e+00 -2.043261835845673957e+01
1.710256578985467346e-01 7.877897741520001773e+00 -1.958744851760051375e+01
1.780455106559319933e-01 7.768748632075805460e+00 -1.781120782107415934e+01
1.850653634133176961e-01 7.650280922209937273e+00 -1.642000969021277612e+01
1.920852161707029548e-01 7.525613778951790067e+00 -1.522634491601637841e+01
1.991050689280882136e-01 7.397879439411767066e+00 -1.420975461297826214e+01
2.061249216854734723e-01 7.264609051949179275e+00 -1.344173902642593710e+01
2.131447744428591751e-01 7.211866757715135634e+00 -1.365180454064276816e+01
2.201646272002442117e-01 7.163852449495671237e+00 -1.266798455960041103e+01
2.271844799576294704e-01 7.097176491410753130e+00 -1.175670479843104665e+01
2.342043327150151732e-01 7.031394120068839015e+00 -1.058483102455745417e+01
2.412241854724004320e-01 6.934307453832886381e+00 -9.603484347775417262e+00
2.482440382297856907e-01 6.810412054596636011e+00 -1.060364233148284008e+01
2.552638909871716155e-01 6.761007058797666502e+00 -1.154714720390829541e+01
2.622837437445566522e-01 6.700310412981465902e+00 -1.160300429111979881e+01
2.693035965019419109e-01 6.654839886869787335e+00 -1.124715790495781675e+01
2.763234492593271696e-01 6.590458591156796331e+00 -9.415491464733818816e+00
2.833433020167128724e-01 6.467506679125257563e+00 -6.738988098412617589e+00
2.903631547740979091e-01 6.353259718102769682e+00 -5.959563139205849680e+00
2.973830075314831678e-01 6.282662674741025910e+00 -4.151893674892145114e+00
3.044028602888688706e-01 6.241860195750167151e+00 -2.581828011842099091e+00
3.114227130462541293e-01 6.273353816624375412e+00 -6.384694434015674158e-01
3.184425658036393880e-01 6.337345012750347450e+00 2.545302816489097175e+00
3.254624185610253129e-01 6.342654501441998605e+00 5.043677392377755808e+00
3.324822713184103495e-01 6.408853590360834573e+00 6.430415648347574731e+00
3.395021240757956082e-01 6.473599361989542444e+00 7.410870302164935808e+00
3.465219768331808670e-01 6.545638976329108516e+00 6.897763791965624058e+00
3.535418295905665698e-01 6.646183189072374375e+00 5.679372954534475326e+00
3.605616823479518285e-01 6.707318444605217422e+00 5.273946236243499008e+00
3.675815351053370872e-01 6.734068384942901275e+00 3.594757889042236254e+00
3.746013878627227900e-01 6.762092379002950793e+00 2.154151450392865375e+00
3.816212406201080487e-01 6.757566678372612046e+00 6.190403029266287049e-01
3.886410933774933074e-01 6.736028631701429958e+00 -1.345361477003047534e+00
3.956609461348790102e-01 6.712877761729959758e+00 -2.746644335285035154e+00
4.026807988922642689e-01 6.661200301156100068e+00 -3.501801237168574499e+00
4.097006516496495276e-01 6.624817621978202453e+00 -4.688282335981857507e+00
4.167205044070347864e-01 6.589094694103430072e+00 -5.520602906829086720e+00
4.237403571644204892e-01 6.551740794332172158e+00 -6.228205866830841764e+00
4.307602099218057479e-01 6.514508056499145994e+00 -7.242485235799881238e+00
4.377800626791910066e-01 6.488247094237365786e+00 -8.155905272902366221e+00
4.447999154365767094e-01 6.432981862166514020e+00 -9.818902391541154628e+00
4.518197681939619681e-01 6.370028482993269847e+00 -1.189858682418950231e+01
4.588396209513472268e-01 6.298817750423069128e+00 -1.446317880815958468e+01
4.658594737087329296e-01 6.204465962201432205e+00 -1.736631073628741362e+01
4.728793264661181883e-01 6.088667759966519100e+00 -2.112112792413417139e+01
4.798991792235034470e-01 5.935545131700628474e+00 -2.475885842380341373e+01
4.869190319808887057e-01 5.753831418835673617e+00 -2.887325234222709369e+01
4.939388847382744085e-01 5.536446937962011816e+00 -3.346347458125920582e+01
5.009587374956596673e-01 5.295418613421766452e+00 -3.837597807522423210e+01
5.079785902530449260e-01 5.005575013264127904e+00 -4.342010963053188277e+01
5.149984430104306288e-01 4.694946456405993729e+00 -4.856341593006868607e+01
5.220182957678158875e-01 4.343168682300586170e+00 -5.423614980120792950e+01
5.290381485252011462e-01 3.949731107313599665e+00 -6.023190685736619798e+01
5.360580012825868490e-01 3.510528807114170036e+00 -6.706561730233092078e+01
5.430778540399721077e-01 3.040639996807847467e+00 -7.130598299227682446e+01
5.500977067973573664e-01 2.526464839453183231e+00 -6.688098196171634413e+01
5.571175595547426251e-01 1.946533561515931154e+00 -6.186979449488744365e+01
5.641374123121283279e-01 1.308255763609416533e+00 -5.626515233998392773e+01
5.711572650695133646e-01 5.875110279665847202e-01 -5.000857808723476694e+01
5.781771178268986233e-01 0.000000000000000000e+00 0.000000000000000000e+00
5.851969705842843261e-01 0.000000000000000000e+00 0.000000000000000000e+00
5.922168233416695848e-01 0.000000000000000000e+00 0.000000000000000000e+00
5.992366760990548435e-01 0.000000000000000000e+00 0.000000000000000000e+00
6.062565288564407684e-01 0.000000000000000000e+00 0.000000000000000000e+00
6.132763816138258051e-01 0.000000000000000000e+00 0.000000000000000000e+00
6.202962343712110638e-01 0.000000000000000000e+00 0.000000000000000000e+00
6.273160871285963225e-01 0.000000000000000000e+00 0.000000000000000000e+00
6.343359398859820253e-01 0.000000000000000000e+00 0.000000000000000000e+00
6.413557926433670620e-01 0.000000000000000000e+00 0.000000000000000000e+00
6.483756454007523207e-01 0.000000000000000000e+00 0.000000000000000000e+00
6.553954981581380235e-01 0.000000000000000000e+00 0.000000000000000000e+00
6.624153509155232822e-01 0.000000000000000000e+00 0.000000000000000000e+00
6.694352036729085409e-01 0.000000000000000000e+00 0.000000000000000000e+00
6.764550564302946878e-01 0.000000000000000000e+00 0.000000000000000000e+00
6.834749091876795024e-01 0.000000000000000000e+00 0.000000000000000000e+00
6.904947619450647611e-01 0.000000000000000000e+00 0.000000000000000000e+00
6.975146147024500198e-01 0.000000000000000000e+00 0.000000000000000000e+00
7.045344674598357226e-01 0.000000000000000000e+00 0.000000000000000000e+00
7.115543202172209813e-01 0.000000000000000000e+00 0.000000000000000000e+00
7.185741729746062401e-01 0.000000000000000000e+00 0.000000000000000000e+00
7.255940257319919429e-01 0.000000000000000000e+00 0.000000000000000000e+00
7.326138784893772016e-01 0.000000000000000000e+00 0.000000000000000000e+00
7.396337312467624603e-01 0.000000000000000000e+00 0.000000000000000000e+00
7.466535840041483851e-01 0.000000000000000000e+00 0.000000000000000000e+00
7.536734367615334218e-01 0.000000000000000000e+00 0.000000000000000000e+00
7.606932895189186805e-01 0.000000000000000000e+00 0.000000000000000000e+00
7.677131422763039392e-01 0.000000000000000000e+00 0.000000000000000000e+00
7.747329950336896420e-01 0.000000000000000000e+00 0.000000000000000000e+00
7.817528477910749007e-01 0.000000000000000000e+00 0.000000000000000000e+00
7.887727005484601595e-01 0.000000000000000000e+00 0.000000000000000000e+00
7.957925533058458623e-01 0.000000000000000000e+00 0.000000000000000000e+00
8.028124060632311210e-01 0.000000000000000000e+00 0.000000000000000000e+00
8.098322588206163797e-01 0.000000000000000000e+00 0.000000000000000000e+00
8.168521115780020825e-01 0.000000000000000000e+00 0.000000000000000000e+00
8.238719643353873412e-01 0.000000000000000000e+00 0.000000000000000000e+00
8.308918170927725999e-01 0.000000000000000000e+00 0.000000000000000000e+00
8.379116698501578586e-01 0.000000000000000000e+00 0.000000000000000000e+00
8.449315226075435614e-01 0.000000000000000000e+00 0.000000000000000000e+00
8.519513753649288201e-01 0.000000000000000000e+00 0.000000000000000000e+00
8.589712281223140788e-01 0.000000000000000000e+00 0.000000000000000000e+00
8.659910808796997816e-01 0.000000000000000000e+00 0.000000000000000000e+00
8.730109336370850404e-01 0.000000000000000000e+00 0.000000000000000000e+00
8.800307863944702991e-01 0.000000000000000000e+00 0.000000000000000000e+00
8.870506391518560019e-01 0.000000000000000000e+00 0.000000000000000000e+00
8.940704919092412606e-01 0.000000000000000000e+00 0.000000000000000000e+00
9.010903446666265193e-01 0.000000000000000000e+00 0.000000000000000000e+00
9.081101974240117780e-01 0.000000000000000000e+00 0.000000000000000000e+00
9.151300501813974808e-01 0.000000000000000000e+00 0.000000000000000000e+00
9.221499029387827395e-01 0.000000000000000000e+00 0.000000000000000000e+00
9.291697556961679982e-01 0.000000000000000000e+00 0.000000000000000000e+00
9.361896084535537010e-01 0.000000000000000000e+00 0.000000000000000000e+00
9.432094612109389598e-01 0.000000000000000000e+00 0.000000000000000000e+00
9.502293139683242185e-01 0.000000000000000000e+00 0.000000000000000000e+00
9.572491667257099213e-01 0.000000000000000000e+00 0.000000000000000000e+00
9.642690194830951800e-01 0.000000000000000000e+00 0.000000000000000000e+00
9.712888722404804387e-01 0.000000000000000000e+00 0.000000000000000000e+00
9.783087249978656974e-01 0.000000000000000000e+00 0.000000000000000000e+00
9.853285777552514002e-01 0.000000000000000000e+00 0.000000000000000000e+00
9.923484305126364369e-01 0.000000000000000000e+00 0.000000000000000000e+00
9.993682832700216956e-01 0.000000000000000000e+00 0.000000000000000000e+00
1.006388136027407398e+00 0.000000000000000000e+00 0.000000000000000000e+00
1.013407988784792657e+00 0.000000000000000000e+00 0.000000000000000000e+00
1.020427841542177916e+00 0.000000000000000000e+00 0.000000000000000000e+00
1.027447694299563841e+00 0.000000000000000000e+00 0.000000000000000000e+00
1.034467547056948877e+00 0.000000000000000000e+00 0.000000000000000000e+00
1.041487399814334136e+00 0.000000000000000000e+00 0.000000000000000000e+00
1.048507252571719395e+00 0.000000000000000000e+00 0.000000000000000000e+00
1.055527105329105098e+00 0.000000000000000000e+00 0.000000000000000000e+00
1.062546958086490134e+00 0.000000000000000000e+00 0.000000000000000000e+00
1.069566810843875393e+00 0.000000000000000000e+00 0.000000000000000000e+00
1.076586663601261096e+00 0.000000000000000000e+00 0.000000000000000000e+00
1.083606516358646354e+00 0.000000000000000000e+00 0.000000000000000000e+00
1.090626369116031613e+00 0.000000000000000000e+00 0.000000000000000000e+00
1.097646221873417760e+00 0.000000000000000000e+00 0.000000000000000000e+00
1.104666074630802575e+00 0.000000000000000000e+00 0.000000000000000000e+00
1.111685927388187833e+00 0.000000000000000000e+00 0.000000000000000000e+00
1.118705780145573092e+00 0.000000000000000000e+00 0.000000000000000000e+00
1.125725632902958795e+00 0.000000000000000000e+00 0.000000000000000000e+00
1.132745485660344054e+00 0.000000000000000000e+00 0.000000000000000000e+00
1.139765338417729312e+00 0.000000000000000000e+00 0.000000000000000000e+00
1.146785191175115015e+00 0.000000000000000000e+00 0.000000000000000000e+00
1.153805043932500274e+00 0.000000000000000000e+00 0.000000000000000000e+00
1.160824896689885533e+00 0.000000000000000000e+00 0.000000000000000000e+00
1.167844749447271457e+00 0.000000000000000000e+00 0.000000000000000000e+00
1.174864602204656494e+00 0.000000000000000000e+00 0.000000000000000000e+00
1.181884454962041753e+00 0.000000000000000000e+00 0.000000000000000000e+00
1.188904307719427011e+00 0.000000000000000000e+00 0.000000000000000000e+00
1.195924160476812714e+00 0.000000000000000000e+00 0.000000000000000000e+00
1.202944013234197973e+00 0.000000000000000000e+00 0.000000000000000000e+00
1.209963865991583232e+00 0.000000000000000000e+00 0.000000000000000000e+00
1.216983718748968935e+00 0.000000000000000000e+00 0.000000000000000000e+00
1.224003571506354193e+00 0.000000000000000000e+00 0.000000000000000000e+00
1.231023424263739452e+00 0.000000000000000000e+00 0.000000000000000000e+00
1.238043277021125155e+00 0.000000000000000000e+00 0.000000000000000000e+00
1.245063129778510413e+00 0.000000000000000000e+00 0.000000000000000000e+00
1.252082982535895672e+00 0.000000000000000000e+00 0.000000000000000000e+00
1.259102835293280931e+00 0.000000000000000000e+00 0.000000000000000000e+00
1.266122688050666634e+00 0.000000000000000000e+00 0.000000000000000000e+00
1.273142540808051892e+00 0.000000000000000000e+00 0.000000000000000000e+00
1.280162393565437151e+00 0.000000000000000000e+00 0.000000000000000000e+00
1.287182246322822854e+00 0.000000000000000000e+00 0.000000000000000000e+00
1.294202099080208113e+00 0.000000000000000000e+00 0.000000000000000000e+00
1.301221951837593371e+00 0.000000000000000000e+00 0.000000000000000000e+00
1.308241804594979074e+00 0.000000000000000000e+00 0.000000000000000000e+00
1.315261657352364333e+00 0.000000000000000000e+00 0.000000000000000000e+00
1.322281510109749592e+00 0.000000000000000000e+00 0.000000000000000000e+00
1.329301362867134850e+00 0.000000000000000000e+00 0.000000000000000000e+00
1.336321215624520553e+00 0.000000000000000000e+00 0.000000000000000000e+00
1.343341068381905590e+00 0.000000000000000000e+00 0.000000000000000000e+00
1.350360921139290848e+00 0.000000000000000000e+00 0.000000000000000000e+00
1.357380773896676551e+00 0.000000000000000000e+00 0.000000000000000000e+00
1.364400626654061810e+00 0.000000000000000000e+00 0.000000000000000000e+00
1.371420479411447069e+00 0.000000000000000000e+00 0.000000000000000000e+00
1.378440332168832994e+00 0.000000000000000000e+00 0.000000000000000000e+00
1.385460184926218030e+00 0.000000000000000000e+00 0.000000000000000000e+00
1.392480037683603289e+00 0.000000000000000000e+00 0.000000000000000000e+00
1.399499890440988548e+00 0.000000000000000000e+00 0.000000000000000000e+00
1.406519743198374250e+00 0.000000000000000000e+00 0.000000000000000000e+00
1.413539595955759287e+00 0.000000000000000000e+00 0.000000000000000000e+00
1.420559448713144546e+00 0.000000000000000000e+00 0.000000000000000000e+00
1.427579301470530249e+00 0.000000000000000000e+00 0.000000000000000000e+00
1.434599154227915507e+00 0.000000000000000000e+00 0.000000000000000000e+00
1.441619006985300766e+00 0.000000000000000000e+00 0.000000000000000000e+00
1.448638859742686913e+00 0.000000000000000000e+00 0.000000000000000000e+00
1.455658712500071728e+00 0.000000000000000000e+00 0.000000000000000000e+00
1.462678565257456986e+00 0.000000000000000000e+00 0.000000000000000000e+00
1.469698418014842245e+00 0.000000000000000000e+00 0.000000000000000000e+00
1.476718270772227948e+00 0.000000000000000000e+00 0.000000000000000000e+00
1.483738123529613206e+00 0.000000000000000000e+00 0.000000000000000000e+00
1.490757976286998465e+00 0.000000000000000000e+00 0.000000000000000000e+00
1.497777829044384168e+00 0.000000000000000000e+00 0.000000000000000000e+00
1.504797681801769427e+00 0.000000000000000000e+00 0.000000000000000000e+00
1.511817534559154685e+00 0.000000000000000000e+00 0.000000000000000000e+00
1.518837387316540832e+00 0.000000000000000000e+00 0.000000000000000000e+00
1.525857240073925647e+00 0.000000000000000000e+00 0.000000000000000000e+00
1.532877092831310906e+00 0.000000000000000000e+00 0.000000000000000000e+00
1.539896945588696164e+00 0.000000000000000000e+00 0.000000000000000000e+00
1.546916798346081867e+00 0.000000000000000000e+00 0.000000000000000000e+00
1.553936651103467126e+00 0.000000000000000000e+00 0.000000000000000000e+00
1.560956503860852385e+00 0.000000000000000000e+00 0.000000000000000000e+00
1.567976356618238087e+00 0.000000000000000000e+00 0.000000000000000000e+00
1.574996209375623346e+00 0.000000000000000000e+00 0.000000000000000000e+00
1.582016062133008605e+00 0.000000000000000000e+00 0.000000000000000000e+00
1.589035914890394752e+00 0.000000000000000000e+00 0.000000000000000000e+00
1.596055767647779566e+00 0.000000000000000000e+00 0.000000000000000000e+00
1.603075620405164825e+00 0.000000000000000000e+00 0.000000000000000000e+00
1.610095473162550084e+00 0.000000000000000000e+00 0.000000000000000000e+00
1.617115325919935787e+00 0.000000000000000000e+00 0.000000000000000000e+00
1.624135178677321045e+00 0.000000000000000000e+00 0.000000000000000000e+00
1.631155031434706304e+00 0.000000000000000000e+00 0.000000000000000000e+00
1.638174884192092007e+00 0.000000000000000000e+00 0.000000000000000000e+00
1.645194736949477265e+00 0.000000000000000000e+00 0.000000000000000000e+00
1.652214589706862524e+00 0.000000000000000000e+00 0.000000000000000000e+00
1.659234442464248449e+00 0.000000000000000000e+00 0.000000000000000000e+00
1.666254295221633486e+00 0.000000000000000000e+00 0.000000000000000000e+00
1.673274147979018744e+00 0.000000000000000000e+00 0.000000000000000000e+00
1.680294000736404003e+00 0.000000000000000000e+00 0.000000000000000000e+00
1.687313853493789706e+00 0.000000000000000000e+00 0.000000000000000000e+00
1.694333706251174965e+00 0.000000000000000000e+00 0.000000000000000000e+00
1.701353559008560223e+00 0.000000000000000000e+00 0.000000000000000000e+00
1.708373411765945926e+00 0.000000000000000000e+00 0.000000000000000000e+00
1.715393264523331185e+00 0.000000000000000000e+00 0.000000000000000000e+00
1.722413117280716444e+00 0.000000000000000000e+00 0.000000000000000000e+00
1.729432970038102146e+00 0.000000000000000000e+00 0.000000000000000000e+00
1.736452822795487405e+00 0.000000000000000000e+00 0.000000000000000000e+00
1.743472675552872664e+00 0.000000000000000000e+00 0.000000000000000000e+00
1.750492528310257923e+00 0.000000000000000000e+00 0.000000000000000000e+00
1.757512381067643625e+00 0.000000000000000000e+00 0.000000000000000000e+00
1.764532233825028662e+00 0.000000000000000000e+00 0.000000000000000000e+00
1.771552086582413921e+00 0.000000000000000000e+00 0.000000000000000000e+00
1.778571939339799624e+00 0.000000000000000000e+00 0.000000000000000000e+00
1.785591792097184882e+00 0.000000000000000000e+00 0.000000000000000000e+00
1.792611644854570141e+00 0.000000000000000000e+00 0.000000000000000000e+00
1.799631497611956066e+00 0.000000000000000000e+00 0.000000000000000000e+00
1.806651350369341102e+00 0.000000000000000000e+00 0.000000000000000000e+00
1.813671203126726361e+00 0.000000000000000000e+00 0.000000000000000000e+00
1.820691055884111620e+00 0.000000000000000000e+00 0.000000000000000000e+00
1.827710908641497323e+00 0.000000000000000000e+00 0.000000000000000000e+00
1.834730761398882581e+00 0.000000000000000000e+00 0.000000000000000000e+00
1.841750614156267840e+00 0.000000000000000000e+00 0.000000000000000000e+00
1.848770466913653543e+00 0.000000000000000000e+00 0.000000000000000000e+00
1.855790319671038802e+00 0.000000000000000000e+00 0.000000000000000000e+00
1.862810172428424060e+00 0.000000000000000000e+00 0.000000000000000000e+00
1.869830025185809763e+00 0.000000000000000000e+00 0.000000000000000000e+00
1.876849877943195022e+00 0.000000000000000000e+00 0.000000000000000000e+00
1.883869730700580281e+00 0.000000000000000000e+00 0.000000000000000000e+00
1.890889583457965539e+00 0.000000000000000000e+00 0.000000000000000000e+00
1.897909436215351242e+00 0.000000000000000000e+00 0.000000000000000000e+00
1.904929288972736501e+00 0.000000000000000000e+00 0.000000000000000000e+00
1.911949141730121760e+00 0.000000000000000000e+00 0.000000000000000000e+00
1.918968994487507462e+00 0.000000000000000000e+00 0.000000000000000000e+00
1.925988847244892721e+00 0.000000000000000000e+00 0.000000000000000000e+00
1.933008700002277980e+00 0.000000000000000000e+00 0.000000000000000000e+00
1.940028552759663683e+00 0.000000000000000000e+00 0.000000000000000000e+00
1.947048405517048941e+00 0.000000000000000000e+00 0.000000000000000000e+00
1.954068258274434200e+00 0.000000000000000000e+00 0.000000000000000000e+00
1.961088111031819459e+00 0.000000000000000000e+00 0.000000000000000000e+00
1.968107963789205161e+00 0.000000000000000000e+00 0.000000000000000000e+00
1.975127816546590198e+00 0.000000000000000000e+00 0.000000000000000000e+00
1.982147669303975457e+00 0.000000000000000000e+00 0.000000000000000000e+00
1.989167522061361160e+00 0.000000000000000000e+00 0.000000000000000000e+00
1.996187374818746418e+00 0.000000000000000000e+00 0.000000000000000000e+00
2.003207227576131899e+00 0.000000000000000000e+00 0.000000000000000000e+00
2.010227080333517602e+00 0.000000000000000000e+00 0.000000000000000000e+00
2.017246933090902417e+00 0.000000000000000000e+00 0.000000000000000000e+00
2.024266785848287675e+00 0.000000000000000000e+00 0.000000000000000000e+00
2.031286638605672934e+00 0.000000000000000000e+00 0.000000000000000000e+00
2.038306491363059081e+00 0.000000000000000000e+00 0.000000000000000000e+00
