#! FIELDS rc1 external1.bias der_rc1
#! SET min_rc1 -0.7180550173922509
#! SET max_rc1 0.7066087802706422
#! SET nbins_rc1 600
#! SET periodic_rc1 false
-7.180550173922508606e-01 0.000000000000000000e+00 0.000000000000000000e+00
-7.156766137233645519e-01 0.000000000000000000e+00 0.000000000000000000e+00
-7.132982100544782433e-01 0.000000000000000000e+00 0.000000000000000000e+00
-7.109198063855919347e-01 0.000000000000000000e+00 0.000000000000000000e+00
-7.085414027167056261e-01 0.000000000000000000e+00 0.000000000000000000e+00
-7.061629990478193175e-01 0.000000000000000000e+00 0.000000000000000000e+00
-7.037845953789330089e-01 0.000000000000000000e+00 0.000000000000000000e+00
-7.014061917100467003e-01 0.000000000000000000e+00 0.000000000000000000e+00
-6.990277880411603917e-01 0.000000000000000000e+00 0.000000000000000000e+00
-6.966493843722740831e-01 0.000000000000000000e+00 0.000000000000000000e+00
-6.942709807033877745e-01 0.000000000000000000e+00 0.000000000000000000e+00
-6.918925770345014659e-01 0.000000000000000000e+00 0.000000000000000000e+00
-6.895141733656151573e-01 0.000000000000000000e+00 0.000000000000000000e+00
-6.871357696967288486e-01 0.000000000000000000e+00 0.000000000000000000e+00
-6.847573660278425400e-01 0.000000000000000000e+00 0.000000000000000000e+00
-6.823789623589564535e-01 0.000000000000000000e+00 0.000000000000000000e+00
-6.800005586900701449e-01 0.000000000000000000e+00 0.000000000000000000e+00
-6.776221550211838363e-01 0.000000000000000000e+00 0.000000000000000000e+00
-6.752437513522975276e-01 0.000000000000000000e+00 0.000000000000000000e+00
-6.728653476834112190e-01 0.000000000000000000e+00 0.000000000000000000e+00
-6.704869440145249104e-01 0.000000000000000000e+00 0.000000000000000000e+00
-6.681085403456386018e-01 0.000000000000000000e+00 0.000000000000000000e+00
-6.657301366767522932e-01 0.000000000000000000e+00 0.000000000000000000e+00
-6.633517330078659846e-01 0.000000000000000000e+00 0.000000000000000000e+00
-6.609733293389796760e-01 0.000000000000000000e+00 0.000000000000000000e+00
-6.585949256700933674e-01 0.000000000000000000e+00 0.000000000000000000e+00
-6.562165220012070588e-01 0.000000000000000000e+00 0.000000000000000000e+00
-6.538381183323207502e-01 0.000000000000000000e+00 0.000000000000000000e+00
-6.514597146634344416e-01 0.000000000000000000e+00 0.000000000000000000e+00
-6.490813109945481330e-01 0.000000000000000000e+00 0.000000000000000000e+00
-6.467029073256618243e-01 0.000000000000000000e+00 0.000000000000000000e+00
-6.443245036567755157e-01 0.000000000000000000e+00 0.000000000000000000e+00
-6.419460999878892071e-01 0.000000000000000000e+00 0.000000000000000000e+00
-6.395676963190028985e-01 0.000000000000000000e+00 0.000000000000000000e+00
-6.371892926501165899e-01 0.000000000000000000e+00 0.000000000000000000e+00
-6.348108889812302813e-01 0.000000000000000000e+00 0.000000000000000000e+00
-6.324324853123441947e-01 0.000000000000000000e+00 0.000000000000000000e+00
-6.300540816434578861e-01 0.000000000000000000e+00 0.000000000000000000e+00
-6.276756779745715775e-01 0.000000000000000000e+00 0.000000000000000000e+00
-6.252972743056852689e-01 0.000000000000000000e+00 0.000000000000000000e+00
-6.229188706367987383e-01 0.000000000000000000e+00 0.000000000000000000e+00
-6.205404669679124297e-01 0.000000000000000000e+00 0.000000000000000000e+00
-6.181620632990261210e-01 0.000000000000000000e+00 0.000000000000000000e+00
-6.157836596301398124e-01 0.000000000000000000e+00 0.000000000000000000e+00
-6.134052559612535038e-01 0.000000000000000000e+00 0.000000000000000000e+00
-6.110268522923674173e-01 0.000000000000000000e+00 0.000000000000000000e+00
-6.086484486234811087e-01 0.000000000000000000e+00 0.000000000000000000e+00
-6.062700449545948000e-01 0.000000000000000000e+00 0.000000000000000000e+00
-6.038916412857084914e-01 0.000000000000000000e+00 0.000000000000000000e+00
-6.015132376168221828e-01 0.000000000000000000e+00 0.000000000000000000e+00
-5.991348339479358742e-01 0.000000000000000000e+00 0.000000000000000000e+00
-5.967564302790495656e-01 0.000000000000000000e+00 0.000000000000000000e+00
-5.943780266101632570e-01 0.000000000000000000e+00 0.000000000000000000e+00
-5.919996229412769484e-01 0.000000000000000000e+00 0.000000000000000000e+00
-5.896212192723906398e-01 0.000000000000000000e+00 0.000000000000000000e+00
-5.872428156035043312e-01 0.000000000000000000e+00 0.000000000000000000e+00
-5.848644119346180226e-01 0.000000000000000000e+00 0.000000000000000000e+00
-5.824860082657317140e-01 0.000000000000000000e+00 0.000000000000000000e+00
-5.801076045968454054e-01 0.000000000000000000e+00 0.000000000000000000e+00
-5.777292009279590967e-01 0.000000000000000000e+00 0.000000000000000000e+00
-5.753507972590727881e-01 0.000000000000000000e+00 0.000000000000000000e+00
-5.729723935901864795e-01 0.000000000000000000e+00 0.000000000000000000e+00
-5.705939899213001709e-01 0.000000000000000000e+00 0.000000000000000000e+00
-5.682155862524138623e-01 0.000000000000000000e+00 0.000000000000000000e+00
-5.658371825835275537e-01 0.000000000000000000e+00 0.000000000000000000e+00
-5.634587789146414671e-01 0.000000000000000000e+00 0.000000000000000000e+00
-5.610803752457551585e-01 0.000000000000000000e+00 0.000000000000000000e+00
-5.587019715768688499e-01 0.000000000000000000e+00 0.000000000000000000e+00
-5.563235679079825413e-01 0.000000000000000000e+00 0.000000000000000000e+00
-5.539451642390962327e-01 0.000000000000000000e+00 0.000000000000000000e+00
-5.515667605702099241e-01 0.000000000000000000e+00 0.000000000000000000e+00
-5.491883569013236155e-01 0.000000000000000000e+00 0.000000000000000000e+00
-5.468099532324373069e-01 0.000000000000000000e+00 0.000000000000000000e+00
-5.444315495635509983e-01 0.000000000000000000e+00 0.000000000000000000e+00
-5.420531458946646897e-01 0.000000000000000000e+00 0.000000000000000000e+00
-5.396747422257783811e-01 0.000000000000000000e+00 0.000000000000000000e+00
-5.372963385568920724e-01 0.000000000000000000e+00 0.000000000000000000e+00
-5.349179348880057638e-01 0.000000000000000000e+00 0.000000000000000000e+00
-5.325395312191194552e-01 0.000000000000000000e+00 0.000000000000000000e+00
-5.301611275502331466e-01 0.000000000000000000e+00 0.000000000000000000e+00
-5.277827238813468380e-01 0.000000000000000000e+00 0.000000000000000000e+00
-5.254043202124605294e-01 0.000000000000000000e+00 0.000000000000000000e+00
-5.230259165435742208e-01 0.000000000000000000e+00 0.000000000000000000e+00
-5.206475128746879122e-01 0.000000000000000000e+00 0.000000000000000000e+00
-5.182691092058016036e-01 0.000000000000000000e+00 0.000000000000000000e+00
-5.158907055369155170e-01 0.000000000000000000e+00 0.000000000000000000e+00
-5.135123018680292084e-01 0.000000000000000000e+00 0.000000000000000000e+00
-5.111338981991428998e-01 0.000000000000000000e+00 0.000000000000000000e+00
-5.087554945302565912e-01 0.000000000000000000e+00 0.000000000000000000e+00
-5.063770908613702826e-01 0.000000000000000000e+00 0.000000000000000000e+00
-5.039986871924839740e-01 0.000000000000000000e+00 0.000000000000000000e+00
-5.016202835235976654e-01 0.000000000000000000e+00 0.000000000000000000e+00
-4.992418798547113012e-01 0.000000000000000000e+00 0.000000000000000000e+00
-4.968634761858249926e-01 0.000000000000000000e+00 0.000000000000000000e+00
-4.944850725169386840e-01 0.000000000000000000e+00 0.000000000000000000e+00
-4.921066688480524309e-01 0.000000000000000000e+00 0.000000000000000000e+00
-4.897282651791661778e-01 0.000000000000000000e+00 0.000000000000000000e+00
-4.873498615102798692e-01 0.000000000000000000e+00 0.000000000000000000e+00
-4.849714578413935606e-01 0.000000000000000000e+00 0.000000000000000000e+00
-4.825930541725072520e-01 0.000000000000000000e+00 0.000000000000000000e+00
-4.802146505036208879e-01 0.000000000000000000e+00 0.000000000000000000e+00
-4.778362468347345793e-01 0.000000000000000000e+00 0.000000000000000000e+00
-4.754578431658482707e-01 0.000000000000000000e+00 0.000000000000000000e+00
-4.730794394969619621e-01 0.000000000000000000e+00 0.000000000000000000e+00
-4.707010358280756535e-01 0.000000000000000000e+00 0.000000000000000000e+00
-4.683226321591894559e-01 0.000000000000000000e+00 0.000000000000000000e+00
-4.659442284903031473e-01 0.000000000000000000e+00 0.000000000000000000e+00
-4.635658248214168387e-01 0.000000000000000000e+00 0.000000000000000000e+00
-4.611874211525305300e-01 0.000000000000000000e+00 0.000000000000000000e+00
-4.588090174836442214e-01 0.000000000000000000e+00 0.000000000000000000e+00
-4.564306138147579128e-01 0.000000000000000000e+00 0.000000000000000000e+00
-4.540522101458716042e-01 0.000000000000000000e+00 0.000000000000000000e+00
-4.516738064769852956e-01 0.000000000000000000e+00 0.000000000000000000e+00
-4.492954028080989870e-01 0.000000000000000000e+00 0.000000000000000000e+00
-4.469169991392126784e-01 0.000000000000000000e+00 0.000000000000000000e+00
-4.445385954703264808e-01 0.000000000000000000e+00 0.000000000000000000e+00
-4.421601918014401722e-01 0.000000000000000000e+00 0.000000000000000000e+00
-4.397817881325538636e-01 0.000000000000000000e+00 0.000000000000000000e+00
-4.374033844636675550e-01 0.000000000000000000e+00 0.000000000000000000e+00
-4.350249807947812464e-01 0.000000000000000000e+00 0.000000000000000000e+00
-4.326465771258949378e-01 0.000000000000000000e+00 0.000000000000000000e+00
-4.302681734570086292e-01 0.000000000000000000e+00 0.000000000000000000e+00
-4.278897697881223205e-01 0.000000000000000000e+00 0.000000000000000000e+00
-4.255113661192360119e-01 0.000000000000000000e+00 0.000000000000000000e+00
-4.231329624503497033e-01 0.000000000000000000e+00 0.000000000000000000e+00
-4.207545587814634502e-01 0.000000000000000000e+00 0.000000000000000000e+00
-4.183761551125771971e-01 0.000000000000000000e+00 0.000000000000000000e+00
-4.159977514436908885e-01 0.000000000000000000e+00 0.000000000000000000e+00
-4.136193477748045799e-01 0.000000000000000000e+00 0.000000000000000000e+00
-4.112409441059182713e-01 0.000000000000000000e+00 0.000000000000000000e+00
-4.088625404370319627e-01 0.000000000000000000e+00 0.000000000000000000e+00
-4.064841367681456541e-01 0.000000000000000000e+00 0.000000000000000000e+00
-4.041057330992593455e-01 0.000000000000000000e+00 0.000000000000000000e+00
-4.017273294303730369e-01 0.000000000000000000e+00 0.000000000000000000e+00
-3.993489257614867283e-01 0.000000000000000000e+00 0.000000000000000000e+00
-3.969705220926004752e-01 0.000000000000000000e+00 0.000000000000000000e+00
-3.945921184237142221e-01 0.000000000000000000e+00 0.000000000000000000e+00
-3.922137147548279135e-01 0.000000000000000000e+00 0.000000000000000000e+00
-3.898353110859416049e-01 0.000000000000000000e+00 0.000000000000000000e+00
-3.874569074170552962e-01 0.000000000000000000e+00 0.000000000000000000e+00
-3.850785037481689321e-01 0.000000000000000000e+00 0.000000000000000000e+00
-3.827001000792826235e-01 0.000000000000000000e+00 0.000000000000000000e+00
-3.803216964103963149e-01 0.000000000000000000e+00 0.000000000000000000e+00
-3.779432927415100063e-01 0.000000000000000000e+00 0.000000000000000000e+00
-3.755648890726236977e-01 0.000000000000000000e+00 0.000000000000000000e+00
-3.731864854037374446e-01 0.000000000000000000e+00 0.000000000000000000e+00
-3.708080817348511915e-01 0.000000000000000000e+00 0.000000000000000000e+00
-3.684296780659648829e-01 0.000000000000000000e+00 0.000000000000000000e+00
-3.660512743970785743e-01 0.000000000000000000e+00 0.000000000000000000e+00
-3.636728707281922657e-01 0.000000000000000000e+00 0.000000000000000000e+00
-3.612944670593059571e-01 0.000000000000000000e+00 0.000000000000000000e+00
-3.589160633904196485e-01 0.000000000000000000e+00 0.000000000000000000e+00
-3.565376597215333399e-01 0.000000000000000000e+00 0.000000000000000000e+00
-3.541592560526470312e-01 0.000000000000000000e+00 0.000000000000000000e+00
-3.517808523837607226e-01 0.000000000000000000e+00 0.000000000000000000e+00
-3.494024487148744695e-01 0.000000000000000000e+00 0.000000000000000000e+00
-3.470240450459882164e-01 0.000000000000000000e+00 0.000000000000000000e+00
-3.446456413771019078e-01 0.000000000000000000e+00 0.000000000000000000e+00
-3.422672377082155992e-01 0.000000000000000000e+00 0.000000000000000000e+00
-3.398888340393292906e-01 0.000000000000000000e+00 0.000000000000000000e+00
-3.375104303704429820e-01 0.000000000000000000e+00 0.000000000000000000e+00
-3.351320267015566734e-01 0.000000000000000000e+00 0.000000000000000000e+00
-3.327536230326703648e-01 0.000000000000000000e+00 0.000000000000000000e+00
-3.303752193637840562e-01 0.000000000000000000e+00 0.000000000000000000e+00
-3.279968156948977476e-01 0.000000000000000000e+00 0.000000000000000000e+00
-3.256184120260114945e-01 0.000000000000000000e+00 0.000000000000000000e+00
-3.232400083571252414e-01 0.000000000000000000e+00 0.000000000000000000e+00
-3.208616046882389328e-01 0.000000000000000000e+00 0.000000000000000000e+00
-3.184832010193526242e-01 0.000000000000000000e+00 0.000000000000000000e+00
-3.161047973504663156e-01 0.000000000000000000e+00 0.000000000000000000e+00
-3.137263936815800069e-01 0.000000000000000000e+00 0.000000000000000000e+00
-3.113479900126936983e-01 0.000000000000000000e+00 0.000000000000000000e+00
-3.089695863438073897e-01 0.000000000000000000e+00 0.000000000000000000e+00
-3.065911826749210811e-01 0.000000000000000000e+00 0.000000000000000000e+00
-3.042127790060347725e-01 0.000000000000000000e+00 0.000000000000000000e+00
-3.018343753371485194e-01 0.000000000000000000e+00 0.000000000000000000e+00
-2.994559716682622663e-01 0.000000000000000000e+00 0.000000000000000000e+00
-2.970775679993759577e-01 0.000000000000000000e+00 0.000000000000000000e+00
-2.946991643304896491e-01 0.000000000000000000e+00 0.000000000000000000e+00
-2.923207606616033405e-01 0.000000000000000000e+00 0.000000000000000000e+00
-2.899423569927169764e-01 0.000000000000000000e+00 0.000000000000000000e+00
-2.875639533238306678e-01 0.000000000000000000e+00 0.000000000000000000e+00
-2.851855496549443592e-01 0.000000000000000000e+00 0.000000000000000000e+00
-2.828071459860580505e-01 0.000000000000000000e+00 0.000000000000000000e+00
-2.804287423171717419e-01 0.000000000000000000e+00 0.000000000000000000e+00
-2.780503386482854888e-01 0.000000000000000000e+00 0.000000000000000000e+00
-2.756719349793992357e-01 0.000000000000000000e+00 0.000000000000000000e+00
-2.732935313105129271e-01 0.000000000000000000e+00 0.000000000000000000e+00
-2.709151276416266185e-01 0.000000000000000000e+00 0.000000000000000000e+00
-2.685367239727403099e-01 0.000000000000000000e+00 0.000000000000000000e+00
-2.661583203038540013e-01 0.000000000000000000e+00 0.000000000000000000e+00
-2.637799166349676927e-01 0.000000000000000000e+00 0.000000000000000000e+00
-2.614015129660813841e-01 0.000000000000000000e+00 0.000000000000000000e+00
-2.590231092971950755e-01 0.000000000000000000e+00 0.000000000000000000e+00
-2.566447056283087669e-01 0.000000000000000000e+00 0.000000000000000000e+00
-2.542663019594225138e-01 0.000000000000000000e+00 0.000000000000000000e+00
-2.518878982905362607e-01 0.000000000000000000e+00 0.000000000000000000e+00
-2.495094946216499521e-01 0.000000000000000000e+00 0.000000000000000000e+00
-2.471310909527636435e-01 0.000000000000000000e+00 0.000000000000000000e+00
-2.447526872838773349e-01 0.000000000000000000e+00 0.000000000000000000e+00
-2.423742836149910262e-01 0.000000000000000000e+00 0.000000000000000000e+00
-2.399958799461047176e-01 0.000000000000000000e+00 0.000000000000000000e+00
-2.376174762772184090e-01 0.000000000000000000e+00 0.000000000000000000e+00
-2.352390726083321004e-01 0.000000000000000000e+00 0.000000000000000000e+00
-2.328606689394457918e-01 0.000000000000000000e+00 0.000000000000000000e+00
-2.304822652705595110e-01 0.000000000000000000e+00 0.000000000000000000e+00
-2.281038616016732856e-01 0.000000000000000000e+00 0.000000000000000000e+00
-2.257254579327869770e-01 0.000000000000000000e+00 0.000000000000000000e+00
-2.233470542639006684e-01 0.000000000000000000e+00 0.000000000000000000e+00
-2.209686505950143598e-01 0.000000000000000000e+00 0.000000000000000000e+00
-2.185902469261280234e-01 0.000000000000000000e+00 0.000000000000000000e+00
-2.162118432572417148e-01 0.000000000000000000e+00 0.000000000000000000e+00
-2.138334395883554062e-01 0.000000000000000000e+00 0.000000000000000000e+00
-2.114550359194690976e-01 0.000000000000000000e+00 0.000000000000000000e+00
-2.090766322505827890e-01 0.000000000000000000e+00 0.000000000000000000e+00
-2.066982285816965359e-01 0.000000000000000000e+00 0.000000000000000000e+00
-2.043198249128102828e-01 0.000000000000000000e+00 0.000000000000000000e+00
-2.019414212439239742e-01 0.000000000000000000e+00 0.000000000000000000e+00
-1.995630175750376656e-01 1.607998234676664140e-01 9.940049591498336667e+01
-1.971846139061513570e-01 6.083683617446560277e-01 1.166537528088240236e+02
-1.948062102372650206e-01 1.036913726465620300e+00 1.353049615239150398e+02
-1.924278065683787120e-01 1.492612477772269131e+00 1.540372405667853002e+02
-1.900494028994924034e-01 1.946973772485808496e+00 1.732248314240942193e+02
-1.876709992306060948e-01 2.364145043369425991e+00 1.850366636527574258e+02
-1.852925955617197862e-01 2.774497139425776027e+00 1.844874476953400233e+02
-1.829141918928335331e-01 3.218098171797176832e+00 1.846746729659901121e+02
-1.805357882239472800e-01 3.663627383818823802e+00 1.841336006368636617e+02
-1.781573845550609714e-01 4.119985748194512354e+00 1.834079213718848393e+02
-1.757789808861746628e-01 4.561718620569664040e+00 1.836500952803378937e+02
-1.734005772172883542e-01 4.996224586365332954e+00 1.842606275920395262e+02
-1.710221735484020456e-01 5.429222923792480060e+00 1.837494704640179179e+02
-1.686437698795157369e-01 5.872052790971856950e+00 1.825813750398360753e+02
-1.662653662106294283e-01 6.309154503422796267e+00 1.795837272554362301e+02
-1.638869625417431197e-01 6.732085647430146480e+00 1.776884365955249905e+02
-1.615085588728568111e-01 7.156958666387744472e+00 1.761169981791467194e+02
-1.591301552039705025e-01 7.588402318872542907e+00 1.753203724393150083e+02
-1.567517515350843049e-01 8.006149506469348864e+00 1.725527090953294760e+02
-1.543733478661979963e-01 8.391211705960589740e+00 1.700964243367264999e+02
-1.519949441973116877e-01 8.787866915744359630e+00 1.681617407630251932e+02
-1.496165405284253791e-01 9.184997732590598929e+00 1.660850207518596733e+02
-1.472381368595390705e-01 9.599049094194253229e+00 1.639330551516012804e+02
-1.448597331906527619e-01 9.976052754857857252e+00 1.612245418127451160e+02
-1.424813295217664533e-01 1.035473410049188203e+01 1.604459656797377534e+02
-1.401029258528801447e-01 1.073165065940098373e+01 1.594687650407291528e+02
-1.377245221839938361e-01 1.110713089342052484e+01 1.582093375046549397e+02
-1.353461185151075274e-01 1.148739211711563968e+01 1.546401566935442702e+02
-1.329677148462213299e-01 1.184071992408882323e+01 1.536036458181366413e+02
-1.305893111773350213e-01 1.220726444026753654e+01 1.524822150163089702e+02
-1.282109075084487126e-01 1.258067787420074524e+01 1.512924329195722351e+02
-1.258325038395624040e-01 1.294785442032203093e+01 1.502049214863579323e+02
-1.234541001706760954e-01 1.327701625456501233e+01 1.488457051676377034e+02
-1.210756965017897868e-01 1.362936750253951601e+01 1.485573656513716685e+02
-1.186972928329034782e-01 1.398137669683885065e+01 1.470719034424795382e+02
-1.163188891640171696e-01 1.432999543470741344e+01 1.443728589987795203e+02
-1.139404854951308610e-01 1.467961025689982080e+01 1.422891410037316291e+02
-1.115620818262445524e-01 1.502754382980243264e+01 1.418767871323904046e+02
-1.091836781573583548e-01 1.537401375914189572e+01 1.403647347382421344e+02
-1.068052744884720462e-01 1.570522798764440608e+01 1.387507715011500409e+02
-1.044268708195857376e-01 1.601444724950377463e+01 1.368156664157262412e+02
-1.020484671506994290e-01 1.633206457038159698e+01 1.349113000720255400e+02
-9.967006348181312037e-02 1.665141896501977214e+01 1.328267215542244344e+02
-9.729165981292681176e-02 1.696780750337637045e+01 1.306866822749259995e+02
-9.491325614404050315e-02 1.728143013683022389e+01 1.288978825367140360e+02
-9.253485247515419454e-02 1.758402426435026200e+01 1.280201058208830887e+02
-9.015644880626788593e-02 1.788834556755506355e+01 1.260432308012811689e+02
-8.777804513738157732e-02 1.818669944850950060e+01 1.247337679074197752e+02
-8.539964146849537974e-02 1.848227060511452180e+01 1.232091602516285462e+02
-8.302123779960907113e-02 1.877093995501437718e+01 1.215003386596199988e+02
-8.064283413072276252e-02 1.905928214325978587e+01 1.197060394250701165e+02
-7.826443046183645391e-02 1.932988139614210610e+01 1.177843808384837700e+02
-7.588602679295008979e-02 1.961809147726994951e+01 1.160619073505570924e+02
-7.350762312406378118e-02 1.989821869120508779e+01 1.137821393392347602e+02
-7.112921945517747258e-02 2.017119864921989603e+01 1.122425573882911749e+02
-6.875081578629116397e-02 2.043111709791460129e+01 1.101908701734747353e+02
-6.637241211740485536e-02 2.068973360279255758e+01 1.089788286371303343e+02
-6.399400844851860226e-02 2.094712011111458594e+01 1.062645608430118500e+02
-6.161560477963234916e-02 2.118846918169622029e+01 1.037020441405092299e+02
-5.923720111074604056e-02 2.144052105798931507e+01 1.014633915747985071e+02
-5.685879744185973195e-02 2.168006584224346511e+01 1.001097421877882425e+02
-5.448039377297342334e-02 2.192183785475693725e+01 9.847808132321236485e+01
-5.210199010408705922e-02 2.214549169108604332e+01 9.625603608612874496e+01
-4.972358643520075061e-02 2.236467191375303543e+01 9.474756562034586693e+01
-4.734518276631444200e-02 2.258440767701136309e+01 9.128612640427562042e+01
-4.496677909742813339e-02 2.281213087902155223e+01 8.860173990953440182e+01
-4.258837542854182479e-02 2.303193990203266139e+01 8.532256215485116968e+01
-4.020997175965557169e-02 2.323647720491159419e+01 8.262594256582299579e+01
-3.783156809076931859e-02 2.344194875859098914e+01 7.974111061999366257e+01
-3.545316442188300998e-02 2.361167363757279958e+01 7.642250328720474783e+01
-3.307476075299670137e-02 2.378737287494893593e+01 7.213181432379367664e+01
-3.069635708411039277e-02 2.395115280343571840e+01 6.781693038447521360e+01
-2.831795341522408416e-02 2.411067014052344604e+01 6.408290785684904733e+01
-2.593954974633777555e-02 2.426123741434963677e+01 5.983613534713708049e+01
-2.356114607745146694e-02 2.440204329904897662e+01 5.764982437447675778e+01
-2.118274240856515833e-02 2.452771659733291187e+01 5.403273729627561295e+01
-1.880433873967884972e-02 2.464490026242308574e+01 5.068259419657963605e+01
-1.642593507079254112e-02 2.476062743650793152e+01 4.729635818884226239e+01
-1.404753140190634353e-02 2.486509359700707478e+01 4.418848063797469905e+01
-1.166912773302003492e-02 2.498281917560186827e+01 4.105130499771509278e+01
-9.290724064133726312e-03 2.507248948120325593e+01 3.806471236079362797e+01
-6.912320395247417704e-03 2.515658948329392786e+01 3.521925237725925228e+01
-4.533916726361109095e-03 2.523556845893647704e+01 3.204537477020373615e+01
-2.155513057474800487e-03 2.531221785906833333e+01 2.891704941512699278e+01
2.228906114115081216e-04 2.537840904324033886e+01 2.437428480352011562e+01
2.601294280297816730e-03 2.543304911267303936e+01 2.142353165760194145e+01
4.979697949184125338e-03 2.548255625311814043e+01 1.841923879167476485e+01
7.358101618070433947e-03 2.552279580575082463e+01 1.471476580522292821e+01
9.736505286956631533e-03 2.555285776123012198e+01 1.026904469892340188e+01
1.211490895584294014e-02 2.556253805963358872e+01 6.056862789945769876e+00
1.449331262472924875e-02 2.558202754415268032e+01 2.043467975278967508e+00
1.687171629361555736e-02 2.559467333449605064e+01 -1.951262787500193996e+00
1.925011996250186597e-02 2.558554498871592386e+01 -6.243799535680813584e+00
2.162852363138817458e-02 2.555645719494709311e+01 -1.039318554388521854e+01
2.400692730027448318e-02 2.552246569005581733e+01 -1.383043540643347669e+01
2.638533096916079179e-02 2.548165102996959064e+01 -1.857943355931563190e+01
2.876373463804710040e-02 2.543614734739062300e+01 -2.343705168368854430e+01
3.114213830693340901e-02 2.537429304851628586e+01 -2.745703984840126566e+01
3.352054197581960659e-02 2.530566585494019449e+01 -3.078240507917174895e+01
3.589894564470591520e-02 2.523359447650402387e+01 -3.436220434329469242e+01
3.827734931359222381e-02 2.514013361471962327e+01 -3.799902977207989352e+01
4.065575298247853242e-02 2.503724563737242192e+01 -4.242153019755287602e+01
4.303415665136484103e-02 2.493250574559397847e+01 -4.629755156914465886e+01
4.541256032025114964e-02 2.482432734317264078e+01 -5.010672826395840929e+01
4.779096398913745825e-02 2.470519376124469346e+01 -5.408358230397114141e+01
5.016936765802376685e-02 2.457788071172925015e+01 -5.721707453797747434e+01
5.254777132691007546e-02 2.442719211677432156e+01 -6.076258199006490912e+01
5.492617499579638407e-02 2.427315038339121145e+01 -6.429187126355601833e+01
5.730457866468258166e-02 2.411392559155131465e+01 -6.790581465884659451e+01
5.968298233356889027e-02 2.394726857072122783e+01 -7.164110555342558939e+01
6.206138600245519887e-02 2.377928061467895304e+01 -7.509218284580613556e+01
6.443978967134150748e-02 2.359206615801066675e+01 -7.763824292017163486e+01
6.681819334022781609e-02 2.340338552066591404e+01 -8.040061701457425158e+01
6.919659700911412470e-02 2.320925295593951176e+01 -8.369456563925895409e+01
7.157500067800043331e-02 2.300127907833132213e+01 -8.741653502460724212e+01
7.395340434688674192e-02 2.279188547987779145e+01 -9.155041236358594858e+01
7.633180801577305052e-02 2.258064129870211190e+01 -9.489321704740446251e+01
7.871021168465935913e-02 2.236089915850935483e+01 -9.875537956555211849e+01
8.108861535354555672e-02 2.212333097172871987e+01 -1.024255607592552053e+02
8.346701902243186533e-02 2.186815049448267700e+01 -1.056699922875817776e+02
8.584542269131817394e-02 2.160184224814288001e+01 -1.098034531808680185e+02
8.822382636020448254e-02 2.133512240223095091e+01 -1.144063729066409678e+02
9.060223002909079115e-02 2.105458394985623727e+01 -1.185016403019425297e+02
9.298063369797709976e-02 2.077315966096403343e+01 -1.224117139738855684e+02
9.535903736686340837e-02 2.048802010485162128e+01 -1.257380418869279737e+02
9.773744103574971698e-02 2.018031612086019777e+01 -1.297380531598795415e+02
1.001158447046360256e-01 1.985959592805083673e+01 -1.343446788691643405e+02
1.024942483735223342e-01 1.954245179787749720e+01 -1.378828811147292583e+02
1.048726520424085318e-01 1.921188627542721150e+01 -1.427405444882568020e+02
1.072510557112948404e-01 1.887759229305818565e+01 -1.484202411125199319e+02
1.096294593801811490e-01 1.851614763184663559e+01 -1.530954525255301917e+02
1.120078630490674576e-01 1.813986363105321686e+01 -1.579519074670647854e+02
1.143862667179537662e-01 1.777517244665740748e+01 -1.638628981675615535e+02
1.167646703868400748e-01 1.737821331386707158e+01 -1.695814700444314553e+02
1.191430740557263834e-01 1.695798764486157495e+01 -1.751220842407196585e+02
1.215214777246126920e-01 1.653908826109492480e+01 -1.787784627499992212e+02
1.238998813934990006e-01 1.610286196577829543e+01 -1.817920642613088944e+02
1.262782850623853648e-01 1.564513061591677001e+01 -1.867350794563843408e+02
1.286566887312715068e-01 1.517855437013911768e+01 -1.898408085127332185e+02
1.310350924001578155e-01 1.471248221644673748e+01 -1.912375321358056794e+02
1.334134960690441241e-01 1.426407411462211172e+01 -1.929819096609885207e+02
1.357918997379304327e-01 1.381611450491809734e+01 -1.943424213259680755e+02
1.381703034068167968e-01 1.333385846576904044e+01 -1.951414371669945069e+02
1.405487070757031054e-01 1.286303255915683508e+01 -1.960366438165469276e+02
1.429271107445894140e-01 1.240958716425598141e+01 -1.968054614356206287e+02
1.453055144134757226e-01 1.194919944143115487e+01 -1.997254706486768896e+02
1.476839180823620312e-01 1.148061468675902574e+01 -2.012061082497568520e+02
1.500623217512483953e-01 1.100387951481950211e+01 -2.014112479776498503e+02
1.524407254201345374e-01 1.051601164124478771e+01 -2.037189408997905673e+02
1.548191290890208460e-01 1.003165390109330701e+01 -2.081908708710048188e+02
1.571975327579071546e-01 9.513796193013529745e+00 -2.118261940231929259e+02
1.595759364267934632e-01 9.030621044282511889e+00 -2.134714563612437814e+02
1.619543400956798274e-01 8.543485954318960296e+00 -2.154022924252217308e+02
1.643327437645661360e-01 8.017773794579927227e+00 -2.194045334190637391e+02
1.667111474334524446e-01 7.457967853173688155e+00 -2.198913528900600056e+02
1.690895511023387532e-01 6.911117471121354328e+00 -2.162839702102594970e+02
1.714679547712250618e-01 6.403401736638219433e+00 -2.172955483463468624e+02
1.738463584401113704e-01 5.880743488912816730e+00 -2.166297074585665712e+02
1.762247621089975680e-01 5.297686168702881560e+00 -2.170339957722707709e+02
1.786031657778838766e-01 4.801749896392376371e+00 -2.152762206410352235e+02
1.809815694467701852e-01 4.369690310319747084e+00 -2.150190679881360154e+02
1.833599731156564938e-01 3.862455750086382977e+00 -2.128117931746028546e+02
1.857383767845428024e-01 3.391157044226783768e+00 -2.114005600449764017e+02
1.881167804534291110e-01 2.855829276401731676e+00 -2.081884678155021220e+02
1.904951841223154196e-01 2.337830323207576555e+00 -2.018896101206853473e+02
1.928735877912017282e-01 1.797096069286425291e+00 -1.837236616930491664e+02
1.952519914600880369e-01 1.341878239950766272e+00 -1.623969808243266186e+02
1.976303951289743455e-01 8.527848127568944392e-01 -1.425812232208139108e+02
2.000087987978605431e-01 3.461240119807875715e-01 -1.200733632293381277e+02
2.023872024667468517e-01 0.000000000000000000e+00 0.000000000000000000e+00
2.047656061356331603e-01 0.000000000000000000e+00 0.000000000000000000e+00
2.071440098045194689e-01 0.000000000000000000e+00 0.000000000000000000e+00
2.095224134734057775e-01 0.000000000000000000e+00 0.000000000000000000e+00
2.119008171422920861e-01 0.000000000000000000e+00 0.000000000000000000e+00
2.142792208111783947e-01 0.000000000000000000e+00 0.000000000000000000e+00
2.166576244800647033e-01 0.000000000000000000e+00 0.000000000000000000e+00
2.190360281489510119e-01 0.000000000000000000e+00 0.000000000000000000e+00
2.214144318178373205e-01 0.000000000000000000e+00 0.000000000000000000e+00
2.237928354867235181e-01 0.000000000000000000e+00 0.000000000000000000e+00
2.261712391556098267e-01 0.000000000000000000e+00 0.000000000000000000e+00
2.285496428244961353e-01 0.000000000000000000e+00 0.000000000000000000e+00
2.309280464933824439e-01 0.000000000000000000e+00 0.000000000000000000e+00
2.333064501622687525e-01 0.000000000000000000e+00 0.000000000000000000e+00
2.356848538311550612e-01 0.000000000000000000e+00 0.000000000000000000e+00
2.380632575000413698e-01 0.000000000000000000e+00 0.000000000000000000e+00
2.404416611689276784e-01 0.000000000000000000e+00 0.000000000000000000e+00
2.428200648378139870e-01 0.000000000000000000e+00 0.000000000000000000e+00
2.451984685067002956e-01 0.000000000000000000e+00 0.000000000000000000e+00
2.475768721755864932e-01 0.000000000000000000e+00 0.000000000000000000e+00
2.499552758444728018e-01 0.000000000000000000e+00 0.000000000000000000e+00
2.523336795133591104e-01 0.000000000000000000e+00 0.000000000000000000e+00
2.547120831822454190e-01 0.000000000000000000e+00 0.000000000000000000e+00
2.570904868511317276e-01 0.000000000000000000e+00 0.000000000000000000e+00
2.594688905200180362e-01 0.000000000000000000e+00 0.000000000000000000e+00
2.618472941889043448e-01 0.000000000000000000e+00 0.000000000000000000e+00
2.642256978577906534e-01 0.000000000000000000e+00 0.000000000000000000e+00
2.666041015266769620e-01 0.000000000000000000e+00 0.000000000000000000e+00
2.689825051955633262e-01 0.000000000000000000e+00 0.000000000000000000e+00
2.713609088644494682e-01 0.000000000000000000e+00 0.000000000000000000e+00
2.737393125333357768e-01 0.000000000000000000e+00 0.000000000000000000e+00
2.761177162022220855e-01 0.000000000000000000e+00 0.000000000000000000e+00
2.784961198711083941e-01 0.000000000000000000e+00 0.000000000000000000e+00
2.808745235399947027e-01 0.000000000000000000e+00 0.000000000000000000e+00
2.832529272088810113e-01 0.000000000000000000e+00 0.000000000000000000e+00
2.856313308777673199e-01 0.000000000000000000e+00 0.000000000000000000e+00
2.880097345466536285e-01 0.000000000000000000e+00 0.000000000000000000e+00
2.903881382155399371e-01 0.000000000000000000e+00 0.000000000000000000e+00
2.927665418844263567e-01 0.000000000000000000e+00 0.000000000000000000e+00
2.951449455533124433e-01 0.000000000000000000e+00 0.000000000000000000e+00
2.975233492221987519e-01 0.000000000000000000e+00 0.000000000000000000e+00
2.999017528910850605e-01 0.000000000000000000e+00 0.000000000000000000e+00
3.022801565599713691e-01 0.000000000000000000e+00 0.000000000000000000e+00
3.046585602288577332e-01 0.000000000000000000e+00 0.000000000000000000e+00
3.070369638977440419e-01 0.000000000000000000e+00 0.000000000000000000e+00
3.094153675666303505e-01 0.000000000000000000e+00 0.000000000000000000e+00
3.117937712355166591e-01 0.000000000000000000e+00 0.000000000000000000e+00
3.141721749044029677e-01 0.000000000000000000e+00 0.000000000000000000e+00
3.165505785732892763e-01 0.000000000000000000e+00 0.000000000000000000e+00
3.189289822421754739e-01 0.000000000000000000e+00 0.000000000000000000e+00
3.213073859110617825e-01 0.000000000000000000e+00 0.000000000000000000e+00
3.236857895799480911e-01 0.000000000000000000e+00 0.000000000000000000e+00
3.260641932488343997e-01 0.000000000000000000e+00 0.000000000000000000e+00
3.284425969177207083e-01 0.000000000000000000e+00 0.000000000000000000e+00
3.308210005866070169e-01 0.000000000000000000e+00 0.000000000000000000e+00
3.331994042554933255e-01 0.000000000000000000e+00 0.000000000000000000e+00
3.355778079243796341e-01 0.000000000000000000e+00 0.000000000000000000e+00
3.379562115932659427e-01 0.000000000000000000e+00 0.000000000000000000e+00
3.403346152621522513e-01 0.000000000000000000e+00 0.000000000000000000e+00
3.427130189310384489e-01 0.000000000000000000e+00 0.000000000000000000e+00
3.450914225999247575e-01 0.000000000000000000e+00 0.000000000000000000e+00
3.474698262688110662e-01 0.000000000000000000e+00 0.000000000000000000e+00
3.498482299376973748e-01 0.000000000000000000e+00 0.000000000000000000e+00
3.522266336065836834e-01 0.000000000000000000e+00 0.000000000000000000e+00
3.546050372754699920e-01 0.000000000000000000e+00 0.000000000000000000e+00
3.569834409443563006e-01 0.000000000000000000e+00 0.000000000000000000e+00
3.593618446132426092e-01 0.000000000000000000e+00 0.000000000000000000e+00
3.617402482821289178e-01 0.000000000000000000e+00 0.000000000000000000e+00
3.641186519510153374e-01 0.000000000000000000e+00 0.000000000000000000e+00
3.664970556199014240e-01 0.000000000000000000e+00 0.000000000000000000e+00
3.688754592887877326e-01 0.000000000000000000e+00 0.000000000000000000e+00
3.712538629576740412e-01 0.000000000000000000e+00 0.000000000000000000e+00
3.736322666265603498e-01 0.000000000000000000e+00 0.000000000000000000e+00
3.760106702954466584e-01 0.000000000000000000e+00 0.000000000000000000e+00
3.783890739643329670e-01 0.000000000000000000e+00 0.000000000000000000e+00
3.807674776332192756e-01 0.000000000000000000e+00 0.000000000000000000e+00
3.831458813021055843e-01 0.000000000000000000e+00 0.000000000000000000e+00
3.855242849709918929e-01 0.000000000000000000e+00 0.000000000000000000e+00
3.879026886398783125e-01 0.000000000000000000e+00 0.000000000000000000e+00
3.902810923087643991e-01 0.000000000000000000e+00 0.000000000000000000e+00
3.926594959776507077e-01 0.000000000000000000e+00 0.000000000000000000e+00
3.950378996465370163e-01 0.000000000000000000e+00 0.000000000000000000e+00
3.974163033154233249e-01 0.000000000000000000e+00 0.000000000000000000e+00
3.997947069843096335e-01 0.000000000000000000e+00 0.000000000000000000e+00
4.021731106531959421e-01 0.000000000000000000e+00 0.000000000000000000e+00
4.045515143220822507e-01 0.000000000000000000e+00 0.000000000000000000e+00
4.069299179909685593e-01 0.000000000000000000e+00 0.000000000000000000e+00
4.093083216598548679e-01 0.000000000000000000e+00 0.000000000000000000e+00
4.116867253287412876e-01 0.000000000000000000e+00 0.000000000000000000e+00
4.140651289976273741e-01 0.000000000000000000e+00 0.000000000000000000e+00
4.164435326665136827e-01 0.000000000000000000e+00 0.000000000000000000e+00
4.188219363353999913e-01 0.000000000000000000e+00 0.000000000000000000e+00
4.212003400042862999e-01 0.000000000000000000e+00 0.000000000000000000e+00
4.235787436731727196e-01 0.000000000000000000e+00 0.000000000000000000e+00
4.259571473420590282e-01 0.000000000000000000e+00 0.000000000000000000e+00
4.283355510109453368e-01 0.000000000000000000e+00 0.000000000000000000e+00
4.307139546798316454e-01 0.000000000000000000e+00 0.000000000000000000e+00
4.330923583487179540e-01 0.000000000000000000e+00 0.000000000000000000e+00
4.354707620176042626e-01 0.000000000000000000e+00 0.000000000000000000e+00
4.378491656864904602e-01 0.000000000000000000e+00 0.000000000000000000e+00
4.402275693553767688e-01 0.000000000000000000e+00 0.000000000000000000e+00
4.426059730242630774e-01 0.000000000000000000e+00 0.000000000000000000e+00
4.449843766931493860e-01 0.000000000000000000e+00 0.000000000000000000e+00
4.473627803620356946e-01 0.000000000000000000e+00 0.000000000000000000e+00
4.497411840309220032e-01 0.000000000000000000e+00 0.000000000000000000e+00
4.521195876998083119e-01 0.000000000000000000e+00 0.000000000000000000e+00
4.544979913686946205e-01 0.000000000000000000e+00 0.000000000000000000e+00
4.568763950375809291e-01 0.000000000000000000e+00 0.000000000000000000e+00
4.592547987064672377e-01 0.000000000000000000e+00 0.000000000000000000e+00
4.616332023753534353e-01 0.000000000000000000e+00 0.000000000000000000e+00
4.640116060442397439e-01 0.000000000000000000e+00 0.000000000000000000e+00
4.663900097131260525e-01 0.000000000000000000e+00 0.000000000000000000e+00
4.687684133820123611e-01 0.000000000000000000e+00 0.000000000000000000e+00
4.711468170508986697e-01 0.000000000000000000e+00 0.000000000000000000e+00
4.735252207197849783e-01 0.000000000000000000e+00 0.000000000000000000e+00
4.759036243886712869e-01 0.000000000000000000e+00 0.000000000000000000e+00
4.782820280575575955e-01 0.000000000000000000e+00 0.000000000000000000e+00
4.806604317264439041e-01 0.000000000000000000e+00 0.000000000000000000e+00
4.830388353953302127e-01 0.000000000000000000e+00 0.000000000000000000e+00
4.854172390642164103e-01 0.000000000000000000e+00 0.000000000000000000e+00
4.877956427331027189e-01 0.000000000000000000e+00 0.000000000000000000e+00
4.901740464019890275e-01 0.000000000000000000e+00 0.000000000000000000e+00
4.925524500708753362e-01 0.000000000000000000e+00 0.000000000000000000e+00
4.949308537397616448e-01 0.000000000000000000e+00 0.000000000000000000e+00
4.973092574086479534e-01 0.000000000000000000e+00 0.000000000000000000e+00
4.996876610775342620e-01 0.000000000000000000e+00 0.000000000000000000e+00
5.020660647464205706e-01 0.000000000000000000e+00 0.000000000000000000e+00
5.044444684153068792e-01 0.000000000000000000e+00 0.000000000000000000e+00
5.068228720841931878e-01 0.000000000000000000e+00 0.000000000000000000e+00
5.092012757530793854e-01 0.000000000000000000e+00 0.000000000000000000e+00
5.115796794219656940e-01 0.000000000000000000e+00 0.000000000000000000e+00
5.139580830908520026e-01 0.000000000000000000e+00 0.000000000000000000e+00
5.163364867597383112e-01 0.000000000000000000e+00 0.000000000000000000e+00
5.187148904286246198e-01 0.000000000000000000e+00 0.000000000000000000e+00
5.210932940975109284e-01 0.000000000000000000e+00 0.000000000000000000e+00
5.234716977663972370e-01 0.000000000000000000e+00 0.000000000000000000e+00
5.258501014352835456e-01 0.000000000000000000e+00 0.000000000000000000e+00
5.282285051041698543e-01 0.000000000000000000e+00 0.000000000000000000e+00
5.306069087730562739e-01 0.000000000000000000e+00 0.000000000000000000e+00
5.329853124419423605e-01 0.000000000000000000e+00 0.000000000000000000e+00
5.353637161108286691e-01 0.000000000000000000e+00 0.000000000000000000e+00
5.377421197797149777e-01 0.000000000000000000e+00 0.000000000000000000e+00
5.401205234486012863e-01 0.000000000000000000e+00 0.000000000000000000e+00
5.424989271174875949e-01 0.000000000000000000e+00 0.000000000000000000e+00
5.448773307863739035e-01 0.000000000000000000e+00 0.000000000000000000e+00
5.472557344552602121e-01 0.000000000000000000e+00 0.000000000000000000e+00
5.496341381241465207e-01 0.000000000000000000e+00 0.000000000000000000e+00
5.520125417930328293e-01 0.000000000000000000e+00 0.000000000000000000e+00
5.543909454619192489e-01 0.000000000000000000e+00 0.000000000000000000e+00
5.567693491308053355e-01 0.000000000000000000e+00 0.000000000000000000e+00
5.591477527996916441e-01 0.000000000000000000e+00 0.000000000000000000e+00
5.615261564685779527e-01 0.000000000000000000e+00 0.000000000000000000e+00
5.639045601374642613e-01 0.000000000000000000e+00 0.000000000000000000e+00
5.662829638063505699e-01 0.000000000000000000e+00 0.000000000000000000e+00
5.686613674752368786e-01 0.000000000000000000e+00 0.000000000000000000e+00
5.710397711441231872e-01 0.000000000000000000e+00 0.000000000000000000e+00
5.734181748130094958e-01 0.000000000000000000e+00 0.000000000000000000e+00
5.757965784818958044e-01 0.000000000000000000e+00 0.000000000000000000e+00
5.781749821507822240e-01 0.000000000000000000e+00 0.000000000000000000e+00
5.805533858196683106e-01 0.000000000000000000e+00 0.000000000000000000e+00
5.829317894885546192e-01 0.000000000000000000e+00 0.000000000000000000e+00
5.853101931574409278e-01 0.000000000000000000e+00 0.000000000000000000e+00
5.876885968263272364e-01 0.000000000000000000e+00 0.000000000000000000e+00
5.900670004952136560e-01 0.000000000000000000e+00 0.000000000000000000e+00
5.924454041640999646e-01 0.000000000000000000e+00 0.000000000000000000e+00
5.948238078329862732e-01 0.000000000000000000e+00 0.000000000000000000e+00
5.972022115018725819e-01 0.000000000000000000e+00 0.000000000000000000e+00
5.995806151707588905e-01 0.000000000000000000e+00 0.000000000000000000e+00
6.019590188396451991e-01 0.000000000000000000e+00 0.000000000000000000e+00
6.043374225085313967e-01 0.000000000000000000e+00 0.000000000000000000e+00
6.067158261774177053e-01 0.000000000000000000e+00 0.000000000000000000e+00
6.090942298463040139e-01 0.000000000000000000e+00 0.000000000000000000e+00
6.114726335151903225e-01 0.000000000000000000e+00 0.000000000000000000e+00
6.138510371840766311e-01 0.000000000000000000e+00 0.000000000000000000e+00
6.162294408529629397e-01 0.000000000000000000e+00 0.000000000000000000e+00
6.186078445218492483e-01 0.000000000000000000e+00 0.000000000000000000e+00
6.209862481907355569e-01 0.000000000000000000e+00 0.000000000000000000e+00
6.233646518596218655e-01 0.000000000000000000e+00 0.000000000000000000e+00
6.257430555285081741e-01 0.000000000000000000e+00 0.000000000000000000e+00
6.281214591973943717e-01 0.000000000000000000e+00 0.000000000000000000e+00
6.304998628662806803e-01 0.000000000000000000e+00 0.000000000000000000e+00
6.328782665351669889e-01 0.000000000000000000e+00 0.000000000000000000e+00
6.352566702040532975e-01 0.000000000000000000e+00 0.000000000000000000e+00
6.376350738729396062e-01 0.000000000000000000e+00 0.000000000000000000e+00
6.400134775418259148e-01 0.000000000000000000e+00 0.000000000000000000e+00
6.423918812107122234e-01 0.000000000000000000e+00 0.000000000000000000e+00
6.447702848795985320e-01 0.000000000000000000e+00 0.000000000000000000e+00
6.471486885484848406e-01 0.000000000000000000e+00 0.000000000000000000e+00
6.495270922173712602e-01 0.000000000000000000e+00 0.000000000000000000e+00
6.519054958862573468e-01 0.000000000000000000e+00 0.000000000000000000e+00
6.542838995551436554e-01 0.000000000000000000e+00 0.000000000000000000e+00
6.566623032240299640e-01 0.000000000000000000e+00 0.000000000000000000e+00
6.590407068929162726e-01 0.000000000000000000e+00 0.000000000000000000e+00
6.614191105618025812e-01 0.000000000000000000e+00 0.000000000000000000e+00
6.637975142306888898e-01 0.000000000000000000e+00 0.000000000000000000e+00
6.661759178995751984e-01 0.000000000000000000e+00 0.000000000000000000e+00
6.685543215684615070e-01 0.000000000000000000e+00 0.000000000000000000e+00
6.709327252373478156e-01 0.000000000000000000e+00 0.000000000000000000e+00
6.733111289062342353e-01 0.000000000000000000e+00 0.000000000000000000e+00
6.756895325751203218e-01 0.000000000000000000e+00 0.000000000000000000e+00
6.780679362440066305e-01 0.000000000000000000e+00 0.000000000000000000e+00
6.804463399128929391e-01 0.000000000000000000e+00 0.000000000000000000e+00
6.828247435817792477e-01 0.000000000000000000e+00 0.000000000000000000e+00
6.852031472506656673e-01 0.000000000000000000e+00 0.000000000000000000e+00
6.875815509195519759e-01 0.000000000000000000e+00 0.000000000000000000e+00
6.899599545884382845e-01 0.000000000000000000e+00 0.000000000000000000e+00
6.923383582573245931e-01 0.000000000000000000e+00 0.000000000000000000e+00
6.947167619262109017e-01 0.000000000000000000e+00 0.000000000000000000e+00
6.970951655950972103e-01 0.000000000000000000e+00 0.000000000000000000e+00
6.994735692639832969e-01 0.000000000000000000e+00 0.000000000000000000e+00
7.018519729328696055e-01 0.000000000000000000e+00 0.000000000000000000e+00
7.042303766017559141e-01 0.000000000000000000e+00 0.000000000000000000e+00
7.066087802706422227e-01 0.000000000000000000e+00 0.000000000000000000e+00
