#! FIELDS rc1 external1.bias der_rc1
#! SET min_rc1 -1.6304825047198874
#! SET max_rc1 1.2949919874159206
#! SET nbins_rc1 600
#! SET periodic_rc1 false
-1.630482504719887427e+00 0.000000000000000000e+00 0.000000000000000000e+00
-1.625598574015153286e+00 0.000000000000000000e+00 0.000000000000000000e+00
-1.620714643310418923e+00 0.000000000000000000e+00 0.000000000000000000e+00
-1.615830712605684782e+00 0.000000000000000000e+00 0.000000000000000000e+00
-1.610946781900950420e+00 0.000000000000000000e+00 0.000000000000000000e+00
-1.606062851196216279e+00 0.000000000000000000e+00 0.000000000000000000e+00
-1.601178920491482138e+00 0.000000000000000000e+00 0.000000000000000000e+00
-1.596294989786747776e+00 0.000000000000000000e+00 0.000000000000000000e+00
-1.591411059082013635e+00 0.000000000000000000e+00 0.000000000000000000e+00
-1.586527128377279272e+00 0.000000000000000000e+00 0.000000000000000000e+00
-1.581643197672545131e+00 0.000000000000000000e+00 0.000000000000000000e+00
-1.576759266967810991e+00 0.000000000000000000e+00 0.000000000000000000e+00
-1.571875336263076406e+00 0.000000000000000000e+00 0.000000000000000000e+00
-1.566991405558342265e+00 0.000000000000000000e+00 0.000000000000000000e+00
-1.562107474853608124e+00 0.000000000000000000e+00 0.000000000000000000e+00
-1.557223544148873984e+00 0.000000000000000000e+00 0.000000000000000000e+00
-1.552339613444139843e+00 0.000000000000000000e+00 0.000000000000000000e+00
-1.547455682739405258e+00 0.000000000000000000e+00 0.000000000000000000e+00
-1.542571752034671118e+00 0.000000000000000000e+00 0.000000000000000000e+00
-1.537687821329936977e+00 0.000000000000000000e+00 0.000000000000000000e+00
-1.532803890625202614e+00 0.000000000000000000e+00 0.000000000000000000e+00
-1.527919959920468473e+00 0.000000000000000000e+00 0.000000000000000000e+00
-1.523036029215734111e+00 0.000000000000000000e+00 0.000000000000000000e+00
-1.518152098510999970e+00 0.000000000000000000e+00 0.000000000000000000e+00
-1.513268167806265607e+00 0.000000000000000000e+00 0.000000000000000000e+00
-1.508384237101531467e+00 0.000000000000000000e+00 0.000000000000000000e+00
-1.503500306396797326e+00 0.000000000000000000e+00 0.000000000000000000e+00
-1.498616375692062963e+00 0.000000000000000000e+00 0.000000000000000000e+00
-1.493732444987328822e+00 0.000000000000000000e+00 0.000000000000000000e+00
-1.488848514282594460e+00 0.000000000000000000e+00 0.000000000000000000e+00
-1.483964583577860319e+00 0.000000000000000000e+00 0.000000000000000000e+00
-1.479080652873126178e+00 0.000000000000000000e+00 0.000000000000000000e+00
-1.474196722168391815e+00 0.000000000000000000e+00 0.000000000000000000e+00
-1.469312791463657675e+00 0.000000000000000000e+00 0.000000000000000000e+00
-1.464428860758923312e+00 0.000000000000000000e+00 0.000000000000000000e+00
-1.459544930054189171e+00 0.000000000000000000e+00 0.000000000000000000e+00
-1.454660999349455031e+00 0.000000000000000000e+00 0.000000000000000000e+00
-1.449777068644720668e+00 0.000000000000000000e+00 0.000000000000000000e+00
-1.444893137939986527e+00 0.000000000000000000e+00 0.000000000000000000e+00
-1.440009207235252164e+00 0.000000000000000000e+00 0.000000000000000000e+00
-1.435125276530517802e+00 0.000000000000000000e+00 0.000000000000000000e+00
-1.430241345825783661e+00 0.000000000000000000e+00 0.000000000000000000e+00
-1.425357415121049520e+00 0.000000000000000000e+00 0.000000000000000000e+00
-1.420473484416315380e+00 0.000000000000000000e+00 0.000000000000000000e+00
-1.415589553711580795e+00 0.000000000000000000e+00 0.000000000000000000e+00
-1.410705623006846654e+00 0.000000000000000000e+00 0.000000000000000000e+00
-1.405821692302112513e+00 0.000000000000000000e+00 0.000000000000000000e+00
-1.400937761597378373e+00 0.000000000000000000e+00 0.000000000000000000e+00
-1.396053830892644232e+00 0.000000000000000000e+00 0.000000000000000000e+00
-1.391169900187909647e+00 0.000000000000000000e+00 0.000000000000000000e+00
-1.386285969483175506e+00 0.000000000000000000e+00 0.000000000000000000e+00
-1.381402038778441366e+00 0.000000000000000000e+00 0.000000000000000000e+00
-1.376518108073707003e+00 0.000000000000000000e+00 0.000000000000000000e+00
-1.371634177368972862e+00 0.000000000000000000e+00 0.000000000000000000e+00
-1.366750246664238500e+00 0.000000000000000000e+00 0.000000000000000000e+00
-1.361866315959504359e+00 0.000000000000000000e+00 0.000000000000000000e+00
-1.356982385254770218e+00 0.000000000000000000e+00 0.000000000000000000e+00
-1.352098454550035855e+00 0.000000000000000000e+00 0.000000000000000000e+00
-1.347214523845301715e+00 0.000000000000000000e+00 0.000000000000000000e+00
-1.342330593140567352e+00 0.000000000000000000e+00 0.000000000000000000e+00
-1.337446662435833211e+00 0.000000000000000000e+00 0.000000000000000000e+00
-1.332562731731099070e+00 0.000000000000000000e+00 0.000000000000000000e+00
-1.327678801026364486e+00 0.000000000000000000e+00 0.000000000000000000e+00
-1.322794870321630345e+00 0.000000000000000000e+00 0.000000000000000000e+00
-1.317910939616896204e+00 0.000000000000000000e+00 0.000000000000000000e+00
-1.313027008912162064e+00 0.000000000000000000e+00 0.000000000000000000e+00
-1.308143078207427923e+00 0.000000000000000000e+00 0.000000000000000000e+00
-1.303259147502693338e+00 0.000000000000000000e+00 0.000000000000000000e+00
-1.298375216797959197e+00 0.000000000000000000e+00 0.000000000000000000e+00
-1.293491286093225057e+00 0.000000000000000000e+00 0.000000000000000000e+00
-1.288607355388490916e+00 0.000000000000000000e+00 0.000000000000000000e+00
-1.283723424683756775e+00 0.000000000000000000e+00 0.000000000000000000e+00
-1.278839493979022190e+00 0.000000000000000000e+00 0.000000000000000000e+00
-1.273955563274288050e+00 0.000000000000000000e+00 0.000000000000000000e+00
-1.269071632569553909e+00 0.000000000000000000e+00 0.000000000000000000e+00
-1.264187701864819768e+00 0.000000000000000000e+00 0.000000000000000000e+00
-1.259303771160085628e+00 0.000000000000000000e+00 0.000000000000000000e+00
-1.254419840455351043e+00 0.000000000000000000e+00 0.000000000000000000e+00
-1.249535909750616902e+00 0.000000000000000000e+00 0.000000000000000000e+00
-1.244651979045882761e+00 0.000000000000000000e+00 0.000000000000000000e+00
-1.239768048341148399e+00 0.000000000000000000e+00 0.000000000000000000e+00
-1.234884117636414258e+00 0.000000000000000000e+00 0.000000000000000000e+00
-1.230000186931679895e+00 0.000000000000000000e+00 0.000000000000000000e+00
-1.225116256226945755e+00 0.000000000000000000e+00 0.000000000000000000e+00
-1.220232325522211392e+00 0.000000000000000000e+00 0.000000000000000000e+00
-1.215348394817477251e+00 0.000000000000000000e+00 0.000000000000000000e+00
-1.210464464112743110e+00 0.000000000000000000e+00 0.000000000000000000e+00
-1.205580533408008748e+00 0.000000000000000000e+00 0.000000000000000000e+00
-1.200696602703274607e+00 0.000000000000000000e+00 0.000000000000000000e+00
-1.195812671998540244e+00 0.000000000000000000e+00 0.000000000000000000e+00
-1.190928741293805881e+00 0.000000000000000000e+00 0.000000000000000000e+00
-1.186044810589071741e+00 0.000000000000000000e+00 0.000000000000000000e+00
-1.181160879884337600e+00 0.000000000000000000e+00 0.000000000000000000e+00
-1.176276949179603459e+00 0.000000000000000000e+00 0.000000000000000000e+00
-1.171393018474868875e+00 0.000000000000000000e+00 0.000000000000000000e+00
-1.166509087770134734e+00 0.000000000000000000e+00 0.000000000000000000e+00
-1.161625157065400593e+00 0.000000000000000000e+00 0.000000000000000000e+00
-1.156741226360666452e+00 0.000000000000000000e+00 0.000000000000000000e+00
-1.151857295655932312e+00 0.000000000000000000e+00 0.000000000000000000e+00
-1.146973364951197727e+00 0.000000000000000000e+00 0.000000000000000000e+00
-1.142089434246463586e+00 0.000000000000000000e+00 0.000000000000000000e+00
-1.137205503541729446e+00 0.000000000000000000e+00 0.000000000000000000e+00
-1.132321572836995305e+00 0.000000000000000000e+00 0.000000000000000000e+00
-1.127437642132261164e+00 0.000000000000000000e+00 0.000000000000000000e+00
-1.122553711427526579e+00 0.000000000000000000e+00 0.000000000000000000e+00
-1.117669780722792439e+00 0.000000000000000000e+00 0.000000000000000000e+00
-1.112785850018058298e+00 0.000000000000000000e+00 0.000000000000000000e+00
-1.107901919313324157e+00 0.000000000000000000e+00 0.000000000000000000e+00
-1.103017988608590016e+00 0.000000000000000000e+00 0.000000000000000000e+00
-1.098134057903855432e+00 0.000000000000000000e+00 0.000000000000000000e+00
-1.093250127199121291e+00 0.000000000000000000e+00 0.000000000000000000e+00
-1.088366196494387150e+00 0.000000000000000000e+00 0.000000000000000000e+00
-1.083482265789652788e+00 0.000000000000000000e+00 0.000000000000000000e+00
-1.078598335084918647e+00 0.000000000000000000e+00 0.000000000000000000e+00
-1.073714404380184284e+00 0.000000000000000000e+00 0.000000000000000000e+00
-1.068830473675450143e+00 0.000000000000000000e+00 0.000000000000000000e+00
-1.063946542970716003e+00 0.000000000000000000e+00 0.000000000000000000e+00
-1.059062612265981640e+00 0.000000000000000000e+00 0.000000000000000000e+00
-1.054178681561247499e+00 0.000000000000000000e+00 0.000000000000000000e+00
-1.049294750856513136e+00 0.000000000000000000e+00 0.000000000000000000e+00
-1.044410820151778996e+00 0.000000000000000000e+00 0.000000000000000000e+00
-1.039526889447044855e+00 0.000000000000000000e+00 0.000000000000000000e+00
-1.034642958742310270e+00 0.000000000000000000e+00 0.000000000000000000e+00
-1.029759028037576130e+00 0.000000000000000000e+00 0.000000000000000000e+00
-1.024875097332841989e+00 0.000000000000000000e+00 0.000000000000000000e+00
-1.019991166628107848e+00 0.000000000000000000e+00 0.000000000000000000e+00
-1.015107235923373707e+00 0.000000000000000000e+00 0.000000000000000000e+00
-1.010223305218639345e+00 0.000000000000000000e+00 0.000000000000000000e+00
-1.005339374513905204e+00 0.000000000000000000e+00 0.000000000000000000e+00
-1.000455443809170841e+00 0.000000000000000000e+00 0.000000000000000000e+00
-9.955715131044365895e-01 0.000000000000000000e+00 0.000000000000000000e+00
-9.906875823997024488e-01 0.000000000000000000e+00 0.000000000000000000e+00
-9.858036516949679751e-01 0.000000000000000000e+00 0.000000000000000000e+00
-9.809197209902338344e-01 0.000000000000000000e+00 0.000000000000000000e+00
-9.760357902854995826e-01 0.000000000000000000e+00 0.000000000000000000e+00
-9.711518595807653309e-01 0.000000000000000000e+00 0.000000000000000000e+00
-9.662679288760311902e-01 0.000000000000000000e+00 0.000000000000000000e+00
-9.613839981712968275e-01 0.000000000000000000e+00 0.000000000000000000e+00
-9.565000674665626867e-01 0.000000000000000000e+00 0.000000000000000000e+00
-9.516161367618283240e-01 0.000000000000000000e+00 0.000000000000000000e+00
-9.467322060570941833e-01 0.000000000000000000e+00 0.000000000000000000e+00
-9.418482753523600426e-01 0.000000000000000000e+00 0.000000000000000000e+00
-9.369643446476256798e-01 0.000000000000000000e+00 0.000000000000000000e+00
-9.320804139428915391e-01 0.000000000000000000e+00 0.000000000000000000e+00
-9.271964832381571764e-01 0.000000000000000000e+00 0.000000000000000000e+00
-9.223125525334230357e-01 0.000000000000000000e+00 0.000000000000000000e+00
-9.174286218286888950e-01 0.000000000000000000e+00 0.000000000000000000e+00
-9.125446911239545322e-01 0.000000000000000000e+00 0.000000000000000000e+00
-9.076607604192203915e-01 0.000000000000000000e+00 0.000000000000000000e+00
-9.027768297144860288e-01 0.000000000000000000e+00 0.000000000000000000e+00
-8.978928990097518881e-01 0.000000000000000000e+00 0.000000000000000000e+00
-8.930089683050177474e-01 0.000000000000000000e+00 0.000000000000000000e+00
-8.881250376002833846e-01 0.000000000000000000e+00 0.000000000000000000e+00
-8.832411068955492439e-01 0.000000000000000000e+00 0.000000000000000000e+00
-8.783571761908148812e-01 0.000000000000000000e+00 0.000000000000000000e+00
-8.734732454860807405e-01 0.000000000000000000e+00 0.000000000000000000e+00
-8.685893147813465998e-01 0.000000000000000000e+00 0.000000000000000000e+00
-8.637053840766122370e-01 0.000000000000000000e+00 0.000000000000000000e+00
-8.588214533718780963e-01 0.000000000000000000e+00 0.000000000000000000e+00
-8.539375226671437336e-01 0.000000000000000000e+00 0.000000000000000000e+00
-8.490535919624093708e-01 0.000000000000000000e+00 0.000000000000000000e+00
-8.441696612576752301e-01 0.000000000000000000e+00 0.000000000000000000e+00
-8.392857305529408674e-01 0.000000000000000000e+00 0.000000000000000000e+00
-8.344017998482067267e-01 0.000000000000000000e+00 0.000000000000000000e+00
-8.295178691434723639e-01 0.000000000000000000e+00 0.000000000000000000e+00
-8.246339384387382232e-01 0.000000000000000000e+00 0.000000000000000000e+00
-8.197500077340040825e-01 0.000000000000000000e+00 0.000000000000000000e+00
-8.148660770292697197e-01 0.000000000000000000e+00 0.000000000000000000e+00
-8.099821463245355790e-01 0.000000000000000000e+00 0.000000000000000000e+00
-8.050982156198012163e-01 0.000000000000000000e+00 0.000000000000000000e+00
-8.002142849150670756e-01 0.000000000000000000e+00 0.000000000000000000e+00
-7.953303542103329349e-01 0.000000000000000000e+00 0.000000000000000000e+00
-7.904464235055985721e-01 0.000000000000000000e+00 0.000000000000000000e+00
-7.855624928008644314e-01 0.000000000000000000e+00 0.000000000000000000e+00
-7.806785620961300687e-01 0.000000000000000000e+00 0.000000000000000000e+00
-7.757946313913959280e-01 0.000000000000000000e+00 0.000000000000000000e+00
-7.709107006866617873e-01 0.000000000000000000e+00 0.000000000000000000e+00
-7.660267699819274245e-01 0.000000000000000000e+00 0.000000000000000000e+00
-7.611428392771932838e-01 0.000000000000000000e+00 0.000000000000000000e+00
-7.562589085724589211e-01 0.000000000000000000e+00 0.000000000000000000e+00
-7.513749778677247804e-01 0.000000000000000000e+00 0.000000000000000000e+00
-7.464910471629906397e-01 0.000000000000000000e+00 0.000000000000000000e+00
-7.416071164582562769e-01 0.000000000000000000e+00 0.000000000000000000e+00
-7.367231857535221362e-01 0.000000000000000000e+00 0.000000000000000000e+00
-7.318392550487877735e-01 0.000000000000000000e+00 0.000000000000000000e+00
-7.269553243440536328e-01 0.000000000000000000e+00 0.000000000000000000e+00
-7.220713936393194921e-01 0.000000000000000000e+00 0.000000000000000000e+00
-7.171874629345851293e-01 0.000000000000000000e+00 0.000000000000000000e+00
-7.123035322298509886e-01 0.000000000000000000e+00 0.000000000000000000e+00
-7.074196015251166259e-01 0.000000000000000000e+00 0.000000000000000000e+00
-7.025356708203822631e-01 0.000000000000000000e+00 0.000000000000000000e+00
-6.976517401156481224e-01 0.000000000000000000e+00 0.000000000000000000e+00
-6.927678094109137596e-01 0.000000000000000000e+00 0.000000000000000000e+00
-6.878838787061796189e-01 0.000000000000000000e+00 0.000000000000000000e+00
-6.829999480014452562e-01 0.000000000000000000e+00 0.000000000000000000e+00
-6.781160172967111155e-01 0.000000000000000000e+00 0.000000000000000000e+00
-6.732320865919769748e-01 0.000000000000000000e+00 0.000000000000000000e+00
-6.683481558872426120e-01 0.000000000000000000e+00 0.000000000000000000e+00
-6.634642251825084713e-01 0.000000000000000000e+00 0.000000000000000000e+00
-6.585802944777741086e-01 0.000000000000000000e+00 0.000000000000000000e+00
-6.536963637730399679e-01 0.000000000000000000e+00 0.000000000000000000e+00
-6.488124330683058272e-01 0.000000000000000000e+00 0.000000000000000000e+00
-6.439285023635714644e-01 0.000000000000000000e+00 0.000000000000000000e+00
-6.390445716588373237e-01 0.000000000000000000e+00 0.000000000000000000e+00
-6.341606409541029610e-01 0.000000000000000000e+00 0.000000000000000000e+00
-6.292767102493688203e-01 0.000000000000000000e+00 0.000000000000000000e+00
-6.243927795446346796e-01 0.000000000000000000e+00 0.000000000000000000e+00
-6.195088488399003168e-01 0.000000000000000000e+00 0.000000000000000000e+00
-6.146249181351661761e-01 0.000000000000000000e+00 0.000000000000000000e+00
-6.097409874304318134e-01 0.000000000000000000e+00 0.000000000000000000e+00
-6.048570567256975616e-01 0.000000000000000000e+00 0.000000000000000000e+00
-5.999731260209634209e-01 0.000000000000000000e+00 0.000000000000000000e+00
-5.950891953162290582e-01 0.000000000000000000e+00 0.000000000000000000e+00
-5.902052646114949175e-01 0.000000000000000000e+00 0.000000000000000000e+00
-5.853213339067605547e-01 0.000000000000000000e+00 0.000000000000000000e+00
-5.804374032020264140e-01 0.000000000000000000e+00 0.000000000000000000e+00
-5.755534724972922733e-01 0.000000000000000000e+00 0.000000000000000000e+00
-5.706695417925579106e-01 0.000000000000000000e+00 0.000000000000000000e+00
-5.657856110878237699e-01 0.000000000000000000e+00 0.000000000000000000e+00
-5.609016803830894071e-01 0.000000000000000000e+00 0.000000000000000000e+00
-5.560177496783551554e-01 0.000000000000000000e+00 0.000000000000000000e+00
-5.511338189736210147e-01 0.000000000000000000e+00 0.000000000000000000e+00
-5.462498882688866519e-01 0.000000000000000000e+00 0.000000000000000000e+00
-5.413659575641525112e-01 0.000000000000000000e+00 0.000000000000000000e+00
-5.364820268594181485e-01 0.000000000000000000e+00 0.000000000000000000e+00
-5.315980961546840078e-01 0.000000000000000000e+00 0.000000000000000000e+00
-5.267141654499498671e-01 0.000000000000000000e+00 0.000000000000000000e+00
-5.218302347452155043e-01 0.000000000000000000e+00 0.000000000000000000e+00
-5.169463040404813636e-01 0.000000000000000000e+00 0.000000000000000000e+00
-5.120623733357470009e-01 0.000000000000000000e+00 0.000000000000000000e+00
-5.071784426310128602e-01 0.000000000000000000e+00 0.000000000000000000e+00
-5.022945119262787195e-01 0.000000000000000000e+00 0.000000000000000000e+00
-4.974105812215443567e-01 0.000000000000000000e+00 0.000000000000000000e+00
-4.925266505168102160e-01 0.000000000000000000e+00 0.000000000000000000e+00
-4.876427198120758533e-01 0.000000000000000000e+00 0.000000000000000000e+00
-4.827587891073417126e-01 0.000000000000000000e+00 0.000000000000000000e+00
-4.778748584026075719e-01 0.000000000000000000e+00 0.000000000000000000e+00
-4.729909276978732091e-01 0.000000000000000000e+00 0.000000000000000000e+00
-4.681069969931390684e-01 0.000000000000000000e+00 0.000000000000000000e+00
-4.632230662884047057e-01 0.000000000000000000e+00 0.000000000000000000e+00
-4.583391355836704539e-01 0.000000000000000000e+00 0.000000000000000000e+00
-4.534552048789363132e-01 0.000000000000000000e+00 0.000000000000000000e+00
-4.485712741742019505e-01 0.000000000000000000e+00 0.000000000000000000e+00
-4.436873434694678098e-01 0.000000000000000000e+00 0.000000000000000000e+00
-4.388034127647334470e-01 0.000000000000000000e+00 0.000000000000000000e+00
-4.339194820599993063e-01 0.000000000000000000e+00 0.000000000000000000e+00
-4.290355513552651656e-01 0.000000000000000000e+00 0.000000000000000000e+00
-4.241516206505308029e-01 0.000000000000000000e+00 0.000000000000000000e+00
-4.192676899457966622e-01 0.000000000000000000e+00 0.000000000000000000e+00
-4.143837592410622994e-01 0.000000000000000000e+00 0.000000000000000000e+00
-4.094998285363280477e-01 0.000000000000000000e+00 0.000000000000000000e+00
-4.046158978315939070e-01 0.000000000000000000e+00 0.000000000000000000e+00
-3.997319671268595442e-01 0.000000000000000000e+00 0.000000000000000000e+00
-3.948480364221254035e-01 0.000000000000000000e+00 0.000000000000000000e+00
-3.899641057173910408e-01 0.000000000000000000e+00 0.000000000000000000e+00
-3.850801750126569001e-01 0.000000000000000000e+00 0.000000000000000000e+00
-3.801962443079227594e-01 0.000000000000000000e+00 0.000000000000000000e+00
-3.753123136031883966e-01 0.000000000000000000e+00 0.000000000000000000e+00
-3.704283828984542559e-01 0.000000000000000000e+00 0.000000000000000000e+00
-3.655444521937198932e-01 0.000000000000000000e+00 0.000000000000000000e+00
-3.606605214889857525e-01 2.026400022300123283e-02 2.281042444390944279e+00
-3.557765907842516118e-01 7.706870703262325151e-02 3.295537208702578713e+00
-3.508926600795172490e-01 1.194668962688893998e-01 3.498477828776330067e+00
-3.460087293747831083e-01 1.098382787075564693e-01 4.234143532742867144e+00
-3.411247986700487456e-01 1.024211980972609126e-01 5.366462187316215271e+00
-3.362408679653146049e-01 1.114045324072563403e-01 7.794078358253475614e+00
-3.313569372605804642e-01 1.609517536993934073e-01 7.720768007820833390e+00
-3.264730065558461014e-01 1.708632329555612728e-01 8.013197580039577161e+00
-3.215890758511119607e-01 2.067926360781484618e-01 1.062456741744215272e+01
-3.167051451463775980e-01 2.620942945242958899e-01 1.382182026712248835e+01
-3.118212144416433462e-01 4.009213863127811805e-01 1.671585902725376016e+01
-3.069372837369092055e-01 4.541456664078822314e-01 1.957716435445100345e+01
-3.020533530321748428e-01 5.108259133114643191e-01 2.412137563323290124e+01
-2.971694223274407021e-01 6.287347890532046790e-01 2.707629143847491449e+01
-2.922854916227063393e-01 7.774693220764348212e-01 3.016639640507079179e+01
-2.874015609179721986e-01 9.277955039993912578e-01 3.087488919255384801e+01
-2.825176302132380579e-01 1.117086894722710610e+00 3.551897015669424462e+01
-2.776336995085036952e-01 1.348934503911301874e+00 4.210581039819616223e+01
-2.727497688037695545e-01 1.529179947345156165e+00 4.554368216928445179e+01
-2.678658380990351917e-01 1.735400191063384057e+00 4.782406122379462232e+01
-2.629819073943009400e-01 1.908829579640588747e+00 5.124721696155958739e+01
-2.580979766895667993e-01 2.188867555896059969e+00 5.702175158572463687e+01
-2.532140459848324365e-01 2.567244515826153872e+00 6.015280158348335959e+01
-2.483301152800982958e-01 2.853056666585466417e+00 6.492060669709368881e+01
-2.434461845753639331e-01 3.113163332436236885e+00 6.990680814268510801e+01
-2.385622538706297924e-01 3.430674068506768037e+00 7.839992829304287625e+01
-2.336783231658956517e-01 3.901989728795193457e+00 8.684121649306045754e+01
-2.287943924611612889e-01 4.286755650204923995e+00 8.946408359439458025e+01
-2.239104617564271482e-01 4.699857391524268735e+00 9.718768868655871529e+01
-2.190265310516927855e-01 5.149600258643630468e+00 1.070541186032929915e+02
-2.141426003469586448e-01 5.737827750034131924e+00 1.137236607384519544e+02
-2.092586696422245041e-01 6.430132392565365507e+00 1.165953236730417331e+02
-2.043747389374901413e-01 6.936608364201912735e+00 1.267674717663057322e+02
-1.994908082327560006e-01 7.599636035569847792e+00 1.319219350114002225e+02
-1.946068775280216379e-01 8.341612301585065836e+00 1.368313761260660044e+02
-1.897229468232874972e-01 8.984858853859815753e+00 1.387018983848457196e+02
-1.848390161185533564e-01 9.596424541947143894e+00 1.406805457389521052e+02
-1.799550854138189937e-01 1.047799112741485317e+01 1.449823550679130619e+02
-1.750711547090848530e-01 1.114283328182561661e+01 1.456874576380245969e+02
-1.701872240043504902e-01 1.183234985097494985e+01 1.445907530100776910e+02
-1.653032932996162385e-01 1.251193235330087816e+01 1.448507340909712582e+02
-1.604193625948820978e-01 1.330087276149772890e+01 1.467048457923721969e+02
-1.555354318901477351e-01 1.401744611981055755e+01 1.427067903505367497e+02
-1.506515011854135944e-01 1.471491051210003320e+01 1.438767497231284835e+02
-1.457675704806792316e-01 1.540332448405067822e+01 1.454438927441532883e+02
-1.408836397759450909e-01 1.605926833216167893e+01 1.468703540135276455e+02
-1.359997090712109502e-01 1.676138755093380439e+01 1.448906200503020898e+02
-1.311157783664765875e-01 1.744769187908545405e+01 1.448076905979531261e+02
-1.262318476617424468e-01 1.816967403852714114e+01 1.452076785388801738e+02
-1.213479169570080840e-01 1.893572878686737226e+01 1.471755506429294371e+02
-1.164639862522738323e-01 1.968497866911941685e+01 1.486881515437969483e+02
-1.115800555475396916e-01 2.037723024241424952e+01 1.497760403806686327e+02
-1.066961248428053288e-01 2.108975338374055752e+01 1.498430649450831424e+02
-1.018121941380711881e-01 2.180675290989221082e+01 1.484285543943257437e+02
-9.692826343333682537e-02 2.259127639176239200e+01 1.450200935063168117e+02
-9.204433272860268467e-02 2.332109461971094788e+01 1.423746355776001735e+02
-8.716040202386854396e-02 2.407634557542041875e+01 1.406318795177799643e+02
-8.227647131913418121e-02 2.476592333685324832e+01 1.385891012984237705e+02
-7.739254061440004051e-02 2.541882178118478919e+01 1.363750701554045577e+02
-7.250860990966567776e-02 2.601840966165666913e+01 1.321271229983782121e+02
-6.762467920493153706e-02 2.663845721184729598e+01 1.282052815064745914e+02
-6.274074850019739635e-02 2.724559378682794630e+01 1.232216222422962630e+02
-5.785681779546303360e-02 2.785834905546953166e+01 1.191468311449917081e+02
-5.297288709072889290e-02 2.846721683481489862e+01 1.154767228244579798e+02
-4.808895638599453015e-02 2.904427352116213967e+01 1.128393882364638898e+02
-4.320502568126038945e-02 2.958255172829661461e+01 1.095008397049038535e+02
-3.832109497652624874e-02 3.009440421898354856e+01 1.058639533155293151e+02
-3.343716427179188599e-02 3.058497200686137063e+01 1.016363295194319107e+02
-2.855323356705774529e-02 3.105862490402935805e+01 9.674818723286831812e+01
-2.366930286232338254e-02 3.152940719077160026e+01 9.198930600122898227e+01
-1.878537215758913081e-02 3.198640234413691275e+01 8.760297622155329123e+01
-1.390144145285499011e-02 3.241591590805060008e+01 8.291793027900705226e+01
-9.017510748120627362e-03 3.282219696003394915e+01 7.809545781216570504e+01
-4.133580043386486658e-03 3.319233125735473067e+01 7.311392152619788476e+01
7.503506613478760912e-04 3.353696748202808919e+01 6.754448393668189965e+01
5.634281366082016795e-03 3.386102038224208144e+01 6.163238412613893047e+01
1.051821207081615750e-02 3.414405847561010177e+01 5.556954785507235073e+01
1.540214277555052025e-02 3.439910004995251569e+01 4.940979262547325845e+01
2.028607348028466095e-02 3.462945816688264244e+01 4.331662340614091988e+01
2.517000418501902370e-02 3.482823298110947974e+01 3.722389665803316916e+01
3.005393488975327543e-02 3.499648527653315000e+01 3.084706263624630651e+01
3.493786559448741613e-02 3.512989411822645280e+01 2.486324083762032444e+01
3.982179629922177888e-02 3.523533699321495760e+01 1.898942984125386246e+01
4.470572700395591959e-02 3.530788512814135771e+01 1.294958541587914347e+01
4.958965770869028233e-02 3.535495680040831701e+01 6.918205378910952774e+00
5.447358841342442304e-02 3.536756954584232204e+01 8.257205255755104556e-01
5.935751911815856374e-02 3.535836192907065367e+01 -5.024495196545092135e+00
6.424144982289292649e-02 3.532653064462348880e+01 -1.097305261031129930e+01
6.912538052762706720e-02 3.526190694514455970e+01 -1.668806491787077206e+01
7.400931123236142994e-02 3.516611333782668680e+01 -2.259336936140464402e+01
7.889324193709557065e-02 3.503681289481702521e+01 -2.842738327448688196e+01
8.377717264182971135e-02 3.488450125456449058e+01 -3.441249614866449491e+01
8.866110334656407410e-02 3.469942070753332075e+01 -4.071539080604635075e+01
9.354503405129821481e-02 3.449285160159147523e+01 -4.693934042742372981e+01
9.842896475603257755e-02 3.425151229693265265e+01 -5.295323355274991428e+01
1.033128954607667183e-01 3.397919584554716721e+01 -5.875435782449991962e+01
1.081968261655008590e-01 3.367767946340055119e+01 -6.475121418233840132e+01
1.130807568702352217e-01 3.333801917149443739e+01 -7.072282007620580657e+01
1.179646875749693624e-01 3.296942208540987451e+01 -7.683163654830245548e+01
1.228486182797037252e-01 3.257991410519430531e+01 -8.294188342370850364e+01
1.277325489844379769e-01 3.216729077265685532e+01 -8.835168468691233556e+01
1.326164796891721176e-01 3.172209682342504067e+01 -9.362349099808872666e+01
1.375004103939064803e-01 3.124536718257755297e+01 -9.890699655785066113e+01
1.423843410986406210e-01 3.074044771325910830e+01 -1.040092117059700456e+02
1.472682718033749838e-01 3.020068818531728994e+01 -1.102132986071338223e+02
1.521522025081091245e-01 2.966416078897308495e+01 -1.168178360128542153e+02
1.570361332128432652e-01 2.910517303970080150e+01 -1.229762958969436966e+02
1.619200639175776280e-01 2.850746999747512689e+01 -1.289934026898161221e+02
1.668039946223117687e-01 2.788968425914994498e+01 -1.357478639445807005e+02
1.716879253270461314e-01 2.719717297382008070e+01 -1.417755096517406344e+02
1.765718560317803831e-01 2.646198861101898814e+01 -1.482520864578214344e+02
1.814557867365145238e-01 2.571601974856938710e+01 -1.548202451143851590e+02
1.863397174412488866e-01 2.494541878152811876e+01 -1.611540727802742765e+02
1.912236481459830273e-01 2.411061610504885522e+01 -1.668469030773357815e+02
1.961075788507173900e-01 2.327647053764248852e+01 -1.705567898679417169e+02
2.009915095554515307e-01 2.242363161805041472e+01 -1.743678898587990602e+02
2.058754402601856714e-01 2.154385955141455611e+01 -1.777305357174422511e+02
2.107593709649200342e-01 2.063681675502951407e+01 -1.810560875807689456e+02
2.156433016696541749e-01 1.974099712985774602e+01 -1.846677568143601036e+02
2.205272323743885377e-01 1.886729754445062923e+01 -1.886263674540418265e+02
2.254111630791226784e-01 1.794598169900794460e+01 -1.916497889902783527e+02
2.302950937838568191e-01 1.703578354297658848e+01 -1.969058147142011990e+02
2.351790244885911818e-01 1.610276492738041298e+01 -2.000283037446554886e+02
2.400629551933253225e-01 1.509157082824835072e+01 -2.036380306327128551e+02
2.449468858980596853e-01 1.406408946032972551e+01 -2.105858942845685249e+02
2.498308166027938260e-01 1.306358872799584958e+01 -2.143667831879278651e+02
2.547147473075279667e-01 1.192711600718058662e+01 -2.200597235616266403e+02
2.595986780122623294e-01 1.086757301028519862e+01 -2.243171602047809188e+02
2.644826087169964701e-01 9.795456825270548507e+00 -2.269519988559634385e+02
2.693665394217308329e-01 8.582428393647422382e+00 -2.312143028770363742e+02
2.742504701264650846e-01 7.476456554141677202e+00 -2.366031946443774814e+02
2.791344008311992253e-01 6.288219135197039122e+00 -2.373224353920485044e+02
2.840183315359335881e-01 5.147270264151188712e+00 -2.225169370170027037e+02
2.889022622406677288e-01 4.007392471113824683e+00 -2.005650247202585206e+02
2.937861929454020915e-01 2.771743128380947496e+00 -1.757278903512709576e+02
2.986701236501362322e-01 1.508052656376996481e+00 -1.530827729986910697e+02
3.035540543548703729e-01 3.364527158452759181e-01 -1.287532423238840238e+02
3.084379850596047357e-01 0.000000000000000000e+00 0.000000000000000000e+00
3.133219157643388764e-01 0.000000000000000000e+00 0.000000000000000000e+00
3.182058464690732391e-01 0.000000000000000000e+00 0.000000000000000000e+00
3.230897771738074908e-01 0.000000000000000000e+00 0.000000000000000000e+00
3.279737078785416315e-01 0.000000000000000000e+00 0.000000000000000000e+00
3.328576385832759943e-01 0.000000000000000000e+00 0.000000000000000000e+00
3.377415692880101350e-01 0.000000000000000000e+00 0.000000000000000000e+00
3.426254999927444977e-01 0.000000000000000000e+00 0.000000000000000000e+00
3.475094306974786385e-01 0.000000000000000000e+00 0.000000000000000000e+00
3.523933614022127792e-01 0.000000000000000000e+00 0.000000000000000000e+00
3.572772921069471419e-01 0.000000000000000000e+00 0.000000000000000000e+00
3.621612228116812826e-01 0.000000000000000000e+00 0.000000000000000000e+00
3.670451535164156454e-01 0.000000000000000000e+00 0.000000000000000000e+00
3.719290842211497861e-01 0.000000000000000000e+00 0.000000000000000000e+00
3.768130149258839268e-01 0.000000000000000000e+00 0.000000000000000000e+00
3.816969456306182895e-01 0.000000000000000000e+00 0.000000000000000000e+00
3.865808763353524302e-01 0.000000000000000000e+00 0.000000000000000000e+00
3.914648070400867930e-01 0.000000000000000000e+00 0.000000000000000000e+00
3.963487377448209337e-01 0.000000000000000000e+00 0.000000000000000000e+00
4.012326684495550744e-01 0.000000000000000000e+00 0.000000000000000000e+00
4.061165991542894371e-01 0.000000000000000000e+00 0.000000000000000000e+00
4.110005298590235778e-01 0.000000000000000000e+00 0.000000000000000000e+00
4.158844605637579406e-01 0.000000000000000000e+00 0.000000000000000000e+00
4.207683912684920813e-01 0.000000000000000000e+00 0.000000000000000000e+00
4.256523219732262220e-01 0.000000000000000000e+00 0.000000000000000000e+00
4.305362526779605847e-01 0.000000000000000000e+00 0.000000000000000000e+00
4.354201833826947254e-01 0.000000000000000000e+00 0.000000000000000000e+00
4.403041140874290882e-01 0.000000000000000000e+00 0.000000000000000000e+00
4.451880447921632289e-01 0.000000000000000000e+00 0.000000000000000000e+00
4.500719754968973696e-01 0.000000000000000000e+00 0.000000000000000000e+00
4.549559062016317323e-01 0.000000000000000000e+00 0.000000000000000000e+00
4.598398369063658730e-01 0.000000000000000000e+00 0.000000000000000000e+00
4.647237676111002358e-01 0.000000000000000000e+00 0.000000000000000000e+00
4.696076983158345985e-01 0.000000000000000000e+00 0.000000000000000000e+00
4.744916290205687393e-01 0.000000000000000000e+00 0.000000000000000000e+00
4.793755597253031020e-01 0.000000000000000000e+00 0.000000000000000000e+00
4.842594904300372427e-01 0.000000000000000000e+00 0.000000000000000000e+00
4.891434211347716055e-01 0.000000000000000000e+00 0.000000000000000000e+00
4.940273518395057462e-01 0.000000000000000000e+00 0.000000000000000000e+00
4.989112825442398869e-01 0.000000000000000000e+00 0.000000000000000000e+00
5.037952132489742496e-01 0.000000000000000000e+00 0.000000000000000000e+00
5.086791439537083903e-01 0.000000000000000000e+00 0.000000000000000000e+00
5.135630746584427531e-01 0.000000000000000000e+00 0.000000000000000000e+00
5.184470053631771158e-01 0.000000000000000000e+00 0.000000000000000000e+00
5.233309360679112565e-01 0.000000000000000000e+00 0.000000000000000000e+00
5.282148667726456193e-01 0.000000000000000000e+00 0.000000000000000000e+00
5.330987974773797600e-01 0.000000000000000000e+00 0.000000000000000000e+00
5.379827281821141227e-01 0.000000000000000000e+00 0.000000000000000000e+00
5.428666588868482634e-01 0.000000000000000000e+00 0.000000000000000000e+00
5.477505895915824041e-01 0.000000000000000000e+00 0.000000000000000000e+00
5.526345202963167669e-01 0.000000000000000000e+00 0.000000000000000000e+00
5.575184510010509076e-01 0.000000000000000000e+00 0.000000000000000000e+00
5.624023817057852703e-01 0.000000000000000000e+00 0.000000000000000000e+00
5.672863124105194110e-01 0.000000000000000000e+00 0.000000000000000000e+00
5.721702431152535517e-01 0.000000000000000000e+00 0.000000000000000000e+00
5.770541738199879145e-01 0.000000000000000000e+00 0.000000000000000000e+00
5.819381045247220552e-01 0.000000000000000000e+00 0.000000000000000000e+00
5.868220352294564179e-01 0.000000000000000000e+00 0.000000000000000000e+00
5.917059659341905586e-01 0.000000000000000000e+00 0.000000000000000000e+00
5.965898966389246993e-01 0.000000000000000000e+00 0.000000000000000000e+00
6.014738273436590621e-01 0.000000000000000000e+00 0.000000000000000000e+00
6.063577580483932028e-01 0.000000000000000000e+00 0.000000000000000000e+00
6.112416887531275655e-01 0.000000000000000000e+00 0.000000000000000000e+00
6.161256194578617063e-01 0.000000000000000000e+00 0.000000000000000000e+00
6.210095501625958470e-01 0.000000000000000000e+00 0.000000000000000000e+00
6.258934808673302097e-01 0.000000000000000000e+00 0.000000000000000000e+00
6.307774115720643504e-01 0.000000000000000000e+00 0.000000000000000000e+00
6.356613422767987132e-01 0.000000000000000000e+00 0.000000000000000000e+00
6.405452729815328539e-01 0.000000000000000000e+00 0.000000000000000000e+00
6.454292036862669946e-01 0.000000000000000000e+00 0.000000000000000000e+00
6.503131343910013573e-01 0.000000000000000000e+00 0.000000000000000000e+00
6.551970650957354980e-01 0.000000000000000000e+00 0.000000000000000000e+00
6.600809958004698608e-01 0.000000000000000000e+00 0.000000000000000000e+00
6.649649265052040015e-01 0.000000000000000000e+00 0.000000000000000000e+00
6.698488572099381422e-01 0.000000000000000000e+00 0.000000000000000000e+00
6.747327879146725049e-01 0.000000000000000000e+00 0.000000000000000000e+00
6.796167186194066456e-01 0.000000000000000000e+00 0.000000000000000000e+00
6.845006493241410084e-01 0.000000000000000000e+00 0.000000000000000000e+00
6.893845800288751491e-01 0.000000000000000000e+00 0.000000000000000000e+00
6.942685107336092898e-01 0.000000000000000000e+00 0.000000000000000000e+00
6.991524414383436525e-01 0.000000000000000000e+00 0.000000000000000000e+00
7.040363721430777932e-01 0.000000000000000000e+00 0.000000000000000000e+00
7.089203028478121560e-01 0.000000000000000000e+00 0.000000000000000000e+00
7.138042335525462967e-01 0.000000000000000000e+00 0.000000000000000000e+00
7.186881642572804374e-01 0.000000000000000000e+00 0.000000000000000000e+00
7.235720949620148001e-01 0.000000000000000000e+00 0.000000000000000000e+00
7.284560256667489408e-01 0.000000000000000000e+00 0.000000000000000000e+00
7.333399563714833036e-01 0.000000000000000000e+00 0.000000000000000000e+00
7.382238870762174443e-01 0.000000000000000000e+00 0.000000000000000000e+00
7.431078177809515850e-01 0.000000000000000000e+00 0.000000000000000000e+00
7.479917484856859478e-01 0.000000000000000000e+00 0.000000000000000000e+00
7.528756791904200885e-01 0.000000000000000000e+00 0.000000000000000000e+00
7.577596098951544512e-01 0.000000000000000000e+00 0.000000000000000000e+00
7.626435405998888140e-01 0.000000000000000000e+00 0.000000000000000000e+00
7.675274713046229547e-01 0.000000000000000000e+00 0.000000000000000000e+00
7.724114020093573174e-01 0.000000000000000000e+00 0.000000000000000000e+00
7.772953327140914581e-01 0.000000000000000000e+00 0.000000000000000000e+00
7.821792634188258209e-01 0.000000000000000000e+00 0.000000000000000000e+00
7.870631941235599616e-01 0.000000000000000000e+00 0.000000000000000000e+00
7.919471248282941023e-01 0.000000000000000000e+00 0.000000000000000000e+00
7.968310555330284650e-01 0.000000000000000000e+00 0.000000000000000000e+00
8.017149862377626057e-01 0.000000000000000000e+00 0.000000000000000000e+00
8.065989169424969685e-01 0.000000000000000000e+00 0.000000000000000000e+00
8.114828476472313312e-01 0.000000000000000000e+00 0.000000000000000000e+00
8.163667783519654719e-01 0.000000000000000000e+00 0.000000000000000000e+00
8.212507090566998347e-01 0.000000000000000000e+00 0.000000000000000000e+00
8.261346397614339754e-01 0.000000000000000000e+00 0.000000000000000000e+00
8.310185704661683381e-01 0.000000000000000000e+00 0.000000000000000000e+00
8.359025011709024788e-01 0.000000000000000000e+00 0.000000000000000000e+00
8.407864318756366195e-01 0.000000000000000000e+00 0.000000000000000000e+00
8.456703625803709823e-01 0.000000000000000000e+00 0.000000000000000000e+00
8.505542932851051230e-01 0.000000000000000000e+00 0.000000000000000000e+00
8.554382239898394857e-01 0.000000000000000000e+00 0.000000000000000000e+00
8.603221546945736264e-01 0.000000000000000000e+00 0.000000000000000000e+00
8.652060853993077671e-01 0.000000000000000000e+00 0.000000000000000000e+00
8.700900161040421299e-01 0.000000000000000000e+00 0.000000000000000000e+00
8.749739468087762706e-01 0.000000000000000000e+00 0.000000000000000000e+00
8.798578775135106333e-01 0.000000000000000000e+00 0.000000000000000000e+00
8.847418082182447741e-01 0.000000000000000000e+00 0.000000000000000000e+00
8.896257389229789148e-01 0.000000000000000000e+00 0.000000000000000000e+00
8.945096696277132775e-01 0.000000000000000000e+00 0.000000000000000000e+00
8.993936003324474182e-01 0.000000000000000000e+00 0.000000000000000000e+00
9.042775310371817810e-01 0.000000000000000000e+00 0.000000000000000000e+00
9.091614617419159217e-01 0.000000000000000000e+00 0.000000000000000000e+00
9.140453924466500624e-01 0.000000000000000000e+00 0.000000000000000000e+00
9.189293231513844251e-01 0.000000000000000000e+00 0.000000000000000000e+00
9.238132538561185658e-01 0.000000000000000000e+00 0.000000000000000000e+00
9.286971845608529286e-01 0.000000000000000000e+00 0.000000000000000000e+00
9.335811152655870693e-01 0.000000000000000000e+00 0.000000000000000000e+00
9.384650459703212100e-01 0.000000000000000000e+00 0.000000000000000000e+00
9.433489766750555727e-01 0.000000000000000000e+00 0.000000000000000000e+00
9.482329073797897134e-01 0.000000000000000000e+00 0.000000000000000000e+00
9.531168380845240762e-01 0.000000000000000000e+00 0.000000000000000000e+00
9.580007687892582169e-01 0.000000000000000000e+00 0.000000000000000000e+00
9.628846994939923576e-01 0.000000000000000000e+00 0.000000000000000000e+00
9.677686301987267203e-01 0.000000000000000000e+00 0.000000000000000000e+00
9.726525609034608610e-01 0.000000000000000000e+00 0.000000000000000000e+00
9.775364916081952238e-01 0.000000000000000000e+00 0.000000000000000000e+00
9.824204223129293645e-01 0.000000000000000000e+00 0.000000000000000000e+00
9.873043530176635052e-01 0.000000000000000000e+00 0.000000000000000000e+00
9.921882837223978679e-01 0.000000000000000000e+00 0.000000000000000000e+00
9.970722144271320087e-01 0.000000000000000000e+00 0.000000000000000000e+00
1.001956145131866371e+00 0.000000000000000000e+00 0.000000000000000000e+00
1.006840075836600512e+00 0.000000000000000000e+00 0.000000000000000000e+00
1.011724006541334653e+00 0.000000000000000000e+00 0.000000000000000000e+00
1.016607937246069016e+00 0.000000000000000000e+00 0.000000000000000000e+00
1.021491867950803156e+00 0.000000000000000000e+00 0.000000000000000000e+00
1.026375798655537519e+00 0.000000000000000000e+00 0.000000000000000000e+00
1.031259729360271660e+00 0.000000000000000000e+00 0.000000000000000000e+00
1.036143660065005800e+00 0.000000000000000000e+00 0.000000000000000000e+00
1.041027590769740163e+00 0.000000000000000000e+00 0.000000000000000000e+00
1.045911521474474304e+00 0.000000000000000000e+00 0.000000000000000000e+00
1.050795452179208667e+00 0.000000000000000000e+00 0.000000000000000000e+00
1.055679382883943029e+00 0.000000000000000000e+00 0.000000000000000000e+00
1.060563313588677170e+00 0.000000000000000000e+00 0.000000000000000000e+00
1.065447244293411533e+00 0.000000000000000000e+00 0.000000000000000000e+00
1.070331174998145674e+00 0.000000000000000000e+00 0.000000000000000000e+00
1.075215105702880036e+00 0.000000000000000000e+00 0.000000000000000000e+00
1.080099036407614177e+00 0.000000000000000000e+00 0.000000000000000000e+00
1.084982967112348318e+00 0.000000000000000000e+00 0.000000000000000000e+00
1.089866897817082680e+00 0.000000000000000000e+00 0.000000000000000000e+00
1.094750828521816821e+00 0.000000000000000000e+00 0.000000000000000000e+00
1.099634759226551184e+00 0.000000000000000000e+00 0.000000000000000000e+00
1.104518689931285547e+00 0.000000000000000000e+00 0.000000000000000000e+00
1.109402620636019687e+00 0.000000000000000000e+00 0.000000000000000000e+00
1.114286551340754050e+00 0.000000000000000000e+00 0.000000000000000000e+00
1.119170482045488191e+00 0.000000000000000000e+00 0.000000000000000000e+00
1.124054412750222554e+00 0.000000000000000000e+00 0.000000000000000000e+00
1.128938343454956694e+00 0.000000000000000000e+00 0.000000000000000000e+00
1.133822274159690835e+00 0.000000000000000000e+00 0.000000000000000000e+00
1.138706204864425198e+00 0.000000000000000000e+00 0.000000000000000000e+00
1.143590135569159338e+00 0.000000000000000000e+00 0.000000000000000000e+00
1.148474066273893701e+00 0.000000000000000000e+00 0.000000000000000000e+00
1.153357996978627842e+00 0.000000000000000000e+00 0.000000000000000000e+00
1.158241927683361983e+00 0.000000000000000000e+00 0.000000000000000000e+00
1.163125858388096345e+00 0.000000000000000000e+00 0.000000000000000000e+00
1.168009789092830486e+00 0.000000000000000000e+00 0.000000000000000000e+00
1.172893719797564849e+00 0.000000000000000000e+00 0.000000000000000000e+00
1.177777650502298989e+00 0.000000000000000000e+00 0.000000000000000000e+00
1.182661581207033130e+00 0.000000000000000000e+00 0.000000000000000000e+00
1.187545511911767493e+00 0.000000000000000000e+00 0.000000000000000000e+00
1.192429442616501634e+00 0.000000000000000000e+00 0.000000000000000000e+00
1.197313373321235996e+00 0.000000000000000000e+00 0.000000000000000000e+00
1.202197304025970137e+00 0.000000000000000000e+00 0.000000000000000000e+00
1.207081234730704278e+00 0.000000000000000000e+00 0.000000000000000000e+00
1.211965165435438641e+00 0.000000000000000000e+00 0.000000000000000000e+00
1.216849096140172781e+00 0.000000000000000000e+00 0.000000000000000000e+00
1.221733026844907144e+00 0.000000000000000000e+00 0.000000000000000000e+00
1.226616957549641285e+00 0.000000000000000000e+00 0.000000000000000000e+00
1.231500888254375425e+00 0.000000000000000000e+00 0.000000000000000000e+00
1.236384818959109788e+00 0.000000000000000000e+00 0.000000000000000000e+00
1.241268749663843929e+00 0.000000000000000000e+00 0.000000000000000000e+00
1.246152680368578292e+00 0.000000000000000000e+00 0.000000000000000000e+00
1.251036611073312432e+00 0.000000000000000000e+00 0.000000000000000000e+00
1.255920541778046573e+00 0.000000000000000000e+00 0.000000000000000000e+00
1.260804472482780936e+00 0.000000000000000000e+00 0.000000000000000000e+00
1.265688403187515076e+00 0.000000000000000000e+00 0.000000000000000000e+00
1.270572333892249439e+00 0.000000000000000000e+00 0.000000000000000000e+00
1.275456264596983580e+00 0.000000000000000000e+00 0.000000000000000000e+00
1.280340195301717721e+00 0.000000000000000000e+00 0.000000000000000000e+00
1.285224126006452083e+00 0.000000000000000000e+00 0.000000000000000000e+00
1.290108056711186224e+00 0.000000000000000000e+00 0.000000000000000000e+00
1.294991987415920587e+00 0.000000000000000000e+00 0.000000000000000000e+00
