#! FIELDS rc2 external2.bias der_rc2
#! SET min_rc2 -2.360114423918333
#! SET max_rc2 1.6012029193239097
#! SET nbins_rc2 600
#! SET periodic_rc2 false
-2.360114423918333149e+00 0.000000000000000000e+00 0.000000000000000000e+00
-2.353501206316927163e+00 0.000000000000000000e+00 0.000000000000000000e+00
-2.346887988715521178e+00 0.000000000000000000e+00 0.000000000000000000e+00
-2.340274771114114749e+00 0.000000000000000000e+00 0.000000000000000000e+00
-2.333661553512708764e+00 0.000000000000000000e+00 0.000000000000000000e+00
-2.327048335911302779e+00 0.000000000000000000e+00 0.000000000000000000e+00
-2.320435118309896794e+00 0.000000000000000000e+00 0.000000000000000000e+00
-2.313821900708490809e+00 0.000000000000000000e+00 0.000000000000000000e+00
-2.307208683107084379e+00 0.000000000000000000e+00 0.000000000000000000e+00
-2.300595465505678394e+00 0.000000000000000000e+00 0.000000000000000000e+00
-2.293982247904272409e+00 0.000000000000000000e+00 0.000000000000000000e+00
-2.287369030302866424e+00 0.000000000000000000e+00 0.000000000000000000e+00
-2.280755812701460439e+00 0.000000000000000000e+00 0.000000000000000000e+00
-2.274142595100054010e+00 0.000000000000000000e+00 0.000000000000000000e+00
-2.267529377498648024e+00 0.000000000000000000e+00 0.000000000000000000e+00
-2.260916159897242039e+00 0.000000000000000000e+00 0.000000000000000000e+00
-2.254302942295836054e+00 0.000000000000000000e+00 0.000000000000000000e+00
-2.247689724694430069e+00 0.000000000000000000e+00 0.000000000000000000e+00
-2.241076507093023640e+00 0.000000000000000000e+00 0.000000000000000000e+00
-2.234463289491617655e+00 0.000000000000000000e+00 0.000000000000000000e+00
-2.227850071890211670e+00 0.000000000000000000e+00 0.000000000000000000e+00
-2.221236854288805684e+00 0.000000000000000000e+00 0.000000000000000000e+00
-2.214623636687399255e+00 0.000000000000000000e+00 0.000000000000000000e+00
-2.208010419085993270e+00 0.000000000000000000e+00 0.000000000000000000e+00
-2.201397201484587285e+00 0.000000000000000000e+00 0.000000000000000000e+00
-2.194783983883181300e+00 0.000000000000000000e+00 0.000000000000000000e+00
-2.188170766281775315e+00 0.000000000000000000e+00 0.000000000000000000e+00
-2.181557548680369329e+00 0.000000000000000000e+00 0.000000000000000000e+00
-2.174944331078962900e+00 0.000000000000000000e+00 0.000000000000000000e+00
-2.168331113477556915e+00 0.000000000000000000e+00 0.000000000000000000e+00
-2.161717895876150486e+00 0.000000000000000000e+00 0.000000000000000000e+00
-2.155104678274744501e+00 0.000000000000000000e+00 0.000000000000000000e+00
-2.148491460673338516e+00 0.000000000000000000e+00 0.000000000000000000e+00
-2.141878243071932086e+00 0.000000000000000000e+00 0.000000000000000000e+00
-2.135265025470526101e+00 0.000000000000000000e+00 0.000000000000000000e+00
-2.128651807869120116e+00 0.000000000000000000e+00 0.000000000000000000e+00
-2.122038590267714131e+00 0.000000000000000000e+00 0.000000000000000000e+00
-2.115425372666308146e+00 0.000000000000000000e+00 0.000000000000000000e+00
-2.108812155064901717e+00 0.000000000000000000e+00 0.000000000000000000e+00
-2.102198937463495731e+00 0.000000000000000000e+00 0.000000000000000000e+00
-2.095585719862089746e+00 0.000000000000000000e+00 0.000000000000000000e+00
-2.088972502260683761e+00 0.000000000000000000e+00 0.000000000000000000e+00
-2.082359284659277776e+00 0.000000000000000000e+00 0.000000000000000000e+00
-2.075746067057871347e+00 0.000000000000000000e+00 0.000000000000000000e+00
-2.069132849456465362e+00 0.000000000000000000e+00 0.000000000000000000e+00
-2.062519631855059377e+00 0.000000000000000000e+00 0.000000000000000000e+00
-2.055906414253653391e+00 0.000000000000000000e+00 0.000000000000000000e+00
-2.049293196652247406e+00 0.000000000000000000e+00 0.000000000000000000e+00
-2.042679979050840977e+00 0.000000000000000000e+00 0.000000000000000000e+00
-2.036066761449434992e+00 0.000000000000000000e+00 0.000000000000000000e+00
-2.029453543848029007e+00 0.000000000000000000e+00 0.000000000000000000e+00
-2.022840326246623022e+00 0.000000000000000000e+00 0.000000000000000000e+00
-2.016227108645217037e+00 0.000000000000000000e+00 0.000000000000000000e+00
-2.009613891043810607e+00 0.000000000000000000e+00 0.000000000000000000e+00
-2.003000673442404622e+00 0.000000000000000000e+00 0.000000000000000000e+00
-1.996387455840998637e+00 0.000000000000000000e+00 0.000000000000000000e+00
-1.989774238239592652e+00 0.000000000000000000e+00 0.000000000000000000e+00
-1.983161020638186667e+00 0.000000000000000000e+00 0.000000000000000000e+00
-1.976547803036780238e+00 0.000000000000000000e+00 0.000000000000000000e+00
-1.969934585435374252e+00 0.000000000000000000e+00 0.000000000000000000e+00
-1.963321367833968267e+00 0.000000000000000000e+00 0.000000000000000000e+00
-1.956708150232562282e+00 0.000000000000000000e+00 0.000000000000000000e+00
-1.950094932631156297e+00 0.000000000000000000e+00 0.000000000000000000e+00
-1.943481715029749868e+00 0.000000000000000000e+00 0.000000000000000000e+00
-1.936868497428343883e+00 0.000000000000000000e+00 0.000000000000000000e+00
-1.930255279826937898e+00 0.000000000000000000e+00 0.000000000000000000e+00
-1.923642062225531912e+00 0.000000000000000000e+00 0.000000000000000000e+00
-1.917028844624125927e+00 0.000000000000000000e+00 0.000000000000000000e+00
-1.910415627022719498e+00 0.000000000000000000e+00 0.000000000000000000e+00
-1.903802409421313513e+00 0.000000000000000000e+00 0.000000000000000000e+00
-1.897189191819907528e+00 0.000000000000000000e+00 0.000000000000000000e+00
-1.890575974218501543e+00 0.000000000000000000e+00 0.000000000000000000e+00
-1.883962756617095557e+00 0.000000000000000000e+00 0.000000000000000000e+00
-1.877349539015689128e+00 0.000000000000000000e+00 0.000000000000000000e+00
-1.870736321414283143e+00 0.000000000000000000e+00 0.000000000000000000e+00
-1.864123103812877158e+00 0.000000000000000000e+00 0.000000000000000000e+00
-1.857509886211471173e+00 0.000000000000000000e+00 0.000000000000000000e+00
-1.850896668610065188e+00 0.000000000000000000e+00 0.000000000000000000e+00
-1.844283451008658758e+00 0.000000000000000000e+00 0.000000000000000000e+00
-1.837670233407252773e+00 0.000000000000000000e+00 0.000000000000000000e+00
-1.831057015805846788e+00 0.000000000000000000e+00 0.000000000000000000e+00
-1.824443798204440803e+00 0.000000000000000000e+00 0.000000000000000000e+00
-1.817830580603034374e+00 0.000000000000000000e+00 0.000000000000000000e+00
-1.811217363001628389e+00 0.000000000000000000e+00 0.000000000000000000e+00
-1.804604145400222404e+00 0.000000000000000000e+00 0.000000000000000000e+00
-1.797990927798816418e+00 0.000000000000000000e+00 0.000000000000000000e+00
-1.791377710197410433e+00 0.000000000000000000e+00 0.000000000000000000e+00
-1.784764492596004004e+00 0.000000000000000000e+00 0.000000000000000000e+00
-1.778151274994598019e+00 0.000000000000000000e+00 0.000000000000000000e+00
-1.771538057393192034e+00 0.000000000000000000e+00 0.000000000000000000e+00
-1.764924839791785827e+00 0.000000000000000000e+00 0.000000000000000000e+00
-1.758311622190379842e+00 0.000000000000000000e+00 0.000000000000000000e+00
-1.751698404588973634e+00 0.000000000000000000e+00 0.000000000000000000e+00
-1.745085186987567427e+00 0.000000000000000000e+00 0.000000000000000000e+00
-1.738471969386161442e+00 0.000000000000000000e+00 0.000000000000000000e+00
-1.731858751784755457e+00 0.000000000000000000e+00 0.000000000000000000e+00
-1.725245534183349472e+00 0.000000000000000000e+00 0.000000000000000000e+00
-1.718632316581943265e+00 0.000000000000000000e+00 0.000000000000000000e+00
-1.712019098980537057e+00 0.000000000000000000e+00 0.000000000000000000e+00
-1.705405881379131072e+00 0.000000000000000000e+00 0.000000000000000000e+00
-1.698792663777724865e+00 0.000000000000000000e+00 0.000000000000000000e+00
-1.692179446176318880e+00 0.000000000000000000e+00 0.000000000000000000e+00
-1.685566228574912895e+00 0.000000000000000000e+00 0.000000000000000000e+00
-1.678953010973506466e+00 0.000000000000000000e+00 0.000000000000000000e+00
-1.672339793372100480e+00 0.000000000000000000e+00 0.000000000000000000e+00
-1.665726575770694495e+00 0.000000000000000000e+00 0.000000000000000000e+00
-1.659113358169288510e+00 0.000000000000000000e+00 0.000000000000000000e+00
-1.652500140567882525e+00 0.000000000000000000e+00 0.000000000000000000e+00
-1.645886922966476096e+00 0.000000000000000000e+00 0.000000000000000000e+00
-1.639273705365070111e+00 0.000000000000000000e+00 0.000000000000000000e+00
-1.632660487763664126e+00 0.000000000000000000e+00 0.000000000000000000e+00
-1.626047270162258140e+00 0.000000000000000000e+00 0.000000000000000000e+00
-1.619434052560852155e+00 0.000000000000000000e+00 0.000000000000000000e+00
-1.612820834959445726e+00 0.000000000000000000e+00 0.000000000000000000e+00
-1.606207617358039741e+00 0.000000000000000000e+00 0.000000000000000000e+00
-1.599594399756633756e+00 0.000000000000000000e+00 0.000000000000000000e+00
-1.592981182155227771e+00 0.000000000000000000e+00 0.000000000000000000e+00
-1.586367964553821786e+00 0.000000000000000000e+00 0.000000000000000000e+00
-1.579754746952415356e+00 0.000000000000000000e+00 0.000000000000000000e+00
-1.573141529351009371e+00 0.000000000000000000e+00 0.000000000000000000e+00
-1.566528311749603386e+00 0.000000000000000000e+00 0.000000000000000000e+00
-1.559915094148197401e+00 0.000000000000000000e+00 0.000000000000000000e+00
-1.553301876546791416e+00 0.000000000000000000e+00 0.000000000000000000e+00
-1.546688658945384987e+00 0.000000000000000000e+00 0.000000000000000000e+00
-1.540075441343979001e+00 0.000000000000000000e+00 0.000000000000000000e+00
-1.533462223742573016e+00 0.000000000000000000e+00 0.000000000000000000e+00
-1.526849006141167031e+00 0.000000000000000000e+00 0.000000000000000000e+00
-1.520235788539761046e+00 0.000000000000000000e+00 0.000000000000000000e+00
-1.513622570938354617e+00 0.000000000000000000e+00 0.000000000000000000e+00
-1.507009353336948632e+00 0.000000000000000000e+00 0.000000000000000000e+00
-1.500396135735542646e+00 0.000000000000000000e+00 0.000000000000000000e+00
-1.493782918134136661e+00 0.000000000000000000e+00 0.000000000000000000e+00
-1.487169700532730454e+00 0.000000000000000000e+00 0.000000000000000000e+00
-1.480556482931324247e+00 0.000000000000000000e+00 0.000000000000000000e+00
-1.473943265329918262e+00 0.000000000000000000e+00 0.000000000000000000e+00
-1.467330047728512277e+00 0.000000000000000000e+00 0.000000000000000000e+00
-1.460716830127106292e+00 0.000000000000000000e+00 0.000000000000000000e+00
-1.454103612525700084e+00 0.000000000000000000e+00 0.000000000000000000e+00
-1.447490394924293877e+00 0.000000000000000000e+00 0.000000000000000000e+00
-1.440877177322887892e+00 0.000000000000000000e+00 0.000000000000000000e+00
-1.434263959721481907e+00 0.000000000000000000e+00 0.000000000000000000e+00
-1.427650742120075922e+00 0.000000000000000000e+00 0.000000000000000000e+00
-1.421037524518669493e+00 0.000000000000000000e+00 0.000000000000000000e+00
-1.414424306917263507e+00 0.000000000000000000e+00 0.000000000000000000e+00
-1.407811089315857522e+00 0.000000000000000000e+00 0.000000000000000000e+00
-1.401197871714451537e+00 0.000000000000000000e+00 0.000000000000000000e+00
-1.394584654113045552e+00 0.000000000000000000e+00 0.000000000000000000e+00
-1.387971436511639123e+00 0.000000000000000000e+00 0.000000000000000000e+00
-1.381358218910233138e+00 0.000000000000000000e+00 0.000000000000000000e+00
-1.374745001308827153e+00 0.000000000000000000e+00 0.000000000000000000e+00
-1.368131783707421167e+00 0.000000000000000000e+00 0.000000000000000000e+00
-1.361518566106015182e+00 0.000000000000000000e+00 0.000000000000000000e+00
-1.354905348504608753e+00 0.000000000000000000e+00 0.000000000000000000e+00
-1.348292130903202768e+00 0.000000000000000000e+00 0.000000000000000000e+00
-1.341678913301796783e+00 0.000000000000000000e+00 0.000000000000000000e+00
-1.335065695700390798e+00 0.000000000000000000e+00 0.000000000000000000e+00
-1.328452478098984813e+00 0.000000000000000000e+00 0.000000000000000000e+00
-1.321839260497578383e+00 0.000000000000000000e+00 0.000000000000000000e+00
-1.315226042896172398e+00 0.000000000000000000e+00 0.000000000000000000e+00
-1.308612825294766413e+00 0.000000000000000000e+00 0.000000000000000000e+00
-1.301999607693360206e+00 0.000000000000000000e+00 0.000000000000000000e+00
-1.295386390091954221e+00 0.000000000000000000e+00 0.000000000000000000e+00
-1.288773172490548014e+00 0.000000000000000000e+00 0.000000000000000000e+00
-1.282159954889141806e+00 0.000000000000000000e+00 0.000000000000000000e+00
-1.275546737287735821e+00 0.000000000000000000e+00 0.000000000000000000e+00
-1.268933519686329836e+00 0.000000000000000000e+00 0.000000000000000000e+00
-1.262320302084923851e+00 0.000000000000000000e+00 0.000000000000000000e+00
-1.255707084483517644e+00 0.000000000000000000e+00 0.000000000000000000e+00
-1.249093866882111437e+00 0.000000000000000000e+00 0.000000000000000000e+00
-1.242480649280705451e+00 0.000000000000000000e+00 0.000000000000000000e+00
-1.235867431679299244e+00 0.000000000000000000e+00 0.000000000000000000e+00
-1.229254214077893259e+00 0.000000000000000000e+00 0.000000000000000000e+00
-1.222640996476487274e+00 0.000000000000000000e+00 0.000000000000000000e+00
-1.216027778875080845e+00 0.000000000000000000e+00 0.000000000000000000e+00
-1.209414561273674860e+00 0.000000000000000000e+00 0.000000000000000000e+00
-1.202801343672268874e+00 0.000000000000000000e+00 0.000000000000000000e+00
-1.196188126070862889e+00 0.000000000000000000e+00 0.000000000000000000e+00
-1.189574908469456904e+00 0.000000000000000000e+00 0.000000000000000000e+00
-1.182961690868050475e+00 0.000000000000000000e+00 0.000000000000000000e+00
-1.176348473266644490e+00 0.000000000000000000e+00 0.000000000000000000e+00
-1.169735255665238505e+00 0.000000000000000000e+00 0.000000000000000000e+00
-1.163122038063832520e+00 0.000000000000000000e+00 0.000000000000000000e+00
-1.156508820462426312e+00 0.000000000000000000e+00 0.000000000000000000e+00
-1.149895602861020105e+00 0.000000000000000000e+00 0.000000000000000000e+00
-1.143282385259614120e+00 0.000000000000000000e+00 0.000000000000000000e+00
-1.136669167658208135e+00 0.000000000000000000e+00 0.000000000000000000e+00
-1.130055950056802150e+00 0.000000000000000000e+00 0.000000000000000000e+00
-1.123442732455395943e+00 0.000000000000000000e+00 0.000000000000000000e+00
-1.116829514853989735e+00 0.000000000000000000e+00 0.000000000000000000e+00
-1.110216297252583750e+00 0.000000000000000000e+00 0.000000000000000000e+00
-1.103603079651177765e+00 0.000000000000000000e+00 0.000000000000000000e+00
-1.096989862049771780e+00 4.220077392862435772e-01 4.068909106780787255e+01
-1.090376644448365351e+00 9.936570041764269945e-01 4.662185408744309711e+01
-1.083763426846959366e+00 1.475242665595345670e+00 5.306327740231981238e+01
-1.077150209245553381e+00 1.920708689158317384e+00 5.904577467996944762e+01
-1.070536991644147395e+00 2.300356793334046301e+00 6.510589301993165634e+01
-1.063923774042741410e+00 2.690860372922632138e+00 6.481994627539152987e+01
-1.057310556441334981e+00 3.083206453071856146e+00 6.180076021170213352e+01
-1.050697338839928996e+00 3.509190001053141827e+00 5.998601766884655007e+01
-1.044084121238523011e+00 3.904825564022310402e+00 5.859509572592294546e+01
-1.037470903637117026e+00 4.305594376746725516e+00 5.784869717404497891e+01
-1.030857686035711041e+00 4.708691835592397013e+00 5.631776036740185276e+01
-1.024244468434304611e+00 5.080675756299470436e+00 5.438643129751816474e+01
-1.017631250832898626e+00 5.442248544454059811e+00 5.153336048085783716e+01
-1.011018033231492641e+00 5.795729873265791809e+00 4.876018305252462426e+01
-1.004404815630086656e+00 6.126017017032083345e+00 4.532778985212200951e+01
-9.977915980286805597e-01 6.415276414257341742e+00 4.163976168862252791e+01
-9.911783804272742415e-01 6.679899500415949376e+00 3.810425982819339197e+01
-9.845651628258681454e-01 6.917203266969274011e+00 3.438015418578225990e+01
-9.779519452244621602e-01 7.129442572129686795e+00 3.028061893177772745e+01
-9.713387276230560641e-01 7.303219753575618256e+00 2.608194123709705536e+01
-9.647255100216500789e-01 7.462419884767925282e+00 2.239795871232728075e+01
-9.581122924202438718e-01 7.600593374143059577e+00 1.880568461725997054e+01
-9.514990748188376646e-01 7.715882952458759547e+00 1.544193181782357804e+01
-9.448858572174316794e-01 7.798253094276816455e+00 1.218788359188160619e+01
-9.382726396160256943e-01 7.850872545712178407e+00 9.372843207348518391e+00
-9.316594220146197092e-01 7.896502162176638251e+00 6.461994797672451440e+00
-9.250462044132135020e-01 7.923560345589500287e+00 3.673631607888704131e+00
-9.184329868118072948e-01 7.938411819942707837e+00 1.074872846427406881e+00
-9.118197692104013097e-01 7.935453835066887507e+00 -1.136884106634547642e+00
-9.052065516089953245e-01 7.923066270316180493e+00 -2.981765296903074791e+00
-8.985933340075893394e-01 7.889765662129541113e+00 -4.926056808979803137e+00
-8.919801164061830212e-01 7.843538626246772338e+00 -6.656564199093191192e+00
-8.853668988047769250e-01 7.786966632731427751e+00 -8.292510215569913967e+00
-8.787536812033709399e-01 7.723068474429272356e+00 -9.952311335964619587e+00
-8.721404636019649548e-01 7.653681918264762629e+00 -1.170032675365251862e+01
-8.655272460005589696e-01 7.570731306229927071e+00 -1.320269559747017674e+01
-8.589140283991526514e-01 7.483347270326174083e+00 -1.456670632354182082e+01
-8.523008107977465553e-01 7.390010074768241566e+00 -1.587581999825975210e+01
-8.456875931963405701e-01 7.277285830050143289e+00 -1.728429325767562119e+01
-8.390743755949344740e-01 7.149298202021611814e+00 -1.860454125536862691e+01
-8.324611579935284889e-01 7.016642673017578602e+00 -1.995001422067365127e+01
-8.258479403921221706e-01 6.880210639713176590e+00 -2.140138232760105197e+01
-8.192347227907160745e-01 6.737064110238975445e+00 -2.317504446898155379e+01
-8.126215051893100894e-01 6.580020550434021231e+00 -2.433695058650172172e+01
-8.060082875879041042e-01 6.423323121303873506e+00 -2.510090915852659066e+01
-7.993950699864981191e-01 6.251393454305322450e+00 -2.607384209249302742e+01
-7.927818523850918009e-01 6.068027287293055849e+00 -2.742389970956754652e+01
-7.861686347836857047e-01 5.857393954811868753e+00 -2.902568145575452618e+01
-7.795554171822797196e-01 5.667830330218109225e+00 -3.040751361281520104e+01
-7.729421995808736234e-01 5.489320459436978439e+00 -3.166813520390337544e+01
-7.663289819794676383e-01 5.292322758394007565e+00 -3.253093486056938843e+01
-7.597157643780614311e-01 5.066608477128106358e+00 -3.343365132356386482e+01
-7.531025467766552239e-01 4.817532635278958253e+00 -3.412965354900684645e+01
-7.464893291752492388e-01 4.569105508041381825e+00 -3.530094090503769166e+01
-7.398761115738432537e-01 4.329040429962262237e+00 -3.675118209207573017e+01
-7.332628939724372685e-01 4.100051944204199827e+00 -3.828570716248965056e+01
-7.266496763710310614e-01 3.856987173170391969e+00 -3.895384845953418562e+01
-7.200364587696248542e-01 3.600325699010035407e+00 -3.866681340231827591e+01
-7.134232411682188690e-01 3.333302292824200208e+00 -3.800694202082288342e+01
-7.068100235668128839e-01 3.058884816599032774e+00 -3.756486089455200528e+01
-7.001968059654068988e-01 2.760405633501456180e+00 -3.760480524959959325e+01
-6.935835883640005806e-01 2.490505714377135860e+00 -3.717462241992167549e+01
-6.869703707625944844e-01 2.260412125454003274e+00 -3.608814802463933802e+01
-6.803571531611884993e-01 2.055623728564118124e+00 -3.445435582413401221e+01
-6.737439355597825141e-01 1.844794437340041782e+00 -3.270084960839328403e+01
-6.671307179583765290e-01 1.613164344463204003e+00 -2.841455226379963861e+01
-6.605175003569702108e-01 1.398548500039886733e+00 -2.350013296823355446e+01
-6.539042827555641146e-01 1.213737941823104904e+00 -1.963054776937781298e+01
-6.472910651541581295e-01 1.054760769011490851e+00 -1.540775556204927810e+01
-6.406778475527521444e-01 8.963064744874387202e-01 -1.102913686646680347e+01
-6.340646299513461592e-01 8.812894618311233330e-01 -5.253138151953871571e+00
-6.274514123499397300e-01 9.363907845680898845e-01 -7.369396943998078597e-02
-6.208381947485337449e-01 9.622012851170822501e-01 5.220708060563800323e+00
-6.142249771471277597e-01 1.036675325753051879e+00 1.023659004537762485e+01
-6.076117595457217746e-01 1.115413616803692776e+00 1.543445727301011594e+01
-6.009985419443157895e-01 1.265762887572016382e+00 1.853492772775603470e+01
-5.943853243429093602e-01 1.393674957481707111e+00 2.035214424518236243e+01
-5.877721067415033751e-01 1.558994726202342918e+00 2.347668868393986230e+01
-5.811588891400973900e-01 1.731728743676185900e+00 2.583378391827184473e+01
-5.745456715386912938e-01 1.917020719547636531e+00 2.828299090205985422e+01
-5.679324539372853087e-01 2.107044564730983893e+00 2.978753385887205596e+01
-5.613192363358789905e-01 2.282322370054039595e+00 3.195024982232359889e+01
-5.547060187344728943e-01 2.514765793390697723e+00 3.330834630481516712e+01
-5.480928011330669092e-01 2.745119670945413759e+00 3.469317965446737162e+01
-5.414795835316609240e-01 2.985829349342793648e+00 3.570456287882520030e+01
-5.348663659302549389e-01 3.235677319751733449e+00 3.691260177957254029e+01
-5.282531483288486207e-01 3.506614502424824309e+00 3.819934578730608621e+01
-5.216399307274425245e-01 3.761748146769669177e+00 3.880485132587784136e+01
-5.150267131260365394e-01 4.026064207072849399e+00 3.923954871423971724e+01
-5.084134955246304433e-01 4.278241156355207409e+00 3.965562188665607835e+01
-5.018002779232244581e-01 4.548155242754610583e+00 4.012733835823254935e+01
-4.951870603218181399e-01 4.808528229282138966e+00 4.061355035528715973e+01
-4.885738427204120438e-01 5.081015051473109168e+00 4.124799192311687079e+01
-4.819606251190060586e-01 5.340116413227832481e+00 4.150720325005652711e+01
-4.753474075176000735e-01 5.608341915898172658e+00 4.207509663670926869e+01
-4.687341899161940884e-01 5.889385523034139425e+00 4.204984560948965822e+01
-4.621209723147877702e-01 6.192476963076590124e+00 4.214670799159800652e+01
-4.555077547133816740e-01 6.489567608855786318e+00 4.172209860140585391e+01
-4.488945371119756889e-01 6.771025878256985209e+00 4.154351041405226397e+01
-4.422813195105697037e-01 7.060758852942683461e+00 4.099832627322690826e+01
-4.356681019091637186e-01 7.329003033965456382e+00 4.001243900533005871e+01
-4.290548843077572894e-01 7.595781740595718645e+00 3.849112010673552930e+01
-4.224416667063513042e-01 7.840188219857282093e+00 3.684324291527996564e+01
-4.158284491049453191e-01 8.087479156171898609e+00 3.537660290951427555e+01
-4.092152315035393340e-01 8.319650445281101980e+00 3.341142156972987465e+01
-4.026020139021333488e-01 8.535495182086496158e+00 3.149162410784164123e+01
-3.959887963007269196e-01 8.737978492953576648e+00 2.944900601394828854e+01
-3.893755786993209345e-01 8.926091434257880763e+00 2.759179308404546660e+01
-3.827623610979149493e-01 9.110557608648516492e+00 2.536058852859727608e+01
-3.761491434965088532e-01 9.270328865072041680e+00 2.331341905532892866e+01
-3.695359258951028680e-01 9.411612662433878285e+00 2.105869446880819851e+01
-3.629227082936964388e-01 9.543308589749276649e+00 1.865760506656203432e+01
-3.563094906922904537e-01 9.664893536634917126e+00 1.634340632095303292e+01
-3.496962730908844685e-01 9.764630060565263392e+00 1.375990450863155523e+01
-3.430830554894784834e-01 9.861417577737672246e+00 1.144697767752645134e+01
-3.364698378880724983e-01 9.928152471324047212e+00 9.202272505220554066e+00
-3.298566202866660690e-01 9.971846515216288509e+00 6.781239121125900660e+00
-3.232434026852600839e-01 1.000691645774445604e+01 4.425320658426363352e+00
-3.166301850838540988e-01 1.002053003555000643e+01 2.131025862367526891e+00
-3.100169674824480026e-01 1.002734240767124518e+01 -3.840056451297916285e-01
-3.034037498810420175e-01 1.002017896747847558e+01 -2.713887863390485489e+00
-2.967905322796355883e-01 9.991766688901009275e+00 -4.781325277071522883e+00
-2.901773146782296031e-01 9.957549621336632129e+00 -6.921055151344721601e+00
-2.835640970768236180e-01 9.905559437985868243e+00 -8.768036864597069879e+00
-2.769508794754176328e-01 9.836022448823555919e+00 -1.048350773905004552e+01
-2.703376618740116477e-01 9.748677161459887941e+00 -1.206875529214018705e+01
-2.637244442726052185e-01 9.655647070412516797e+00 -1.327922269589409510e+01
-2.571112266711992334e-01 9.549212020272705104e+00 -1.432272535992760076e+01
-2.504980090697932482e-01 9.440680678322699748e+00 -1.493449494864823279e+01
-2.438847914683872631e-01 9.334045228627619650e+00 -1.533177727693867354e+01
-2.372715738669812779e-01 9.222045918228033656e+00 -1.475986386535541506e+01
-2.306583562655748487e-01 9.113582796246230799e+00 -1.360474887930637955e+01
-2.240451386641688636e-01 9.010356626832844995e+00 -1.230132838416292884e+01
-2.174319210627628784e-01 8.917908789360762256e+00 -1.049513777388970404e+01
-2.108187034613568933e-01 8.822098655336670703e+00 -8.731404235312183459e+00
-2.042054858599509082e-01 8.772575246372625202e+00 -6.452869391046530900e+00
-1.975922682585444790e-01 8.755935422899131737e+00 -4.079967756263704892e+00
-1.909790506571384938e-01 8.735698406364480917e+00 -1.802520750274892336e+00
-1.843658330557325087e-01 8.746614379768011815e+00 2.028125575210805720e-01
-1.777526154543265235e-01 8.756618466888038910e+00 2.430737058920917626e+00
-1.711393978529205384e-01 8.795303623863603093e+00 3.958981812876156692e+00
-1.645261802515141092e-01 8.843765650457307004e+00 4.616001546108019937e+00
-1.579129626501081241e-01 8.891152007306668992e+00 5.744323849531844495e+00
-1.512997450487021389e-01 8.931321225112611728e+00 6.128838029253889985e+00
-1.446865274472961538e-01 8.982848586361129151e+00 6.351091836918479672e+00
-1.380733098458901686e-01 9.034391328458220016e+00 6.065682679491906981e+00
-1.314600922444837394e-01 9.061201649627527388e+00 5.682202713221764512e+00
-1.248468746430777543e-01 9.115583042263487812e+00 5.102250252315133849e+00
-1.182336570416717692e-01 9.151927775080299199e+00 4.877891054108558500e+00
-1.116204394402657840e-01 9.176629990128596148e+00 4.275309268714186928e+00
-1.050072218388597989e-01 9.196440418469197908e+00 3.474280216930186072e+00
-9.839400423745314761e-02 9.219542080435665810e+00 3.015580640740405549e+00
-9.178078663604738452e-02 9.228574919060562820e+00 1.909710396530502008e+00
-8.516756903464139938e-02 9.253906774880327646e+00 9.464590997432006381e-01
-7.855435143323541425e-02 9.265584091434281078e+00 3.358881182937999976e-01
-7.194113383182942911e-02 9.264153039286412650e+00 -1.582214892510834525e-01
-6.532791623042277784e-02 9.260628559345562394e+00 -9.676351361758336322e-01
-5.871469862901701475e-02 9.241876346342728255e+00 -1.512030387552002697e+00
-5.210148102761102962e-02 9.214519174854622463e+00 -2.295868876824187499e+00
-4.548826342620482244e-02 9.198843002288633386e+00 -2.952135205257694128e+00
-3.887504582479883730e-02 9.185976887092838439e+00 -3.415557700672282149e+00
-3.226182822339218603e-02 9.155550263292692392e+00 -3.829484391501323248e+00
-2.564861062198642294e-02 9.128581059332361747e+00 -4.127466951440998955e+00
-1.903539302058043781e-02 9.102075970212986533e+00 -4.268212435924109371e+00
-1.242217541917445267e-02 9.070352966422873919e+00 -4.836088598367379809e+00
-5.808957817768467535e-03 9.038274776239372699e+00 -5.767528899951696708e+00
8.042597836381837340e-04 9.007376423523702158e+00 -6.501231620237211573e+00
7.417477385043946825e-03 8.968917975417809885e+00 -7.589491009996907067e+00
1.403069498644993196e-02 8.932252998776686326e+00 -9.017916847587029494e+00
2.064391258785613914e-02 8.879021939881813097e+00 -1.053696675221328682e+01
2.725713018926212428e-02 8.804557650715054251e+00 -1.234987391914313726e+01
3.387034779066855350e-02 8.725609669474987840e+00 -1.457929623079521519e+01
4.048356539207453864e-02 8.626671504002118240e+00 -1.696413099869483077e+01
4.709678299348052377e-02 8.505701505968197296e+00 -1.987608528977089861e+01
5.371000059488650891e-02 8.373520426511198878e+00 -2.297778734151656010e+01
6.032321819629249404e-02 8.221550740467144180e+00 -2.616991150633867846e+01
6.693643579769892327e-02 8.043215839027617164e+00 -2.967881098592447131e+01
7.354965339910490840e-02 7.847043078286539242e+00 -3.325045048784524937e+01
8.016287100051089354e-02 7.617804227923073768e+00 -3.710381352213787665e+01
8.677608860191687867e-02 7.359450862998983212e+00 -4.131086323384389658e+01
9.338930620332286381e-02 7.073884456705471280e+00 -4.542766736340747968e+01
1.000025238047292930e-01 6.762885317465794799e+00 -4.931012913646757312e+01
1.066157414061352782e-01 6.427746859793121104e+00 -5.346728778741390187e+01
1.132289590075412633e-01 6.051945579329288449e+00 -5.784800336725253089e+01
1.198421766089472484e-01 5.641543147837843719e+00 -6.195559339590011660e+01
1.264553942103532336e-01 5.217320246482074708e+00 -6.585566743653909327e+01
1.330686118117596628e-01 4.782229699698675063e+00 -6.998638500600196721e+01
1.396818294131656479e-01 4.311134991334846234e+00 -7.408750076193001632e+01
1.462950470145716331e-01 3.792189887177954688e+00 -7.801170880239942562e+01
1.529082646159776182e-01 3.262192655485733894e+00 -8.072405218306093388e+01
1.595214822173836033e-01 2.718705866268820159e+00 -7.889227786484110538e+01
1.661346998187900326e-01 2.134533385661050886e+00 -7.231317938521620192e+01
1.727479174201960177e-01 1.528179218963302333e+00 -6.518967394053737507e+01
1.793611350216020028e-01 8.928615216513584585e-01 -5.734258443834776386e+01
1.859743526230079880e-01 3.030859202994342638e-01 -4.932837314762097236e+01
1.925875702244139731e-01 0.000000000000000000e+00 0.000000000000000000e+00
1.992007878258204023e-01 0.000000000000000000e+00 0.000000000000000000e+00
2.058140054272263875e-01 0.000000000000000000e+00 0.000000000000000000e+00
2.124272230286323726e-01 0.000000000000000000e+00 0.000000000000000000e+00
2.190404406300383577e-01 0.000000000000000000e+00 0.000000000000000000e+00
2.256536582314443429e-01 0.000000000000000000e+00 0.000000000000000000e+00
2.322668758328509941e-01 0.000000000000000000e+00 0.000000000000000000e+00
2.388800934342567572e-01 0.000000000000000000e+00 0.000000000000000000e+00
2.454933110356627424e-01 0.000000000000000000e+00 0.000000000000000000e+00
2.521065286370687275e-01 0.000000000000000000e+00 0.000000000000000000e+00
2.587197462384747126e-01 0.000000000000000000e+00 0.000000000000000000e+00
2.653329638398813639e-01 0.000000000000000000e+00 0.000000000000000000e+00
2.719461814412871270e-01 0.000000000000000000e+00 0.000000000000000000e+00
2.785593990426931121e-01 0.000000000000000000e+00 0.000000000000000000e+00
2.851726166440990973e-01 0.000000000000000000e+00 0.000000000000000000e+00
2.917858342455050824e-01 0.000000000000000000e+00 0.000000000000000000e+00
2.983990518469119557e-01 0.000000000000000000e+00 0.000000000000000000e+00
3.050122694483174968e-01 0.000000000000000000e+00 0.000000000000000000e+00
3.116254870497234819e-01 0.000000000000000000e+00 0.000000000000000000e+00
3.182387046511294670e-01 0.000000000000000000e+00 0.000000000000000000e+00
3.248519222525354522e-01 0.000000000000000000e+00 0.000000000000000000e+00
3.314651398539423255e-01 0.000000000000000000e+00 0.000000000000000000e+00
3.380783574553478665e-01 0.000000000000000000e+00 0.000000000000000000e+00
3.446915750567538517e-01 0.000000000000000000e+00 0.000000000000000000e+00
3.513047926581600588e-01 0.000000000000000000e+00 0.000000000000000000e+00
3.579180102595660440e-01 0.000000000000000000e+00 0.000000000000000000e+00
3.645312278609726953e-01 0.000000000000000000e+00 0.000000000000000000e+00
3.711444454623784583e-01 0.000000000000000000e+00 0.000000000000000000e+00
3.777576630637844435e-01 0.000000000000000000e+00 0.000000000000000000e+00
3.843708806651904286e-01 0.000000000000000000e+00 0.000000000000000000e+00
3.909840982665964138e-01 0.000000000000000000e+00 0.000000000000000000e+00
3.975973158680030650e-01 0.000000000000000000e+00 0.000000000000000000e+00
4.042105334694088281e-01 0.000000000000000000e+00 0.000000000000000000e+00
4.108237510708148132e-01 0.000000000000000000e+00 0.000000000000000000e+00
4.174369686722210204e-01 0.000000000000000000e+00 0.000000000000000000e+00
4.240501862736270056e-01 0.000000000000000000e+00 0.000000000000000000e+00
4.306634038750334348e-01 0.000000000000000000e+00 0.000000000000000000e+00
4.372766214764394199e-01 0.000000000000000000e+00 0.000000000000000000e+00
4.438898390778454051e-01 0.000000000000000000e+00 0.000000000000000000e+00
4.505030566792513902e-01 0.000000000000000000e+00 0.000000000000000000e+00
4.571162742806573753e-01 0.000000000000000000e+00 0.000000000000000000e+00
4.637294918820638046e-01 0.000000000000000000e+00 0.000000000000000000e+00
4.703427094834697897e-01 0.000000000000000000e+00 0.000000000000000000e+00
4.769559270848757748e-01 0.000000000000000000e+00 0.000000000000000000e+00
4.835691446862817600e-01 0.000000000000000000e+00 0.000000000000000000e+00
4.901823622876877451e-01 0.000000000000000000e+00 0.000000000000000000e+00
4.967955798890941743e-01 0.000000000000000000e+00 0.000000000000000000e+00
5.034087974905001595e-01 0.000000000000000000e+00 0.000000000000000000e+00
5.100220150919061446e-01 0.000000000000000000e+00 0.000000000000000000e+00
5.166352326933121297e-01 0.000000000000000000e+00 0.000000000000000000e+00
5.232484502947181149e-01 0.000000000000000000e+00 0.000000000000000000e+00
5.298616678961245441e-01 0.000000000000000000e+00 0.000000000000000000e+00
5.364748854975305292e-01 0.000000000000000000e+00 0.000000000000000000e+00
5.430881030989365144e-01 0.000000000000000000e+00 0.000000000000000000e+00
5.497013207003424995e-01 0.000000000000000000e+00 0.000000000000000000e+00
5.563145383017484846e-01 0.000000000000000000e+00 0.000000000000000000e+00
5.629277559031549139e-01 0.000000000000000000e+00 0.000000000000000000e+00
5.695409735045608990e-01 0.000000000000000000e+00 0.000000000000000000e+00
5.761541911059668841e-01 0.000000000000000000e+00 0.000000000000000000e+00
5.827674087073728693e-01 0.000000000000000000e+00 0.000000000000000000e+00
5.893806263087788544e-01 0.000000000000000000e+00 0.000000000000000000e+00
5.959938439101852836e-01 0.000000000000000000e+00 0.000000000000000000e+00
6.026070615115912688e-01 0.000000000000000000e+00 0.000000000000000000e+00
6.092202791129972539e-01 0.000000000000000000e+00 0.000000000000000000e+00
6.158334967144032390e-01 0.000000000000000000e+00 0.000000000000000000e+00
6.224467143158092242e-01 0.000000000000000000e+00 0.000000000000000000e+00
6.290599319172158754e-01 0.000000000000000000e+00 0.000000000000000000e+00
6.356731495186216385e-01 0.000000000000000000e+00 0.000000000000000000e+00
6.422863671200276237e-01 0.000000000000000000e+00 0.000000000000000000e+00
6.488995847214336088e-01 0.000000000000000000e+00 0.000000000000000000e+00
6.555128023228395939e-01 0.000000000000000000e+00 0.000000000000000000e+00
6.621260199242462452e-01 0.000000000000000000e+00 0.000000000000000000e+00
6.687392375256520083e-01 0.000000000000000000e+00 0.000000000000000000e+00
6.753524551270579934e-01 0.000000000000000000e+00 0.000000000000000000e+00
6.819656727284639786e-01 0.000000000000000000e+00 0.000000000000000000e+00
6.885788903298699637e-01 0.000000000000000000e+00 0.000000000000000000e+00
6.951921079312768370e-01 0.000000000000000000e+00 0.000000000000000000e+00
7.018053255326823781e-01 0.000000000000000000e+00 0.000000000000000000e+00
7.084185431340883632e-01 0.000000000000000000e+00 0.000000000000000000e+00
7.150317607354943483e-01 0.000000000000000000e+00 0.000000000000000000e+00
7.216449783369003335e-01 0.000000000000000000e+00 0.000000000000000000e+00
7.282581959383072068e-01 0.000000000000000000e+00 0.000000000000000000e+00
7.348714135397127478e-01 0.000000000000000000e+00 0.000000000000000000e+00
7.414846311411187330e-01 0.000000000000000000e+00 0.000000000000000000e+00
7.480978487425249401e-01 0.000000000000000000e+00 0.000000000000000000e+00
7.547110663439309253e-01 0.000000000000000000e+00 0.000000000000000000e+00
7.613242839453375765e-01 0.000000000000000000e+00 0.000000000000000000e+00
7.679375015467433396e-01 0.000000000000000000e+00 0.000000000000000000e+00
7.745507191481493248e-01 0.000000000000000000e+00 0.000000000000000000e+00
7.811639367495553099e-01 0.000000000000000000e+00 0.000000000000000000e+00
7.877771543509612950e-01 0.000000000000000000e+00 0.000000000000000000e+00
7.943903719523679463e-01 0.000000000000000000e+00 0.000000000000000000e+00
8.010035895537737094e-01 0.000000000000000000e+00 0.000000000000000000e+00
8.076168071551796945e-01 0.000000000000000000e+00 0.000000000000000000e+00
8.142300247565859017e-01 0.000000000000000000e+00 0.000000000000000000e+00
8.208432423579918868e-01 0.000000000000000000e+00 0.000000000000000000e+00
8.274564599593983161e-01 0.000000000000000000e+00 0.000000000000000000e+00
8.340696775608043012e-01 0.000000000000000000e+00 0.000000000000000000e+00
8.406828951622102863e-01 0.000000000000000000e+00 0.000000000000000000e+00
8.472961127636162715e-01 0.000000000000000000e+00 0.000000000000000000e+00
8.539093303650222566e-01 0.000000000000000000e+00 0.000000000000000000e+00
8.605225479664286858e-01 0.000000000000000000e+00 0.000000000000000000e+00
8.671357655678346710e-01 0.000000000000000000e+00 0.000000000000000000e+00
8.737489831692406561e-01 0.000000000000000000e+00 0.000000000000000000e+00
8.803622007706466412e-01 0.000000000000000000e+00 0.000000000000000000e+00
8.869754183720526264e-01 0.000000000000000000e+00 0.000000000000000000e+00
8.935886359734590556e-01 0.000000000000000000e+00 0.000000000000000000e+00
9.002018535748650407e-01 0.000000000000000000e+00 0.000000000000000000e+00
9.068150711762710259e-01 0.000000000000000000e+00 0.000000000000000000e+00
9.134282887776770110e-01 0.000000000000000000e+00 0.000000000000000000e+00
9.200415063790829961e-01 0.000000000000000000e+00 0.000000000000000000e+00
9.266547239804894254e-01 0.000000000000000000e+00 0.000000000000000000e+00
9.332679415818954105e-01 0.000000000000000000e+00 0.000000000000000000e+00
9.398811591833013956e-01 0.000000000000000000e+00 0.000000000000000000e+00
9.464943767847073808e-01 0.000000000000000000e+00 0.000000000000000000e+00
9.531075943861133659e-01 0.000000000000000000e+00 0.000000000000000000e+00
9.597208119875200172e-01 0.000000000000000000e+00 0.000000000000000000e+00
9.663340295889257803e-01 0.000000000000000000e+00 0.000000000000000000e+00
9.729472471903317654e-01 0.000000000000000000e+00 0.000000000000000000e+00
9.795604647917377505e-01 0.000000000000000000e+00 0.000000000000000000e+00
9.861736823931437357e-01 0.000000000000000000e+00 0.000000000000000000e+00
9.927868999945503869e-01 0.000000000000000000e+00 0.000000000000000000e+00
9.994001175959561500e-01 0.000000000000000000e+00 0.000000000000000000e+00
1.006013335197362135e+00 0.000000000000000000e+00 0.000000000000000000e+00
1.012626552798768120e+00 0.000000000000000000e+00 0.000000000000000000e+00
1.019239770400174105e+00 0.000000000000000000e+00 0.000000000000000000e+00
1.025852988001580979e+00 0.000000000000000000e+00 0.000000000000000000e+00
1.032466205602986520e+00 0.000000000000000000e+00 0.000000000000000000e+00
1.039079423204392505e+00 0.000000000000000000e+00 0.000000000000000000e+00
1.045692640805798490e+00 0.000000000000000000e+00 0.000000000000000000e+00
1.052305858407204475e+00 0.000000000000000000e+00 0.000000000000000000e+00
1.058919076008611349e+00 0.000000000000000000e+00 0.000000000000000000e+00
1.065532293610016890e+00 0.000000000000000000e+00 0.000000000000000000e+00
1.072145511211422875e+00 0.000000000000000000e+00 0.000000000000000000e+00
1.078758728812828860e+00 0.000000000000000000e+00 0.000000000000000000e+00
1.085371946414234845e+00 0.000000000000000000e+00 0.000000000000000000e+00
1.091985164015641718e+00 0.000000000000000000e+00 0.000000000000000000e+00
1.098598381617047259e+00 0.000000000000000000e+00 0.000000000000000000e+00
1.105211599218453244e+00 0.000000000000000000e+00 0.000000000000000000e+00
1.111824816819859230e+00 0.000000000000000000e+00 0.000000000000000000e+00
1.118438034421265215e+00 0.000000000000000000e+00 0.000000000000000000e+00
1.125051252022672088e+00 0.000000000000000000e+00 0.000000000000000000e+00
1.131664469624077629e+00 0.000000000000000000e+00 0.000000000000000000e+00
1.138277687225483614e+00 0.000000000000000000e+00 0.000000000000000000e+00
1.144890904826889599e+00 0.000000000000000000e+00 0.000000000000000000e+00
1.151504122428295585e+00 0.000000000000000000e+00 0.000000000000000000e+00
1.158117340029702458e+00 0.000000000000000000e+00 0.000000000000000000e+00
1.164730557631107999e+00 0.000000000000000000e+00 0.000000000000000000e+00
1.171343775232513984e+00 0.000000000000000000e+00 0.000000000000000000e+00
1.177956992833919969e+00 0.000000000000000000e+00 0.000000000000000000e+00
1.184570210435325954e+00 0.000000000000000000e+00 0.000000000000000000e+00
1.191183428036732828e+00 0.000000000000000000e+00 0.000000000000000000e+00
1.197796645638138369e+00 0.000000000000000000e+00 0.000000000000000000e+00
1.204409863239544354e+00 0.000000000000000000e+00 0.000000000000000000e+00
1.211023080840950561e+00 0.000000000000000000e+00 0.000000000000000000e+00
1.217636298442356546e+00 0.000000000000000000e+00 0.000000000000000000e+00
1.224249516043763197e+00 0.000000000000000000e+00 0.000000000000000000e+00
1.230862733645168960e+00 0.000000000000000000e+00 0.000000000000000000e+00
1.237475951246574946e+00 0.000000000000000000e+00 0.000000000000000000e+00
1.244089168847980931e+00 0.000000000000000000e+00 0.000000000000000000e+00
1.250702386449386916e+00 0.000000000000000000e+00 0.000000000000000000e+00
1.257315604050793567e+00 0.000000000000000000e+00 0.000000000000000000e+00
1.263928821652199330e+00 0.000000000000000000e+00 0.000000000000000000e+00
1.270542039253605315e+00 0.000000000000000000e+00 0.000000000000000000e+00
1.277155256855011523e+00 0.000000000000000000e+00 0.000000000000000000e+00
1.283768474456417508e+00 0.000000000000000000e+00 0.000000000000000000e+00
1.290381692057823937e+00 0.000000000000000000e+00 0.000000000000000000e+00
1.296994909659229922e+00 0.000000000000000000e+00 0.000000000000000000e+00
1.303608127260635907e+00 0.000000000000000000e+00 0.000000000000000000e+00
1.310221344862041892e+00 0.000000000000000000e+00 0.000000000000000000e+00
1.316834562463447877e+00 0.000000000000000000e+00 0.000000000000000000e+00
1.323447780064854307e+00 0.000000000000000000e+00 0.000000000000000000e+00
1.330060997666260292e+00 0.000000000000000000e+00 0.000000000000000000e+00
1.336674215267666277e+00 0.000000000000000000e+00 0.000000000000000000e+00
1.343287432869072262e+00 0.000000000000000000e+00 0.000000000000000000e+00
1.349900650470478247e+00 0.000000000000000000e+00 0.000000000000000000e+00
1.356513868071884898e+00 0.000000000000000000e+00 0.000000000000000000e+00
1.363127085673290662e+00 0.000000000000000000e+00 0.000000000000000000e+00
1.369740303274696647e+00 0.000000000000000000e+00 0.000000000000000000e+00
1.376353520876102632e+00 0.000000000000000000e+00 0.000000000000000000e+00
1.382966738477508617e+00 0.000000000000000000e+00 0.000000000000000000e+00
1.389579956078915268e+00 0.000000000000000000e+00 0.000000000000000000e+00
1.396193173680321031e+00 0.000000000000000000e+00 0.000000000000000000e+00
1.402806391281727016e+00 0.000000000000000000e+00 0.000000000000000000e+00
1.409419608883133002e+00 0.000000000000000000e+00 0.000000000000000000e+00
1.416032826484538987e+00 0.000000000000000000e+00 0.000000000000000000e+00
1.422646044085945860e+00 0.000000000000000000e+00 0.000000000000000000e+00
1.429259261687351401e+00 0.000000000000000000e+00 0.000000000000000000e+00
1.435872479288757386e+00 0.000000000000000000e+00 0.000000000000000000e+00
1.442485696890163371e+00 0.000000000000000000e+00 0.000000000000000000e+00
1.449098914491569356e+00 0.000000000000000000e+00 0.000000000000000000e+00
1.455712132092976230e+00 0.000000000000000000e+00 0.000000000000000000e+00
1.462325349694381771e+00 0.000000000000000000e+00 0.000000000000000000e+00
1.468938567295787756e+00 0.000000000000000000e+00 0.000000000000000000e+00
1.475551784897193741e+00 0.000000000000000000e+00 0.000000000000000000e+00
1.482165002498599726e+00 0.000000000000000000e+00 0.000000000000000000e+00
1.488778220100006600e+00 0.000000000000000000e+00 0.000000000000000000e+00
1.495391437701412141e+00 0.000000000000000000e+00 0.000000000000000000e+00
1.502004655302818126e+00 0.000000000000000000e+00 0.000000000000000000e+00
1.508617872904224111e+00 0.000000000000000000e+00 0.000000000000000000e+00
1.515231090505630096e+00 0.000000000000000000e+00 0.000000000000000000e+00
1.521844308107036969e+00 0.000000000000000000e+00 0.000000000000000000e+00
1.528457525708442510e+00 0.000000000000000000e+00 0.000000000000000000e+00
1.535070743309848496e+00 0.000000000000000000e+00 0.000000000000000000e+00
1.541683960911254925e+00 0.000000000000000000e+00 0.000000000000000000e+00
1.548297178512660910e+00 0.000000000000000000e+00 0.000000000000000000e+00
1.554910396114067339e+00 0.000000000000000000e+00 0.000000000000000000e+00
1.561523613715473102e+00 0.000000000000000000e+00 0.000000000000000000e+00
1.568136831316879309e+00 0.000000000000000000e+00 0.000000000000000000e+00
1.574750048918285295e+00 0.000000000000000000e+00 0.000000000000000000e+00
1.581363266519691280e+00 0.000000000000000000e+00 0.000000000000000000e+00
1.587976484121097709e+00 0.000000000000000000e+00 0.000000000000000000e+00
1.594589701722503472e+00 0.000000000000000000e+00 0.000000000000000000e+00
1.601202919323909679e+00 0.000000000000000000e+00 0.000000000000000000e+00
