#! FIELDS rc1 external1.bias der_rc1
#! SET min_rc1 -1.3623372203133908
#! SET max_rc1 1.9504132714324647
#! SET nbins_rc1 600
#! SET periodic_rc1 false
-1.362337220313390773e+00 0.000000000000000000e+00 0.000000000000000000e+00
-1.356806752046703313e+00 0.000000000000000000e+00 0.000000000000000000e+00
-1.351276283780015852e+00 0.000000000000000000e+00 0.000000000000000000e+00
-1.345745815513328392e+00 0.000000000000000000e+00 0.000000000000000000e+00
-1.340215347246640487e+00 0.000000000000000000e+00 0.000000000000000000e+00
-1.334684878979953027e+00 0.000000000000000000e+00 0.000000000000000000e+00
-1.329154410713265566e+00 0.000000000000000000e+00 0.000000000000000000e+00
-1.323623942446578106e+00 0.000000000000000000e+00 0.000000000000000000e+00
-1.318093474179890201e+00 0.000000000000000000e+00 0.000000000000000000e+00
-1.312563005913202741e+00 0.000000000000000000e+00 0.000000000000000000e+00
-1.307032537646515280e+00 0.000000000000000000e+00 0.000000000000000000e+00
-1.301502069379827375e+00 0.000000000000000000e+00 0.000000000000000000e+00
-1.295971601113139915e+00 0.000000000000000000e+00 0.000000000000000000e+00
-1.290441132846452454e+00 0.000000000000000000e+00 0.000000000000000000e+00
-1.284910664579764994e+00 0.000000000000000000e+00 0.000000000000000000e+00
-1.279380196313077089e+00 0.000000000000000000e+00 0.000000000000000000e+00
-1.273849728046389629e+00 0.000000000000000000e+00 0.000000000000000000e+00
-1.268319259779702168e+00 0.000000000000000000e+00 0.000000000000000000e+00
-1.262788791513014708e+00 0.000000000000000000e+00 0.000000000000000000e+00
-1.257258323246326803e+00 0.000000000000000000e+00 0.000000000000000000e+00
-1.251727854979639343e+00 0.000000000000000000e+00 0.000000000000000000e+00
-1.246197386712951882e+00 0.000000000000000000e+00 0.000000000000000000e+00
-1.240666918446264422e+00 0.000000000000000000e+00 0.000000000000000000e+00
-1.235136450179576961e+00 0.000000000000000000e+00 0.000000000000000000e+00
-1.229605981912889057e+00 0.000000000000000000e+00 0.000000000000000000e+00
-1.224075513646201596e+00 0.000000000000000000e+00 0.000000000000000000e+00
-1.218545045379514136e+00 0.000000000000000000e+00 0.000000000000000000e+00
-1.213014577112826675e+00 0.000000000000000000e+00 0.000000000000000000e+00
-1.207484108846138771e+00 0.000000000000000000e+00 0.000000000000000000e+00
-1.201953640579451310e+00 0.000000000000000000e+00 0.000000000000000000e+00
-1.196423172312763850e+00 0.000000000000000000e+00 0.000000000000000000e+00
-1.190892704046075945e+00 0.000000000000000000e+00 0.000000000000000000e+00
-1.185362235779388485e+00 0.000000000000000000e+00 0.000000000000000000e+00
-1.179831767512701024e+00 0.000000000000000000e+00 0.000000000000000000e+00
-1.174301299246013564e+00 0.000000000000000000e+00 0.000000000000000000e+00
-1.168770830979325659e+00 0.000000000000000000e+00 0.000000000000000000e+00
-1.163240362712638198e+00 0.000000000000000000e+00 0.000000000000000000e+00
-1.157709894445950738e+00 0.000000000000000000e+00 0.000000000000000000e+00
-1.152179426179263277e+00 0.000000000000000000e+00 0.000000000000000000e+00
-1.146648957912575373e+00 0.000000000000000000e+00 0.000000000000000000e+00
-1.141118489645887912e+00 0.000000000000000000e+00 0.000000000000000000e+00
-1.135588021379200452e+00 0.000000000000000000e+00 0.000000000000000000e+00
-1.130057553112512991e+00 0.000000000000000000e+00 0.000000000000000000e+00
-1.124527084845825531e+00 0.000000000000000000e+00 0.000000000000000000e+00
-1.118996616579137626e+00 0.000000000000000000e+00 0.000000000000000000e+00
-1.113466148312450166e+00 0.000000000000000000e+00 0.000000000000000000e+00
-1.107935680045762705e+00 0.000000000000000000e+00 0.000000000000000000e+00
-1.102405211779075245e+00 0.000000000000000000e+00 0.000000000000000000e+00
-1.096874743512387340e+00 0.000000000000000000e+00 0.000000000000000000e+00
-1.091344275245699880e+00 0.000000000000000000e+00 0.000000000000000000e+00
-1.085813806979012419e+00 0.000000000000000000e+00 0.000000000000000000e+00
-1.080283338712324515e+00 0.000000000000000000e+00 0.000000000000000000e+00
-1.074752870445637054e+00 0.000000000000000000e+00 0.000000000000000000e+00
-1.069222402178949594e+00 0.000000000000000000e+00 0.000000000000000000e+00
-1.063691933912262133e+00 0.000000000000000000e+00 0.000000000000000000e+00
-1.058161465645574228e+00 0.000000000000000000e+00 0.000000000000000000e+00
-1.052630997378886768e+00 0.000000000000000000e+00 0.000000000000000000e+00
-1.047100529112199307e+00 0.000000000000000000e+00 0.000000000000000000e+00
-1.041570060845511847e+00 0.000000000000000000e+00 0.000000000000000000e+00
-1.036039592578823942e+00 0.000000000000000000e+00 0.000000000000000000e+00
-1.030509124312136482e+00 0.000000000000000000e+00 0.000000000000000000e+00
-1.024978656045449021e+00 0.000000000000000000e+00 0.000000000000000000e+00
-1.019448187778761561e+00 0.000000000000000000e+00 0.000000000000000000e+00
-1.013917719512074100e+00 0.000000000000000000e+00 0.000000000000000000e+00
-1.008387251245386196e+00 0.000000000000000000e+00 0.000000000000000000e+00
-1.002856782978698735e+00 0.000000000000000000e+00 0.000000000000000000e+00
-9.973263147120111638e-01 0.000000000000000000e+00 0.000000000000000000e+00
-9.917958464453237033e-01 0.000000000000000000e+00 0.000000000000000000e+00
-9.862653781786360208e-01 0.000000000000000000e+00 0.000000000000000000e+00
-9.807349099119483382e-01 0.000000000000000000e+00 0.000000000000000000e+00
-9.752044416452608777e-01 0.000000000000000000e+00 0.000000000000000000e+00
-9.696739733785731952e-01 0.000000000000000000e+00 0.000000000000000000e+00
-9.641435051118857347e-01 0.000000000000000000e+00 0.000000000000000000e+00
-9.586130368451982742e-01 0.000000000000000000e+00 0.000000000000000000e+00
-9.530825685785105916e-01 0.000000000000000000e+00 0.000000000000000000e+00
-9.475521003118229091e-01 0.000000000000000000e+00 0.000000000000000000e+00
-9.420216320451354486e-01 0.000000000000000000e+00 0.000000000000000000e+00
-9.364911637784479881e-01 0.000000000000000000e+00 0.000000000000000000e+00
-9.309606955117603055e-01 0.000000000000000000e+00 0.000000000000000000e+00
-9.254302272450726230e-01 0.000000000000000000e+00 0.000000000000000000e+00
-9.198997589783851625e-01 0.000000000000000000e+00 0.000000000000000000e+00
-9.143692907116974800e-01 0.000000000000000000e+00 0.000000000000000000e+00
-9.088388224450100195e-01 0.000000000000000000e+00 0.000000000000000000e+00
-9.033083541783225590e-01 0.000000000000000000e+00 0.000000000000000000e+00
-8.977778859116348764e-01 0.000000000000000000e+00 0.000000000000000000e+00
-8.922474176449471939e-01 0.000000000000000000e+00 0.000000000000000000e+00
-8.867169493782597334e-01 0.000000000000000000e+00 0.000000000000000000e+00
-8.811864811115722729e-01 0.000000000000000000e+00 0.000000000000000000e+00
-8.756560128448845903e-01 0.000000000000000000e+00 0.000000000000000000e+00
-8.701255445781969078e-01 0.000000000000000000e+00 0.000000000000000000e+00
-8.645950763115094473e-01 0.000000000000000000e+00 0.000000000000000000e+00
-8.590646080448217647e-01 0.000000000000000000e+00 0.000000000000000000e+00
-8.535341397781343042e-01 0.000000000000000000e+00 0.000000000000000000e+00
-8.480036715114468437e-01 0.000000000000000000e+00 0.000000000000000000e+00
-8.424732032447591612e-01 0.000000000000000000e+00 0.000000000000000000e+00
-8.369427349780714787e-01 0.000000000000000000e+00 0.000000000000000000e+00
-8.314122667113840182e-01 0.000000000000000000e+00 0.000000000000000000e+00
-8.258817984446965577e-01 0.000000000000000000e+00 0.000000000000000000e+00
-8.203513301780088751e-01 0.000000000000000000e+00 0.000000000000000000e+00
-8.148208619113211926e-01 0.000000000000000000e+00 0.000000000000000000e+00
-8.092903936446337321e-01 0.000000000000000000e+00 0.000000000000000000e+00
-8.037599253779460495e-01 0.000000000000000000e+00 0.000000000000000000e+00
-7.982294571112585890e-01 0.000000000000000000e+00 0.000000000000000000e+00
-7.926989888445711285e-01 0.000000000000000000e+00 0.000000000000000000e+00
-7.871685205778834460e-01 0.000000000000000000e+00 0.000000000000000000e+00
-7.816380523111957634e-01 0.000000000000000000e+00 0.000000000000000000e+00
-7.761075840445083029e-01 0.000000000000000000e+00 0.000000000000000000e+00
-7.705771157778208424e-01 0.000000000000000000e+00 0.000000000000000000e+00
-7.650466475111331599e-01 0.000000000000000000e+00 0.000000000000000000e+00
-7.595161792444454774e-01 0.000000000000000000e+00 0.000000000000000000e+00
-7.539857109777580169e-01 0.000000000000000000e+00 0.000000000000000000e+00
-7.484552427110703343e-01 0.000000000000000000e+00 0.000000000000000000e+00
-7.429247744443828738e-01 0.000000000000000000e+00 0.000000000000000000e+00
-7.373943061776954133e-01 0.000000000000000000e+00 0.000000000000000000e+00
-7.318638379110077308e-01 0.000000000000000000e+00 0.000000000000000000e+00
-7.263333696443200482e-01 0.000000000000000000e+00 0.000000000000000000e+00
-7.208029013776325877e-01 0.000000000000000000e+00 0.000000000000000000e+00
-7.152724331109451272e-01 0.000000000000000000e+00 0.000000000000000000e+00
-7.097419648442574447e-01 0.000000000000000000e+00 0.000000000000000000e+00
-7.042114965775697621e-01 0.000000000000000000e+00 0.000000000000000000e+00
-6.986810283108823016e-01 0.000000000000000000e+00 0.000000000000000000e+00
-6.931505600441946191e-01 0.000000000000000000e+00 0.000000000000000000e+00
-6.876200917775071586e-01 0.000000000000000000e+00 0.000000000000000000e+00
-6.820896235108196981e-01 0.000000000000000000e+00 0.000000000000000000e+00
-6.765591552441320156e-01 0.000000000000000000e+00 0.000000000000000000e+00
-6.710286869774443330e-01 0.000000000000000000e+00 0.000000000000000000e+00
-6.654982187107568725e-01 0.000000000000000000e+00 0.000000000000000000e+00
-6.599677504440694120e-01 0.000000000000000000e+00 0.000000000000000000e+00
-6.544372821773817295e-01 0.000000000000000000e+00 0.000000000000000000e+00
-6.489068139106940469e-01 0.000000000000000000e+00 0.000000000000000000e+00
-6.433763456440065864e-01 0.000000000000000000e+00 0.000000000000000000e+00
-6.378458773773189039e-01 0.000000000000000000e+00 0.000000000000000000e+00
-6.323154091106314434e-01 0.000000000000000000e+00 0.000000000000000000e+00
-6.267849408439439829e-01 0.000000000000000000e+00 0.000000000000000000e+00
-6.212544725772563003e-01 0.000000000000000000e+00 0.000000000000000000e+00
-6.157240043105686178e-01 0.000000000000000000e+00 0.000000000000000000e+00
-6.101935360438811573e-01 0.000000000000000000e+00 0.000000000000000000e+00
-6.046630677771936968e-01 0.000000000000000000e+00 0.000000000000000000e+00
-5.991325995105060143e-01 0.000000000000000000e+00 0.000000000000000000e+00
-5.936021312438183317e-01 0.000000000000000000e+00 0.000000000000000000e+00
-5.880716629771308712e-01 0.000000000000000000e+00 0.000000000000000000e+00
-5.825411947104431887e-01 0.000000000000000000e+00 0.000000000000000000e+00
-5.770107264437557282e-01 0.000000000000000000e+00 0.000000000000000000e+00
-5.714802581770682677e-01 0.000000000000000000e+00 0.000000000000000000e+00
-5.659497899103805851e-01 0.000000000000000000e+00 0.000000000000000000e+00
-5.604193216436929026e-01 0.000000000000000000e+00 0.000000000000000000e+00
-5.548888533770054421e-01 0.000000000000000000e+00 0.000000000000000000e+00
-5.493583851103179816e-01 0.000000000000000000e+00 0.000000000000000000e+00
-5.438279168436302990e-01 0.000000000000000000e+00 0.000000000000000000e+00
-5.382974485769426165e-01 0.000000000000000000e+00 0.000000000000000000e+00
-5.327669803102551560e-01 0.000000000000000000e+00 0.000000000000000000e+00
-5.272365120435674735e-01 0.000000000000000000e+00 0.000000000000000000e+00
-5.217060437768800130e-01 0.000000000000000000e+00 0.000000000000000000e+00
-5.161755755101925525e-01 0.000000000000000000e+00 0.000000000000000000e+00
-5.106451072435048699e-01 0.000000000000000000e+00 0.000000000000000000e+00
-5.051146389768171874e-01 0.000000000000000000e+00 0.000000000000000000e+00
-4.995841707101297269e-01 0.000000000000000000e+00 0.000000000000000000e+00
-4.940537024434422664e-01 0.000000000000000000e+00 0.000000000000000000e+00
-4.885232341767545838e-01 0.000000000000000000e+00 0.000000000000000000e+00
-4.829927659100669013e-01 0.000000000000000000e+00 0.000000000000000000e+00
-4.774622976433794408e-01 0.000000000000000000e+00 0.000000000000000000e+00
-4.719318293766917582e-01 0.000000000000000000e+00 0.000000000000000000e+00
-4.664013611100042977e-01 0.000000000000000000e+00 0.000000000000000000e+00
-4.608708928433168373e-01 0.000000000000000000e+00 0.000000000000000000e+00
-4.553404245766291547e-01 0.000000000000000000e+00 0.000000000000000000e+00
-4.498099563099414722e-01 0.000000000000000000e+00 0.000000000000000000e+00
-4.442794880432540117e-01 0.000000000000000000e+00 0.000000000000000000e+00
-4.387490197765665512e-01 0.000000000000000000e+00 0.000000000000000000e+00
-4.332185515098788686e-01 0.000000000000000000e+00 0.000000000000000000e+00
-4.276880832431911861e-01 0.000000000000000000e+00 0.000000000000000000e+00
-4.221576149765037256e-01 0.000000000000000000e+00 0.000000000000000000e+00
-4.166271467098160430e-01 0.000000000000000000e+00 0.000000000000000000e+00
-4.110966784431285825e-01 0.000000000000000000e+00 0.000000000000000000e+00
-4.055662101764411220e-01 0.000000000000000000e+00 0.000000000000000000e+00
-4.000357419097534395e-01 0.000000000000000000e+00 0.000000000000000000e+00
-3.945052736430657569e-01 0.000000000000000000e+00 0.000000000000000000e+00
-3.889748053763782965e-01 0.000000000000000000e+00 0.000000000000000000e+00
-3.834443371096908360e-01 0.000000000000000000e+00 0.000000000000000000e+00
-3.779138688430031534e-01 0.000000000000000000e+00 0.000000000000000000e+00
-3.723834005763154709e-01 0.000000000000000000e+00 0.000000000000000000e+00
-3.668529323096280104e-01 0.000000000000000000e+00 0.000000000000000000e+00
-3.613224640429403278e-01 0.000000000000000000e+00 0.000000000000000000e+00
-3.557919957762528673e-01 0.000000000000000000e+00 0.000000000000000000e+00
-3.502615275095654068e-01 0.000000000000000000e+00 0.000000000000000000e+00
-3.447310592428777243e-01 0.000000000000000000e+00 0.000000000000000000e+00
-3.392005909761900417e-01 0.000000000000000000e+00 0.000000000000000000e+00
-3.336701227095025812e-01 0.000000000000000000e+00 0.000000000000000000e+00
-3.281396544428151207e-01 0.000000000000000000e+00 0.000000000000000000e+00
-3.226091861761274382e-01 0.000000000000000000e+00 0.000000000000000000e+00
-3.170787179094397557e-01 0.000000000000000000e+00 0.000000000000000000e+00
-3.115482496427522952e-01 0.000000000000000000e+00 0.000000000000000000e+00
-3.060177813760646126e-01 0.000000000000000000e+00 0.000000000000000000e+00
-3.004873131093771521e-01 0.000000000000000000e+00 0.000000000000000000e+00
-2.949568448426896916e-01 0.000000000000000000e+00 0.000000000000000000e+00
-2.894263765760020091e-01 0.000000000000000000e+00 0.000000000000000000e+00
-2.838959083093143265e-01 0.000000000000000000e+00 0.000000000000000000e+00
-2.783654400426268660e-01 0.000000000000000000e+00 0.000000000000000000e+00
-2.728349717759394055e-01 0.000000000000000000e+00 0.000000000000000000e+00
-2.673045035092517230e-01 0.000000000000000000e+00 0.000000000000000000e+00
-2.617740352425640404e-01 0.000000000000000000e+00 0.000000000000000000e+00
-2.562435669758765799e-01 1.874224410259515139e-01 1.611544100185777779e+02
-2.507130987091888974e-01 1.878468805999915503e+00 1.934278836178725385e+02
-2.451826304425014369e-01 3.584304841023993049e+00 2.223735986916285867e+02
-2.396521621758139764e-01 5.422149103458501429e+00 2.501607500074244683e+02
-2.341216939091262939e-01 7.142511288808918835e+00 2.786853810601377290e+02
-2.285912256424386113e-01 8.912593506450640746e+00 3.015895848040958640e+02
-2.230607573757511508e-01 1.069746772241750676e+01 2.971577483495583465e+02
-2.175302891090636903e-01 1.229830130913626363e+01 2.921956656390593707e+02
-2.119998208423760078e-01 1.383506089486828472e+01 2.832667093112611383e+02
-2.064693525756883252e-01 1.541260656342819146e+01 2.751598459946248454e+02
-2.009388843090008647e-01 1.686673872425134135e+01 2.645969523434121129e+02
-1.954084160423131822e-01 1.831268378047560930e+01 2.534207393757107809e+02
-1.898779477756257217e-01 1.974409340582875672e+01 2.449333050717147842e+02
-1.843474795089382612e-01 2.108812457200787094e+01 2.365654103393642345e+02
-1.788170112422505786e-01 2.236013925420810011e+01 2.268838012236217025e+02
-1.732865429755628961e-01 2.354604399042542440e+01 2.186404451003726308e+02
-1.677560747088754356e-01 2.471282129479625667e+01 2.093936650402122837e+02
-1.622256064421879751e-01 2.584426002067657180e+01 1.995554644268990216e+02
-1.566951381755002926e-01 2.691823584364611577e+01 1.903638413751485530e+02
-1.511646699088126100e-01 2.796034319235504739e+01 1.811766955933745749e+02
-1.456342016421251495e-01 2.895857915867195942e+01 1.722426564868824528e+02
-1.401037333754374670e-01 2.989313397797867111e+01 1.626358269624890056e+02
-1.345732651087500065e-01 3.078044504039944940e+01 1.528504516086151455e+02
-1.290427968420625460e-01 3.161613641050787749e+01 1.430495802732769164e+02
-1.235123285753748634e-01 3.238005891063286157e+01 1.329015420315726885e+02
-1.179818603086871809e-01 3.307186944913210169e+01 1.228076376695164242e+02
-1.124513920419997204e-01 3.370734409522165720e+01 1.128266980343620673e+02
-1.069209237753122599e-01 3.429760574237970872e+01 1.026830256239945101e+02
-1.013904555086245773e-01 3.482954748628949915e+01 9.250373554311839541e+01
-9.585998724193689480e-02 3.531042080034958985e+01 8.283738076164338793e+01
-9.032951897524943430e-02 3.575041658905324482e+01 7.362163444002013080e+01
-8.479905070856175175e-02 3.613297870912049348e+01 6.464842580787923509e+01
-7.926858244187429126e-02 3.645929718780915607e+01 5.565611844419864696e+01
-7.373811417518683076e-02 3.673202615022061224e+01 4.704460996906243508e+01
-6.820764590849914821e-02 3.696135396661072292e+01 3.869458563126519124e+01
-6.267717764181146567e-02 3.714349057925412723e+01 3.012092734442910924e+01
-5.714670937512400517e-02 3.728270476943949774e+01 2.190993409565184535e+01
-5.161624110843654467e-02 3.737564971140617587e+01 1.400904020885790224e+01
-4.608577284174886213e-02 3.743133471181544536e+01 6.376519720918579992e+00
-4.055530457506117958e-02 3.745041257961295145e+01 -1.266253122980614876e+00
-3.502483630837371908e-02 3.741624491746892289e+01 -8.654989768604083977e+00
-2.949436804168603654e-02 3.734470066153269130e+01 -1.593655780591513071e+01
-2.396389977499857604e-02 3.723406271102755483e+01 -2.307954603732466836e+01
-1.843343150831111554e-02 3.708467754990508780e+01 -3.039983655004007446e+01
-1.290296324162343300e-02 3.689132423946832517e+01 -3.802673777423132151e+01
-7.372494974935750456e-03 3.666482911661642419e+01 -4.519474952279456659e+01
-1.842026708248289957e-03 3.640133849718103676e+01 -5.251443059350089015e+01
3.688441558439170542e-03 3.609924274171638103e+01 -5.981667608636374212e+01
9.218909825126853086e-03 3.575008139829058251e+01 -6.705413050917815099e+01
1.474937809181453563e-02 3.534735591415260103e+01 -7.396208303275319906e+01
2.027984635850199613e-02 3.491676363690182683e+01 -8.107542869092424098e+01
2.581031462518967867e-02 3.444040674212743625e+01 -8.847243219662867375e+01
3.134078289187713917e-02 3.392592042188389456e+01 -9.569012011523508932e+01
3.687125115856459967e-02 3.337627014059172836e+01 -1.024700700129230455e+02
4.240171942525228221e-02 3.280087470796078719e+01 -1.090574375969489296e+02
4.793218769193996476e-02 3.218097826078396650e+01 -1.161052305359486922e+02
5.346265595862742526e-02 3.150839870977979018e+01 -1.232708724437185168e+02
5.899312422531488576e-02 3.080713101438805523e+01 -1.305373221419494598e+02
6.452359249200256830e-02 3.008300669337331357e+01 -1.373741299647805931e+02
7.005406075869025084e-02 2.931596893539076376e+01 -1.445834520232673697e+02
7.558452902537771134e-02 2.849560070614670337e+01 -1.512320275816665003e+02
8.111499729206539389e-02 2.762295025955864958e+01 -1.575657926643542055e+02
8.664546555875285438e-02 2.670659524463962953e+01 -1.640361322541205311e+02
9.217593382544031488e-02 2.577883747625143229e+01 -1.711060190036684219e+02
9.770640209212799743e-02 2.480473277493251061e+01 -1.780696219447914643e+02
1.032368703588156800e-01 2.381713896631173810e+01 -1.849095116891664361e+02
1.087673386255031405e-01 2.279427254732291175e+01 -1.903442315830075700e+02
1.142978068921906010e-01 2.173516477417223314e+01 -1.956455009279982846e+02
1.198282751588782835e-01 2.062004260998298832e+01 -2.010880073410618252e+02
1.253587434255659661e-01 1.946788500112358378e+01 -2.054987698735358777e+02
1.308892116922534266e-01 1.826923884009036669e+01 -2.090699604864252876e+02
1.364196799589411091e-01 1.709602293439007070e+01 -2.124643080546209717e+02
1.419501482256285696e-01 1.588648290061470192e+01 -2.143521223634998591e+02
1.474806164923160301e-01 1.465772904213967820e+01 -2.156382354833867510e+02
1.530110847590037126e-01 1.343968851864324421e+01 -2.162407955597118132e+02
1.585415530256913952e-01 1.225459114643378911e+01 -2.148634520576162856e+02
1.640720212923788557e-01 1.104400141232472521e+01 -2.108146905440067371e+02
1.696024895590663162e-01 9.880488667887512122e+00 -2.028385969916053853e+02
1.751329578257539987e-01 8.694238425729217568e+00 -1.930699328334814595e+02
1.806634260924416813e-01 7.508756423061022645e+00 -1.816917009824498450e+02
1.861938943591291418e-01 6.386283807334393714e+00 -1.696466582221414967e+02
1.917243626258168243e-01 5.436983372338126230e+00 -1.559936110421436695e+02
1.972548308925042848e-01 4.668558661399629273e+00 -1.424401031618793638e+02
2.027852991591917453e-01 3.980057674269026791e+00 -1.273547434958698119e+02
2.083157674258794279e-01 3.391286652603945129e+00 -1.115289539385727409e+02
2.138462356925671104e-01 2.872336547962369480e+00 -9.637904215266060248e+01
2.193767039592545709e-01 2.416824255578887914e+00 -8.450594285657632554e+01
2.249071722259420314e-01 2.002883963482695151e+00 -7.508280817428430964e+01
2.304376404926297139e-01 1.650924750568748323e+00 -6.662013812660535450e+01
2.359681087593173965e-01 1.340683017319676651e+00 -5.948890969473281842e+01
2.414985770260048570e-01 1.056071465344032845e+00 -5.193658853913083817e+01
2.470290452926925395e-01 7.634090191900213540e-01 -4.370017400028888233e+01
2.525595135593800000e-01 5.161277815829095061e-01 -3.621544988409764443e+01
2.580899818260674605e-01 2.956520759536900300e-01 -2.985144604323996376e+01
2.636204500927551431e-01 1.012713797383071324e-01 -2.424176313234105606e+01
2.691509183594428256e-01 0.000000000000000000e+00 0.000000000000000000e+00
2.746813866261302861e-01 0.000000000000000000e+00 0.000000000000000000e+00
2.802118548928177466e-01 0.000000000000000000e+00 0.000000000000000000e+00
2.857423231595054292e-01 0.000000000000000000e+00 0.000000000000000000e+00
2.912727914261931117e-01 0.000000000000000000e+00 0.000000000000000000e+00
2.968032596928805722e-01 0.000000000000000000e+00 0.000000000000000000e+00
3.023337279595682547e-01 0.000000000000000000e+00 0.000000000000000000e+00
3.078641962262557152e-01 0.000000000000000000e+00 0.000000000000000000e+00
3.133946644929431757e-01 0.000000000000000000e+00 0.000000000000000000e+00
3.189251327596308583e-01 0.000000000000000000e+00 0.000000000000000000e+00
3.244556010263185408e-01 0.000000000000000000e+00 0.000000000000000000e+00
3.299860692930060013e-01 0.000000000000000000e+00 0.000000000000000000e+00
3.355165375596934618e-01 0.000000000000000000e+00 0.000000000000000000e+00
3.410470058263811444e-01 0.000000000000000000e+00 0.000000000000000000e+00
3.465774740930688269e-01 0.000000000000000000e+00 0.000000000000000000e+00
3.521079423597562874e-01 0.000000000000000000e+00 0.000000000000000000e+00
3.576384106264439700e-01 0.000000000000000000e+00 0.000000000000000000e+00
3.631688788931314305e-01 0.000000000000000000e+00 0.000000000000000000e+00
3.686993471598188910e-01 0.000000000000000000e+00 0.000000000000000000e+00
3.742298154265065735e-01 0.000000000000000000e+00 0.000000000000000000e+00
3.797602836931942560e-01 0.000000000000000000e+00 0.000000000000000000e+00
3.852907519598817165e-01 0.000000000000000000e+00 0.000000000000000000e+00
3.908212202265691770e-01 0.000000000000000000e+00 0.000000000000000000e+00
3.963516884932568596e-01 0.000000000000000000e+00 0.000000000000000000e+00
4.018821567599445421e-01 0.000000000000000000e+00 0.000000000000000000e+00
4.074126250266320026e-01 0.000000000000000000e+00 0.000000000000000000e+00
4.129430932933196852e-01 0.000000000000000000e+00 0.000000000000000000e+00
4.184735615600071457e-01 0.000000000000000000e+00 0.000000000000000000e+00
4.240040298266946062e-01 0.000000000000000000e+00 0.000000000000000000e+00
4.295344980933822887e-01 0.000000000000000000e+00 0.000000000000000000e+00
4.350649663600699713e-01 0.000000000000000000e+00 0.000000000000000000e+00
4.405954346267574318e-01 0.000000000000000000e+00 0.000000000000000000e+00
4.461259028934448922e-01 0.000000000000000000e+00 0.000000000000000000e+00
4.516563711601325748e-01 0.000000000000000000e+00 0.000000000000000000e+00
4.571868394268202573e-01 0.000000000000000000e+00 0.000000000000000000e+00
4.627173076935077178e-01 0.000000000000000000e+00 0.000000000000000000e+00
4.682477759601954004e-01 0.000000000000000000e+00 0.000000000000000000e+00
4.737782442268828609e-01 0.000000000000000000e+00 0.000000000000000000e+00
4.793087124935703214e-01 0.000000000000000000e+00 0.000000000000000000e+00
4.848391807602580039e-01 0.000000000000000000e+00 0.000000000000000000e+00
4.903696490269456865e-01 0.000000000000000000e+00 0.000000000000000000e+00
4.959001172936331470e-01 0.000000000000000000e+00 0.000000000000000000e+00
5.014305855603206075e-01 0.000000000000000000e+00 0.000000000000000000e+00
5.069610538270082900e-01 0.000000000000000000e+00 0.000000000000000000e+00
5.124915220936959726e-01 0.000000000000000000e+00 0.000000000000000000e+00
5.180219903603834330e-01 0.000000000000000000e+00 0.000000000000000000e+00
5.235524586270711156e-01 0.000000000000000000e+00 0.000000000000000000e+00
5.290829268937585761e-01 0.000000000000000000e+00 0.000000000000000000e+00
5.346133951604460366e-01 0.000000000000000000e+00 0.000000000000000000e+00
5.401438634271337191e-01 0.000000000000000000e+00 0.000000000000000000e+00
5.456743316938214017e-01 0.000000000000000000e+00 0.000000000000000000e+00
5.512047999605088622e-01 0.000000000000000000e+00 0.000000000000000000e+00
5.567352682271963227e-01 0.000000000000000000e+00 0.000000000000000000e+00
5.622657364938840052e-01 0.000000000000000000e+00 0.000000000000000000e+00
5.677962047605716878e-01 0.000000000000000000e+00 0.000000000000000000e+00
5.733266730272591483e-01 0.000000000000000000e+00 0.000000000000000000e+00
5.788571412939468308e-01 0.000000000000000000e+00 0.000000000000000000e+00
5.843876095606342913e-01 0.000000000000000000e+00 0.000000000000000000e+00
5.899180778273217518e-01 0.000000000000000000e+00 0.000000000000000000e+00
5.954485460940094343e-01 0.000000000000000000e+00 0.000000000000000000e+00
6.009790143606971169e-01 0.000000000000000000e+00 0.000000000000000000e+00
6.065094826273845774e-01 0.000000000000000000e+00 0.000000000000000000e+00
6.120399508940720379e-01 0.000000000000000000e+00 0.000000000000000000e+00
6.175704191607597204e-01 0.000000000000000000e+00 0.000000000000000000e+00
6.231008874274474030e-01 0.000000000000000000e+00 0.000000000000000000e+00
6.286313556941347525e-01 0.000000000000000000e+00 0.000000000000000000e+00
6.341618239608224350e-01 0.000000000000000000e+00 0.000000000000000000e+00
6.396922922275098955e-01 0.000000000000000000e+00 0.000000000000000000e+00
6.452227604941973560e-01 0.000000000000000000e+00 0.000000000000000000e+00
6.507532287608850385e-01 0.000000000000000000e+00 0.000000000000000000e+00
6.562836970275727211e-01 0.000000000000000000e+00 0.000000000000000000e+00
6.618141652942601816e-01 0.000000000000000000e+00 0.000000000000000000e+00
6.673446335609476421e-01 0.000000000000000000e+00 0.000000000000000000e+00
6.728751018276353246e-01 0.000000000000000000e+00 0.000000000000000000e+00
6.784055700943230072e-01 0.000000000000000000e+00 0.000000000000000000e+00
6.839360383610104677e-01 0.000000000000000000e+00 0.000000000000000000e+00
6.894665066276981502e-01 0.000000000000000000e+00 0.000000000000000000e+00
6.949969748943856107e-01 0.000000000000000000e+00 0.000000000000000000e+00
7.005274431610730712e-01 0.000000000000000000e+00 0.000000000000000000e+00
7.060579114277607538e-01 0.000000000000000000e+00 0.000000000000000000e+00
7.115883796944484363e-01 0.000000000000000000e+00 0.000000000000000000e+00
7.171188479611358968e-01 0.000000000000000000e+00 0.000000000000000000e+00
7.226493162278233573e-01 0.000000000000000000e+00 0.000000000000000000e+00
7.281797844945110398e-01 0.000000000000000000e+00 0.000000000000000000e+00
7.337102527611987224e-01 0.000000000000000000e+00 0.000000000000000000e+00
7.392407210278864049e-01 0.000000000000000000e+00 0.000000000000000000e+00
7.447711892945740875e-01 0.000000000000000000e+00 0.000000000000000000e+00
7.503016575612615480e-01 0.000000000000000000e+00 0.000000000000000000e+00
7.558321258279490085e-01 0.000000000000000000e+00 0.000000000000000000e+00
7.613625940946366910e-01 0.000000000000000000e+00 0.000000000000000000e+00
7.668930623613243736e-01 0.000000000000000000e+00 0.000000000000000000e+00
7.724235306280118341e-01 0.000000000000000000e+00 0.000000000000000000e+00
7.779539988946992946e-01 0.000000000000000000e+00 0.000000000000000000e+00
7.834844671613869771e-01 0.000000000000000000e+00 0.000000000000000000e+00
7.890149354280746596e-01 0.000000000000000000e+00 0.000000000000000000e+00
7.945454036947621201e-01 0.000000000000000000e+00 0.000000000000000000e+00
8.000758719614498027e-01 0.000000000000000000e+00 0.000000000000000000e+00
8.056063402281372632e-01 0.000000000000000000e+00 0.000000000000000000e+00
8.111368084948247237e-01 0.000000000000000000e+00 0.000000000000000000e+00
8.166672767615124062e-01 0.000000000000000000e+00 0.000000000000000000e+00
8.221977450282000888e-01 0.000000000000000000e+00 0.000000000000000000e+00
8.277282132948875493e-01 0.000000000000000000e+00 0.000000000000000000e+00
8.332586815615750098e-01 0.000000000000000000e+00 0.000000000000000000e+00
8.387891498282626923e-01 0.000000000000000000e+00 0.000000000000000000e+00
8.443196180949503749e-01 0.000000000000000000e+00 0.000000000000000000e+00
8.498500863616376133e-01 0.000000000000000000e+00 0.000000000000000000e+00
8.553805546283252959e-01 0.000000000000000000e+00 0.000000000000000000e+00
8.609110228950127564e-01 0.000000000000000000e+00 0.000000000000000000e+00
8.664414911617002168e-01 0.000000000000000000e+00 0.000000000000000000e+00
8.719719594283878994e-01 0.000000000000000000e+00 0.000000000000000000e+00
8.775024276950755819e-01 0.000000000000000000e+00 0.000000000000000000e+00
8.830328959617630424e-01 0.000000000000000000e+00 0.000000000000000000e+00
8.885633642284505029e-01 0.000000000000000000e+00 0.000000000000000000e+00
8.940938324951381855e-01 0.000000000000000000e+00 0.000000000000000000e+00
8.996243007618258680e-01 0.000000000000000000e+00 0.000000000000000000e+00
9.051547690285133285e-01 0.000000000000000000e+00 0.000000000000000000e+00
9.106852372952010111e-01 0.000000000000000000e+00 0.000000000000000000e+00
9.162157055618884716e-01 0.000000000000000000e+00 0.000000000000000000e+00
9.217461738285759321e-01 0.000000000000000000e+00 0.000000000000000000e+00
9.272766420952636146e-01 0.000000000000000000e+00 0.000000000000000000e+00
9.328071103619512972e-01 0.000000000000000000e+00 0.000000000000000000e+00
9.383375786286387576e-01 0.000000000000000000e+00 0.000000000000000000e+00
9.438680468953262181e-01 0.000000000000000000e+00 0.000000000000000000e+00
9.493985151620139007e-01 0.000000000000000000e+00 0.000000000000000000e+00
9.549289834287015832e-01 0.000000000000000000e+00 0.000000000000000000e+00
9.604594516953892658e-01 0.000000000000000000e+00 0.000000000000000000e+00
9.659899199620769483e-01 0.000000000000000000e+00 0.000000000000000000e+00
9.715203882287644088e-01 0.000000000000000000e+00 0.000000000000000000e+00
9.770508564954518693e-01 0.000000000000000000e+00 0.000000000000000000e+00
9.825813247621395519e-01 0.000000000000000000e+00 0.000000000000000000e+00
9.881117930288272344e-01 0.000000000000000000e+00 0.000000000000000000e+00
9.936422612955146949e-01 0.000000000000000000e+00 0.000000000000000000e+00
9.991727295622021554e-01 0.000000000000000000e+00 0.000000000000000000e+00
1.004703197828889838e+00 0.000000000000000000e+00 0.000000000000000000e+00
1.010233666095577520e+00 0.000000000000000000e+00 0.000000000000000000e+00
1.015764134362264981e+00 0.000000000000000000e+00 0.000000000000000000e+00
1.021294602628952664e+00 0.000000000000000000e+00 0.000000000000000000e+00
1.026825070895640124e+00 0.000000000000000000e+00 0.000000000000000000e+00
1.032355539162327585e+00 0.000000000000000000e+00 0.000000000000000000e+00
1.037886007429015267e+00 0.000000000000000000e+00 0.000000000000000000e+00
1.043416475695702950e+00 0.000000000000000000e+00 0.000000000000000000e+00
1.048946943962390410e+00 0.000000000000000000e+00 0.000000000000000000e+00
1.054477412229077871e+00 0.000000000000000000e+00 0.000000000000000000e+00
1.060007880495765553e+00 0.000000000000000000e+00 0.000000000000000000e+00
1.065538348762453236e+00 0.000000000000000000e+00 0.000000000000000000e+00
1.071068817029140474e+00 0.000000000000000000e+00 0.000000000000000000e+00
1.076599285295828157e+00 0.000000000000000000e+00 0.000000000000000000e+00
1.082129753562515617e+00 0.000000000000000000e+00 0.000000000000000000e+00
1.087660221829203078e+00 0.000000000000000000e+00 0.000000000000000000e+00
1.093190690095890760e+00 0.000000000000000000e+00 0.000000000000000000e+00
1.098721158362578443e+00 0.000000000000000000e+00 0.000000000000000000e+00
1.104251626629265903e+00 0.000000000000000000e+00 0.000000000000000000e+00
1.109782094895953364e+00 0.000000000000000000e+00 0.000000000000000000e+00
1.115312563162641046e+00 0.000000000000000000e+00 0.000000000000000000e+00
1.120843031429328729e+00 0.000000000000000000e+00 0.000000000000000000e+00
1.126373499696016189e+00 0.000000000000000000e+00 0.000000000000000000e+00
1.131903967962703872e+00 0.000000000000000000e+00 0.000000000000000000e+00
1.137434436229391332e+00 0.000000000000000000e+00 0.000000000000000000e+00
1.142964904496078793e+00 0.000000000000000000e+00 0.000000000000000000e+00
1.148495372762766475e+00 0.000000000000000000e+00 0.000000000000000000e+00
1.154025841029454158e+00 0.000000000000000000e+00 0.000000000000000000e+00
1.159556309296141619e+00 0.000000000000000000e+00 0.000000000000000000e+00
1.165086777562829079e+00 0.000000000000000000e+00 0.000000000000000000e+00
1.170617245829516762e+00 0.000000000000000000e+00 0.000000000000000000e+00
1.176147714096204444e+00 0.000000000000000000e+00 0.000000000000000000e+00
1.181678182362892127e+00 0.000000000000000000e+00 0.000000000000000000e+00
1.187208650629579809e+00 0.000000000000000000e+00 0.000000000000000000e+00
1.192739118896267270e+00 0.000000000000000000e+00 0.000000000000000000e+00
1.198269587162954730e+00 0.000000000000000000e+00 0.000000000000000000e+00
1.203800055429642413e+00 0.000000000000000000e+00 0.000000000000000000e+00
1.209330523696330095e+00 0.000000000000000000e+00 0.000000000000000000e+00
1.214860991963017556e+00 0.000000000000000000e+00 0.000000000000000000e+00
1.220391460229705016e+00 0.000000000000000000e+00 0.000000000000000000e+00
1.225921928496392699e+00 0.000000000000000000e+00 0.000000000000000000e+00
1.231452396763080381e+00 0.000000000000000000e+00 0.000000000000000000e+00
1.236982865029767842e+00 0.000000000000000000e+00 0.000000000000000000e+00
1.242513333296455524e+00 0.000000000000000000e+00 0.000000000000000000e+00
1.248043801563142985e+00 0.000000000000000000e+00 0.000000000000000000e+00
1.253574269829830445e+00 0.000000000000000000e+00 0.000000000000000000e+00
1.259104738096518128e+00 0.000000000000000000e+00 0.000000000000000000e+00
1.264635206363205810e+00 0.000000000000000000e+00 0.000000000000000000e+00
1.270165674629893271e+00 0.000000000000000000e+00 0.000000000000000000e+00
1.275696142896580731e+00 0.000000000000000000e+00 0.000000000000000000e+00
1.281226611163268414e+00 0.000000000000000000e+00 0.000000000000000000e+00
1.286757079429956097e+00 0.000000000000000000e+00 0.000000000000000000e+00
1.292287547696643335e+00 0.000000000000000000e+00 0.000000000000000000e+00
1.297818015963331018e+00 0.000000000000000000e+00 0.000000000000000000e+00
1.303348484230018478e+00 0.000000000000000000e+00 0.000000000000000000e+00
1.308878952496705939e+00 0.000000000000000000e+00 0.000000000000000000e+00
1.314409420763393621e+00 0.000000000000000000e+00 0.000000000000000000e+00
1.319939889030081304e+00 0.000000000000000000e+00 0.000000000000000000e+00
1.325470357296768764e+00 0.000000000000000000e+00 0.000000000000000000e+00
1.331000825563456225e+00 0.000000000000000000e+00 0.000000000000000000e+00
1.336531293830143907e+00 0.000000000000000000e+00 0.000000000000000000e+00
1.342061762096831590e+00 0.000000000000000000e+00 0.000000000000000000e+00
1.347592230363519050e+00 0.000000000000000000e+00 0.000000000000000000e+00
1.353122698630206733e+00 0.000000000000000000e+00 0.000000000000000000e+00
1.358653166896894193e+00 0.000000000000000000e+00 0.000000000000000000e+00
1.364183635163581654e+00 0.000000000000000000e+00 0.000000000000000000e+00
1.369714103430269336e+00 0.000000000000000000e+00 0.000000000000000000e+00
1.375244571696957019e+00 0.000000000000000000e+00 0.000000000000000000e+00
1.380775039963644479e+00 0.000000000000000000e+00 0.000000000000000000e+00
1.386305508230331940e+00 0.000000000000000000e+00 0.000000000000000000e+00
1.391835976497019622e+00 0.000000000000000000e+00 0.000000000000000000e+00
1.397366444763707305e+00 0.000000000000000000e+00 0.000000000000000000e+00
1.402896913030394987e+00 0.000000000000000000e+00 0.000000000000000000e+00
1.408427381297082670e+00 0.000000000000000000e+00 0.000000000000000000e+00
1.413957849563770131e+00 0.000000000000000000e+00 0.000000000000000000e+00
1.419488317830457591e+00 0.000000000000000000e+00 0.000000000000000000e+00
1.425018786097145274e+00 0.000000000000000000e+00 0.000000000000000000e+00
1.430549254363832956e+00 0.000000000000000000e+00 0.000000000000000000e+00
1.436079722630520417e+00 0.000000000000000000e+00 0.000000000000000000e+00
1.441610190897207877e+00 0.000000000000000000e+00 0.000000000000000000e+00
1.447140659163895560e+00 0.000000000000000000e+00 0.000000000000000000e+00
1.452671127430583242e+00 0.000000000000000000e+00 0.000000000000000000e+00
1.458201595697270703e+00 0.000000000000000000e+00 0.000000000000000000e+00
1.463732063963958385e+00 0.000000000000000000e+00 0.000000000000000000e+00
1.469262532230645846e+00 0.000000000000000000e+00 0.000000000000000000e+00
1.474793000497333306e+00 0.000000000000000000e+00 0.000000000000000000e+00
1.480323468764020989e+00 0.000000000000000000e+00 0.000000000000000000e+00
1.485853937030708671e+00 0.000000000000000000e+00 0.000000000000000000e+00
1.491384405297396132e+00 0.000000000000000000e+00 0.000000000000000000e+00
1.496914873564083592e+00 0.000000000000000000e+00 0.000000000000000000e+00
1.502445341830771275e+00 0.000000000000000000e+00 0.000000000000000000e+00
1.507975810097458957e+00 0.000000000000000000e+00 0.000000000000000000e+00
1.513506278364146196e+00 0.000000000000000000e+00 0.000000000000000000e+00
1.519036746630833878e+00 0.000000000000000000e+00 0.000000000000000000e+00
1.524567214897521339e+00 0.000000000000000000e+00 0.000000000000000000e+00
1.530097683164208799e+00 0.000000000000000000e+00 0.000000000000000000e+00
1.535628151430896482e+00 0.000000000000000000e+00 0.000000000000000000e+00
1.541158619697584164e+00 0.000000000000000000e+00 0.000000000000000000e+00
1.546689087964271625e+00 0.000000000000000000e+00 0.000000000000000000e+00
1.552219556230959085e+00 0.000000000000000000e+00 0.000000000000000000e+00
1.557750024497646768e+00 0.000000000000000000e+00 0.000000000000000000e+00
1.563280492764334451e+00 0.000000000000000000e+00 0.000000000000000000e+00
1.568810961031021911e+00 0.000000000000000000e+00 0.000000000000000000e+00
1.574341429297709594e+00 0.000000000000000000e+00 0.000000000000000000e+00
1.579871897564397054e+00 0.000000000000000000e+00 0.000000000000000000e+00
1.585402365831084515e+00 0.000000000000000000e+00 0.000000000000000000e+00
1.590932834097772197e+00 0.000000000000000000e+00 0.000000000000000000e+00
1.596463302364459880e+00 0.000000000000000000e+00 0.000000000000000000e+00
1.601993770631147340e+00 0.000000000000000000e+00 0.000000000000000000e+00
1.607524238897834801e+00 0.000000000000000000e+00 0.000000000000000000e+00
1.613054707164522483e+00 0.000000000000000000e+00 0.000000000000000000e+00
1.618585175431210166e+00 0.000000000000000000e+00 0.000000000000000000e+00
1.624115643697897848e+00 0.000000000000000000e+00 0.000000000000000000e+00
1.629646111964585531e+00 0.000000000000000000e+00 0.000000000000000000e+00
1.635176580231272991e+00 0.000000000000000000e+00 0.000000000000000000e+00
1.640707048497960452e+00 0.000000000000000000e+00 0.000000000000000000e+00
1.646237516764648134e+00 0.000000000000000000e+00 0.000000000000000000e+00
1.651767985031335817e+00 0.000000000000000000e+00 0.000000000000000000e+00
1.657298453298023277e+00 0.000000000000000000e+00 0.000000000000000000e+00
1.662828921564710738e+00 0.000000000000000000e+00 0.000000000000000000e+00
1.668359389831398421e+00 0.000000000000000000e+00 0.000000000000000000e+00
1.673889858098086103e+00 0.000000000000000000e+00 0.000000000000000000e+00
1.679420326364773564e+00 0.000000000000000000e+00 0.000000000000000000e+00
1.684950794631461246e+00 0.000000000000000000e+00 0.000000000000000000e+00
1.690481262898148707e+00 0.000000000000000000e+00 0.000000000000000000e+00
1.696011731164836167e+00 0.000000000000000000e+00 0.000000000000000000e+00
1.701542199431523850e+00 0.000000000000000000e+00 0.000000000000000000e+00
1.707072667698211532e+00 0.000000000000000000e+00 0.000000000000000000e+00
1.712603135964898993e+00 0.000000000000000000e+00 0.000000000000000000e+00
1.718133604231586453e+00 0.000000000000000000e+00 0.000000000000000000e+00
1.723664072498274136e+00 0.000000000000000000e+00 0.000000000000000000e+00
1.729194540764961818e+00 0.000000000000000000e+00 0.000000000000000000e+00
1.734725009031649057e+00 0.000000000000000000e+00 0.000000000000000000e+00
1.740255477298336739e+00 0.000000000000000000e+00 0.000000000000000000e+00
1.745785945565024200e+00 0.000000000000000000e+00 0.000000000000000000e+00
1.751316413831711660e+00 0.000000000000000000e+00 0.000000000000000000e+00
1.756846882098399343e+00 0.000000000000000000e+00 0.000000000000000000e+00
1.762377350365087025e+00 0.000000000000000000e+00 0.000000000000000000e+00
1.767907818631774486e+00 0.000000000000000000e+00 0.000000000000000000e+00
1.773438286898461946e+00 0.000000000000000000e+00 0.000000000000000000e+00
1.778968755165149629e+00 0.000000000000000000e+00 0.000000000000000000e+00
1.784499223431837311e+00 0.000000000000000000e+00 0.000000000000000000e+00
1.790029691698524772e+00 0.000000000000000000e+00 0.000000000000000000e+00
1.795560159965212454e+00 0.000000000000000000e+00 0.000000000000000000e+00
1.801090628231899915e+00 0.000000000000000000e+00 0.000000000000000000e+00
1.806621096498587375e+00 0.000000000000000000e+00 0.000000000000000000e+00
1.812151564765275058e+00 0.000000000000000000e+00 0.000000000000000000e+00
1.817682033031962741e+00 0.000000000000000000e+00 0.000000000000000000e+00
1.823212501298650201e+00 0.000000000000000000e+00 0.000000000000000000e+00
1.828742969565337662e+00 0.000000000000000000e+00 0.000000000000000000e+00
1.834273437832025344e+00 0.000000000000000000e+00 0.000000000000000000e+00
1.839803906098713027e+00 0.000000000000000000e+00 0.000000000000000000e+00
1.845334374365400709e+00 0.000000000000000000e+00 0.000000000000000000e+00
1.850864842632088392e+00 0.000000000000000000e+00 0.000000000000000000e+00
1.856395310898775852e+00 0.000000000000000000e+00 0.000000000000000000e+00
1.861925779165463313e+00 0.000000000000000000e+00 0.000000000000000000e+00
1.867456247432150995e+00 0.000000000000000000e+00 0.000000000000000000e+00
1.872986715698838678e+00 0.000000000000000000e+00 0.000000000000000000e+00
1.878517183965526138e+00 0.000000000000000000e+00 0.000000000000000000e+00
1.884047652232213599e+00 0.000000000000000000e+00 0.000000000000000000e+00
1.889578120498901281e+00 0.000000000000000000e+00 0.000000000000000000e+00
1.895108588765588964e+00 0.000000000000000000e+00 0.000000000000000000e+00
1.900639057032276424e+00 0.000000000000000000e+00 0.000000000000000000e+00
1.906169525298964107e+00 0.000000000000000000e+00 0.000000000000000000e+00
1.911699993565651567e+00 0.000000000000000000e+00 0.000000000000000000e+00
1.917230461832339028e+00 0.000000000000000000e+00 0.000000000000000000e+00
1.922760930099026710e+00 0.000000000000000000e+00 0.000000000000000000e+00
1.928291398365714393e+00 0.000000000000000000e+00 0.000000000000000000e+00
1.933821866632401854e+00 0.000000000000000000e+00 0.000000000000000000e+00
1.939352334899089314e+00 0.000000000000000000e+00 0.000000000000000000e+00
1.944882803165776997e+00 0.000000000000000000e+00 0.000000000000000000e+00
1.950413271432464679e+00 0.000000000000000000e+00 0.000000000000000000e+00
