#! FIELDS rc2 external2.bias der_rc2
#! SET min_rc2 -3.0742270598209505
#! SET max_rc2 2.3132979716724797
#! SET nbins_rc2 600
#! SET periodic_rc2 false
-3.074227059820950458e+00 0.000000000000000000e+00 0.000000000000000000e+00
-3.065232861103933004e+00 0.000000000000000000e+00 0.000000000000000000e+00
-3.056238662386915550e+00 0.000000000000000000e+00 0.000000000000000000e+00
-3.047244463669898096e+00 0.000000000000000000e+00 0.000000000000000000e+00
-3.038250264952880642e+00 0.000000000000000000e+00 0.000000000000000000e+00
-3.029256066235863187e+00 0.000000000000000000e+00 0.000000000000000000e+00
-3.020261867518846621e+00 0.000000000000000000e+00 0.000000000000000000e+00
-3.011267668801829167e+00 0.000000000000000000e+00 0.000000000000000000e+00
-3.002273470084811713e+00 0.000000000000000000e+00 0.000000000000000000e+00
-2.993279271367794259e+00 0.000000000000000000e+00 0.000000000000000000e+00
-2.984285072650776804e+00 0.000000000000000000e+00 0.000000000000000000e+00
-2.975290873933759350e+00 0.000000000000000000e+00 0.000000000000000000e+00
-2.966296675216741896e+00 0.000000000000000000e+00 0.000000000000000000e+00
-2.957302476499724442e+00 0.000000000000000000e+00 0.000000000000000000e+00
-2.948308277782706988e+00 0.000000000000000000e+00 0.000000000000000000e+00
-2.939314079065689533e+00 0.000000000000000000e+00 0.000000000000000000e+00
-2.930319880348672079e+00 0.000000000000000000e+00 0.000000000000000000e+00
-2.921325681631654625e+00 0.000000000000000000e+00 0.000000000000000000e+00
-2.912331482914637171e+00 0.000000000000000000e+00 0.000000000000000000e+00
-2.903337284197619717e+00 0.000000000000000000e+00 0.000000000000000000e+00
-2.894343085480602262e+00 0.000000000000000000e+00 0.000000000000000000e+00
-2.885348886763584808e+00 0.000000000000000000e+00 0.000000000000000000e+00
-2.876354688046567354e+00 0.000000000000000000e+00 0.000000000000000000e+00
-2.867360489329549900e+00 0.000000000000000000e+00 0.000000000000000000e+00
-2.858366290612532445e+00 0.000000000000000000e+00 0.000000000000000000e+00
-2.849372091895514991e+00 0.000000000000000000e+00 0.000000000000000000e+00
-2.840377893178498425e+00 0.000000000000000000e+00 0.000000000000000000e+00
-2.831383694461480971e+00 0.000000000000000000e+00 0.000000000000000000e+00
-2.822389495744463517e+00 0.000000000000000000e+00 0.000000000000000000e+00
-2.813395297027446063e+00 0.000000000000000000e+00 0.000000000000000000e+00
-2.804401098310428608e+00 0.000000000000000000e+00 0.000000000000000000e+00
-2.795406899593411154e+00 0.000000000000000000e+00 0.000000000000000000e+00
-2.786412700876393700e+00 0.000000000000000000e+00 0.000000000000000000e+00
-2.777418502159376246e+00 0.000000000000000000e+00 0.000000000000000000e+00
-2.768424303442358791e+00 0.000000000000000000e+00 0.000000000000000000e+00
-2.759430104725341337e+00 0.000000000000000000e+00 0.000000000000000000e+00
-2.750435906008323883e+00 0.000000000000000000e+00 0.000000000000000000e+00
-2.741441707291306429e+00 0.000000000000000000e+00 0.000000000000000000e+00
-2.732447508574288975e+00 0.000000000000000000e+00 0.000000000000000000e+00
-2.723453309857271520e+00 0.000000000000000000e+00 0.000000000000000000e+00
-2.714459111140254066e+00 0.000000000000000000e+00 0.000000000000000000e+00
-2.705464912423236612e+00 0.000000000000000000e+00 0.000000000000000000e+00
-2.696470713706219158e+00 0.000000000000000000e+00 0.000000000000000000e+00
-2.687476514989201704e+00 0.000000000000000000e+00 0.000000000000000000e+00
-2.678482316272184249e+00 0.000000000000000000e+00 0.000000000000000000e+00
-2.669488117555166795e+00 0.000000000000000000e+00 0.000000000000000000e+00
-2.660493918838150229e+00 0.000000000000000000e+00 0.000000000000000000e+00
-2.651499720121132775e+00 0.000000000000000000e+00 0.000000000000000000e+00
-2.642505521404115321e+00 0.000000000000000000e+00 0.000000000000000000e+00
-2.633511322687097866e+00 0.000000000000000000e+00 0.000000000000000000e+00
-2.624517123970080412e+00 0.000000000000000000e+00 0.000000000000000000e+00
-2.615522925253062958e+00 0.000000000000000000e+00 0.000000000000000000e+00
-2.606528726536045504e+00 0.000000000000000000e+00 0.000000000000000000e+00
-2.597534527819028050e+00 0.000000000000000000e+00 0.000000000000000000e+00
-2.588540329102010595e+00 0.000000000000000000e+00 0.000000000000000000e+00
-2.579546130384993141e+00 0.000000000000000000e+00 0.000000000000000000e+00
-2.570551931667975687e+00 0.000000000000000000e+00 0.000000000000000000e+00
-2.561557732950958233e+00 0.000000000000000000e+00 0.000000000000000000e+00
-2.552563534233940779e+00 0.000000000000000000e+00 0.000000000000000000e+00
-2.543569335516923324e+00 0.000000000000000000e+00 0.000000000000000000e+00
-2.534575136799905870e+00 0.000000000000000000e+00 0.000000000000000000e+00
-2.525580938082888416e+00 0.000000000000000000e+00 0.000000000000000000e+00
-2.516586739365870962e+00 0.000000000000000000e+00 0.000000000000000000e+00
-2.507592540648853507e+00 0.000000000000000000e+00 0.000000000000000000e+00
-2.498598341931836053e+00 0.000000000000000000e+00 0.000000000000000000e+00
-2.489604143214818599e+00 0.000000000000000000e+00 0.000000000000000000e+00
-2.480609944497801589e+00 0.000000000000000000e+00 0.000000000000000000e+00
-2.471615745780784135e+00 0.000000000000000000e+00 0.000000000000000000e+00
-2.462621547063766680e+00 0.000000000000000000e+00 0.000000000000000000e+00
-2.453627348346749226e+00 0.000000000000000000e+00 0.000000000000000000e+00
-2.444633149629731772e+00 0.000000000000000000e+00 0.000000000000000000e+00
-2.435638950912714318e+00 0.000000000000000000e+00 0.000000000000000000e+00
-2.426644752195696864e+00 0.000000000000000000e+00 0.000000000000000000e+00
-2.417650553478679409e+00 0.000000000000000000e+00 0.000000000000000000e+00
-2.408656354761661955e+00 0.000000000000000000e+00 0.000000000000000000e+00
-2.399662156044644501e+00 0.000000000000000000e+00 0.000000000000000000e+00
-2.390667957327627491e+00 0.000000000000000000e+00 0.000000000000000000e+00
-2.381673758610610037e+00 0.000000000000000000e+00 0.000000000000000000e+00
-2.372679559893592582e+00 0.000000000000000000e+00 0.000000000000000000e+00
-2.363685361176575128e+00 0.000000000000000000e+00 0.000000000000000000e+00
-2.354691162459557674e+00 0.000000000000000000e+00 0.000000000000000000e+00
-2.345696963742540220e+00 0.000000000000000000e+00 0.000000000000000000e+00
-2.336702765025522766e+00 0.000000000000000000e+00 0.000000000000000000e+00
-2.327708566308505311e+00 0.000000000000000000e+00 0.000000000000000000e+00
-2.318714367591487857e+00 0.000000000000000000e+00 0.000000000000000000e+00
-2.309720168874470403e+00 0.000000000000000000e+00 0.000000000000000000e+00
-2.300725970157453393e+00 0.000000000000000000e+00 0.000000000000000000e+00
-2.291731771440435939e+00 0.000000000000000000e+00 0.000000000000000000e+00
-2.282737572723418484e+00 0.000000000000000000e+00 0.000000000000000000e+00
-2.273743374006401030e+00 0.000000000000000000e+00 0.000000000000000000e+00
-2.264749175289383576e+00 0.000000000000000000e+00 0.000000000000000000e+00
-2.255754976572366122e+00 0.000000000000000000e+00 0.000000000000000000e+00
-2.246760777855348667e+00 0.000000000000000000e+00 0.000000000000000000e+00
-2.237766579138331213e+00 0.000000000000000000e+00 0.000000000000000000e+00
-2.228772380421313759e+00 0.000000000000000000e+00 0.000000000000000000e+00
-2.219778181704296305e+00 0.000000000000000000e+00 0.000000000000000000e+00
-2.210783982987279295e+00 0.000000000000000000e+00 0.000000000000000000e+00
-2.201789784270261841e+00 0.000000000000000000e+00 0.000000000000000000e+00
-2.192795585553244386e+00 0.000000000000000000e+00 0.000000000000000000e+00
-2.183801386836226932e+00 0.000000000000000000e+00 0.000000000000000000e+00
-2.174807188119209478e+00 0.000000000000000000e+00 0.000000000000000000e+00
-2.165812989402192024e+00 0.000000000000000000e+00 0.000000000000000000e+00
-2.156818790685174569e+00 0.000000000000000000e+00 0.000000000000000000e+00
-2.147824591968157115e+00 0.000000000000000000e+00 0.000000000000000000e+00
-2.138830393251139661e+00 0.000000000000000000e+00 0.000000000000000000e+00
-2.129836194534122207e+00 0.000000000000000000e+00 0.000000000000000000e+00
-2.120841995817104753e+00 0.000000000000000000e+00 0.000000000000000000e+00
-2.111847797100087298e+00 0.000000000000000000e+00 0.000000000000000000e+00
-2.102853598383069844e+00 0.000000000000000000e+00 0.000000000000000000e+00
-2.093859399666052390e+00 0.000000000000000000e+00 0.000000000000000000e+00
-2.084865200949034936e+00 0.000000000000000000e+00 0.000000000000000000e+00
-2.075871002232017482e+00 0.000000000000000000e+00 0.000000000000000000e+00
-2.066876803515000027e+00 0.000000000000000000e+00 0.000000000000000000e+00
-2.057882604797982573e+00 0.000000000000000000e+00 0.000000000000000000e+00
-2.048888406080965119e+00 0.000000000000000000e+00 0.000000000000000000e+00
-2.039894207363947665e+00 0.000000000000000000e+00 0.000000000000000000e+00
-2.030900008646931099e+00 0.000000000000000000e+00 0.000000000000000000e+00
-2.021905809929913644e+00 0.000000000000000000e+00 0.000000000000000000e+00
-2.012911611212896190e+00 0.000000000000000000e+00 0.000000000000000000e+00
-2.003917412495878736e+00 0.000000000000000000e+00 0.000000000000000000e+00
-1.994923213778861060e+00 0.000000000000000000e+00 0.000000000000000000e+00
-1.985929015061843605e+00 0.000000000000000000e+00 0.000000000000000000e+00
-1.976934816344826151e+00 0.000000000000000000e+00 0.000000000000000000e+00
-1.967940617627808697e+00 0.000000000000000000e+00 0.000000000000000000e+00
-1.958946418910791243e+00 0.000000000000000000e+00 0.000000000000000000e+00
-1.949952220193773789e+00 0.000000000000000000e+00 0.000000000000000000e+00
-1.940958021476756779e+00 0.000000000000000000e+00 0.000000000000000000e+00
-1.931963822759739324e+00 0.000000000000000000e+00 0.000000000000000000e+00
-1.922969624042721870e+00 0.000000000000000000e+00 0.000000000000000000e+00
-1.913975425325704416e+00 0.000000000000000000e+00 0.000000000000000000e+00
-1.904981226608686962e+00 0.000000000000000000e+00 0.000000000000000000e+00
-1.895987027891669507e+00 0.000000000000000000e+00 0.000000000000000000e+00
-1.886992829174652053e+00 0.000000000000000000e+00 0.000000000000000000e+00
-1.877998630457634599e+00 0.000000000000000000e+00 0.000000000000000000e+00
-1.869004431740617145e+00 0.000000000000000000e+00 0.000000000000000000e+00
-1.860010233023599691e+00 0.000000000000000000e+00 0.000000000000000000e+00
-1.851016034306582680e+00 0.000000000000000000e+00 0.000000000000000000e+00
-1.842021835589565226e+00 0.000000000000000000e+00 0.000000000000000000e+00
-1.833027636872547772e+00 0.000000000000000000e+00 0.000000000000000000e+00
-1.824033438155530318e+00 0.000000000000000000e+00 0.000000000000000000e+00
-1.815039239438512864e+00 0.000000000000000000e+00 0.000000000000000000e+00
-1.806045040721495409e+00 0.000000000000000000e+00 0.000000000000000000e+00
-1.797050842004477955e+00 0.000000000000000000e+00 0.000000000000000000e+00
-1.788056643287460501e+00 0.000000000000000000e+00 0.000000000000000000e+00
-1.779062444570443047e+00 0.000000000000000000e+00 0.000000000000000000e+00
-1.770068245853425593e+00 0.000000000000000000e+00 0.000000000000000000e+00
-1.761074047136408582e+00 0.000000000000000000e+00 0.000000000000000000e+00
-1.752079848419391128e+00 0.000000000000000000e+00 0.000000000000000000e+00
-1.743085649702373674e+00 0.000000000000000000e+00 0.000000000000000000e+00
-1.734091450985356220e+00 0.000000000000000000e+00 0.000000000000000000e+00
-1.725097252268338766e+00 0.000000000000000000e+00 0.000000000000000000e+00
-1.716103053551321311e+00 0.000000000000000000e+00 0.000000000000000000e+00
-1.707108854834303857e+00 0.000000000000000000e+00 0.000000000000000000e+00
-1.698114656117286403e+00 0.000000000000000000e+00 0.000000000000000000e+00
-1.689120457400268949e+00 0.000000000000000000e+00 0.000000000000000000e+00
-1.680126258683251494e+00 0.000000000000000000e+00 0.000000000000000000e+00
-1.671132059966234484e+00 0.000000000000000000e+00 0.000000000000000000e+00
-1.662137861249217030e+00 0.000000000000000000e+00 0.000000000000000000e+00
-1.653143662532199576e+00 0.000000000000000000e+00 0.000000000000000000e+00
-1.644149463815182122e+00 0.000000000000000000e+00 0.000000000000000000e+00
-1.635155265098164667e+00 0.000000000000000000e+00 0.000000000000000000e+00
-1.626161066381147213e+00 0.000000000000000000e+00 0.000000000000000000e+00
-1.617166867664129759e+00 0.000000000000000000e+00 0.000000000000000000e+00
-1.608172668947112305e+00 0.000000000000000000e+00 0.000000000000000000e+00
-1.599178470230094851e+00 0.000000000000000000e+00 0.000000000000000000e+00
-1.590184271513077396e+00 0.000000000000000000e+00 0.000000000000000000e+00
-1.581190072796060386e+00 0.000000000000000000e+00 0.000000000000000000e+00
-1.572195874079042932e+00 0.000000000000000000e+00 0.000000000000000000e+00
-1.563201675362025478e+00 0.000000000000000000e+00 0.000000000000000000e+00
-1.554207476645008024e+00 0.000000000000000000e+00 0.000000000000000000e+00
-1.545213277927990569e+00 0.000000000000000000e+00 0.000000000000000000e+00
-1.536219079210973115e+00 0.000000000000000000e+00 0.000000000000000000e+00
-1.527224880493955661e+00 0.000000000000000000e+00 0.000000000000000000e+00
-1.518230681776938207e+00 0.000000000000000000e+00 0.000000000000000000e+00
-1.509236483059920753e+00 0.000000000000000000e+00 0.000000000000000000e+00
-1.500242284342903298e+00 0.000000000000000000e+00 0.000000000000000000e+00
-1.491248085625886288e+00 0.000000000000000000e+00 0.000000000000000000e+00
-1.482253886908868834e+00 0.000000000000000000e+00 0.000000000000000000e+00
-1.473259688191851380e+00 0.000000000000000000e+00 0.000000000000000000e+00
-1.464265489474833926e+00 0.000000000000000000e+00 0.000000000000000000e+00
-1.455271290757816471e+00 0.000000000000000000e+00 0.000000000000000000e+00
-1.446277092040799017e+00 0.000000000000000000e+00 0.000000000000000000e+00
-1.437282893323781563e+00 0.000000000000000000e+00 0.000000000000000000e+00
-1.428288694606764109e+00 0.000000000000000000e+00 0.000000000000000000e+00
-1.419294495889746655e+00 0.000000000000000000e+00 0.000000000000000000e+00
-1.410300297172729200e+00 0.000000000000000000e+00 0.000000000000000000e+00
-1.401306098455712190e+00 0.000000000000000000e+00 0.000000000000000000e+00
-1.392311899738694736e+00 0.000000000000000000e+00 0.000000000000000000e+00
-1.383317701021677282e+00 0.000000000000000000e+00 0.000000000000000000e+00
-1.374323502304659828e+00 0.000000000000000000e+00 0.000000000000000000e+00
-1.365329303587642373e+00 0.000000000000000000e+00 0.000000000000000000e+00
-1.356335104870624919e+00 0.000000000000000000e+00 0.000000000000000000e+00
-1.347340906153607465e+00 1.612735365028932222e-01 8.107174857339785490e+01
-1.338346707436590011e+00 1.866478899018122917e+00 9.257266569697591763e+01
-1.329352508719572556e+00 3.396683867049709704e+00 1.025778530815129841e+02
-1.320358310002555102e+00 4.844196269141072264e+00 1.117786922122076163e+02
-1.311364111285538092e+00 6.127573306884357862e+00 1.201570485242547477e+02
-1.302369912568520638e+00 7.291754213805269558e+00 1.255071181799305293e+02
-1.293375713851503184e+00 8.326169510426183251e+00 1.127453248720483430e+02
-1.284381515134485729e+00 9.226055945801398650e+00 1.009093899166267931e+02
-1.275387316417468053e+00 1.005359770084916704e+01 8.901165068224635490e+01
-1.266393117700450599e+00 1.080716371677456777e+01 7.813584608261868425e+01
-1.257398918983433145e+00 1.144963314960777723e+01 6.782048737320100429e+01
-1.248404720266415691e+00 1.200701746215705157e+01 5.828128191701168248e+01
-1.239410521549398236e+00 1.247267492028110070e+01 4.950282492232771858e+01
-1.230416322832380782e+00 1.285008101279965587e+01 4.093232510534348734e+01
-1.221422124115363772e+00 1.315526657277791145e+01 3.246516099396928468e+01
-1.212427925398346318e+00 1.339166361900063862e+01 2.470052105756145266e+01
-1.203433726681328864e+00 1.356810382086732147e+01 1.745124392872758534e+01
-1.194439527964311409e+00 1.367843838985275795e+01 1.089832012613887180e+01
-1.185445329247293955e+00 1.373513236031934781e+01 5.130535354407539828e+00
-1.176451130530276501e+00 1.372714481037179723e+01 1.704346289870357564e-02
-1.167456931813259047e+00 1.367124709766359558e+01 -4.445072212172741288e+00
-1.158462733096241593e+00 1.357661701969825430e+01 -8.256317748148836344e+00
-1.149468534379224138e+00 1.345289148924273803e+01 -1.102435738780987862e+01
-1.140474335662206684e+00 1.331153155782189401e+01 -1.316121709278915830e+01
-1.131480136945189674e+00 1.315679949569928198e+01 -1.432239266041777981e+01
-1.122485938228172220e+00 1.299186499112290960e+01 -1.465996461999028533e+01
-1.113491739511154766e+00 1.282551419589044173e+01 -1.449120742573947318e+01
-1.104497540794137311e+00 1.268688577911895266e+01 -1.397952873212052971e+01
-1.095503342077119857e+00 1.255138634141583509e+01 -1.325716147925876243e+01
-1.086509143360102403e+00 1.243896035346230633e+01 -1.249711555075570857e+01
-1.077514944643084949e+00 1.235270074789722372e+01 -1.154521304958182881e+01
-1.068520745926067494e+00 1.227324902733206358e+01 -1.070307773673180129e+01
-1.059526547209050040e+00 1.219554489537325992e+01 -1.027433553625419371e+01
-1.050532348492032586e+00 1.211915611014148197e+01 -9.980679562751870293e+00
-1.041538149775015576e+00 1.203278408916902720e+01 -9.929319384524969649e+00
-1.032543951057998122e+00 1.195346558714049223e+01 -1.031221649587481082e+01
-1.023549752340980667e+00 1.186285811541193880e+01 -1.102258740585920016e+01
-1.014555553623963213e+00 1.176279162413511159e+01 -1.161304180710171785e+01
-1.005561354906945759e+00 1.165370418823319909e+01 -1.221694567980264345e+01
-9.965671561899283049e-01 1.154589763677078906e+01 -1.273984844151032902e+01
-9.875729574729108506e-01 1.142519950412918206e+01 -1.359661483191722020e+01
-9.785787587558933964e-01 1.128185561229214073e+01 -1.432513028466599359e+01
-9.695845600388759422e-01 1.115104483815221670e+01 -1.504562834987807740e+01
-9.605903613218584880e-01 1.102033973854996418e+01 -1.563587845631886353e+01
-9.515961626048414779e-01 1.088693680409274833e+01 -1.634221758853539797e+01
-9.426019638878240237e-01 1.073055903037040082e+01 -1.713889352460752491e+01
-9.336077651708065694e-01 1.057442743113744399e+01 -1.753288147702113875e+01
-9.246135664537891152e-01 1.040955791212318360e+01 -1.835812223311546276e+01
-9.156193677367714390e-01 1.024738220872057326e+01 -1.942688080099821235e+01
-9.066251690197539848e-01 1.007604611209053758e+01 -2.017193050286824629e+01
-8.976309703027365305e-01 9.883693362627944623e+00 -2.049833799624860831e+01
-8.886367715857190763e-01 9.704913411429721748e+00 -2.090636658276548943e+01
-8.796425728687016221e-01 9.499878843792849636e+00 -2.124742900937930656e+01
-8.706483741516841679e-01 9.273047474790097056e+00 -2.158782048962619271e+01
-8.616541754346671578e-01 9.072633289606137907e+00 -2.197777898775392202e+01
-8.526599767176497036e-01 8.886897777301925316e+00 -2.168057076390358873e+01
-8.436657780006322493e-01 8.694067276175402981e+00 -2.145829698248006423e+01
-8.346715792836147951e-01 8.498521924762407309e+00 -2.076385470034549741e+01
-8.256773805665973409e-01 8.305730735210595128e+00 -1.941170171207409112e+01
-8.166831818495798867e-01 8.099320996345049650e+00 -1.816236898083300488e+01
-8.076889831325624325e-01 7.933699745138866888e+00 -1.638023738309511756e+01
-7.986947844155449783e-01 7.774911539537697536e+00 -1.375766274214736207e+01
-7.897005856985275241e-01 7.632336490731013612e+00 -1.050878457719449521e+01
-7.807063869815100698e-01 7.527120448451483981e+00 -6.573825584942045275e+00
-7.717121882644930597e-01 7.439073731752102958e+00 -1.947439946416373635e+00
-7.627179895474756055e-01 7.413626676747185229e+00 2.602261775736210314e+00
-7.537237908304581513e-01 7.456675750329608832e+00 7.326240031765355099e+00
-7.447295921134406971e-01 7.553340957146261303e+00 1.226391133559063285e+01
-7.357353933964232429e-01 7.714467798790785480e+00 1.699751989275451791e+01
-7.267411946794057886e-01 7.924164377669782766e+00 2.171774589416063250e+01
-7.177469959623883344e-01 8.167752340385568743e+00 2.565269209386658389e+01
-7.087527972453708802e-01 8.433848126480356200e+00 2.911407888799235266e+01
-6.997585985283534260e-01 8.735377046732857309e+00 3.188445956765661293e+01
-6.907643998113359718e-01 9.055911164570389360e+00 3.380743184155941350e+01
-6.817702010943189617e-01 9.392410954329790229e+00 3.532609542952327075e+01
-6.727760023773015075e-01 9.720880779934148563e+00 3.637740611043429340e+01
-6.637818036602840532e-01 1.007525386014484070e+01 3.703915317507973270e+01
-6.547876049432665990e-01 1.042109261050835300e+01 3.718206543126661501e+01
-6.457934062262491448e-01 1.075517539974083547e+01 3.714979590740265536e+01
-6.367992075092316906e-01 1.110146359956431894e+01 3.661614604567332520e+01
-6.278050087922142364e-01 1.143960853405448574e+01 3.599547629341349619e+01
-6.188108100751967822e-01 1.176522316614751418e+01 3.479753392486162511e+01
-6.098166113581793280e-01 1.207960589871242973e+01 3.360547459182041763e+01
-6.008224126411618737e-01 1.239723763144856150e+01 3.244336973446936412e+01
-5.918282139241448636e-01 1.268573989219093789e+01 3.104592553988691250e+01
-5.828340152071274094e-01 1.295838544690063543e+01 2.922739877171360945e+01
-5.738398164901099552e-01 1.320501320996843475e+01 2.750428908527866412e+01
-5.648456177730925010e-01 1.344363577509346896e+01 2.569352294711580598e+01
-5.558514190560750468e-01 1.367319654415567953e+01 2.362403690558891967e+01
-5.468572203390575925e-01 1.389379583615902902e+01 2.177073258087437324e+01
-5.378630216220401383e-01 1.406837885939752653e+01 1.971626220698993848e+01
-5.288688229050226841e-01 1.423901358218041935e+01 1.791674777285242470e+01
-5.198746241880052299e-01 1.439053240997850480e+01 1.609410574281346129e+01
-5.108804254709877757e-01 1.452203045571875606e+01 1.391959892420138978e+01
-5.018862267539707656e-01 1.464384284266522229e+01 1.176886339598736697e+01
-4.928920280369533113e-01 1.473170524936551118e+01 1.021010342933418436e+01
-4.838978293199358571e-01 1.481648110828555787e+01 8.261424086506286457e+00
-4.749036306029184029e-01 1.489117162732900823e+01 6.266240877537156528e+00
-4.659094318859009487e-01 1.492515293201016391e+01 4.096069720546318571e+00
-4.569152331688834945e-01 1.495231079672845453e+01 1.787151234275061285e+00
-4.479210344518660403e-01 1.498669585104484980e+01 -3.380566236527665636e-01
-4.389268357348485861e-01 1.498206248137633168e+01 -2.818867582094930047e+00
-4.299326370178311318e-01 1.495413056659117501e+01 -5.663046590741097397e+00
-4.209384383008136776e-01 1.489043910597226272e+01 -8.017554911249629157e+00
-4.119442395837966675e-01 1.480458277604955697e+01 -1.085022372967501880e+01
-4.029500408667792133e-01 1.470129976485814183e+01 -1.406350930831892754e+01
-3.939558421497617591e-01 1.456294655638235724e+01 -1.701774333691169616e+01
-3.849616434327443049e-01 1.438182596352048392e+01 -1.994569754528160033e+01
-3.759674447157268506e-01 1.420403811104638692e+01 -2.248742710140521339e+01
-3.669732459987093964e-01 1.397642011324050060e+01 -2.511500204562279492e+01
-3.579790472816919422e-01 1.372179587726840566e+01 -2.739840830631711555e+01
-3.489848485646744880e-01 1.345145282850249657e+01 -2.934716246037465837e+01
-3.399906498476570338e-01 1.316017489387327544e+01 -3.077482754272041632e+01
-3.309964511306395796e-01 1.286787522612745960e+01 -3.247734316288394751e+01
-3.220022524136225694e-01 1.254568958428326653e+01 -3.378058016746192038e+01
-3.130080536966051152e-01 1.223703247648818859e+01 -3.556886429145663442e+01
-3.040138549795876610e-01 1.192340444689034484e+01 -3.692731405419802826e+01
-2.950196562625702068e-01 1.161387681950881756e+01 -3.809891179406281481e+01
-2.860254575455527526e-01 1.128296132896895188e+01 -3.921043217357486554e+01
-2.770312588285352984e-01 1.093812760521758776e+01 -3.970879975945898366e+01
-2.680370601115178442e-01 1.052266154150852628e+01 -4.015699042551847953e+01
-2.590428613945003899e-01 1.013013682161081874e+01 -4.061516873059668598e+01
-2.500486626774829357e-01 9.733483058094066109e+00 -4.055900638636444455e+01
-2.410544639604654815e-01 9.341211038634824604e+00 -3.968782920722812690e+01
-2.320602652434484714e-01 8.974201225775011892e+00 -3.833303861463195972e+01
-2.230660665264310172e-01 8.625232958843419340e+00 -3.516646046382804514e+01
-2.140718678094135630e-01 8.270395462008572451e+00 -3.210168766545104546e+01
-2.050776690923961088e-01 7.965919187471428131e+00 -2.856713201027135440e+01
-1.960834703753786545e-01 7.713359103600396338e+00 -2.480792227859532773e+01
-1.870892716583612003e-01 7.490377937946561815e+00 -2.110313889121396613e+01
-1.780950729413437461e-01 7.359720205650461367e+00 -1.725533914959470394e+01
-1.691008742243262919e-01 7.242847241463870489e+00 -1.288669872441268538e+01
-1.601066755073088377e-01 7.164098437337557357e+00 -9.137798771790391683e+00
-1.511124767902913835e-01 7.109937211334745655e+00 -5.925209590443725638e+00
-1.421182780732743733e-01 7.076142978371045444e+00 -3.021407570940052523e+00
-1.331240793562569191e-01 7.073253466433570225e+00 -8.290962860082079500e-01
-1.241298806392394649e-01 7.111340170671560657e+00 1.196843491712396013e+00
-1.151356819222220107e-01 7.144047407575428110e+00 2.580973095383307658e+00
-1.061414832052045565e-01 7.180433978636116876e+00 3.615169025147104698e+00
-9.714728448818710227e-02 7.218626536965203400e+00 4.368071651166089531e+00
-8.815308577116964805e-02 7.285149638131471761e+00 4.685301375804861834e+00
-7.915888705415219384e-02 7.350493723440166605e+00 4.483564571122192532e+00
-7.016468833713473963e-02 7.396236286369088475e+00 4.334982471428951989e+00
-6.117048962011728541e-02 7.435092697412535756e+00 3.919612533343701077e+00
-5.217629090310027529e-02 7.469016022778632191e+00 3.586473914989311673e+00
-4.318209218608282107e-02 7.494658782664615160e+00 2.781401800369298183e+00
-3.418789346906536686e-02 7.514600877804070933e+00 1.926687449488197812e+00
-2.519369475204791264e-02 7.533944345403625675e+00 1.477544625582777327e+00
-1.619949603503045843e-02 7.532971718822167873e+00 1.095662051375568158e+00
-7.205297318013004215e-03 7.541201127813337735e+00 9.722931507984308164e-01
1.788901399004449999e-03 7.535314443175387566e+00 9.548784134233870846e-01
1.078310011602190421e-02 7.523783821302970409e+00 9.784050946651540182e-01
1.977729883303935843e-02 7.529129586126622087e+00 1.044994626291985140e+00
2.877149755005681264e-02 7.533638719580196152e+00 1.387524005847348585e+00
3.776569626707382277e-02 7.556466000873392375e+00 1.308650182847844512e+00
4.675989498409127698e-02 7.580542444673817215e+00 1.016119884099766502e+00
5.575409370110873120e-02 7.602600576275676758e+00 6.199883909513951297e-01
6.474829241812618541e-02 7.627933238674479810e+00 -1.914247751502312633e-01
7.374249113514363962e-02 7.657768385154398061e+00 -1.205737277153251519e+00
8.273668985216109384e-02 7.658903725769278026e+00 -2.983941816374006795e+00
9.173088856917854805e-02 7.626706284754448006e+00 -5.026840588523381115e+00
1.007250872861960023e-01 7.579546809207585056e+00 -7.576928594778527426e+00
1.097192860032134565e-01 7.511912461455999335e+00 -1.076341544353568835e+01
1.187134847202309107e-01 7.425192312867878286e+00 -1.449647728075793118e+01
1.277076834372479208e-01 7.288084344308529694e+00 -1.823858368568489396e+01
1.367018821542653750e-01 7.128418412954331984e+00 -2.181688000427397256e+01
1.456960808712828292e-01 6.921116561814784518e+00 -2.562441025596882938e+01
1.546902795883002835e-01 6.659850264944743969e+00 -2.970444317672814449e+01
1.636844783053177377e-01 6.353926411555754328e+00 -3.414146596582047977e+01
1.726786770223351919e-01 6.018489265909252595e+00 -3.816656876408458032e+01
1.816728757393526461e-01 5.664452743316793715e+00 -4.261270297192020706e+01
1.906670744563701003e-01 5.274836430721947522e+00 -4.688415700932738162e+01
1.996612731733875545e-01 4.840235814357541244e+00 -4.997744338238582884e+01
2.086554718904050088e-01 4.354441018999132496e+00 -5.289786268446250972e+01
2.176496706074220189e-01 3.855307306199691197e+00 -5.508005642161960935e+01
2.266438693244394731e-01 3.295747228967464082e+00 -5.703894013820313091e+01
2.356380680414569273e-01 2.704262313597457279e+00 -5.864709644161135316e+01
2.446322667584743815e-01 2.164779693448114273e+00 -5.381508595586625177e+01
2.536264654754918357e-01 1.596187524660219736e+00 -4.841388446318391203e+01
2.626206641925092899e-01 1.064479537903451956e+00 -4.286437718072784975e+01
2.716148629095267442e-01 5.342571212061741903e-01 -3.664303279155495829e+01
2.806090616265441984e-01 0.000000000000000000e+00 0.000000000000000000e+00
2.896032603435616526e-01 0.000000000000000000e+00 0.000000000000000000e+00
2.985974590605791068e-01 0.000000000000000000e+00 0.000000000000000000e+00
3.075916577775961169e-01 0.000000000000000000e+00 0.000000000000000000e+00
3.165858564946135711e-01 0.000000000000000000e+00 0.000000000000000000e+00
3.255800552116310254e-01 0.000000000000000000e+00 0.000000000000000000e+00
3.345742539286484796e-01 0.000000000000000000e+00 0.000000000000000000e+00
3.435684526456659338e-01 0.000000000000000000e+00 0.000000000000000000e+00
3.525626513626833880e-01 0.000000000000000000e+00 0.000000000000000000e+00
3.615568500797008422e-01 0.000000000000000000e+00 0.000000000000000000e+00
3.705510487967182964e-01 0.000000000000000000e+00 0.000000000000000000e+00
3.795452475137357506e-01 0.000000000000000000e+00 0.000000000000000000e+00
3.885394462307532049e-01 0.000000000000000000e+00 0.000000000000000000e+00
3.975336449477702150e-01 0.000000000000000000e+00 0.000000000000000000e+00
4.065278436647876692e-01 0.000000000000000000e+00 0.000000000000000000e+00
4.155220423818051234e-01 0.000000000000000000e+00 0.000000000000000000e+00
4.245162410988225776e-01 0.000000000000000000e+00 0.000000000000000000e+00
4.335104398158400318e-01 0.000000000000000000e+00 0.000000000000000000e+00
4.425046385328574861e-01 0.000000000000000000e+00 0.000000000000000000e+00
4.514988372498749403e-01 0.000000000000000000e+00 0.000000000000000000e+00
4.604930359668923945e-01 0.000000000000000000e+00 0.000000000000000000e+00
4.694872346839098487e-01 0.000000000000000000e+00 0.000000000000000000e+00
4.784814334009273029e-01 0.000000000000000000e+00 0.000000000000000000e+00
4.874756321179443130e-01 0.000000000000000000e+00 0.000000000000000000e+00
4.964698308349617673e-01 0.000000000000000000e+00 0.000000000000000000e+00
5.054640295519792215e-01 0.000000000000000000e+00 0.000000000000000000e+00
5.144582282689966757e-01 0.000000000000000000e+00 0.000000000000000000e+00
5.234524269860143519e-01 0.000000000000000000e+00 0.000000000000000000e+00
5.324466257030318062e-01 0.000000000000000000e+00 0.000000000000000000e+00
5.414408244200492604e-01 0.000000000000000000e+00 0.000000000000000000e+00
5.504350231370667146e-01 0.000000000000000000e+00 0.000000000000000000e+00
5.594292218540841688e-01 0.000000000000000000e+00 0.000000000000000000e+00
5.684234205711016230e-01 0.000000000000000000e+00 0.000000000000000000e+00
5.774176192881186331e-01 0.000000000000000000e+00 0.000000000000000000e+00
5.864118180051360874e-01 0.000000000000000000e+00 0.000000000000000000e+00
5.954060167221535416e-01 0.000000000000000000e+00 0.000000000000000000e+00
6.044002154391709958e-01 0.000000000000000000e+00 0.000000000000000000e+00
6.133944141561886720e-01 0.000000000000000000e+00 0.000000000000000000e+00
6.223886128732061263e-01 0.000000000000000000e+00 0.000000000000000000e+00
6.313828115902235805e-01 0.000000000000000000e+00 0.000000000000000000e+00
6.403770103072410347e-01 0.000000000000000000e+00 0.000000000000000000e+00
6.493712090242584889e-01 0.000000000000000000e+00 0.000000000000000000e+00
6.583654077412759431e-01 0.000000000000000000e+00 0.000000000000000000e+00
6.673596064582929532e-01 0.000000000000000000e+00 0.000000000000000000e+00
6.763538051753104074e-01 0.000000000000000000e+00 0.000000000000000000e+00
6.853480038923278617e-01 0.000000000000000000e+00 0.000000000000000000e+00
6.943422026093453159e-01 0.000000000000000000e+00 0.000000000000000000e+00
7.033364013263627701e-01 0.000000000000000000e+00 0.000000000000000000e+00
7.123306000433802243e-01 0.000000000000000000e+00 0.000000000000000000e+00
7.213247987603976785e-01 0.000000000000000000e+00 0.000000000000000000e+00
7.303189974774151327e-01 0.000000000000000000e+00 0.000000000000000000e+00
7.393131961944325869e-01 0.000000000000000000e+00 0.000000000000000000e+00
7.483073949114500412e-01 0.000000000000000000e+00 0.000000000000000000e+00
7.573015936284670513e-01 0.000000000000000000e+00 0.000000000000000000e+00
7.662957923454845055e-01 0.000000000000000000e+00 0.000000000000000000e+00
7.752899910625019597e-01 0.000000000000000000e+00 0.000000000000000000e+00
7.842841897795194139e-01 0.000000000000000000e+00 0.000000000000000000e+00
7.932783884965368681e-01 0.000000000000000000e+00 0.000000000000000000e+00
8.022725872135543224e-01 0.000000000000000000e+00 0.000000000000000000e+00
8.112667859305717766e-01 0.000000000000000000e+00 0.000000000000000000e+00
8.202609846475892308e-01 0.000000000000000000e+00 0.000000000000000000e+00
8.292551833646066850e-01 0.000000000000000000e+00 0.000000000000000000e+00
8.382493820816241392e-01 0.000000000000000000e+00 0.000000000000000000e+00
8.472435807986411493e-01 0.000000000000000000e+00 0.000000000000000000e+00
8.562377795156586036e-01 0.000000000000000000e+00 0.000000000000000000e+00
8.652319782326760578e-01 0.000000000000000000e+00 0.000000000000000000e+00
8.742261769496935120e-01 0.000000000000000000e+00 0.000000000000000000e+00
8.832203756667109662e-01 0.000000000000000000e+00 0.000000000000000000e+00
8.922145743837284204e-01 0.000000000000000000e+00 0.000000000000000000e+00
9.012087731007458746e-01 0.000000000000000000e+00 0.000000000000000000e+00
9.102029718177633288e-01 0.000000000000000000e+00 0.000000000000000000e+00
9.191971705347807831e-01 0.000000000000000000e+00 0.000000000000000000e+00
9.281913692517982373e-01 0.000000000000000000e+00 0.000000000000000000e+00
9.371855679688152474e-01 0.000000000000000000e+00 0.000000000000000000e+00
9.461797666858327016e-01 0.000000000000000000e+00 0.000000000000000000e+00
9.551739654028501558e-01 0.000000000000000000e+00 0.000000000000000000e+00
9.641681641198676100e-01 0.000000000000000000e+00 0.000000000000000000e+00
9.731623628368848422e-01 0.000000000000000000e+00 0.000000000000000000e+00
9.821565615539022964e-01 0.000000000000000000e+00 0.000000000000000000e+00
9.911507602709197506e-01 0.000000000000000000e+00 0.000000000000000000e+00
1.000144958987937205e+00 0.000000000000000000e+00 0.000000000000000000e+00
1.009139157704954659e+00 0.000000000000000000e+00 0.000000000000000000e+00
1.018133356421972113e+00 0.000000000000000000e+00 0.000000000000000000e+00
1.027127555138989123e+00 0.000000000000000000e+00 0.000000000000000000e+00
1.036121753856006578e+00 0.000000000000000000e+00 0.000000000000000000e+00
1.045115952573024032e+00 0.000000000000000000e+00 0.000000000000000000e+00
1.054110151290041486e+00 0.000000000000000000e+00 0.000000000000000000e+00
1.063104350007058940e+00 0.000000000000000000e+00 0.000000000000000000e+00
1.072098548724076394e+00 0.000000000000000000e+00 0.000000000000000000e+00
1.081092747441093849e+00 0.000000000000000000e+00 0.000000000000000000e+00
1.090086946158111303e+00 0.000000000000000000e+00 0.000000000000000000e+00
1.099081144875128757e+00 0.000000000000000000e+00 0.000000000000000000e+00
1.108075343592146211e+00 0.000000000000000000e+00 0.000000000000000000e+00
1.117069542309163221e+00 0.000000000000000000e+00 0.000000000000000000e+00
1.126063741026180676e+00 0.000000000000000000e+00 0.000000000000000000e+00
1.135057939743198130e+00 0.000000000000000000e+00 0.000000000000000000e+00
1.144052138460215584e+00 0.000000000000000000e+00 0.000000000000000000e+00
1.153046337177233482e+00 0.000000000000000000e+00 0.000000000000000000e+00
1.162040535894250937e+00 0.000000000000000000e+00 0.000000000000000000e+00
1.171034734611268391e+00 0.000000000000000000e+00 0.000000000000000000e+00
1.180028933328285845e+00 0.000000000000000000e+00 0.000000000000000000e+00
1.189023132045303299e+00 0.000000000000000000e+00 0.000000000000000000e+00
1.198017330762320753e+00 0.000000000000000000e+00 0.000000000000000000e+00
1.207011529479337764e+00 0.000000000000000000e+00 0.000000000000000000e+00
1.216005728196355218e+00 0.000000000000000000e+00 0.000000000000000000e+00
1.224999926913372672e+00 0.000000000000000000e+00 0.000000000000000000e+00
1.233994125630390126e+00 0.000000000000000000e+00 0.000000000000000000e+00
1.242988324347407580e+00 0.000000000000000000e+00 0.000000000000000000e+00
1.251982523064425035e+00 0.000000000000000000e+00 0.000000000000000000e+00
1.260976721781442489e+00 0.000000000000000000e+00 0.000000000000000000e+00
1.269970920498459943e+00 0.000000000000000000e+00 0.000000000000000000e+00
1.278965119215477397e+00 0.000000000000000000e+00 0.000000000000000000e+00
1.287959317932494852e+00 0.000000000000000000e+00 0.000000000000000000e+00
1.296953516649511862e+00 0.000000000000000000e+00 0.000000000000000000e+00
1.305947715366529316e+00 0.000000000000000000e+00 0.000000000000000000e+00
1.314941914083546770e+00 0.000000000000000000e+00 0.000000000000000000e+00
1.323936112800564224e+00 0.000000000000000000e+00 0.000000000000000000e+00
1.332930311517581679e+00 0.000000000000000000e+00 0.000000000000000000e+00
1.341924510234599133e+00 0.000000000000000000e+00 0.000000000000000000e+00
1.350918708951616587e+00 0.000000000000000000e+00 0.000000000000000000e+00
1.359912907668634041e+00 0.000000000000000000e+00 0.000000000000000000e+00
1.368907106385651495e+00 0.000000000000000000e+00 0.000000000000000000e+00
1.377901305102668950e+00 0.000000000000000000e+00 0.000000000000000000e+00
1.386895503819685960e+00 0.000000000000000000e+00 0.000000000000000000e+00
1.395889702536703414e+00 0.000000000000000000e+00 0.000000000000000000e+00
1.404883901253720868e+00 0.000000000000000000e+00 0.000000000000000000e+00
1.413878099970738322e+00 0.000000000000000000e+00 0.000000000000000000e+00
1.422872298687755777e+00 0.000000000000000000e+00 0.000000000000000000e+00
1.431866497404773231e+00 0.000000000000000000e+00 0.000000000000000000e+00
1.440860696121790685e+00 0.000000000000000000e+00 0.000000000000000000e+00
1.449854894838808139e+00 0.000000000000000000e+00 0.000000000000000000e+00
1.458849093555825593e+00 0.000000000000000000e+00 0.000000000000000000e+00
1.467843292272843048e+00 0.000000000000000000e+00 0.000000000000000000e+00
1.476837490989860058e+00 0.000000000000000000e+00 0.000000000000000000e+00
1.485831689706877512e+00 0.000000000000000000e+00 0.000000000000000000e+00
1.494825888423894966e+00 0.000000000000000000e+00 0.000000000000000000e+00
1.503820087140912420e+00 0.000000000000000000e+00 0.000000000000000000e+00
1.512814285857929875e+00 0.000000000000000000e+00 0.000000000000000000e+00
1.521808484574947329e+00 0.000000000000000000e+00 0.000000000000000000e+00
1.530802683291964783e+00 0.000000000000000000e+00 0.000000000000000000e+00
1.539796882008982237e+00 0.000000000000000000e+00 0.000000000000000000e+00
1.548791080725999691e+00 0.000000000000000000e+00 0.000000000000000000e+00
1.557785279443017146e+00 0.000000000000000000e+00 0.000000000000000000e+00
1.566779478160034156e+00 0.000000000000000000e+00 0.000000000000000000e+00
1.575773676877051610e+00 0.000000000000000000e+00 0.000000000000000000e+00
1.584767875594069064e+00 0.000000000000000000e+00 0.000000000000000000e+00
1.593762074311086518e+00 0.000000000000000000e+00 0.000000000000000000e+00
1.602756273028103973e+00 0.000000000000000000e+00 0.000000000000000000e+00
1.611750471745121427e+00 0.000000000000000000e+00 0.000000000000000000e+00
1.620744670462138881e+00 0.000000000000000000e+00 0.000000000000000000e+00
1.629738869179156335e+00 0.000000000000000000e+00 0.000000000000000000e+00
1.638733067896173790e+00 0.000000000000000000e+00 0.000000000000000000e+00
1.647727266613191244e+00 0.000000000000000000e+00 0.000000000000000000e+00
1.656721465330208254e+00 0.000000000000000000e+00 0.000000000000000000e+00
1.665715664047225708e+00 0.000000000000000000e+00 0.000000000000000000e+00
1.674709862764243162e+00 0.000000000000000000e+00 0.000000000000000000e+00
1.683704061481260617e+00 0.000000000000000000e+00 0.000000000000000000e+00
1.692698260198278071e+00 0.000000000000000000e+00 0.000000000000000000e+00
1.701692458915295525e+00 0.000000000000000000e+00 0.000000000000000000e+00
1.710686657632312979e+00 0.000000000000000000e+00 0.000000000000000000e+00
1.719680856349330433e+00 0.000000000000000000e+00 0.000000000000000000e+00
1.728675055066347888e+00 0.000000000000000000e+00 0.000000000000000000e+00
1.737669253783365342e+00 0.000000000000000000e+00 0.000000000000000000e+00
1.746663452500382352e+00 0.000000000000000000e+00 0.000000000000000000e+00
1.755657651217399806e+00 0.000000000000000000e+00 0.000000000000000000e+00
1.764651849934417260e+00 0.000000000000000000e+00 0.000000000000000000e+00
1.773646048651434715e+00 0.000000000000000000e+00 0.000000000000000000e+00
1.782640247368452169e+00 0.000000000000000000e+00 0.000000000000000000e+00
1.791634446085469623e+00 0.000000000000000000e+00 0.000000000000000000e+00
1.800628644802487077e+00 0.000000000000000000e+00 0.000000000000000000e+00
1.809622843519504531e+00 0.000000000000000000e+00 0.000000000000000000e+00
1.818617042236521986e+00 0.000000000000000000e+00 0.000000000000000000e+00
1.827611240953539440e+00 0.000000000000000000e+00 0.000000000000000000e+00
1.836605439670556450e+00 0.000000000000000000e+00 0.000000000000000000e+00
1.845599638387573904e+00 0.000000000000000000e+00 0.000000000000000000e+00
1.854593837104591358e+00 0.000000000000000000e+00 0.000000000000000000e+00
1.863588035821608813e+00 0.000000000000000000e+00 0.000000000000000000e+00
1.872582234538626267e+00 0.000000000000000000e+00 0.000000000000000000e+00
1.881576433255643721e+00 0.000000000000000000e+00 0.000000000000000000e+00
1.890570631972661175e+00 0.000000000000000000e+00 0.000000000000000000e+00
1.899564830689678629e+00 0.000000000000000000e+00 0.000000000000000000e+00
1.908559029406696084e+00 0.000000000000000000e+00 0.000000000000000000e+00
1.917553228123713538e+00 0.000000000000000000e+00 0.000000000000000000e+00
1.926547426840730548e+00 0.000000000000000000e+00 0.000000000000000000e+00
1.935541625557748002e+00 0.000000000000000000e+00 0.000000000000000000e+00
1.944535824274765456e+00 0.000000000000000000e+00 0.000000000000000000e+00
1.953530022991782911e+00 0.000000000000000000e+00 0.000000000000000000e+00
1.962524221708800365e+00 0.000000000000000000e+00 0.000000000000000000e+00
1.971518420425817819e+00 0.000000000000000000e+00 0.000000000000000000e+00
1.980512619142835273e+00 0.000000000000000000e+00 0.000000000000000000e+00
1.989506817859852728e+00 0.000000000000000000e+00 0.000000000000000000e+00
1.998501016576870182e+00 0.000000000000000000e+00 0.000000000000000000e+00
2.007495215293887636e+00 0.000000000000000000e+00 0.000000000000000000e+00
2.016489414010904646e+00 0.000000000000000000e+00 0.000000000000000000e+00
2.025483612727922100e+00 0.000000000000000000e+00 0.000000000000000000e+00
2.034477811444939555e+00 0.000000000000000000e+00 0.000000000000000000e+00
2.043472010161957009e+00 0.000000000000000000e+00 0.000000000000000000e+00
2.052466208878974463e+00 0.000000000000000000e+00 0.000000000000000000e+00
2.061460407595991917e+00 0.000000000000000000e+00 0.000000000000000000e+00
2.070454606313009371e+00 0.000000000000000000e+00 0.000000000000000000e+00
2.079448805030026826e+00 0.000000000000000000e+00 0.000000000000000000e+00
2.088443003747044280e+00 0.000000000000000000e+00 0.000000000000000000e+00
2.097437202464061734e+00 0.000000000000000000e+00 0.000000000000000000e+00
2.106431401181078744e+00 0.000000000000000000e+00 0.000000000000000000e+00
2.115425599898096198e+00 0.000000000000000000e+00 0.000000000000000000e+00
2.124419798615113653e+00 0.000000000000000000e+00 0.000000000000000000e+00
2.133413997332131107e+00 0.000000000000000000e+00 0.000000000000000000e+00
2.142408196049148561e+00 0.000000000000000000e+00 0.000000000000000000e+00
2.151402394766166015e+00 0.000000000000000000e+00 0.000000000000000000e+00
2.160396593483183469e+00 0.000000000000000000e+00 0.000000000000000000e+00
2.169390792200200924e+00 0.000000000000000000e+00 0.000000000000000000e+00
2.178384990917218378e+00 0.000000000000000000e+00 0.000000000000000000e+00
2.187379189634235832e+00 0.000000000000000000e+00 0.000000000000000000e+00
2.196373388351252842e+00 0.000000000000000000e+00 0.000000000000000000e+00
2.205367587068270296e+00 0.000000000000000000e+00 0.000000000000000000e+00
2.214361785785287751e+00 0.000000000000000000e+00 0.000000000000000000e+00
2.223355984502305205e+00 0.000000000000000000e+00 0.000000000000000000e+00
2.232350183219322659e+00 0.000000000000000000e+00 0.000000000000000000e+00
2.241344381936340113e+00 0.000000000000000000e+00 0.000000000000000000e+00
2.250338580653357567e+00 0.000000000000000000e+00 0.000000000000000000e+00
2.259332779370375022e+00 0.000000000000000000e+00 0.000000000000000000e+00
2.268326978087392476e+00 0.000000000000000000e+00 0.000000000000000000e+00
2.277321176804409930e+00 0.000000000000000000e+00 0.000000000000000000e+00
2.286315375521427384e+00 0.000000000000000000e+00 0.000000000000000000e+00
2.295309574238444839e+00 0.000000000000000000e+00 0.000000000000000000e+00
2.304303772955462293e+00 0.000000000000000000e+00 0.000000000000000000e+00
2.313297971672479747e+00 0.000000000000000000e+00 0.000000000000000000e+00
