#! FIELDS rc2 external2.bias der_rc2
#! SET min_rc2 -2.5262100242998624
#! SET max_rc2 1.1896791215874134
#! SET nbins_rc2 600
#! SET periodic_rc2 false
-2.526210024299862411e+00 0.000000000000000000e+00 0.000000000000000000e+00
-2.520006536577178657e+00 0.000000000000000000e+00 0.000000000000000000e+00
-2.513803048854495792e+00 0.000000000000000000e+00 0.000000000000000000e+00
-2.507599561131812038e+00 0.000000000000000000e+00 0.000000000000000000e+00
-2.501396073409129173e+00 0.000000000000000000e+00 0.000000000000000000e+00
-2.495192585686446307e+00 0.000000000000000000e+00 0.000000000000000000e+00
-2.488989097963762553e+00 0.000000000000000000e+00 0.000000000000000000e+00
-2.482785610241079688e+00 0.000000000000000000e+00 0.000000000000000000e+00
-2.476582122518395934e+00 0.000000000000000000e+00 0.000000000000000000e+00
-2.470378634795713069e+00 0.000000000000000000e+00 0.000000000000000000e+00
-2.464175147073029315e+00 0.000000000000000000e+00 0.000000000000000000e+00
-2.457971659350346449e+00 0.000000000000000000e+00 0.000000000000000000e+00
-2.451768171627662696e+00 0.000000000000000000e+00 0.000000000000000000e+00
-2.445564683904979830e+00 0.000000000000000000e+00 0.000000000000000000e+00
-2.439361196182296077e+00 0.000000000000000000e+00 0.000000000000000000e+00
-2.433157708459613211e+00 0.000000000000000000e+00 0.000000000000000000e+00
-2.426954220736930345e+00 0.000000000000000000e+00 0.000000000000000000e+00
-2.420750733014246592e+00 0.000000000000000000e+00 0.000000000000000000e+00
-2.414547245291563726e+00 0.000000000000000000e+00 0.000000000000000000e+00
-2.408343757568879973e+00 0.000000000000000000e+00 0.000000000000000000e+00
-2.402140269846197107e+00 0.000000000000000000e+00 0.000000000000000000e+00
-2.395936782123513353e+00 0.000000000000000000e+00 0.000000000000000000e+00
-2.389733294400830488e+00 0.000000000000000000e+00 0.000000000000000000e+00
-2.383529806678146734e+00 0.000000000000000000e+00 0.000000000000000000e+00
-2.377326318955463869e+00 0.000000000000000000e+00 0.000000000000000000e+00
-2.371122831232781003e+00 0.000000000000000000e+00 0.000000000000000000e+00
-2.364919343510097249e+00 0.000000000000000000e+00 0.000000000000000000e+00
-2.358715855787414384e+00 0.000000000000000000e+00 0.000000000000000000e+00
-2.352512368064730630e+00 0.000000000000000000e+00 0.000000000000000000e+00
-2.346308880342047765e+00 0.000000000000000000e+00 0.000000000000000000e+00
-2.340105392619364011e+00 0.000000000000000000e+00 0.000000000000000000e+00
-2.333901904896681145e+00 0.000000000000000000e+00 0.000000000000000000e+00
-2.327698417173997392e+00 0.000000000000000000e+00 0.000000000000000000e+00
-2.321494929451314526e+00 0.000000000000000000e+00 0.000000000000000000e+00
-2.315291441728630772e+00 0.000000000000000000e+00 0.000000000000000000e+00
-2.309087954005947907e+00 0.000000000000000000e+00 0.000000000000000000e+00
-2.302884466283265041e+00 0.000000000000000000e+00 0.000000000000000000e+00
-2.296680978560581288e+00 0.000000000000000000e+00 0.000000000000000000e+00
-2.290477490837898422e+00 0.000000000000000000e+00 0.000000000000000000e+00
-2.284274003115214668e+00 0.000000000000000000e+00 0.000000000000000000e+00
-2.278070515392531803e+00 0.000000000000000000e+00 0.000000000000000000e+00
-2.271867027669848049e+00 0.000000000000000000e+00 0.000000000000000000e+00
-2.265663539947165184e+00 0.000000000000000000e+00 0.000000000000000000e+00
-2.259460052224481430e+00 0.000000000000000000e+00 0.000000000000000000e+00
-2.253256564501798564e+00 0.000000000000000000e+00 0.000000000000000000e+00
-2.247053076779115699e+00 0.000000000000000000e+00 0.000000000000000000e+00
-2.240849589056431945e+00 0.000000000000000000e+00 0.000000000000000000e+00
-2.234646101333749080e+00 0.000000000000000000e+00 0.000000000000000000e+00
-2.228442613611065326e+00 0.000000000000000000e+00 0.000000000000000000e+00
-2.222239125888382461e+00 0.000000000000000000e+00 0.000000000000000000e+00
-2.216035638165698707e+00 0.000000000000000000e+00 0.000000000000000000e+00
-2.209832150443015841e+00 0.000000000000000000e+00 0.000000000000000000e+00
-2.203628662720332088e+00 0.000000000000000000e+00 0.000000000000000000e+00
-2.197425174997649222e+00 0.000000000000000000e+00 0.000000000000000000e+00
-2.191221687274965468e+00 0.000000000000000000e+00 0.000000000000000000e+00
-2.185018199552282603e+00 0.000000000000000000e+00 0.000000000000000000e+00
-2.178814711829599737e+00 0.000000000000000000e+00 0.000000000000000000e+00
-2.172611224106915984e+00 0.000000000000000000e+00 0.000000000000000000e+00
-2.166407736384233118e+00 0.000000000000000000e+00 0.000000000000000000e+00
-2.160204248661549364e+00 0.000000000000000000e+00 0.000000000000000000e+00
-2.154000760938866499e+00 0.000000000000000000e+00 0.000000000000000000e+00
-2.147797273216182745e+00 0.000000000000000000e+00 0.000000000000000000e+00
-2.141593785493499880e+00 0.000000000000000000e+00 0.000000000000000000e+00
-2.135390297770816126e+00 0.000000000000000000e+00 0.000000000000000000e+00
-2.129186810048133260e+00 0.000000000000000000e+00 0.000000000000000000e+00
-2.122983322325450395e+00 0.000000000000000000e+00 0.000000000000000000e+00
-2.116779834602766641e+00 0.000000000000000000e+00 0.000000000000000000e+00
-2.110576346880083776e+00 0.000000000000000000e+00 0.000000000000000000e+00
-2.104372859157400022e+00 0.000000000000000000e+00 0.000000000000000000e+00
-2.098169371434717156e+00 0.000000000000000000e+00 0.000000000000000000e+00
-2.091965883712033403e+00 0.000000000000000000e+00 0.000000000000000000e+00
-2.085762395989350537e+00 0.000000000000000000e+00 0.000000000000000000e+00
-2.079558908266666784e+00 0.000000000000000000e+00 0.000000000000000000e+00
-2.073355420543983918e+00 0.000000000000000000e+00 0.000000000000000000e+00
-2.067151932821300164e+00 0.000000000000000000e+00 0.000000000000000000e+00
-2.060948445098617299e+00 0.000000000000000000e+00 0.000000000000000000e+00
-2.054744957375934433e+00 0.000000000000000000e+00 0.000000000000000000e+00
-2.048541469653250680e+00 0.000000000000000000e+00 0.000000000000000000e+00
-2.042337981930567814e+00 0.000000000000000000e+00 0.000000000000000000e+00
-2.036134494207884060e+00 0.000000000000000000e+00 0.000000000000000000e+00
-2.029931006485201195e+00 0.000000000000000000e+00 0.000000000000000000e+00
-2.023727518762517441e+00 0.000000000000000000e+00 0.000000000000000000e+00
-2.017524031039834576e+00 0.000000000000000000e+00 0.000000000000000000e+00
-2.011320543317150822e+00 0.000000000000000000e+00 0.000000000000000000e+00
-2.005117055594467956e+00 0.000000000000000000e+00 0.000000000000000000e+00
-1.998913567871784869e+00 0.000000000000000000e+00 0.000000000000000000e+00
-1.992710080149101559e+00 0.000000000000000000e+00 0.000000000000000000e+00
-1.986506592426418250e+00 0.000000000000000000e+00 0.000000000000000000e+00
-1.980303104703734940e+00 0.000000000000000000e+00 0.000000000000000000e+00
-1.974099616981051630e+00 0.000000000000000000e+00 0.000000000000000000e+00
-1.967896129258368321e+00 0.000000000000000000e+00 0.000000000000000000e+00
-1.961692641535685011e+00 0.000000000000000000e+00 0.000000000000000000e+00
-1.955489153813001701e+00 0.000000000000000000e+00 0.000000000000000000e+00
-1.949285666090318392e+00 0.000000000000000000e+00 0.000000000000000000e+00
-1.943082178367635082e+00 0.000000000000000000e+00 0.000000000000000000e+00
-1.936878690644952217e+00 0.000000000000000000e+00 0.000000000000000000e+00
-1.930675202922268907e+00 0.000000000000000000e+00 0.000000000000000000e+00
-1.924471715199585597e+00 0.000000000000000000e+00 0.000000000000000000e+00
-1.918268227476902288e+00 0.000000000000000000e+00 0.000000000000000000e+00
-1.912064739754218978e+00 0.000000000000000000e+00 0.000000000000000000e+00
-1.905861252031535669e+00 0.000000000000000000e+00 0.000000000000000000e+00
-1.899657764308852359e+00 0.000000000000000000e+00 0.000000000000000000e+00
-1.893454276586169049e+00 0.000000000000000000e+00 0.000000000000000000e+00
-1.887250788863485740e+00 0.000000000000000000e+00 0.000000000000000000e+00
-1.881047301140802430e+00 0.000000000000000000e+00 0.000000000000000000e+00
-1.874843813418119565e+00 0.000000000000000000e+00 0.000000000000000000e+00
-1.868640325695436255e+00 0.000000000000000000e+00 0.000000000000000000e+00
-1.862436837972752945e+00 0.000000000000000000e+00 0.000000000000000000e+00
-1.856233350250069636e+00 0.000000000000000000e+00 0.000000000000000000e+00
-1.850029862527386326e+00 0.000000000000000000e+00 0.000000000000000000e+00
-1.843826374804703017e+00 0.000000000000000000e+00 0.000000000000000000e+00
-1.837622887082019707e+00 0.000000000000000000e+00 0.000000000000000000e+00
-1.831419399359336397e+00 0.000000000000000000e+00 0.000000000000000000e+00
-1.825215911636653088e+00 0.000000000000000000e+00 0.000000000000000000e+00
-1.819012423913969778e+00 0.000000000000000000e+00 0.000000000000000000e+00
-1.812808936191286913e+00 0.000000000000000000e+00 0.000000000000000000e+00
-1.806605448468603603e+00 0.000000000000000000e+00 0.000000000000000000e+00
-1.800401960745920293e+00 0.000000000000000000e+00 0.000000000000000000e+00
-1.794198473023236984e+00 0.000000000000000000e+00 0.000000000000000000e+00
-1.787994985300553674e+00 0.000000000000000000e+00 0.000000000000000000e+00
-1.781791497577870365e+00 0.000000000000000000e+00 0.000000000000000000e+00
-1.775588009855187055e+00 0.000000000000000000e+00 0.000000000000000000e+00
-1.769384522132503745e+00 0.000000000000000000e+00 0.000000000000000000e+00
-1.763181034409820436e+00 0.000000000000000000e+00 0.000000000000000000e+00
-1.756977546687137126e+00 0.000000000000000000e+00 0.000000000000000000e+00
-1.750774058964454261e+00 0.000000000000000000e+00 0.000000000000000000e+00
-1.744570571241770951e+00 0.000000000000000000e+00 0.000000000000000000e+00
-1.738367083519087641e+00 0.000000000000000000e+00 0.000000000000000000e+00
-1.732163595796404332e+00 0.000000000000000000e+00 0.000000000000000000e+00
-1.725960108073721022e+00 0.000000000000000000e+00 0.000000000000000000e+00
-1.719756620351037713e+00 0.000000000000000000e+00 0.000000000000000000e+00
-1.713553132628354403e+00 0.000000000000000000e+00 0.000000000000000000e+00
-1.707349644905671093e+00 0.000000000000000000e+00 0.000000000000000000e+00
-1.701146157182987784e+00 0.000000000000000000e+00 0.000000000000000000e+00
-1.694942669460304474e+00 0.000000000000000000e+00 0.000000000000000000e+00
-1.688739181737621609e+00 0.000000000000000000e+00 0.000000000000000000e+00
-1.682535694014938299e+00 0.000000000000000000e+00 0.000000000000000000e+00
-1.676332206292254989e+00 0.000000000000000000e+00 0.000000000000000000e+00
-1.670128718569571680e+00 0.000000000000000000e+00 0.000000000000000000e+00
-1.663925230846888370e+00 0.000000000000000000e+00 0.000000000000000000e+00
-1.657721743124205060e+00 0.000000000000000000e+00 0.000000000000000000e+00
-1.651518255401521751e+00 0.000000000000000000e+00 0.000000000000000000e+00
-1.645314767678838441e+00 0.000000000000000000e+00 0.000000000000000000e+00
-1.639111279956155132e+00 0.000000000000000000e+00 0.000000000000000000e+00
-1.632907792233471822e+00 0.000000000000000000e+00 0.000000000000000000e+00
-1.626704304510788957e+00 0.000000000000000000e+00 0.000000000000000000e+00
-1.620500816788105647e+00 0.000000000000000000e+00 0.000000000000000000e+00
-1.614297329065422337e+00 0.000000000000000000e+00 0.000000000000000000e+00
-1.608093841342739028e+00 0.000000000000000000e+00 0.000000000000000000e+00
-1.601890353620055718e+00 0.000000000000000000e+00 0.000000000000000000e+00
-1.595686865897372408e+00 0.000000000000000000e+00 0.000000000000000000e+00
-1.589483378174689099e+00 0.000000000000000000e+00 0.000000000000000000e+00
-1.583279890452005789e+00 0.000000000000000000e+00 0.000000000000000000e+00
-1.577076402729322480e+00 0.000000000000000000e+00 0.000000000000000000e+00
-1.570872915006639170e+00 0.000000000000000000e+00 0.000000000000000000e+00
-1.564669427283956304e+00 0.000000000000000000e+00 0.000000000000000000e+00
-1.558465939561272995e+00 0.000000000000000000e+00 0.000000000000000000e+00
-1.552262451838589685e+00 0.000000000000000000e+00 0.000000000000000000e+00
-1.546058964115906376e+00 0.000000000000000000e+00 0.000000000000000000e+00
-1.539855476393223066e+00 0.000000000000000000e+00 0.000000000000000000e+00
-1.533651988670539756e+00 0.000000000000000000e+00 0.000000000000000000e+00
-1.527448500947856447e+00 0.000000000000000000e+00 0.000000000000000000e+00
-1.521245013225173137e+00 0.000000000000000000e+00 0.000000000000000000e+00
-1.515041525502490050e+00 0.000000000000000000e+00 0.000000000000000000e+00
-1.508838037779806740e+00 0.000000000000000000e+00 0.000000000000000000e+00
-1.502634550057123652e+00 0.000000000000000000e+00 0.000000000000000000e+00
-1.496431062334440343e+00 0.000000000000000000e+00 0.000000000000000000e+00
-1.490227574611757033e+00 0.000000000000000000e+00 0.000000000000000000e+00
-1.484024086889073724e+00 0.000000000000000000e+00 0.000000000000000000e+00
-1.477820599166390414e+00 0.000000000000000000e+00 0.000000000000000000e+00
-1.471617111443707104e+00 0.000000000000000000e+00 0.000000000000000000e+00
-1.465413623721023795e+00 0.000000000000000000e+00 0.000000000000000000e+00
-1.459210135998340485e+00 0.000000000000000000e+00 0.000000000000000000e+00
-1.453006648275657398e+00 0.000000000000000000e+00 0.000000000000000000e+00
-1.446803160552974088e+00 0.000000000000000000e+00 0.000000000000000000e+00
-1.440599672830291000e+00 0.000000000000000000e+00 0.000000000000000000e+00
-1.434396185107607691e+00 0.000000000000000000e+00 0.000000000000000000e+00
-1.428192697384924381e+00 0.000000000000000000e+00 0.000000000000000000e+00
-1.421989209662241072e+00 0.000000000000000000e+00 0.000000000000000000e+00
-1.415785721939557762e+00 0.000000000000000000e+00 0.000000000000000000e+00
-1.409582234216874452e+00 0.000000000000000000e+00 0.000000000000000000e+00
-1.403378746494191143e+00 0.000000000000000000e+00 0.000000000000000000e+00
-1.397175258771507833e+00 0.000000000000000000e+00 0.000000000000000000e+00
-1.390971771048824746e+00 0.000000000000000000e+00 0.000000000000000000e+00
-1.384768283326141436e+00 0.000000000000000000e+00 0.000000000000000000e+00
-1.378564795603458348e+00 0.000000000000000000e+00 0.000000000000000000e+00
-1.372361307880775039e+00 0.000000000000000000e+00 0.000000000000000000e+00
-1.366157820158091729e+00 0.000000000000000000e+00 0.000000000000000000e+00
-1.359954332435408419e+00 0.000000000000000000e+00 0.000000000000000000e+00
-1.353750844712725110e+00 0.000000000000000000e+00 0.000000000000000000e+00
-1.347547356990041800e+00 0.000000000000000000e+00 0.000000000000000000e+00
-1.341343869267358491e+00 0.000000000000000000e+00 0.000000000000000000e+00
-1.335140381544675181e+00 0.000000000000000000e+00 0.000000000000000000e+00
-1.328936893821992093e+00 0.000000000000000000e+00 0.000000000000000000e+00
-1.322733406099308784e+00 0.000000000000000000e+00 0.000000000000000000e+00
-1.316529918376625696e+00 0.000000000000000000e+00 0.000000000000000000e+00
-1.310326430653942387e+00 0.000000000000000000e+00 0.000000000000000000e+00
-1.304122942931259077e+00 0.000000000000000000e+00 0.000000000000000000e+00
-1.297919455208575767e+00 0.000000000000000000e+00 0.000000000000000000e+00
-1.291715967485892458e+00 0.000000000000000000e+00 0.000000000000000000e+00
-1.285512479763209148e+00 0.000000000000000000e+00 0.000000000000000000e+00
-1.279308992040525839e+00 0.000000000000000000e+00 0.000000000000000000e+00
-1.273105504317842529e+00 0.000000000000000000e+00 0.000000000000000000e+00
-1.266902016595159441e+00 5.650545633357211273e-01 5.636186546321620483e+01
-1.260698528872476132e+00 1.271578159662915652e+00 6.273580748857063583e+01
-1.254495041149793044e+00 1.919016028204655555e+00 6.825274541615408452e+01
-1.248291553427109735e+00 2.511551266981800978e+00 7.273183680934276651e+01
-1.242088065704426425e+00 3.032661834212426299e+00 7.631936685179918811e+01
-1.235884577981743115e+00 3.496401404285851555e+00 6.972029877902373585e+01
-1.229681090259059806e+00 3.891808115279715707e+00 5.992088157734612963e+01
-1.223477602536376496e+00 4.234050682285410261e+00 5.015982469665194543e+01
-1.217274114813693187e+00 4.511910566949573820e+00 4.020698031813768125e+01
-1.211070627091009877e+00 4.734462552680994918e+00 3.047392808366960182e+01
-1.204867139368326789e+00 4.890144738310517880e+00 2.067005496674823917e+01
-1.198663651645643480e+00 4.988762691637187885e+00 1.106750425579425645e+01
-1.192460163922960392e+00 5.030674594980929726e+00 1.456862438690189165e+00
-1.186256676200277083e+00 5.005786354679131023e+00 -8.034161976726561960e+00
-1.180053188477593773e+00 4.923108221502211279e+00 -1.766599986515889853e+01
-1.173849700754910463e+00 4.778665726419951909e+00 -2.695943564488582211e+01
-1.167646213032227154e+00 4.578379382995361624e+00 -3.621247530742553522e+01
-1.161442725309543844e+00 4.324426964805940798e+00 -4.550261820138448599e+01
-1.155239237586860535e+00 4.013512315102857997e+00 -5.411722257292005622e+01
-1.149035749864177225e+00 3.638554419956616215e+00 -6.214450918652661926e+01
-1.142832262141494137e+00 3.217719457975341868e+00 -6.915451168822849581e+01
-1.136628774418810828e+00 2.742326231861316188e+00 -7.380331174436489050e+01
-1.130425286696127740e+00 2.207925261358582247e+00 -6.970960785484426481e+01
-1.124221798973444431e+00 1.648631096510882799e+00 -6.469767483261620100e+01
-1.118018311250761121e+00 1.067981223794230772e+00 -5.865336698664029313e+01
-1.111814823528077811e+00 4.886740841591645790e-01 -5.186947251507285728e+01
-1.105611335805394502e+00 0.000000000000000000e+00 0.000000000000000000e+00
-1.099407848082711192e+00 0.000000000000000000e+00 0.000000000000000000e+00
-1.093204360360027882e+00 0.000000000000000000e+00 0.000000000000000000e+00
-1.087000872637344573e+00 0.000000000000000000e+00 0.000000000000000000e+00
-1.080797384914661485e+00 0.000000000000000000e+00 0.000000000000000000e+00
-1.074593897191978176e+00 0.000000000000000000e+00 0.000000000000000000e+00
-1.068390409469295088e+00 0.000000000000000000e+00 0.000000000000000000e+00
-1.062186921746611779e+00 0.000000000000000000e+00 0.000000000000000000e+00
-1.055983434023928469e+00 0.000000000000000000e+00 0.000000000000000000e+00
-1.049779946301245159e+00 0.000000000000000000e+00 0.000000000000000000e+00
-1.043576458578561850e+00 0.000000000000000000e+00 0.000000000000000000e+00
-1.037372970855878540e+00 0.000000000000000000e+00 0.000000000000000000e+00
-1.031169483133195230e+00 0.000000000000000000e+00 0.000000000000000000e+00
-1.024965995410511921e+00 0.000000000000000000e+00 0.000000000000000000e+00
-1.018762507687828833e+00 0.000000000000000000e+00 0.000000000000000000e+00
-1.012559019965145524e+00 0.000000000000000000e+00 0.000000000000000000e+00
-1.006355532242462436e+00 0.000000000000000000e+00 0.000000000000000000e+00
-1.000152044519779126e+00 0.000000000000000000e+00 0.000000000000000000e+00
-9.939485567970958169e-01 0.000000000000000000e+00 0.000000000000000000e+00
-9.877450690744125072e-01 0.000000000000000000e+00 0.000000000000000000e+00
-9.815415813517291976e-01 0.000000000000000000e+00 0.000000000000000000e+00
-9.753380936290458880e-01 0.000000000000000000e+00 0.000000000000000000e+00
-9.691346059063625784e-01 0.000000000000000000e+00 0.000000000000000000e+00
-9.629311181836792688e-01 0.000000000000000000e+00 0.000000000000000000e+00
-9.567276304609961812e-01 0.000000000000000000e+00 0.000000000000000000e+00
-9.505241427383128716e-01 0.000000000000000000e+00 0.000000000000000000e+00
-9.443206550156297840e-01 0.000000000000000000e+00 0.000000000000000000e+00
-9.381171672929464744e-01 0.000000000000000000e+00 0.000000000000000000e+00
-9.319136795702631648e-01 0.000000000000000000e+00 0.000000000000000000e+00
-9.257101918475798552e-01 0.000000000000000000e+00 0.000000000000000000e+00
-9.195067041248965456e-01 0.000000000000000000e+00 0.000000000000000000e+00
-9.133032164022132360e-01 0.000000000000000000e+00 0.000000000000000000e+00
-9.070997286795299264e-01 0.000000000000000000e+00 0.000000000000000000e+00
-9.008962409568466168e-01 0.000000000000000000e+00 0.000000000000000000e+00
-8.946927532341635292e-01 0.000000000000000000e+00 0.000000000000000000e+00
-8.884892655114802196e-01 0.000000000000000000e+00 0.000000000000000000e+00
-8.822857777887971320e-01 0.000000000000000000e+00 0.000000000000000000e+00
-8.760822900661138224e-01 0.000000000000000000e+00 0.000000000000000000e+00
-8.698788023434305128e-01 0.000000000000000000e+00 0.000000000000000000e+00
-8.636753146207472032e-01 0.000000000000000000e+00 0.000000000000000000e+00
-8.574718268980638936e-01 0.000000000000000000e+00 0.000000000000000000e+00
-8.512683391753805839e-01 0.000000000000000000e+00 0.000000000000000000e+00
-8.450648514526972743e-01 0.000000000000000000e+00 0.000000000000000000e+00
-8.388613637300139647e-01 0.000000000000000000e+00 0.000000000000000000e+00
-8.326578760073308771e-01 0.000000000000000000e+00 0.000000000000000000e+00
-8.264543882846475675e-01 0.000000000000000000e+00 0.000000000000000000e+00
-8.202509005619644800e-01 0.000000000000000000e+00 0.000000000000000000e+00
-8.140474128392811703e-01 0.000000000000000000e+00 0.000000000000000000e+00
-8.078439251165978607e-01 0.000000000000000000e+00 0.000000000000000000e+00
-8.016404373939145511e-01 0.000000000000000000e+00 0.000000000000000000e+00
-7.954369496712312415e-01 0.000000000000000000e+00 0.000000000000000000e+00
-7.892334619485479319e-01 0.000000000000000000e+00 0.000000000000000000e+00
-7.830299742258646223e-01 0.000000000000000000e+00 0.000000000000000000e+00
-7.768264865031813127e-01 0.000000000000000000e+00 0.000000000000000000e+00
-7.706229987804982251e-01 0.000000000000000000e+00 0.000000000000000000e+00
-7.644195110578149155e-01 0.000000000000000000e+00 0.000000000000000000e+00
-7.582160233351318279e-01 0.000000000000000000e+00 0.000000000000000000e+00
-7.520125356124485183e-01 0.000000000000000000e+00 0.000000000000000000e+00
-7.458090478897652087e-01 0.000000000000000000e+00 0.000000000000000000e+00
-7.396055601670818991e-01 0.000000000000000000e+00 0.000000000000000000e+00
-7.334020724443985895e-01 0.000000000000000000e+00 0.000000000000000000e+00
-7.271985847217152799e-01 0.000000000000000000e+00 0.000000000000000000e+00
-7.209950969990319702e-01 0.000000000000000000e+00 0.000000000000000000e+00
-7.147916092763486606e-01 0.000000000000000000e+00 0.000000000000000000e+00
-7.085881215536655731e-01 0.000000000000000000e+00 0.000000000000000000e+00
-7.023846338309822634e-01 0.000000000000000000e+00 0.000000000000000000e+00
-6.961811461082991759e-01 0.000000000000000000e+00 0.000000000000000000e+00
-6.899776583856158663e-01 0.000000000000000000e+00 0.000000000000000000e+00
-6.837741706629325567e-01 0.000000000000000000e+00 0.000000000000000000e+00
-6.775706829402492470e-01 0.000000000000000000e+00 0.000000000000000000e+00
-6.713671952175659374e-01 0.000000000000000000e+00 0.000000000000000000e+00
-6.651637074948826278e-01 0.000000000000000000e+00 0.000000000000000000e+00
-6.589602197721993182e-01 0.000000000000000000e+00 0.000000000000000000e+00
-6.527567320495160086e-01 0.000000000000000000e+00 0.000000000000000000e+00
-6.465532443268329210e-01 0.000000000000000000e+00 0.000000000000000000e+00
-6.403497566041496114e-01 0.000000000000000000e+00 0.000000000000000000e+00
-6.341462688814665238e-01 0.000000000000000000e+00 0.000000000000000000e+00
-6.279427811587832142e-01 0.000000000000000000e+00 0.000000000000000000e+00
-6.217392934360999046e-01 0.000000000000000000e+00 0.000000000000000000e+00
-6.155358057134165950e-01 0.000000000000000000e+00 0.000000000000000000e+00
-6.093323179907332854e-01 0.000000000000000000e+00 0.000000000000000000e+00
-6.031288302680499758e-01 0.000000000000000000e+00 0.000000000000000000e+00
-5.969253425453666662e-01 0.000000000000000000e+00 0.000000000000000000e+00
-5.907218548226833565e-01 0.000000000000000000e+00 0.000000000000000000e+00
-5.845183671000002690e-01 0.000000000000000000e+00 0.000000000000000000e+00
-5.783148793773169594e-01 0.000000000000000000e+00 0.000000000000000000e+00
-5.721113916546338718e-01 0.000000000000000000e+00 0.000000000000000000e+00
-5.659079039319505622e-01 0.000000000000000000e+00 0.000000000000000000e+00
-5.597044162092672526e-01 0.000000000000000000e+00 0.000000000000000000e+00
-5.535009284865839430e-01 0.000000000000000000e+00 0.000000000000000000e+00
-5.472974407639006333e-01 0.000000000000000000e+00 0.000000000000000000e+00
-5.410939530412173237e-01 1.927862346458653064e-02 2.671679853573985852e+01
-5.348904653185340141e-01 3.820730806393548562e-01 3.130474378577301664e+01
-5.286869775958507045e-01 7.179313180283273255e-01 3.584885825609511301e+01
-5.224834898731677280e-01 1.040479385859548245e+00 3.988377043901486019e+01
-5.162800021504844183e-01 1.353669942961836625e+00 4.361656159832068624e+01
-5.100765144278012198e-01 1.657376415740905884e+00 4.676450505169958660e+01
-5.038730267051179101e-01 1.941989036050117079e+00 4.401812231868749592e+01
-4.976695389824346005e-01 2.223882619321251752e+00 4.142874991593744483e+01
-4.914660512597512909e-01 2.474184802527446436e+00 3.848617222637000879e+01
-4.852625635370679813e-01 2.705748043808426928e+00 3.525919666779995509e+01
-4.790590758143846717e-01 2.920308952920386503e+00 3.168104475050434488e+01
-4.728555880917013621e-01 3.112731894434816127e+00 2.804303344420386068e+01
-4.666521003690180525e-01 3.287958732724678867e+00 2.381545441643794092e+01
-4.604486126463351869e-01 3.427964354853131113e+00 1.970187886643844877e+01
-4.542451249236518773e-01 3.540969879365572837e+00 1.547766129486834430e+01
-4.480416372009685677e-01 3.622706137256248127e+00 1.101776806433775491e+01
-4.418381494782852581e-01 3.681635172829253122e+00 6.482120460214112256e+00
-4.356346617556019485e-01 3.701271410146219409e+00 1.642250709039104528e+00
-4.294311740329186389e-01 3.696388439144875804e+00 -3.139418553012975455e+00
-4.232276863102353293e-01 3.665902861994091211e+00 -7.965546180648332530e+00
-4.170241985875520196e-01 3.603794842105298102e+00 -1.261974275320132932e+01
-4.108207108648687100e-01 3.514849441353732118e+00 -1.756968481174352448e+01
-4.046172231421854004e-01 3.389835553835595761e+00 -2.220456785456070747e+01
-3.984137354195025349e-01 3.233210910353331968e+00 -2.695557135335403487e+01
-3.922102476968192253e-01 3.046828200004384257e+00 -3.183432635508963671e+01
-3.860067599741359157e-01 2.839841944927187001e+00 -3.671554543974731644e+01
-3.798032722514526061e-01 2.591701932618605042e+00 -4.183473730742213093e+01
-3.735997845287692964e-01 2.323813769413661134e+00 -4.693916578068908052e+01
-3.673962968060859868e-01 2.024202879660442989e+00 -5.164924977791305594e+01
-3.611928090834026772e-01 1.691064334957168569e+00 -4.911471155461939020e+01
-3.549893213607193676e-01 1.326150488434361563e+00 -4.577810053304287408e+01
-3.487858336380360580e-01 9.196366486710232380e-01 -4.177809241823335640e+01
-3.425823459153527484e-01 4.779701675005867401e-01 -3.745974481797234290e+01
-3.363788581926698829e-01 2.915604152250494963e-02 -3.263007795209927764e+01
-3.301753704699865732e-01 0.000000000000000000e+00 0.000000000000000000e+00
-3.239718827473032636e-01 0.000000000000000000e+00 0.000000000000000000e+00
-3.177683950246199540e-01 0.000000000000000000e+00 0.000000000000000000e+00
-3.115649073019366444e-01 0.000000000000000000e+00 0.000000000000000000e+00
-3.053614195792533348e-01 0.000000000000000000e+00 0.000000000000000000e+00
-2.991579318565700252e-01 0.000000000000000000e+00 0.000000000000000000e+00
-2.929544441338867156e-01 0.000000000000000000e+00 0.000000000000000000e+00
-2.867509564112034059e-01 0.000000000000000000e+00 0.000000000000000000e+00
-2.805474686885200963e-01 0.000000000000000000e+00 0.000000000000000000e+00
-2.743439809658372308e-01 0.000000000000000000e+00 0.000000000000000000e+00
-2.681404932431539212e-01 0.000000000000000000e+00 0.000000000000000000e+00
-2.619370055204706116e-01 0.000000000000000000e+00 0.000000000000000000e+00
-2.557335177977873020e-01 0.000000000000000000e+00 0.000000000000000000e+00
-2.495300300751039924e-01 0.000000000000000000e+00 0.000000000000000000e+00
-2.433265423524206827e-01 0.000000000000000000e+00 0.000000000000000000e+00
-2.371230546297373731e-01 0.000000000000000000e+00 0.000000000000000000e+00
-2.309195669070540635e-01 0.000000000000000000e+00 0.000000000000000000e+00
-2.247160791843707539e-01 0.000000000000000000e+00 0.000000000000000000e+00
-2.185125914616874443e-01 0.000000000000000000e+00 0.000000000000000000e+00
-2.123091037390045788e-01 0.000000000000000000e+00 0.000000000000000000e+00
-2.061056160163212692e-01 0.000000000000000000e+00 0.000000000000000000e+00
-1.999021282936379595e-01 0.000000000000000000e+00 0.000000000000000000e+00
-1.936986405709546499e-01 0.000000000000000000e+00 0.000000000000000000e+00
-1.874951528482713403e-01 0.000000000000000000e+00 0.000000000000000000e+00
-1.812916651255880307e-01 0.000000000000000000e+00 0.000000000000000000e+00
-1.750881774029047211e-01 0.000000000000000000e+00 0.000000000000000000e+00
-1.688846896802214115e-01 0.000000000000000000e+00 0.000000000000000000e+00
-1.626812019575381019e-01 0.000000000000000000e+00 0.000000000000000000e+00
-1.564777142348547923e-01 0.000000000000000000e+00 0.000000000000000000e+00
-1.502742265121719267e-01 0.000000000000000000e+00 0.000000000000000000e+00
-1.440707387894886171e-01 0.000000000000000000e+00 0.000000000000000000e+00
-1.378672510668053075e-01 0.000000000000000000e+00 0.000000000000000000e+00
-1.316637633441219979e-01 0.000000000000000000e+00 0.000000000000000000e+00
-1.254602756214386883e-01 0.000000000000000000e+00 0.000000000000000000e+00
-1.192567878987553787e-01 0.000000000000000000e+00 0.000000000000000000e+00
-1.130533001760720690e-01 0.000000000000000000e+00 0.000000000000000000e+00
-1.068498124533887594e-01 0.000000000000000000e+00 0.000000000000000000e+00
-1.006463247307054498e-01 0.000000000000000000e+00 0.000000000000000000e+00
-9.444283700802214021e-02 0.000000000000000000e+00 0.000000000000000000e+00
-8.823934928533927469e-02 0.000000000000000000e+00 0.000000000000000000e+00
-8.203586156265596507e-02 0.000000000000000000e+00 0.000000000000000000e+00
-7.583237383997265546e-02 0.000000000000000000e+00 0.000000000000000000e+00
-6.962888611728934585e-02 0.000000000000000000e+00 0.000000000000000000e+00
-6.342539839460603623e-02 0.000000000000000000e+00 0.000000000000000000e+00
-5.722191067192272662e-02 0.000000000000000000e+00 0.000000000000000000e+00
-5.101842294923941701e-02 0.000000000000000000e+00 0.000000000000000000e+00
-4.481493522655610739e-02 0.000000000000000000e+00 0.000000000000000000e+00
-3.861144750387279778e-02 0.000000000000000000e+00 0.000000000000000000e+00
-3.240795978118948817e-02 0.000000000000000000e+00 0.000000000000000000e+00
-2.620447205850662264e-02 0.000000000000000000e+00 0.000000000000000000e+00
-2.000098433582331303e-02 0.000000000000000000e+00 0.000000000000000000e+00
-1.379749661314000342e-02 0.000000000000000000e+00 0.000000000000000000e+00
-7.594008890456693806e-03 0.000000000000000000e+00 0.000000000000000000e+00
-1.390521167773384192e-03 0.000000000000000000e+00 0.000000000000000000e+00
4.812966554909925421e-03 0.000000000000000000e+00 0.000000000000000000e+00
1.101645427759323503e-02 0.000000000000000000e+00 0.000000000000000000e+00
1.721994200027654465e-02 0.000000000000000000e+00 0.000000000000000000e+00
2.342342972295985426e-02 0.000000000000000000e+00 0.000000000000000000e+00
2.962691744564316387e-02 0.000000000000000000e+00 0.000000000000000000e+00
3.583040516832602940e-02 0.000000000000000000e+00 0.000000000000000000e+00
4.203389289100933901e-02 0.000000000000000000e+00 0.000000000000000000e+00
4.823738061369264862e-02 0.000000000000000000e+00 0.000000000000000000e+00
5.444086833637595824e-02 0.000000000000000000e+00 0.000000000000000000e+00
6.064435605905926785e-02 0.000000000000000000e+00 0.000000000000000000e+00
6.684784378174257746e-02 0.000000000000000000e+00 0.000000000000000000e+00
7.305133150442588708e-02 0.000000000000000000e+00 0.000000000000000000e+00
7.925481922710919669e-02 0.000000000000000000e+00 0.000000000000000000e+00
8.545830694979250630e-02 0.000000000000000000e+00 0.000000000000000000e+00
9.166179467247581591e-02 0.000000000000000000e+00 0.000000000000000000e+00
9.786528239515868144e-02 0.000000000000000000e+00 0.000000000000000000e+00
1.040687701178419911e-01 0.000000000000000000e+00 0.000000000000000000e+00
1.102722578405253007e-01 0.000000000000000000e+00 0.000000000000000000e+00
1.164757455632086103e-01 0.000000000000000000e+00 0.000000000000000000e+00
1.226792332858919199e-01 0.000000000000000000e+00 0.000000000000000000e+00
1.288827210085752295e-01 0.000000000000000000e+00 0.000000000000000000e+00
1.350862087312585391e-01 0.000000000000000000e+00 0.000000000000000000e+00
1.412896964539418487e-01 0.000000000000000000e+00 0.000000000000000000e+00
1.474931841766251583e-01 0.000000000000000000e+00 0.000000000000000000e+00
1.536966718993084680e-01 0.000000000000000000e+00 0.000000000000000000e+00
1.599001596219913335e-01 0.000000000000000000e+00 0.000000000000000000e+00
1.661036473446746431e-01 0.000000000000000000e+00 0.000000000000000000e+00
1.723071350673579527e-01 0.000000000000000000e+00 0.000000000000000000e+00
1.785106227900412623e-01 0.000000000000000000e+00 0.000000000000000000e+00
1.847141105127245719e-01 0.000000000000000000e+00 0.000000000000000000e+00
1.909175982354078815e-01 0.000000000000000000e+00 0.000000000000000000e+00
1.971210859580911912e-01 0.000000000000000000e+00 0.000000000000000000e+00
2.033245736807745008e-01 0.000000000000000000e+00 0.000000000000000000e+00
2.095280614034578104e-01 0.000000000000000000e+00 0.000000000000000000e+00
2.157315491261411200e-01 0.000000000000000000e+00 0.000000000000000000e+00
2.219350368488239855e-01 0.000000000000000000e+00 0.000000000000000000e+00
2.281385245715072951e-01 0.000000000000000000e+00 0.000000000000000000e+00
2.343420122941906047e-01 0.000000000000000000e+00 0.000000000000000000e+00
2.405455000168739144e-01 0.000000000000000000e+00 0.000000000000000000e+00
2.467489877395572240e-01 0.000000000000000000e+00 0.000000000000000000e+00
2.529524754622405336e-01 0.000000000000000000e+00 0.000000000000000000e+00
2.591559631849238432e-01 0.000000000000000000e+00 0.000000000000000000e+00
2.653594509076071528e-01 0.000000000000000000e+00 0.000000000000000000e+00
2.715629386302904624e-01 0.000000000000000000e+00 0.000000000000000000e+00
2.777664263529737720e-01 0.000000000000000000e+00 0.000000000000000000e+00
2.839699140756566376e-01 0.000000000000000000e+00 0.000000000000000000e+00
2.901734017983399472e-01 0.000000000000000000e+00 0.000000000000000000e+00
2.963768895210232568e-01 0.000000000000000000e+00 0.000000000000000000e+00
3.025803772437065664e-01 0.000000000000000000e+00 0.000000000000000000e+00
3.087838649663898760e-01 0.000000000000000000e+00 0.000000000000000000e+00
3.149873526890731856e-01 0.000000000000000000e+00 0.000000000000000000e+00
3.211908404117564952e-01 0.000000000000000000e+00 0.000000000000000000e+00
3.273943281344398049e-01 0.000000000000000000e+00 0.000000000000000000e+00
3.335978158571231145e-01 0.000000000000000000e+00 0.000000000000000000e+00
3.398013035798064241e-01 0.000000000000000000e+00 0.000000000000000000e+00
3.460047913024892896e-01 0.000000000000000000e+00 0.000000000000000000e+00
3.522082790251725992e-01 0.000000000000000000e+00 0.000000000000000000e+00
3.584117667478559088e-01 0.000000000000000000e+00 0.000000000000000000e+00
3.646152544705392184e-01 0.000000000000000000e+00 0.000000000000000000e+00
3.708187421932225281e-01 0.000000000000000000e+00 0.000000000000000000e+00
3.770222299159058377e-01 0.000000000000000000e+00 0.000000000000000000e+00
3.832257176385891473e-01 0.000000000000000000e+00 0.000000000000000000e+00
3.894292053612724569e-01 0.000000000000000000e+00 0.000000000000000000e+00
3.956326930839557665e-01 0.000000000000000000e+00 0.000000000000000000e+00
4.018361808066390761e-01 0.000000000000000000e+00 0.000000000000000000e+00
4.080396685293219416e-01 0.000000000000000000e+00 0.000000000000000000e+00
4.142431562520052513e-01 0.000000000000000000e+00 0.000000000000000000e+00
4.204466439746885609e-01 0.000000000000000000e+00 0.000000000000000000e+00
4.266501316973718705e-01 0.000000000000000000e+00 0.000000000000000000e+00
4.328536194200551801e-01 0.000000000000000000e+00 0.000000000000000000e+00
4.390571071427384897e-01 0.000000000000000000e+00 0.000000000000000000e+00
4.452605948654217993e-01 0.000000000000000000e+00 0.000000000000000000e+00
4.514640825881051089e-01 0.000000000000000000e+00 0.000000000000000000e+00
4.576675703107884186e-01 0.000000000000000000e+00 0.000000000000000000e+00
4.638710580334717282e-01 0.000000000000000000e+00 0.000000000000000000e+00
4.700745457561545937e-01 0.000000000000000000e+00 0.000000000000000000e+00
4.762780334788379033e-01 0.000000000000000000e+00 0.000000000000000000e+00
4.824815212015212129e-01 0.000000000000000000e+00 0.000000000000000000e+00
4.886850089242045225e-01 0.000000000000000000e+00 0.000000000000000000e+00
4.948884966468878321e-01 0.000000000000000000e+00 0.000000000000000000e+00
5.010919843695711418e-01 0.000000000000000000e+00 0.000000000000000000e+00
5.072954720922544514e-01 0.000000000000000000e+00 0.000000000000000000e+00
5.134989598149377610e-01 0.000000000000000000e+00 0.000000000000000000e+00
5.197024475376210706e-01 0.000000000000000000e+00 0.000000000000000000e+00
5.259059352603043802e-01 0.000000000000000000e+00 0.000000000000000000e+00
5.321094229829872457e-01 0.000000000000000000e+00 0.000000000000000000e+00
5.383129107056705553e-01 0.000000000000000000e+00 0.000000000000000000e+00
5.445163984283538650e-01 0.000000000000000000e+00 0.000000000000000000e+00
5.507198861510371746e-01 0.000000000000000000e+00 0.000000000000000000e+00
5.569233738737204842e-01 0.000000000000000000e+00 0.000000000000000000e+00
5.631268615964037938e-01 0.000000000000000000e+00 0.000000000000000000e+00
5.693303493190871034e-01 0.000000000000000000e+00 0.000000000000000000e+00
5.755338370417704130e-01 0.000000000000000000e+00 0.000000000000000000e+00
5.817373247644537226e-01 0.000000000000000000e+00 0.000000000000000000e+00
5.879408124871370322e-01 0.000000000000000000e+00 0.000000000000000000e+00
5.941443002098198978e-01 0.000000000000000000e+00 0.000000000000000000e+00
6.003477879325032074e-01 0.000000000000000000e+00 0.000000000000000000e+00
6.065512756551865170e-01 0.000000000000000000e+00 0.000000000000000000e+00
6.127547633778698266e-01 0.000000000000000000e+00 0.000000000000000000e+00
6.189582511005531362e-01 0.000000000000000000e+00 0.000000000000000000e+00
6.251617388232364458e-01 0.000000000000000000e+00 0.000000000000000000e+00
6.313652265459197555e-01 0.000000000000000000e+00 0.000000000000000000e+00
6.375687142686030651e-01 0.000000000000000000e+00 0.000000000000000000e+00
6.437722019912863747e-01 0.000000000000000000e+00 0.000000000000000000e+00
6.499756897139696843e-01 0.000000000000000000e+00 0.000000000000000000e+00
6.561791774366525498e-01 0.000000000000000000e+00 0.000000000000000000e+00
6.623826651593358594e-01 0.000000000000000000e+00 0.000000000000000000e+00
6.685861528820191690e-01 0.000000000000000000e+00 0.000000000000000000e+00
6.747896406047024787e-01 0.000000000000000000e+00 0.000000000000000000e+00
6.809931283273857883e-01 0.000000000000000000e+00 0.000000000000000000e+00
6.871966160500690979e-01 0.000000000000000000e+00 0.000000000000000000e+00
6.934001037727524075e-01 0.000000000000000000e+00 0.000000000000000000e+00
6.996035914954357171e-01 0.000000000000000000e+00 0.000000000000000000e+00
7.058070792181190267e-01 0.000000000000000000e+00 0.000000000000000000e+00
7.120105669408023363e-01 0.000000000000000000e+00 0.000000000000000000e+00
7.182140546634852019e-01 0.000000000000000000e+00 0.000000000000000000e+00
7.244175423861685115e-01 0.000000000000000000e+00 0.000000000000000000e+00
7.306210301088518211e-01 0.000000000000000000e+00 0.000000000000000000e+00
7.368245178315351307e-01 0.000000000000000000e+00 0.000000000000000000e+00
7.430280055542184403e-01 0.000000000000000000e+00 0.000000000000000000e+00
7.492314932769017499e-01 0.000000000000000000e+00 0.000000000000000000e+00
7.554349809995850595e-01 0.000000000000000000e+00 0.000000000000000000e+00
7.616384687222683691e-01 0.000000000000000000e+00 0.000000000000000000e+00
7.678419564449516788e-01 0.000000000000000000e+00 0.000000000000000000e+00
7.740454441676349884e-01 0.000000000000000000e+00 0.000000000000000000e+00
7.802489318903178539e-01 0.000000000000000000e+00 0.000000000000000000e+00
7.864524196130011635e-01 0.000000000000000000e+00 0.000000000000000000e+00
7.926559073356844731e-01 0.000000000000000000e+00 0.000000000000000000e+00
7.988593950583677827e-01 0.000000000000000000e+00 0.000000000000000000e+00
8.050628827810510924e-01 0.000000000000000000e+00 0.000000000000000000e+00
8.112663705037344020e-01 0.000000000000000000e+00 0.000000000000000000e+00
8.174698582264177116e-01 0.000000000000000000e+00 0.000000000000000000e+00
8.236733459491010212e-01 0.000000000000000000e+00 0.000000000000000000e+00
8.298768336717843308e-01 0.000000000000000000e+00 0.000000000000000000e+00
8.360803213944676404e-01 0.000000000000000000e+00 0.000000000000000000e+00
8.422838091171505059e-01 0.000000000000000000e+00 0.000000000000000000e+00
8.484872968398338156e-01 0.000000000000000000e+00 0.000000000000000000e+00
8.546907845625171252e-01 0.000000000000000000e+00 0.000000000000000000e+00
8.608942722852004348e-01 0.000000000000000000e+00 0.000000000000000000e+00
8.670977600078837444e-01 0.000000000000000000e+00 0.000000000000000000e+00
8.733012477305670540e-01 0.000000000000000000e+00 0.000000000000000000e+00
8.795047354532503636e-01 0.000000000000000000e+00 0.000000000000000000e+00
8.857082231759336732e-01 0.000000000000000000e+00 0.000000000000000000e+00
8.919117108986169828e-01 0.000000000000000000e+00 0.000000000000000000e+00
8.981151986213002925e-01 0.000000000000000000e+00 0.000000000000000000e+00
9.043186863439831580e-01 0.000000000000000000e+00 0.000000000000000000e+00
9.105221740666664676e-01 0.000000000000000000e+00 0.000000000000000000e+00
9.167256617893497772e-01 0.000000000000000000e+00 0.000000000000000000e+00
9.229291495120330868e-01 0.000000000000000000e+00 0.000000000000000000e+00
9.291326372347163964e-01 0.000000000000000000e+00 0.000000000000000000e+00
9.353361249573997060e-01 0.000000000000000000e+00 0.000000000000000000e+00
9.415396126800830157e-01 0.000000000000000000e+00 0.000000000000000000e+00
9.477431004027663253e-01 0.000000000000000000e+00 0.000000000000000000e+00
9.539465881254496349e-01 0.000000000000000000e+00 0.000000000000000000e+00
9.601500758481329445e-01 0.000000000000000000e+00 0.000000000000000000e+00
9.663535635708158100e-01 0.000000000000000000e+00 0.000000000000000000e+00
9.725570512934991196e-01 0.000000000000000000e+00 0.000000000000000000e+00
9.787605390161824293e-01 0.000000000000000000e+00 0.000000000000000000e+00
9.849640267388657389e-01 0.000000000000000000e+00 0.000000000000000000e+00
9.911675144615490485e-01 0.000000000000000000e+00 0.000000000000000000e+00
9.973710021842323581e-01 0.000000000000000000e+00 0.000000000000000000e+00
1.003574489906915668e+00 0.000000000000000000e+00 0.000000000000000000e+00
1.009777977629598977e+00 0.000000000000000000e+00 0.000000000000000000e+00
1.015981465352282287e+00 0.000000000000000000e+00 0.000000000000000000e+00
1.022184953074965597e+00 0.000000000000000000e+00 0.000000000000000000e+00
1.028388440797648462e+00 0.000000000000000000e+00 0.000000000000000000e+00
1.034591928520331772e+00 0.000000000000000000e+00 0.000000000000000000e+00
1.040795416243015081e+00 0.000000000000000000e+00 0.000000000000000000e+00
1.046998903965698391e+00 0.000000000000000000e+00 0.000000000000000000e+00
1.053202391688381701e+00 0.000000000000000000e+00 0.000000000000000000e+00
1.059405879411065010e+00 0.000000000000000000e+00 0.000000000000000000e+00
1.065609367133748320e+00 0.000000000000000000e+00 0.000000000000000000e+00
1.071812854856431629e+00 0.000000000000000000e+00 0.000000000000000000e+00
1.078016342579114939e+00 0.000000000000000000e+00 0.000000000000000000e+00
1.084219830301798249e+00 0.000000000000000000e+00 0.000000000000000000e+00
1.090423318024481114e+00 0.000000000000000000e+00 0.000000000000000000e+00
1.096626805747164424e+00 0.000000000000000000e+00 0.000000000000000000e+00
1.102830293469847733e+00 0.000000000000000000e+00 0.000000000000000000e+00
1.109033781192531043e+00 0.000000000000000000e+00 0.000000000000000000e+00
1.115237268915214353e+00 0.000000000000000000e+00 0.000000000000000000e+00
1.121440756637897662e+00 0.000000000000000000e+00 0.000000000000000000e+00
1.127644244360580972e+00 0.000000000000000000e+00 0.000000000000000000e+00
1.133847732083264059e+00 0.000000000000000000e+00 0.000000000000000000e+00
1.140051219805947369e+00 0.000000000000000000e+00 0.000000000000000000e+00
1.146254707528630679e+00 0.000000000000000000e+00 0.000000000000000000e+00
1.152458195251313766e+00 0.000000000000000000e+00 0.000000000000000000e+00
1.158661682973997076e+00 0.000000000000000000e+00 0.000000000000000000e+00
1.164865170696680385e+00 0.000000000000000000e+00 0.000000000000000000e+00
1.171068658419363695e+00 0.000000000000000000e+00 0.000000000000000000e+00
1.177272146142047005e+00 0.000000000000000000e+00 0.000000000000000000e+00
1.183475633864730092e+00 0.000000000000000000e+00 0.000000000000000000e+00
1.189679121587413402e+00 0.000000000000000000e+00 0.000000000000000000e+00
