#! FIELDS rc1 external1.bias der_rc1
#! SET min_rc1 -0.6435637818811816
#! SET max_rc1 0.6965817604097266
#! SET nbins_rc1 600
#! SET periodic_rc1 false
-6.435637818811815736e-01 0.000000000000000000e+00 0.000000000000000000e+00
-6.413264771361216754e-01 0.000000000000000000e+00 0.000000000000000000e+00
-6.390891723910616662e-01 0.000000000000000000e+00 0.000000000000000000e+00
-6.368518676460017680e-01 0.000000000000000000e+00 0.000000000000000000e+00
-6.346145629009417588e-01 0.000000000000000000e+00 0.000000000000000000e+00
-6.323772581558818606e-01 0.000000000000000000e+00 0.000000000000000000e+00
-6.301399534108219624e-01 0.000000000000000000e+00 0.000000000000000000e+00
-6.279026486657619532e-01 0.000000000000000000e+00 0.000000000000000000e+00
-6.256653439207020551e-01 0.000000000000000000e+00 0.000000000000000000e+00
-6.234280391756420459e-01 0.000000000000000000e+00 0.000000000000000000e+00
-6.211907344305820367e-01 0.000000000000000000e+00 0.000000000000000000e+00
-6.189534296855221385e-01 0.000000000000000000e+00 0.000000000000000000e+00
-6.167161249404622403e-01 0.000000000000000000e+00 0.000000000000000000e+00
-6.144788201954023421e-01 0.000000000000000000e+00 0.000000000000000000e+00
-6.122415154503422219e-01 0.000000000000000000e+00 0.000000000000000000e+00
-6.100042107052823237e-01 0.000000000000000000e+00 0.000000000000000000e+00
-6.077669059602224255e-01 0.000000000000000000e+00 0.000000000000000000e+00
-6.055296012151625273e-01 0.000000000000000000e+00 0.000000000000000000e+00
-6.032922964701026292e-01 0.000000000000000000e+00 0.000000000000000000e+00
-6.010549917250425089e-01 0.000000000000000000e+00 0.000000000000000000e+00
-5.988176869799826108e-01 0.000000000000000000e+00 0.000000000000000000e+00
-5.965803822349227126e-01 0.000000000000000000e+00 0.000000000000000000e+00
-5.943430774898627034e-01 0.000000000000000000e+00 0.000000000000000000e+00
-5.921057727448028052e-01 0.000000000000000000e+00 0.000000000000000000e+00
-5.898684679997427960e-01 0.000000000000000000e+00 0.000000000000000000e+00
-5.876311632546828978e-01 0.000000000000000000e+00 0.000000000000000000e+00
-5.853938585096229996e-01 0.000000000000000000e+00 0.000000000000000000e+00
-5.831565537645629904e-01 0.000000000000000000e+00 0.000000000000000000e+00
-5.809192490195030922e-01 0.000000000000000000e+00 0.000000000000000000e+00
-5.786819442744430830e-01 0.000000000000000000e+00 0.000000000000000000e+00
-5.764446395293831849e-01 0.000000000000000000e+00 0.000000000000000000e+00
-5.742073347843232867e-01 0.000000000000000000e+00 0.000000000000000000e+00
-5.719700300392631664e-01 0.000000000000000000e+00 0.000000000000000000e+00
-5.697327252942032683e-01 0.000000000000000000e+00 0.000000000000000000e+00
-5.674954205491433701e-01 0.000000000000000000e+00 0.000000000000000000e+00
-5.652581158040834719e-01 0.000000000000000000e+00 0.000000000000000000e+00
-5.630208110590235737e-01 0.000000000000000000e+00 0.000000000000000000e+00
-5.607835063139634535e-01 0.000000000000000000e+00 0.000000000000000000e+00
-5.585462015689035553e-01 0.000000000000000000e+00 0.000000000000000000e+00
-5.563088968238436571e-01 0.000000000000000000e+00 0.000000000000000000e+00
-5.540715920787836479e-01 0.000000000000000000e+00 0.000000000000000000e+00
-5.518342873337237497e-01 0.000000000000000000e+00 0.000000000000000000e+00
-5.495969825886637405e-01 0.000000000000000000e+00 0.000000000000000000e+00
-5.473596778436038424e-01 0.000000000000000000e+00 0.000000000000000000e+00
-5.451223730985438332e-01 0.000000000000000000e+00 0.000000000000000000e+00
-5.428850683534839350e-01 0.000000000000000000e+00 0.000000000000000000e+00
-5.406477636084240368e-01 0.000000000000000000e+00 0.000000000000000000e+00
-5.384104588633640276e-01 0.000000000000000000e+00 0.000000000000000000e+00
-5.361731541183041294e-01 0.000000000000000000e+00 0.000000000000000000e+00
-5.339358493732441202e-01 0.000000000000000000e+00 0.000000000000000000e+00
-5.316985446281841110e-01 0.000000000000000000e+00 0.000000000000000000e+00
-5.294612398831242128e-01 0.000000000000000000e+00 0.000000000000000000e+00
-5.272239351380643146e-01 0.000000000000000000e+00 0.000000000000000000e+00
-5.249866303930044165e-01 0.000000000000000000e+00 0.000000000000000000e+00
-5.227493256479442962e-01 0.000000000000000000e+00 0.000000000000000000e+00
-5.205120209028843981e-01 0.000000000000000000e+00 0.000000000000000000e+00
-5.182747161578244999e-01 0.000000000000000000e+00 0.000000000000000000e+00
-5.160374114127646017e-01 0.000000000000000000e+00 0.000000000000000000e+00
-5.138001066677047035e-01 0.000000000000000000e+00 0.000000000000000000e+00
-5.115628019226445833e-01 0.000000000000000000e+00 0.000000000000000000e+00
-5.093254971775846851e-01 0.000000000000000000e+00 0.000000000000000000e+00
-5.070881924325247869e-01 0.000000000000000000e+00 0.000000000000000000e+00
-5.048508876874648887e-01 0.000000000000000000e+00 0.000000000000000000e+00
-5.026135829424049906e-01 0.000000000000000000e+00 0.000000000000000000e+00
-5.003762781973448703e-01 0.000000000000000000e+00 0.000000000000000000e+00
-4.981389734522849722e-01 0.000000000000000000e+00 0.000000000000000000e+00
-4.959016687072250740e-01 0.000000000000000000e+00 0.000000000000000000e+00
-4.936643639621651203e-01 0.000000000000000000e+00 0.000000000000000000e+00
-4.914270592171052221e-01 0.000000000000000000e+00 0.000000000000000000e+00
-4.891897544720451574e-01 0.000000000000000000e+00 0.000000000000000000e+00
-4.869524497269852592e-01 0.000000000000000000e+00 0.000000000000000000e+00
-4.847151449819253610e-01 0.000000000000000000e+00 0.000000000000000000e+00
-4.824778402368653518e-01 0.000000000000000000e+00 0.000000000000000000e+00
-4.802405354918054536e-01 0.000000000000000000e+00 0.000000000000000000e+00
-4.780032307467454444e-01 0.000000000000000000e+00 0.000000000000000000e+00
-4.757659260016855463e-01 0.000000000000000000e+00 0.000000000000000000e+00
-4.735286212566256481e-01 0.000000000000000000e+00 0.000000000000000000e+00
-4.712913165115656389e-01 0.000000000000000000e+00 0.000000000000000000e+00
-4.690540117665057407e-01 0.000000000000000000e+00 0.000000000000000000e+00
-4.668167070214457315e-01 0.000000000000000000e+00 0.000000000000000000e+00
-4.645794022763857778e-01 0.000000000000000000e+00 0.000000000000000000e+00
-4.623420975313258796e-01 0.000000000000000000e+00 0.000000000000000000e+00
-4.601047927862658704e-01 0.000000000000000000e+00 0.000000000000000000e+00
-4.578674880412059722e-01 0.000000000000000000e+00 0.000000000000000000e+00
-4.556301832961459630e-01 0.000000000000000000e+00 0.000000000000000000e+00
-4.533928785510860648e-01 0.000000000000000000e+00 0.000000000000000000e+00
-4.511555738060261667e-01 0.000000000000000000e+00 0.000000000000000000e+00
-4.489182690609661575e-01 0.000000000000000000e+00 0.000000000000000000e+00
-4.466809643159062593e-01 0.000000000000000000e+00 0.000000000000000000e+00
-4.444436595708462501e-01 0.000000000000000000e+00 0.000000000000000000e+00
-4.422063548257862964e-01 0.000000000000000000e+00 0.000000000000000000e+00
-4.399690500807263982e-01 0.000000000000000000e+00 0.000000000000000000e+00
-4.377317453356663890e-01 0.000000000000000000e+00 0.000000000000000000e+00
-4.354944405906064908e-01 0.000000000000000000e+00 0.000000000000000000e+00
-4.332571358455464816e-01 0.000000000000000000e+00 0.000000000000000000e+00
-4.310198311004865834e-01 0.000000000000000000e+00 0.000000000000000000e+00
-4.287825263554266852e-01 0.000000000000000000e+00 0.000000000000000000e+00
-4.265452216103666760e-01 0.000000000000000000e+00 0.000000000000000000e+00
-4.243079168653067779e-01 0.000000000000000000e+00 0.000000000000000000e+00
-4.220706121202467687e-01 0.000000000000000000e+00 0.000000000000000000e+00
-4.198333073751868705e-01 0.000000000000000000e+00 0.000000000000000000e+00
-4.175960026301269723e-01 0.000000000000000000e+00 0.000000000000000000e+00
-4.153586978850669631e-01 0.000000000000000000e+00 0.000000000000000000e+00
-4.131213931400070649e-01 0.000000000000000000e+00 0.000000000000000000e+00
-4.108840883949470557e-01 0.000000000000000000e+00 0.000000000000000000e+00
-4.086467836498871575e-01 0.000000000000000000e+00 0.000000000000000000e+00
-4.064094789048272593e-01 0.000000000000000000e+00 0.000000000000000000e+00
-4.041721741597672501e-01 0.000000000000000000e+00 0.000000000000000000e+00
-4.019348694147073520e-01 0.000000000000000000e+00 0.000000000000000000e+00
-3.996975646696473428e-01 0.000000000000000000e+00 0.000000000000000000e+00
-3.974602599245873336e-01 0.000000000000000000e+00 0.000000000000000000e+00
-3.952229551795274354e-01 0.000000000000000000e+00 0.000000000000000000e+00
-3.929856504344674262e-01 0.000000000000000000e+00 0.000000000000000000e+00
-3.907483456894075280e-01 0.000000000000000000e+00 0.000000000000000000e+00
-3.885110409443475188e-01 0.000000000000000000e+00 0.000000000000000000e+00
-3.862737361992876206e-01 0.000000000000000000e+00 0.000000000000000000e+00
-3.840364314542277224e-01 0.000000000000000000e+00 0.000000000000000000e+00
-3.817991267091677132e-01 0.000000000000000000e+00 0.000000000000000000e+00
-3.795618219641078150e-01 0.000000000000000000e+00 0.000000000000000000e+00
-3.773245172190478058e-01 0.000000000000000000e+00 0.000000000000000000e+00
-3.750872124739879077e-01 0.000000000000000000e+00 0.000000000000000000e+00
-3.728499077289280095e-01 0.000000000000000000e+00 0.000000000000000000e+00
-3.706126029838680003e-01 0.000000000000000000e+00 0.000000000000000000e+00
-3.683752982388081021e-01 0.000000000000000000e+00 0.000000000000000000e+00
-3.661379934937480929e-01 0.000000000000000000e+00 0.000000000000000000e+00
-3.639006887486881947e-01 0.000000000000000000e+00 0.000000000000000000e+00
-3.616633840036282965e-01 0.000000000000000000e+00 0.000000000000000000e+00
-3.594260792585682873e-01 0.000000000000000000e+00 0.000000000000000000e+00
-3.571887745135083891e-01 0.000000000000000000e+00 0.000000000000000000e+00
-3.549514697684483799e-01 0.000000000000000000e+00 0.000000000000000000e+00
-3.527141650233884262e-01 0.000000000000000000e+00 0.000000000000000000e+00
-3.504768602783285281e-01 0.000000000000000000e+00 0.000000000000000000e+00
-3.482395555332685189e-01 0.000000000000000000e+00 0.000000000000000000e+00
-3.460022507882086207e-01 0.000000000000000000e+00 0.000000000000000000e+00
-3.437649460431486115e-01 0.000000000000000000e+00 0.000000000000000000e+00
-3.415276412980887133e-01 0.000000000000000000e+00 0.000000000000000000e+00
-3.392903365530288151e-01 0.000000000000000000e+00 0.000000000000000000e+00
-3.370530318079688059e-01 0.000000000000000000e+00 0.000000000000000000e+00
-3.348157270629089077e-01 0.000000000000000000e+00 0.000000000000000000e+00
-3.325784223178488985e-01 0.000000000000000000e+00 0.000000000000000000e+00
-3.303411175727889448e-01 0.000000000000000000e+00 0.000000000000000000e+00
-3.281038128277290467e-01 0.000000000000000000e+00 0.000000000000000000e+00
-3.258665080826690374e-01 0.000000000000000000e+00 0.000000000000000000e+00
-3.236292033376091393e-01 0.000000000000000000e+00 0.000000000000000000e+00
-3.213918985925491301e-01 0.000000000000000000e+00 0.000000000000000000e+00
-3.191545938474892319e-01 0.000000000000000000e+00 0.000000000000000000e+00
-3.169172891024293337e-01 0.000000000000000000e+00 0.000000000000000000e+00
-3.146799843573693245e-01 0.000000000000000000e+00 0.000000000000000000e+00
-3.124426796123094263e-01 0.000000000000000000e+00 0.000000000000000000e+00
-3.102053748672494171e-01 0.000000000000000000e+00 0.000000000000000000e+00
-3.079680701221895189e-01 0.000000000000000000e+00 0.000000000000000000e+00
-3.057307653771296208e-01 0.000000000000000000e+00 0.000000000000000000e+00
-3.034934606320696115e-01 0.000000000000000000e+00 0.000000000000000000e+00
-3.012561558870097134e-01 0.000000000000000000e+00 0.000000000000000000e+00
-2.990188511419497042e-01 0.000000000000000000e+00 0.000000000000000000e+00
-2.967815463968898060e-01 0.000000000000000000e+00 0.000000000000000000e+00
-2.945442416518299078e-01 0.000000000000000000e+00 0.000000000000000000e+00
-2.923069369067698986e-01 0.000000000000000000e+00 0.000000000000000000e+00
-2.900696321617100004e-01 0.000000000000000000e+00 0.000000000000000000e+00
-2.878323274166499912e-01 0.000000000000000000e+00 0.000000000000000000e+00
-2.855950226715899820e-01 0.000000000000000000e+00 0.000000000000000000e+00
-2.833577179265300838e-01 0.000000000000000000e+00 0.000000000000000000e+00
-2.811204131814700746e-01 0.000000000000000000e+00 0.000000000000000000e+00
-2.788831084364101764e-01 0.000000000000000000e+00 0.000000000000000000e+00
-2.766458036913501672e-01 0.000000000000000000e+00 0.000000000000000000e+00
-2.744084989462902691e-01 0.000000000000000000e+00 0.000000000000000000e+00
-2.721711942012303709e-01 0.000000000000000000e+00 0.000000000000000000e+00
-2.699338894561703617e-01 0.000000000000000000e+00 0.000000000000000000e+00
-2.676965847111104635e-01 0.000000000000000000e+00 0.000000000000000000e+00
-2.654592799660504543e-01 0.000000000000000000e+00 0.000000000000000000e+00
-2.632219752209905561e-01 0.000000000000000000e+00 0.000000000000000000e+00
-2.609846704759306579e-01 0.000000000000000000e+00 0.000000000000000000e+00
-2.587473657308706487e-01 0.000000000000000000e+00 0.000000000000000000e+00
-2.565100609858107505e-01 0.000000000000000000e+00 0.000000000000000000e+00
-2.542727562407507413e-01 0.000000000000000000e+00 0.000000000000000000e+00
-2.520354514956908432e-01 0.000000000000000000e+00 0.000000000000000000e+00
-2.497981467506309172e-01 0.000000000000000000e+00 0.000000000000000000e+00
-2.475608420055709080e-01 0.000000000000000000e+00 0.000000000000000000e+00
-2.453235372605110098e-01 0.000000000000000000e+00 0.000000000000000000e+00
-2.430862325154510006e-01 0.000000000000000000e+00 0.000000000000000000e+00
-2.408489277703910747e-01 0.000000000000000000e+00 0.000000000000000000e+00
-2.386116230253311765e-01 0.000000000000000000e+00 0.000000000000000000e+00
-2.363743182802711673e-01 0.000000000000000000e+00 0.000000000000000000e+00
-2.341370135352112691e-01 0.000000000000000000e+00 0.000000000000000000e+00
-2.318997087901512599e-01 0.000000000000000000e+00 0.000000000000000000e+00
-2.296624040450913617e-01 0.000000000000000000e+00 0.000000000000000000e+00
-2.274250993000314636e-01 0.000000000000000000e+00 0.000000000000000000e+00
-2.251877945549714544e-01 0.000000000000000000e+00 0.000000000000000000e+00
-2.229504898099115562e-01 0.000000000000000000e+00 0.000000000000000000e+00
-2.207131850648515470e-01 0.000000000000000000e+00 0.000000000000000000e+00
-2.184758803197916210e-01 0.000000000000000000e+00 0.000000000000000000e+00
-2.162385755747317229e-01 0.000000000000000000e+00 0.000000000000000000e+00
-2.140012708296717137e-01 0.000000000000000000e+00 0.000000000000000000e+00
-2.117639660846118155e-01 0.000000000000000000e+00 0.000000000000000000e+00
-2.095266613395518063e-01 0.000000000000000000e+00 0.000000000000000000e+00
-2.072893565944919081e-01 0.000000000000000000e+00 0.000000000000000000e+00
-2.050520518494320099e-01 0.000000000000000000e+00 0.000000000000000000e+00
-2.028147471043720007e-01 0.000000000000000000e+00 0.000000000000000000e+00
-2.005774423593121025e-01 0.000000000000000000e+00 0.000000000000000000e+00
-1.983401376142520933e-01 0.000000000000000000e+00 0.000000000000000000e+00
-1.961028328691921396e-01 0.000000000000000000e+00 0.000000000000000000e+00
-1.938655281241322414e-01 0.000000000000000000e+00 0.000000000000000000e+00
-1.916282233790722322e-01 0.000000000000000000e+00 0.000000000000000000e+00
-1.893909186340123341e-01 0.000000000000000000e+00 0.000000000000000000e+00
-1.871536138889523249e-01 0.000000000000000000e+00 0.000000000000000000e+00
-1.849163091438924267e-01 0.000000000000000000e+00 0.000000000000000000e+00
-1.826790043988325285e-01 0.000000000000000000e+00 0.000000000000000000e+00
-1.804416996537725193e-01 0.000000000000000000e+00 0.000000000000000000e+00
-1.782043949087126211e-01 0.000000000000000000e+00 0.000000000000000000e+00
-1.759670901636526119e-01 0.000000000000000000e+00 0.000000000000000000e+00
-1.737297854185926582e-01 0.000000000000000000e+00 0.000000000000000000e+00
-1.714924806735327600e-01 0.000000000000000000e+00 0.000000000000000000e+00
-1.692551759284727508e-01 0.000000000000000000e+00 0.000000000000000000e+00
-1.670178711834128527e-01 0.000000000000000000e+00 0.000000000000000000e+00
-1.647805664383528435e-01 0.000000000000000000e+00 0.000000000000000000e+00
-1.625432616932929453e-01 0.000000000000000000e+00 0.000000000000000000e+00
-1.603059569482330471e-01 0.000000000000000000e+00 0.000000000000000000e+00
-1.580686522031730379e-01 0.000000000000000000e+00 0.000000000000000000e+00
-1.558313474581131397e-01 0.000000000000000000e+00 0.000000000000000000e+00
-1.535940427130531305e-01 0.000000000000000000e+00 0.000000000000000000e+00
-1.513567379679932046e-01 1.352416652804002695e-01 9.508432975065234416e+01
-1.491194332229333064e-01 5.052257005117191113e-01 1.140142066286240095e+02
-1.468821284778732972e-01 8.869393092108701637e-01 1.332986018093600080e+02
-1.446448237328133990e-01 1.305258330017931456e+00 1.522555811189669157e+02
-1.424075189877533898e-01 1.716656969006912448e+00 1.711033474874687954e+02
-1.401702142426934916e-01 2.127326243851978660e+00 1.832701853465741237e+02
-1.379329094976335934e-01 2.550845277476845752e+00 1.849878152425873452e+02
-1.356956047525735842e-01 2.982295952392238547e+00 1.854198945328736272e+02
-1.334583000075136860e-01 3.406421340993233571e+00 1.836855135627604625e+02
-1.312209952624536768e-01 3.828103312293560379e+00 1.820717069226467402e+02
-1.289836905173937232e-01 4.235554218319474984e+00 1.808322163788357386e+02
-1.267463857723338250e-01 4.643966868716869811e+00 1.792165222542246852e+02
-1.245090810272738158e-01 5.035347407879992687e+00 1.775419408685200722e+02
-1.222717762822139176e-01 5.414863040945295580e+00 1.751609437107284180e+02
-1.200344715371539084e-01 5.790155907398943924e+00 1.712685013636314864e+02
-1.177971667920940102e-01 6.173094001492753335e+00 1.681241435919238256e+02
-1.155598620470341120e-01 6.560465033802042711e+00 1.641629020712155125e+02
-1.133225573019741028e-01 6.954450219915159437e+00 1.609162386208755322e+02
-1.110852525569142046e-01 7.325305446125138786e+00 1.597306379001405219e+02
-1.088479478118541954e-01 7.659901620095158847e+00 1.582862723367747719e+02
-1.066106430667942417e-01 7.997003660492993049e+00 1.568794845068770485e+02
-1.043733383217343436e-01 8.316791266384299774e+00 1.548948014787717398e+02
-1.021360335766743344e-01 8.635534050116824289e+00 1.521222931179845830e+02
-9.989872883161443617e-02 8.988524181999657969e+00 1.509492720049052252e+02
-9.766142408655442697e-02 9.331502189168119799e+00 1.514556364399644508e+02
-9.542411934149452879e-02 9.682966152390708459e+00 1.501525776544829114e+02
-9.318681459643463061e-02 1.002593377713780143e+01 1.500176719276862514e+02
-9.094950985137462141e-02 1.035788950213782300e+01 1.501527311775185183e+02
-8.871220510631472322e-02 1.070250067132431582e+01 1.482789391551451388e+02
-8.647490036125471402e-02 1.104842576082723582e+01 1.472682755775153964e+02
-8.423759561619476033e-02 1.135637440518657115e+01 1.450871385457967051e+02
-8.200029087113486215e-02 1.167314375885089817e+01 1.434114122409873460e+02
-7.976298612607485294e-02 1.199490822958854608e+01 1.426398156494054206e+02
-7.752568138101495476e-02 1.230597592364226500e+01 1.408891400600467705e+02
-7.528837663595494556e-02 1.262634230663184098e+01 1.384700640692679201e+02
-7.305107189089504738e-02 1.292900758754752388e+01 1.380435307620695369e+02
-7.081376714583514920e-02 1.323448410816290277e+01 1.364646297509558508e+02
-6.857646240077513999e-02 1.354917686600672511e+01 1.347613988783029697e+02
-6.633915765571524181e-02 1.385462008716189786e+01 1.329834772392835021e+02
-6.410185291065523261e-02 1.414642307473652494e+01 1.305054192629390855e+02
-6.186454816559527892e-02 1.444482886917464981e+01 1.283140765299816621e+02
-5.962724342053538074e-02 1.472627339559753068e+01 1.259302305962716559e+02
-5.738993867547537153e-02 1.500993140120196756e+01 1.229402018394728060e+02
-5.515263393041547335e-02 1.528122157006246340e+01 1.196693870639646633e+02
-5.291532918535546415e-02 1.554614624436197090e+01 1.175964021177261571e+02
-5.067802444029556597e-02 1.579978451033267106e+01 1.147664962280525316e+02
-4.844071969523566779e-02 1.605192713275823024e+01 1.123790393107690875e+02
-4.620341495017565858e-02 1.629972383534752112e+01 1.096439845560789195e+02
-4.396611020511576040e-02 1.653198896232812842e+01 1.073702453225319005e+02
-4.172880546005575120e-02 1.677741295933619625e+01 1.055108056791300726e+02
-3.949150071499585302e-02 1.701250513502392891e+01 1.044060106911123427e+02
-3.725419596993595484e-02 1.724053497455015815e+01 1.021984934499754161e+02
-3.501689122487594563e-02 1.746300147034791905e+01 9.982388343931489771e+01
-3.277958647981604745e-02 1.768342116344597059e+01 9.769467071135255765e+01
-3.054228173475603825e-02 1.790674450637213511e+01 9.422504055849547910e+01
-2.830497698969614007e-02 1.813566514165272281e+01 9.055586164073159239e+01
-2.606767224463624189e-02 1.833841887609430898e+01 8.703468368873443239e+01
-2.383036749957623268e-02 1.853308831623841968e+01 8.320383505857350315e+01
-2.159306275451633450e-02 1.871771646582390503e+01 7.920364346107709252e+01
-1.935575800945632530e-02 1.888551426278608147e+01 7.403740241782622888e+01
-1.711845326439637160e-02 1.903851572444193607e+01 6.819893940495440177e+01
-1.488114851933647342e-02 1.918776608256612803e+01 6.354126089232822494e+01
-1.264384377427646422e-02 1.932452482018523199e+01 5.846209343166456307e+01
-1.040653902921656604e-02 1.945544803686100721e+01 5.362334245563221202e+01
-8.169234284156556836e-03 1.956318682378529417e+01 4.910879102905720117e+01
-5.931929539096658655e-03 1.966148324904033728e+01 4.523138498044468747e+01
-3.694624794036760473e-03 1.976003052110930014e+01 4.121884642943022214e+01
-1.457320048976751270e-03 1.984106350664642804e+01 3.748920424813901064e+01
7.799846960831469111e-04 1.991743405104350018e+01 3.358740001159247868e+01
3.017289441143156115e-03 1.998422757472074807e+01 3.073213757739698337e+01
5.254594186203109807e-03 2.005047964686576023e+01 2.775300426822307998e+01
7.491898931263007988e-03 2.010995728959075279e+01 2.412114026174141657e+01
9.729203676323017191e-03 2.016327256571405968e+01 2.119769153260900296e+01
1.196650842138291537e-02 2.020690053106262951e+01 1.809004448281272559e+01
1.420381316644292458e-02 2.025075839606274997e+01 1.528914501273132309e+01
1.644111791150282276e-02 2.028240253042998376e+01 1.169890332588387416e+01
1.867842265656272094e-02 2.029969393674780775e+01 7.947750124193492027e+00
2.091572740162273014e-02 2.031532046514865897e+01 4.039345640284882855e+00
2.315303214668262832e-02 2.032216347464092365e+01 -3.749420923144058254e-02
2.539033689174263753e-02 2.032629234156969034e+01 -4.502687834085187468e+00
2.762764163680259122e-02 2.031221976609574398e+01 -8.997971084900092009e+00
2.986494638186248940e-02 2.028777268024484215e+01 -1.293521171539189396e+01
3.210225112692249860e-02 2.025364503739352529e+01 -1.714344733134375787e+01
3.433955587198239678e-02 2.020606167134037179e+01 -2.142837956199281280e+01
3.657686061704240599e-02 2.015001954749552482e+01 -2.624309747694062978e+01
3.881416536210230417e-02 2.008109049638839139e+01 -3.042835870278487320e+01
4.105147010716220235e-02 2.001029383125579386e+01 -3.460685277918733505e+01
4.328877485222221155e-02 1.993176930453765294e+01 -3.877624285800333581e+01
4.552607959728210973e-02 1.984274532191101059e+01 -4.272690504567174941e+01
4.776338434234211894e-02 1.973915427646738152e+01 -4.695175457370461913e+01
5.000068908740207263e-02 1.963144465299446750e+01 -5.097523954737970087e+01
5.223799383246197081e-02 1.951351192090017150e+01 -5.545001204601134503e+01
5.447529857752198001e-02 1.938610231597544953e+01 -6.014512038202543209e+01
5.671260332258187820e-02 1.925013059733630172e+01 -6.488689073234893101e+01
5.894990806764188740e-02 1.909956571452912755e+01 -6.942206444917523811e+01
6.118721281270178558e-02 1.894061904318918721e+01 -7.381416024655025865e+01
6.342451755776168376e-02 1.876970808061406615e+01 -7.810578498571508987e+01
6.566182230282169296e-02 1.858613967230857611e+01 -8.229413347776511500e+01
6.789912704788159115e-02 1.839102783663430074e+01 -8.610485190407889888e+01
7.013643179294160035e-02 1.818597113442741176e+01 -8.986251287880125460e+01
7.237373653800149853e-02 1.797999694327224773e+01 -9.311600819837394738e+01
7.461104128306139671e-02 1.776604748724844285e+01 -9.619337535279503015e+01
7.684834602812140592e-02 1.754493176277144784e+01 -9.900510823288824724e+01
7.908565077318130410e-02 1.732370265995950831e+01 -1.012329341200239412e+02
8.132295551824131330e-02 1.708906744986158799e+01 -1.031163535758910825e+02
8.356026026330121148e-02 1.685733017335654438e+01 -1.053382404010304327e+02
8.579756500836110966e-02 1.661756912941265085e+01 -1.079453999013613554e+02
8.803486975342111887e-02 1.637109368796244269e+01 -1.108931930719382990e+02
9.027217449848101705e-02 1.612613859800359961e+01 -1.141888822785246305e+02
9.250947924354102625e-02 1.587894406294120131e+01 -1.160400469415972253e+02
9.474678398860097994e-02 1.562325949241733269e+01 -1.182088366907549783e+02
9.698408873366087812e-02 1.535097993318134257e+01 -1.202046272711306756e+02
9.922139347872088733e-02 1.506391309222448882e+01 -1.223915620955775267e+02
1.014586982237807855e-01 1.476894937841116473e+01 -1.245421348074321202e+02
1.036960029688407947e-01 1.449289797346744280e+01 -1.269428732007345104e+02
1.059333077139006929e-01 1.421263826099411176e+01 -1.291607541921624147e+02
1.081706124589605911e-01 1.392822529969400591e+01 -1.302806947466815757e+02
1.104079172040206003e-01 1.363282146164510067e+01 -1.302296751813578624e+02
1.126452219490804985e-01 1.333975150635797036e+01 -1.303240975487302080e+02
1.148825266941405077e-01 1.303884513730572081e+01 -1.319314220702222542e+02
1.171198314392004614e-01 1.273353981012085967e+01 -1.335880221852496845e+02
1.193571361842603595e-01 1.243620376771676206e+01 -1.349378793597662991e+02
1.215944409293203687e-01 1.215027838991581177e+01 -1.361455713208734153e+02
1.238317456743802669e-01 1.185320215999686866e+01 -1.380471492876994546e+02
1.260690504194402761e-01 1.154119000726528554e+01 -1.399800478773114776e+02
1.283063551645001743e-01 1.122386710181177705e+01 -1.419221650120796028e+02
1.305436599095600725e-01 1.090925372189468590e+01 -1.446483676023291309e+02
1.327809646546200817e-01 1.058683013429423170e+01 -1.484634105840885638e+02
1.350182693996799799e-01 1.025121608492429459e+01 -1.519892473219790077e+02
1.372555741447399891e-01 9.907064884009443517e+00 -1.550589793997534684e+02
1.394928788897999428e-01 9.558308478013781695e+00 -1.586068108200556139e+02
1.417301836348598409e-01 9.199978975698087424e+00 -1.629361491640681550e+02
1.439674883799198501e-01 8.828699460240176933e+00 -1.661280111438583731e+02
1.462047931249797483e-01 8.452739517681344239e+00 -1.691935358416319559e+02
1.484420978700397575e-01 8.072048103513065342e+00 -1.717364795478728752e+02
1.506794026150996557e-01 7.675349397346412417e+00 -1.754685805594710928e+02
1.529167073601595539e-01 7.263875525229025243e+00 -1.786542618023351849e+02
1.551540121052195631e-01 6.870040258098978114e+00 -1.812761765712158706e+02
1.573913168502794613e-01 6.465841079204764696e+00 -1.839683715501796542e+02
1.596286215953394705e-01 6.064796478085966669e+00 -1.864522358986212396e+02
1.618659263403994242e-01 5.632541599067387494e+00 -1.881811427933546099e+02
1.641032310854593224e-01 5.202938699142610091e+00 -1.896508602716894529e+02
1.663405358305193316e-01 4.772998960149127612e+00 -1.924079805701414330e+02
1.685778405755792297e-01 4.336806411579672726e+00 -1.950534735842492466e+02
1.708151453206392389e-01 3.900543382482830168e+00 -1.985527468779139326e+02
1.730524500656991371e-01 3.465163760322642617e+00 -1.996545948949612921e+02
1.752897548107590353e-01 3.020807829323491234e+00 -2.026405224759159296e+02
1.775270595558190445e-01 2.565287378929188122e+00 -2.055359248720969845e+02
1.797643643008789427e-01 2.101900459300118484e+00 -1.938406646936823847e+02
1.820016690459389519e-01 1.622566450739515886e+00 -1.743411740650523427e+02
1.842389737909988501e-01 1.165659873752193931e+00 -1.548811687563647013e+02
1.864762785360587483e-01 6.692526743746576301e-01 -1.350199526220716564e+02
1.887135832811187575e-01 1.745339601828632681e-01 -1.146597206116232286e+02
1.909508880261786556e-01 0.000000000000000000e+00 0.000000000000000000e+00
1.931881927712386648e-01 0.000000000000000000e+00 0.000000000000000000e+00
1.954254975162985630e-01 0.000000000000000000e+00 0.000000000000000000e+00
1.976628022613584612e-01 0.000000000000000000e+00 0.000000000000000000e+00
1.999001070064184704e-01 0.000000000000000000e+00 0.000000000000000000e+00
2.021374117514783686e-01 0.000000000000000000e+00 0.000000000000000000e+00
2.043747164965383778e-01 0.000000000000000000e+00 0.000000000000000000e+00
2.066120212415983315e-01 0.000000000000000000e+00 0.000000000000000000e+00
2.088493259866582297e-01 0.000000000000000000e+00 0.000000000000000000e+00
2.110866307317182389e-01 0.000000000000000000e+00 0.000000000000000000e+00
2.133239354767781371e-01 0.000000000000000000e+00 0.000000000000000000e+00
2.155612402218381463e-01 0.000000000000000000e+00 0.000000000000000000e+00
2.177985449668980444e-01 0.000000000000000000e+00 0.000000000000000000e+00
2.200358497119579426e-01 0.000000000000000000e+00 0.000000000000000000e+00
2.222731544570179518e-01 0.000000000000000000e+00 0.000000000000000000e+00
2.245104592020778500e-01 0.000000000000000000e+00 0.000000000000000000e+00
2.267477639471378592e-01 0.000000000000000000e+00 0.000000000000000000e+00
2.289850686921978129e-01 0.000000000000000000e+00 0.000000000000000000e+00
2.312223734372577111e-01 0.000000000000000000e+00 0.000000000000000000e+00
2.334596781823177203e-01 0.000000000000000000e+00 0.000000000000000000e+00
2.356969829273776185e-01 0.000000000000000000e+00 0.000000000000000000e+00
2.379342876724376277e-01 0.000000000000000000e+00 0.000000000000000000e+00
2.401715924174975259e-01 0.000000000000000000e+00 0.000000000000000000e+00
2.424088971625574240e-01 0.000000000000000000e+00 0.000000000000000000e+00
2.446462019076174332e-01 0.000000000000000000e+00 0.000000000000000000e+00
2.468835066526773314e-01 0.000000000000000000e+00 0.000000000000000000e+00
2.491208113977373406e-01 0.000000000000000000e+00 0.000000000000000000e+00
2.513581161427972943e-01 0.000000000000000000e+00 0.000000000000000000e+00
2.535954208878571925e-01 0.000000000000000000e+00 0.000000000000000000e+00
2.558327256329172017e-01 0.000000000000000000e+00 0.000000000000000000e+00
2.580700303779770999e-01 0.000000000000000000e+00 0.000000000000000000e+00
2.603073351230371091e-01 0.000000000000000000e+00 0.000000000000000000e+00
2.625446398680970073e-01 0.000000000000000000e+00 0.000000000000000000e+00
2.647819446131569054e-01 0.000000000000000000e+00 0.000000000000000000e+00
2.670192493582169146e-01 0.000000000000000000e+00 0.000000000000000000e+00
2.692565541032768128e-01 0.000000000000000000e+00 0.000000000000000000e+00
2.714938588483368220e-01 0.000000000000000000e+00 0.000000000000000000e+00
2.737311635933967757e-01 0.000000000000000000e+00 0.000000000000000000e+00
2.759684683384566739e-01 0.000000000000000000e+00 0.000000000000000000e+00
2.782057730835166831e-01 0.000000000000000000e+00 0.000000000000000000e+00
2.804430778285765813e-01 0.000000000000000000e+00 0.000000000000000000e+00
2.826803825736365905e-01 0.000000000000000000e+00 0.000000000000000000e+00
2.849176873186964887e-01 0.000000000000000000e+00 0.000000000000000000e+00
2.871549920637563869e-01 0.000000000000000000e+00 0.000000000000000000e+00
2.893922968088163961e-01 0.000000000000000000e+00 0.000000000000000000e+00
2.916296015538762942e-01 0.000000000000000000e+00 0.000000000000000000e+00
2.938669062989363034e-01 0.000000000000000000e+00 0.000000000000000000e+00
2.961042110439962016e-01 0.000000000000000000e+00 0.000000000000000000e+00
2.983415157890560998e-01 0.000000000000000000e+00 0.000000000000000000e+00
3.005788205341161090e-01 0.000000000000000000e+00 0.000000000000000000e+00
3.028161252791760072e-01 0.000000000000000000e+00 0.000000000000000000e+00
3.050534300242360164e-01 0.000000000000000000e+00 0.000000000000000000e+00
3.072907347692959146e-01 0.000000000000000000e+00 0.000000000000000000e+00
3.095280395143558128e-01 0.000000000000000000e+00 0.000000000000000000e+00
3.117653442594158220e-01 0.000000000000000000e+00 0.000000000000000000e+00
3.140026490044757201e-01 0.000000000000000000e+00 0.000000000000000000e+00
3.162399537495357293e-01 0.000000000000000000e+00 0.000000000000000000e+00
3.184772584945956830e-01 0.000000000000000000e+00 0.000000000000000000e+00
3.207145632396555812e-01 0.000000000000000000e+00 0.000000000000000000e+00
3.229518679847155904e-01 0.000000000000000000e+00 0.000000000000000000e+00
3.251891727297754886e-01 0.000000000000000000e+00 0.000000000000000000e+00
3.274264774748354978e-01 0.000000000000000000e+00 0.000000000000000000e+00
3.296637822198953960e-01 0.000000000000000000e+00 0.000000000000000000e+00
3.319010869649552942e-01 0.000000000000000000e+00 0.000000000000000000e+00
3.341383917100153034e-01 0.000000000000000000e+00 0.000000000000000000e+00
3.363756964550752016e-01 0.000000000000000000e+00 0.000000000000000000e+00
3.386130012001352108e-01 0.000000000000000000e+00 0.000000000000000000e+00
3.408503059451951644e-01 0.000000000000000000e+00 0.000000000000000000e+00
3.430876106902550626e-01 0.000000000000000000e+00 0.000000000000000000e+00
3.453249154353150718e-01 0.000000000000000000e+00 0.000000000000000000e+00
3.475622201803749700e-01 0.000000000000000000e+00 0.000000000000000000e+00
3.497995249254349792e-01 0.000000000000000000e+00 0.000000000000000000e+00
3.520368296704948774e-01 0.000000000000000000e+00 0.000000000000000000e+00
3.542741344155547756e-01 0.000000000000000000e+00 0.000000000000000000e+00
3.565114391606147848e-01 0.000000000000000000e+00 0.000000000000000000e+00
3.587487439056746830e-01 0.000000000000000000e+00 0.000000000000000000e+00
3.609860486507346922e-01 0.000000000000000000e+00 0.000000000000000000e+00
3.632233533957945903e-01 0.000000000000000000e+00 0.000000000000000000e+00
3.654606581408544885e-01 0.000000000000000000e+00 0.000000000000000000e+00
3.676979628859144977e-01 0.000000000000000000e+00 0.000000000000000000e+00
3.699352676309743959e-01 0.000000000000000000e+00 0.000000000000000000e+00
3.721725723760344051e-01 0.000000000000000000e+00 0.000000000000000000e+00
3.744098771210943033e-01 0.000000000000000000e+00 0.000000000000000000e+00
3.766471818661542015e-01 0.000000000000000000e+00 0.000000000000000000e+00
3.788844866112142107e-01 0.000000000000000000e+00 0.000000000000000000e+00
3.811217913562741089e-01 0.000000000000000000e+00 0.000000000000000000e+00
3.833590961013341181e-01 0.000000000000000000e+00 0.000000000000000000e+00
3.855964008463941273e-01 0.000000000000000000e+00 0.000000000000000000e+00
3.878337055914540255e-01 0.000000000000000000e+00 0.000000000000000000e+00
3.900710103365140347e-01 0.000000000000000000e+00 0.000000000000000000e+00
3.923083150815739328e-01 0.000000000000000000e+00 0.000000000000000000e+00
3.945456198266339420e-01 0.000000000000000000e+00 0.000000000000000000e+00
3.967829245716938402e-01 0.000000000000000000e+00 0.000000000000000000e+00
3.990202293167537384e-01 0.000000000000000000e+00 0.000000000000000000e+00
4.012575340618137476e-01 0.000000000000000000e+00 0.000000000000000000e+00
4.034948388068736458e-01 0.000000000000000000e+00 0.000000000000000000e+00
4.057321435519336550e-01 0.000000000000000000e+00 0.000000000000000000e+00
4.079694482969936642e-01 0.000000000000000000e+00 0.000000000000000000e+00
4.102067530420535624e-01 0.000000000000000000e+00 0.000000000000000000e+00
4.124440577871135716e-01 0.000000000000000000e+00 0.000000000000000000e+00
4.146813625321734698e-01 0.000000000000000000e+00 0.000000000000000000e+00
4.169186672772334790e-01 0.000000000000000000e+00 0.000000000000000000e+00
4.191559720222933771e-01 0.000000000000000000e+00 0.000000000000000000e+00
4.213932767673532753e-01 0.000000000000000000e+00 0.000000000000000000e+00
4.236305815124132845e-01 0.000000000000000000e+00 0.000000000000000000e+00
4.258678862574731827e-01 0.000000000000000000e+00 0.000000000000000000e+00
4.281051910025331919e-01 0.000000000000000000e+00 0.000000000000000000e+00
4.303424957475930901e-01 0.000000000000000000e+00 0.000000000000000000e+00
4.325798004926529883e-01 0.000000000000000000e+00 0.000000000000000000e+00
4.348171052377129975e-01 0.000000000000000000e+00 0.000000000000000000e+00
4.370544099827728957e-01 0.000000000000000000e+00 0.000000000000000000e+00
4.392917147278329049e-01 0.000000000000000000e+00 0.000000000000000000e+00
4.415290194728928030e-01 0.000000000000000000e+00 0.000000000000000000e+00
4.437663242179527012e-01 0.000000000000000000e+00 0.000000000000000000e+00
4.460036289630127104e-01 0.000000000000000000e+00 0.000000000000000000e+00
4.482409337080726086e-01 0.000000000000000000e+00 0.000000000000000000e+00
4.504782384531326178e-01 0.000000000000000000e+00 0.000000000000000000e+00
4.527155431981925160e-01 0.000000000000000000e+00 0.000000000000000000e+00
4.549528479432524142e-01 0.000000000000000000e+00 0.000000000000000000e+00
4.571901526883124234e-01 0.000000000000000000e+00 0.000000000000000000e+00
4.594274574333723216e-01 0.000000000000000000e+00 0.000000000000000000e+00
4.616647621784323308e-01 0.000000000000000000e+00 0.000000000000000000e+00
4.639020669234922289e-01 0.000000000000000000e+00 0.000000000000000000e+00
4.661393716685521271e-01 0.000000000000000000e+00 0.000000000000000000e+00
4.683766764136121363e-01 0.000000000000000000e+00 0.000000000000000000e+00
4.706139811586720345e-01 0.000000000000000000e+00 0.000000000000000000e+00
4.728512859037320437e-01 0.000000000000000000e+00 0.000000000000000000e+00
4.750885906487919419e-01 0.000000000000000000e+00 0.000000000000000000e+00
4.773258953938518401e-01 0.000000000000000000e+00 0.000000000000000000e+00
4.795632001389118493e-01 0.000000000000000000e+00 0.000000000000000000e+00
4.818005048839717475e-01 0.000000000000000000e+00 0.000000000000000000e+00
4.840378096290317567e-01 0.000000000000000000e+00 0.000000000000000000e+00
4.862751143740916548e-01 0.000000000000000000e+00 0.000000000000000000e+00
4.885124191191515530e-01 0.000000000000000000e+00 0.000000000000000000e+00
4.907497238642115622e-01 0.000000000000000000e+00 0.000000000000000000e+00
4.929870286092714604e-01 0.000000000000000000e+00 0.000000000000000000e+00
4.952243333543314696e-01 0.000000000000000000e+00 0.000000000000000000e+00
4.974616380993914788e-01 0.000000000000000000e+00 0.000000000000000000e+00
4.996989428444513770e-01 0.000000000000000000e+00 0.000000000000000000e+00
5.019362475895113862e-01 0.000000000000000000e+00 0.000000000000000000e+00
5.041735523345712844e-01 0.000000000000000000e+00 0.000000000000000000e+00
5.064108570796312936e-01 0.000000000000000000e+00 0.000000000000000000e+00
5.086481618246911918e-01 0.000000000000000000e+00 0.000000000000000000e+00
5.108854665697510899e-01 0.000000000000000000e+00 0.000000000000000000e+00
5.131227713148110992e-01 0.000000000000000000e+00 0.000000000000000000e+00
5.153600760598709973e-01 0.000000000000000000e+00 0.000000000000000000e+00
5.175973808049310065e-01 0.000000000000000000e+00 0.000000000000000000e+00
5.198346855499910157e-01 0.000000000000000000e+00 0.000000000000000000e+00
5.220719902950509139e-01 0.000000000000000000e+00 0.000000000000000000e+00
5.243092950401109231e-01 0.000000000000000000e+00 0.000000000000000000e+00
5.265465997851708213e-01 0.000000000000000000e+00 0.000000000000000000e+00
5.287839045302308305e-01 0.000000000000000000e+00 0.000000000000000000e+00
5.310212092752907287e-01 0.000000000000000000e+00 0.000000000000000000e+00
5.332585140203506269e-01 0.000000000000000000e+00 0.000000000000000000e+00
5.354958187654106361e-01 0.000000000000000000e+00 0.000000000000000000e+00
5.377331235104705343e-01 0.000000000000000000e+00 0.000000000000000000e+00
5.399704282555305435e-01 0.000000000000000000e+00 0.000000000000000000e+00
5.422077330005904416e-01 0.000000000000000000e+00 0.000000000000000000e+00
5.444450377456503398e-01 0.000000000000000000e+00 0.000000000000000000e+00
5.466823424907103490e-01 0.000000000000000000e+00 0.000000000000000000e+00
5.489196472357702472e-01 0.000000000000000000e+00 0.000000000000000000e+00
5.511569519808302564e-01 0.000000000000000000e+00 0.000000000000000000e+00
5.533942567258901546e-01 0.000000000000000000e+00 0.000000000000000000e+00
5.556315614709500528e-01 0.000000000000000000e+00 0.000000000000000000e+00
5.578688662160100620e-01 0.000000000000000000e+00 0.000000000000000000e+00
5.601061709610699602e-01 0.000000000000000000e+00 0.000000000000000000e+00
5.623434757061299694e-01 0.000000000000000000e+00 0.000000000000000000e+00
5.645807804511898675e-01 0.000000000000000000e+00 0.000000000000000000e+00
5.668180851962497657e-01 0.000000000000000000e+00 0.000000000000000000e+00
5.690553899413097749e-01 0.000000000000000000e+00 0.000000000000000000e+00
5.712926946863696731e-01 0.000000000000000000e+00 0.000000000000000000e+00
5.735299994314296823e-01 0.000000000000000000e+00 0.000000000000000000e+00
5.757673041764895805e-01 0.000000000000000000e+00 0.000000000000000000e+00
5.780046089215494787e-01 0.000000000000000000e+00 0.000000000000000000e+00
5.802419136666094879e-01 0.000000000000000000e+00 0.000000000000000000e+00
5.824792184116693861e-01 0.000000000000000000e+00 0.000000000000000000e+00
5.847165231567293953e-01 0.000000000000000000e+00 0.000000000000000000e+00
5.869538279017892934e-01 0.000000000000000000e+00 0.000000000000000000e+00
5.891911326468491916e-01 0.000000000000000000e+00 0.000000000000000000e+00
5.914284373919092008e-01 0.000000000000000000e+00 0.000000000000000000e+00
5.936657421369690990e-01 0.000000000000000000e+00 0.000000000000000000e+00
5.959030468820291082e-01 0.000000000000000000e+00 0.000000000000000000e+00
5.981403516270890064e-01 0.000000000000000000e+00 0.000000000000000000e+00
6.003776563721489046e-01 0.000000000000000000e+00 0.000000000000000000e+00
6.026149611172089138e-01 0.000000000000000000e+00 0.000000000000000000e+00
6.048522658622688120e-01 0.000000000000000000e+00 0.000000000000000000e+00
6.070895706073288212e-01 0.000000000000000000e+00 0.000000000000000000e+00
6.093268753523888304e-01 0.000000000000000000e+00 0.000000000000000000e+00
6.115641800974487285e-01 0.000000000000000000e+00 0.000000000000000000e+00
6.138014848425087377e-01 0.000000000000000000e+00 0.000000000000000000e+00
6.160387895875686359e-01 0.000000000000000000e+00 0.000000000000000000e+00
6.182760943326286451e-01 0.000000000000000000e+00 0.000000000000000000e+00
6.205133990776885433e-01 0.000000000000000000e+00 0.000000000000000000e+00
6.227507038227484415e-01 0.000000000000000000e+00 0.000000000000000000e+00
6.249880085678084507e-01 0.000000000000000000e+00 0.000000000000000000e+00
6.272253133128683489e-01 0.000000000000000000e+00 0.000000000000000000e+00
6.294626180579283581e-01 0.000000000000000000e+00 0.000000000000000000e+00
6.316999228029883673e-01 0.000000000000000000e+00 0.000000000000000000e+00
6.339372275480482655e-01 0.000000000000000000e+00 0.000000000000000000e+00
6.361745322931082747e-01 0.000000000000000000e+00 0.000000000000000000e+00
6.384118370381681729e-01 0.000000000000000000e+00 0.000000000000000000e+00
6.406491417832281821e-01 0.000000000000000000e+00 0.000000000000000000e+00
6.428864465282880802e-01 0.000000000000000000e+00 0.000000000000000000e+00
6.451237512733479784e-01 0.000000000000000000e+00 0.000000000000000000e+00
6.473610560184079876e-01 0.000000000000000000e+00 0.000000000000000000e+00
6.495983607634678858e-01 0.000000000000000000e+00 0.000000000000000000e+00
6.518356655085278950e-01 0.000000000000000000e+00 0.000000000000000000e+00
6.540729702535877932e-01 0.000000000000000000e+00 0.000000000000000000e+00
6.563102749986476914e-01 0.000000000000000000e+00 0.000000000000000000e+00
6.585475797437077006e-01 0.000000000000000000e+00 0.000000000000000000e+00
6.607848844887675988e-01 0.000000000000000000e+00 0.000000000000000000e+00
6.630221892338276080e-01 0.000000000000000000e+00 0.000000000000000000e+00
6.652594939788875061e-01 0.000000000000000000e+00 0.000000000000000000e+00
6.674967987239474043e-01 0.000000000000000000e+00 0.000000000000000000e+00
6.697341034690074135e-01 0.000000000000000000e+00 0.000000000000000000e+00
6.719714082140673117e-01 0.000000000000000000e+00 0.000000000000000000e+00
6.742087129591273209e-01 0.000000000000000000e+00 0.000000000000000000e+00
6.764460177041871081e-01 0.000000000000000000e+00 0.000000000000000000e+00
6.786833224492470062e-01 0.000000000000000000e+00 0.000000000000000000e+00
6.809206271943071265e-01 0.000000000000000000e+00 0.000000000000000000e+00
6.831579319393670247e-01 0.000000000000000000e+00 0.000000000000000000e+00
6.853952366844269228e-01 0.000000000000000000e+00 0.000000000000000000e+00
6.876325414294868210e-01 0.000000000000000000e+00 0.000000000000000000e+00
6.898698461745467192e-01 0.000000000000000000e+00 0.000000000000000000e+00
6.921071509196068394e-01 0.000000000000000000e+00 0.000000000000000000e+00
6.943444556646667376e-01 0.000000000000000000e+00 0.000000000000000000e+00
6.965817604097266358e-01 0.000000000000000000e+00 0.000000000000000000e+00
