#! FIELDS rc1 external1.bias der_rc1
#! SET min_rc1 -0.6232978310775675
#! SET max_rc1 0.6204305822881351
#! SET nbins_rc1 600
#! SET periodic_rc1 false
-6.232978310775675324e-01 0.000000000000000000e+00 0.000000000000000000e+00
-6.212214898198618052e-01 0.000000000000000000e+00 0.000000000000000000e+00
-6.191451485621561890e-01 0.000000000000000000e+00 0.000000000000000000e+00
-6.170688073044504618e-01 0.000000000000000000e+00 0.000000000000000000e+00
-6.149924660467448456e-01 0.000000000000000000e+00 0.000000000000000000e+00
-6.129161247890391184e-01 0.000000000000000000e+00 0.000000000000000000e+00
-6.108397835313333912e-01 0.000000000000000000e+00 0.000000000000000000e+00
-6.087634422736277751e-01 0.000000000000000000e+00 0.000000000000000000e+00
-6.066871010159220479e-01 0.000000000000000000e+00 0.000000000000000000e+00
-6.046107597582164317e-01 0.000000000000000000e+00 0.000000000000000000e+00
-6.025344185005107045e-01 0.000000000000000000e+00 0.000000000000000000e+00
-6.004580772428049773e-01 0.000000000000000000e+00 0.000000000000000000e+00
-5.983817359850993611e-01 0.000000000000000000e+00 0.000000000000000000e+00
-5.963053947273936339e-01 0.000000000000000000e+00 0.000000000000000000e+00
-5.942290534696880178e-01 0.000000000000000000e+00 0.000000000000000000e+00
-5.921527122119822906e-01 0.000000000000000000e+00 0.000000000000000000e+00
-5.900763709542765634e-01 0.000000000000000000e+00 0.000000000000000000e+00
-5.880000296965709472e-01 0.000000000000000000e+00 0.000000000000000000e+00
-5.859236884388652200e-01 0.000000000000000000e+00 0.000000000000000000e+00
-5.838473471811596038e-01 0.000000000000000000e+00 0.000000000000000000e+00
-5.817710059234539877e-01 0.000000000000000000e+00 0.000000000000000000e+00
-5.796946646657481494e-01 0.000000000000000000e+00 0.000000000000000000e+00
-5.776183234080425333e-01 0.000000000000000000e+00 0.000000000000000000e+00
-5.755419821503369171e-01 0.000000000000000000e+00 0.000000000000000000e+00
-5.734656408926313009e-01 0.000000000000000000e+00 0.000000000000000000e+00
-5.713892996349254627e-01 0.000000000000000000e+00 0.000000000000000000e+00
-5.693129583772198465e-01 0.000000000000000000e+00 0.000000000000000000e+00
-5.672366171195142304e-01 0.000000000000000000e+00 0.000000000000000000e+00
-5.651602758618083922e-01 0.000000000000000000e+00 0.000000000000000000e+00
-5.630839346041027760e-01 0.000000000000000000e+00 0.000000000000000000e+00
-5.610075933463971598e-01 0.000000000000000000e+00 0.000000000000000000e+00
-5.589312520886914326e-01 0.000000000000000000e+00 0.000000000000000000e+00
-5.568549108309858164e-01 0.000000000000000000e+00 0.000000000000000000e+00
-5.547785695732800892e-01 0.000000000000000000e+00 0.000000000000000000e+00
-5.527022283155744731e-01 0.000000000000000000e+00 0.000000000000000000e+00
-5.506258870578687459e-01 0.000000000000000000e+00 0.000000000000000000e+00
-5.485495458001630187e-01 0.000000000000000000e+00 0.000000000000000000e+00
-5.464732045424574025e-01 0.000000000000000000e+00 0.000000000000000000e+00
-5.443968632847516753e-01 0.000000000000000000e+00 0.000000000000000000e+00
-5.423205220270460591e-01 0.000000000000000000e+00 0.000000000000000000e+00
-5.402441807693403319e-01 0.000000000000000000e+00 0.000000000000000000e+00
-5.381678395116346048e-01 0.000000000000000000e+00 0.000000000000000000e+00
-5.360914982539289886e-01 0.000000000000000000e+00 0.000000000000000000e+00
-5.340151569962232614e-01 0.000000000000000000e+00 0.000000000000000000e+00
-5.319388157385176452e-01 0.000000000000000000e+00 0.000000000000000000e+00
-5.298624744808119180e-01 0.000000000000000000e+00 0.000000000000000000e+00
-5.277861332231061908e-01 0.000000000000000000e+00 0.000000000000000000e+00
-5.257097919654005747e-01 0.000000000000000000e+00 0.000000000000000000e+00
-5.236334507076948475e-01 0.000000000000000000e+00 0.000000000000000000e+00
-5.215571094499892313e-01 0.000000000000000000e+00 0.000000000000000000e+00
-5.194807681922835041e-01 0.000000000000000000e+00 0.000000000000000000e+00
-5.174044269345777769e-01 0.000000000000000000e+00 0.000000000000000000e+00
-5.153280856768721607e-01 0.000000000000000000e+00 0.000000000000000000e+00
-5.132517444191664335e-01 0.000000000000000000e+00 0.000000000000000000e+00
-5.111754031614608174e-01 0.000000000000000000e+00 0.000000000000000000e+00
-5.090990619037550902e-01 0.000000000000000000e+00 0.000000000000000000e+00
-5.070227206460493630e-01 0.000000000000000000e+00 0.000000000000000000e+00
-5.049463793883437468e-01 0.000000000000000000e+00 0.000000000000000000e+00
-5.028700381306380196e-01 0.000000000000000000e+00 0.000000000000000000e+00
-5.007936968729324034e-01 0.000000000000000000e+00 0.000000000000000000e+00
-4.987173556152266762e-01 0.000000000000000000e+00 0.000000000000000000e+00
-4.966410143575209490e-01 0.000000000000000000e+00 0.000000000000000000e+00
-4.945646730998153329e-01 0.000000000000000000e+00 0.000000000000000000e+00
-4.924883318421096057e-01 0.000000000000000000e+00 0.000000000000000000e+00
-4.904119905844039895e-01 0.000000000000000000e+00 0.000000000000000000e+00
-4.883356493266982623e-01 0.000000000000000000e+00 0.000000000000000000e+00
-4.862593080689925351e-01 0.000000000000000000e+00 0.000000000000000000e+00
-4.841829668112869189e-01 0.000000000000000000e+00 0.000000000000000000e+00
-4.821066255535811917e-01 0.000000000000000000e+00 0.000000000000000000e+00
-4.800302842958755756e-01 0.000000000000000000e+00 0.000000000000000000e+00
-4.779539430381698484e-01 0.000000000000000000e+00 0.000000000000000000e+00
-4.758776017804641212e-01 0.000000000000000000e+00 0.000000000000000000e+00
-4.738012605227585050e-01 0.000000000000000000e+00 0.000000000000000000e+00
-4.717249192650527778e-01 0.000000000000000000e+00 0.000000000000000000e+00
-4.696485780073471616e-01 0.000000000000000000e+00 0.000000000000000000e+00
-4.675722367496414345e-01 0.000000000000000000e+00 0.000000000000000000e+00
-4.654958954919357073e-01 0.000000000000000000e+00 0.000000000000000000e+00
-4.634195542342300911e-01 0.000000000000000000e+00 0.000000000000000000e+00
-4.613432129765243639e-01 0.000000000000000000e+00 0.000000000000000000e+00
-4.592668717188187477e-01 0.000000000000000000e+00 0.000000000000000000e+00
-4.571905304611131315e-01 0.000000000000000000e+00 0.000000000000000000e+00
-4.551141892034074043e-01 0.000000000000000000e+00 0.000000000000000000e+00
-4.530378479457017882e-01 0.000000000000000000e+00 0.000000000000000000e+00
-4.509615066879960610e-01 0.000000000000000000e+00 0.000000000000000000e+00
-4.488851654302904448e-01 0.000000000000000000e+00 0.000000000000000000e+00
-4.468088241725847176e-01 0.000000000000000000e+00 0.000000000000000000e+00
-4.447324829148789904e-01 0.000000000000000000e+00 0.000000000000000000e+00
-4.426561416571733742e-01 0.000000000000000000e+00 0.000000000000000000e+00
-4.405798003994676471e-01 0.000000000000000000e+00 0.000000000000000000e+00
-4.385034591417620309e-01 0.000000000000000000e+00 0.000000000000000000e+00
-4.364271178840563037e-01 0.000000000000000000e+00 0.000000000000000000e+00
-4.343507766263505765e-01 0.000000000000000000e+00 0.000000000000000000e+00
-4.322744353686449603e-01 0.000000000000000000e+00 0.000000000000000000e+00
-4.301980941109392331e-01 0.000000000000000000e+00 0.000000000000000000e+00
-4.281217528532336170e-01 0.000000000000000000e+00 0.000000000000000000e+00
-4.260454115955278898e-01 0.000000000000000000e+00 0.000000000000000000e+00
-4.239690703378221626e-01 0.000000000000000000e+00 0.000000000000000000e+00
-4.218927290801165464e-01 0.000000000000000000e+00 0.000000000000000000e+00
-4.198163878224108192e-01 0.000000000000000000e+00 0.000000000000000000e+00
-4.177400465647052030e-01 0.000000000000000000e+00 0.000000000000000000e+00
-4.156637053069994758e-01 0.000000000000000000e+00 0.000000000000000000e+00
-4.135873640492937486e-01 0.000000000000000000e+00 0.000000000000000000e+00
-4.115110227915881325e-01 0.000000000000000000e+00 0.000000000000000000e+00
-4.094346815338824053e-01 0.000000000000000000e+00 0.000000000000000000e+00
-4.073583402761767891e-01 0.000000000000000000e+00 0.000000000000000000e+00
-4.052819990184710619e-01 0.000000000000000000e+00 0.000000000000000000e+00
-4.032056577607653347e-01 0.000000000000000000e+00 0.000000000000000000e+00
-4.011293165030597185e-01 0.000000000000000000e+00 0.000000000000000000e+00
-3.990529752453539913e-01 0.000000000000000000e+00 0.000000000000000000e+00
-3.969766339876483752e-01 0.000000000000000000e+00 0.000000000000000000e+00
-3.949002927299426480e-01 0.000000000000000000e+00 0.000000000000000000e+00
-3.928239514722369208e-01 0.000000000000000000e+00 0.000000000000000000e+00
-3.907476102145313046e-01 0.000000000000000000e+00 0.000000000000000000e+00
-3.886712689568255774e-01 0.000000000000000000e+00 0.000000000000000000e+00
-3.865949276991199612e-01 0.000000000000000000e+00 0.000000000000000000e+00
-3.845185864414142340e-01 0.000000000000000000e+00 0.000000000000000000e+00
-3.824422451837085069e-01 0.000000000000000000e+00 0.000000000000000000e+00
-3.803659039260028907e-01 0.000000000000000000e+00 0.000000000000000000e+00
-3.782895626682971635e-01 0.000000000000000000e+00 0.000000000000000000e+00
-3.762132214105915473e-01 0.000000000000000000e+00 0.000000000000000000e+00
-3.741368801528858201e-01 0.000000000000000000e+00 0.000000000000000000e+00
-3.720605388951800929e-01 0.000000000000000000e+00 0.000000000000000000e+00
-3.699841976374744767e-01 0.000000000000000000e+00 0.000000000000000000e+00
-3.679078563797687496e-01 0.000000000000000000e+00 0.000000000000000000e+00
-3.658315151220631334e-01 0.000000000000000000e+00 0.000000000000000000e+00
-3.637551738643574062e-01 0.000000000000000000e+00 0.000000000000000000e+00
-3.616788326066516790e-01 0.000000000000000000e+00 0.000000000000000000e+00
-3.596024913489460628e-01 0.000000000000000000e+00 0.000000000000000000e+00
-3.575261500912403356e-01 0.000000000000000000e+00 0.000000000000000000e+00
-3.554498088335347195e-01 0.000000000000000000e+00 0.000000000000000000e+00
-3.533734675758290478e-01 0.000000000000000000e+00 0.000000000000000000e+00
-3.512971263181233206e-01 0.000000000000000000e+00 0.000000000000000000e+00
-3.492207850604177044e-01 0.000000000000000000e+00 0.000000000000000000e+00
-3.471444438027119772e-01 0.000000000000000000e+00 0.000000000000000000e+00
-3.450681025450063610e-01 0.000000000000000000e+00 0.000000000000000000e+00
-3.429917612873006338e-01 0.000000000000000000e+00 0.000000000000000000e+00
-3.409154200295949066e-01 0.000000000000000000e+00 0.000000000000000000e+00
-3.388390787718892905e-01 0.000000000000000000e+00 0.000000000000000000e+00
-3.367627375141835633e-01 0.000000000000000000e+00 0.000000000000000000e+00
-3.346863962564779471e-01 0.000000000000000000e+00 0.000000000000000000e+00
-3.326100549987722754e-01 0.000000000000000000e+00 0.000000000000000000e+00
-3.305337137410665482e-01 0.000000000000000000e+00 0.000000000000000000e+00
-3.284573724833609321e-01 0.000000000000000000e+00 0.000000000000000000e+00
-3.263810312256552049e-01 0.000000000000000000e+00 0.000000000000000000e+00
-3.243046899679495887e-01 0.000000000000000000e+00 0.000000000000000000e+00
-3.222283487102438615e-01 0.000000000000000000e+00 0.000000000000000000e+00
-3.201520074525381343e-01 0.000000000000000000e+00 0.000000000000000000e+00
-3.180756661948325181e-01 0.000000000000000000e+00 0.000000000000000000e+00
-3.159993249371267909e-01 0.000000000000000000e+00 0.000000000000000000e+00
-3.139229836794211748e-01 0.000000000000000000e+00 0.000000000000000000e+00
-3.118466424217154476e-01 0.000000000000000000e+00 0.000000000000000000e+00
-3.097703011640097204e-01 0.000000000000000000e+00 0.000000000000000000e+00
-3.076939599063041042e-01 0.000000000000000000e+00 0.000000000000000000e+00
-3.056176186485983770e-01 0.000000000000000000e+00 0.000000000000000000e+00
-3.035412773908927608e-01 0.000000000000000000e+00 0.000000000000000000e+00
-3.014649361331870336e-01 0.000000000000000000e+00 0.000000000000000000e+00
-2.993885948754813064e-01 0.000000000000000000e+00 0.000000000000000000e+00
-2.973122536177756903e-01 0.000000000000000000e+00 0.000000000000000000e+00
-2.952359123600699631e-01 0.000000000000000000e+00 0.000000000000000000e+00
-2.931595711023643469e-01 0.000000000000000000e+00 0.000000000000000000e+00
-2.910832298446586197e-01 0.000000000000000000e+00 0.000000000000000000e+00
-2.890068885869528925e-01 0.000000000000000000e+00 0.000000000000000000e+00
-2.869305473292472763e-01 0.000000000000000000e+00 0.000000000000000000e+00
-2.848542060715415492e-01 0.000000000000000000e+00 0.000000000000000000e+00
-2.827778648138359330e-01 0.000000000000000000e+00 0.000000000000000000e+00
-2.807015235561302058e-01 0.000000000000000000e+00 0.000000000000000000e+00
-2.786251822984244786e-01 0.000000000000000000e+00 0.000000000000000000e+00
-2.765488410407188624e-01 0.000000000000000000e+00 0.000000000000000000e+00
-2.744724997830131352e-01 0.000000000000000000e+00 0.000000000000000000e+00
-2.723961585253075190e-01 0.000000000000000000e+00 0.000000000000000000e+00
-2.703198172676017919e-01 0.000000000000000000e+00 0.000000000000000000e+00
-2.682434760098960647e-01 0.000000000000000000e+00 0.000000000000000000e+00
-2.661671347521904485e-01 0.000000000000000000e+00 0.000000000000000000e+00
-2.640907934944847213e-01 0.000000000000000000e+00 0.000000000000000000e+00
-2.620144522367791051e-01 0.000000000000000000e+00 0.000000000000000000e+00
-2.599381109790733779e-01 0.000000000000000000e+00 0.000000000000000000e+00
-2.578617697213676507e-01 0.000000000000000000e+00 0.000000000000000000e+00
-2.557854284636620346e-01 0.000000000000000000e+00 0.000000000000000000e+00
-2.537090872059563074e-01 0.000000000000000000e+00 0.000000000000000000e+00
-2.516327459482506912e-01 0.000000000000000000e+00 0.000000000000000000e+00
-2.495564046905450195e-01 0.000000000000000000e+00 0.000000000000000000e+00
-2.474800634328392923e-01 0.000000000000000000e+00 0.000000000000000000e+00
-2.454037221751336761e-01 0.000000000000000000e+00 0.000000000000000000e+00
-2.433273809174279489e-01 0.000000000000000000e+00 0.000000000000000000e+00
-2.412510396597223328e-01 0.000000000000000000e+00 0.000000000000000000e+00
-2.391746984020166056e-01 0.000000000000000000e+00 0.000000000000000000e+00
-2.370983571443108784e-01 0.000000000000000000e+00 0.000000000000000000e+00
-2.350220158866052622e-01 0.000000000000000000e+00 0.000000000000000000e+00
-2.329456746288995350e-01 0.000000000000000000e+00 0.000000000000000000e+00
-2.308693333711939188e-01 0.000000000000000000e+00 0.000000000000000000e+00
-2.287929921134882194e-01 0.000000000000000000e+00 0.000000000000000000e+00
-2.267166508557824922e-01 0.000000000000000000e+00 0.000000000000000000e+00
-2.246403095980768760e-01 0.000000000000000000e+00 0.000000000000000000e+00
-2.225639683403711488e-01 0.000000000000000000e+00 0.000000000000000000e+00
-2.204876270826655327e-01 0.000000000000000000e+00 0.000000000000000000e+00
-2.184112858249598055e-01 0.000000000000000000e+00 0.000000000000000000e+00
-2.163349445672540783e-01 0.000000000000000000e+00 0.000000000000000000e+00
-2.142586033095484621e-01 0.000000000000000000e+00 0.000000000000000000e+00
-2.121822620518427349e-01 0.000000000000000000e+00 0.000000000000000000e+00
-2.101059207941371187e-01 0.000000000000000000e+00 0.000000000000000000e+00
-2.080295795364314193e-01 0.000000000000000000e+00 0.000000000000000000e+00
-2.059532382787256921e-01 0.000000000000000000e+00 0.000000000000000000e+00
-2.038768970210200759e-01 0.000000000000000000e+00 0.000000000000000000e+00
-2.018005557633143487e-01 0.000000000000000000e+00 0.000000000000000000e+00
-1.997242145056087326e-01 0.000000000000000000e+00 0.000000000000000000e+00
-1.976478732479030054e-01 0.000000000000000000e+00 0.000000000000000000e+00
-1.955715319901972782e-01 0.000000000000000000e+00 0.000000000000000000e+00
-1.934951907324916620e-01 0.000000000000000000e+00 0.000000000000000000e+00
-1.914188494747859348e-01 0.000000000000000000e+00 0.000000000000000000e+00
-1.893425082170803186e-01 0.000000000000000000e+00 0.000000000000000000e+00
-1.872661669593745914e-01 0.000000000000000000e+00 0.000000000000000000e+00
-1.851898257016688643e-01 0.000000000000000000e+00 0.000000000000000000e+00
-1.831134844439632481e-01 0.000000000000000000e+00 0.000000000000000000e+00
-1.810371431862575209e-01 0.000000000000000000e+00 0.000000000000000000e+00
-1.789608019285519047e-01 0.000000000000000000e+00 0.000000000000000000e+00
-1.768844606708461775e-01 0.000000000000000000e+00 0.000000000000000000e+00
-1.748081194131404503e-01 0.000000000000000000e+00 0.000000000000000000e+00
-1.727317781554348342e-01 0.000000000000000000e+00 0.000000000000000000e+00
-1.706554368977291070e-01 0.000000000000000000e+00 0.000000000000000000e+00
-1.685790956400234908e-01 0.000000000000000000e+00 0.000000000000000000e+00
-1.665027543823177913e-01 0.000000000000000000e+00 0.000000000000000000e+00
-1.644264131246120642e-01 0.000000000000000000e+00 0.000000000000000000e+00
-1.623500718669064480e-01 0.000000000000000000e+00 0.000000000000000000e+00
-1.602737306092007208e-01 0.000000000000000000e+00 0.000000000000000000e+00
-1.581973893514951046e-01 1.951265034101226092e-01 9.483953903870410329e+01
-1.561210480937893774e-01 5.637217632175826054e-01 1.112913736349051987e+02
-1.540447068360836502e-01 9.431468011723147526e-01 1.265247750096419566e+02
-1.519683655783780341e-01 1.291524314959968223e+00 1.431352195348161445e+02
-1.498920243206723069e-01 1.634590449066603668e+00 1.577600932742211057e+02
-1.478156830629666907e-01 1.969192477678497255e+00 1.624783758000839384e+02
-1.457393418052609912e-01 2.310788707048914148e+00 1.590104781135596852e+02
-1.436630005475552641e-01 2.627086104744481787e+00 1.549543098124346727e+02
-1.415866592898496479e-01 2.971975617508984868e+00 1.522427737219348671e+02
-1.395103180321439207e-01 3.275638062292834718e+00 1.495152947108179546e+02
-1.374339767744383045e-01 3.568732054997354908e+00 1.473405910703996824e+02
-1.353576355167325773e-01 3.865321924364486961e+00 1.441922422091821261e+02
-1.332812942590268501e-01 4.160527066400980800e+00 1.436850302074454930e+02
-1.312049530013212340e-01 4.452603837624003802e+00 1.404665637496509021e+02
-1.291286117436155068e-01 4.739038199727559686e+00 1.399056623755349165e+02
-1.270522704859098906e-01 5.028485959420621043e+00 1.394065227319969438e+02
-1.249759292282041911e-01 5.304711722449077627e+00 1.389246806551908548e+02
-1.228995879704984640e-01 5.610477668088542202e+00 1.386685230866344511e+02
-1.208232467127928478e-01 5.888540833924444939e+00 1.386798236405095963e+02
-1.187469054550871206e-01 6.180557052062482626e+00 1.389570227502614159e+02
-1.166705641973815044e-01 6.463287202414655042e+00 1.392889439773582581e+02
-1.145942229396757772e-01 6.749872385944080122e+00 1.391816936454048630e+02
-1.125178816819700500e-01 7.039758822699894836e+00 1.368817772388396179e+02
-1.104415404242644339e-01 7.332070231985383657e+00 1.363614370117041972e+02
-1.083651991665587067e-01 7.624260193570712829e+00 1.355071274327306696e+02
-1.062888579088530905e-01 7.920599770645061710e+00 1.348786066789022300e+02
-1.042125166511473910e-01 8.194598650782140226e+00 1.342305747001526868e+02
-1.021361753934416639e-01 8.452610483179356038e+00 1.330190641115092660e+02
-1.000598341357360477e-01 8.719869610198802690e+00 1.313824096424155243e+02
-9.798349287803032048e-02 8.994147446080084762e+00 1.292249849277952762e+02
-9.590715162032470431e-02 9.263827360707274750e+00 1.270211140237410774e+02
-9.383081036261897712e-02 9.536957188898792737e+00 1.262050762656305665e+02
-9.175446910491324992e-02 9.801688531461138609e+00 1.252768553603227559e+02
-8.967812784720763375e-02 1.006001740875874617e+01 1.235078970838724501e+02
-8.760178658950190655e-02 1.030741187089046917e+01 1.208994411023021485e+02
-8.552544533179629038e-02 1.055799156711738362e+01 1.189969074138413703e+02
-8.344910407409056319e-02 1.081504671860434996e+01 1.166740945466849269e+02
-8.137276281638483599e-02 1.105378551738201054e+01 1.138815198568883318e+02
-7.929642155867921982e-02 1.128431503387592727e+01 1.108736714879734819e+02
-7.722008030097349263e-02 1.150443242202276650e+01 1.081321340904014647e+02
-7.514373904326787645e-02 1.173460924473469902e+01 1.050327998391164925e+02
-7.306739778556214926e-02 1.195950955102615154e+01 1.010988645830080372e+02
-7.099105652785642206e-02 1.216625751315200432e+01 9.807220073712025510e+01
-6.891471527015080589e-02 1.236213319379660192e+01 9.524314017311697000e+01
-6.683837401244507870e-02 1.255260398384711351e+01 9.266776708805454632e+01
-6.476203275473946253e-02 1.273883092430038033e+01 8.887552934897279044e+01
-6.268569149703373533e-02 1.291420415501335128e+01 8.493049721332963031e+01
-6.060935023932800814e-02 1.309009908362678232e+01 8.167899925614096901e+01
-5.853300898162239196e-02 1.326188764842480339e+01 7.851446422036364936e+01
-5.645666772391666477e-02 1.342853150266664386e+01 7.541765319465747552e+01
-5.438032646621104860e-02 1.357996852861174375e+01 7.221040617508212733e+01
-5.230398520850532140e-02 1.372295650504108977e+01 6.910349699155712244e+01
-5.022764395079959421e-02 1.386219227358837003e+01 6.578912402379837943e+01
-4.815130269309397804e-02 1.399236140767057890e+01 6.244858785905783805e+01
-4.607496143538825084e-02 1.411853183272116752e+01 5.903242250463477347e+01
-4.399862017768263467e-02 1.423816538007046262e+01 5.637989147981850380e+01
-4.192227891997690747e-02 1.434902857356645001e+01 5.367560891590260752e+01
-3.984593766227118028e-02 1.445610580881606211e+01 5.053406429568114788e+01
-3.776959640456556411e-02 1.455853344299700325e+01 4.763348020796957627e+01
-3.569325514685983691e-02 1.465424604655351715e+01 4.441951069131080487e+01
-3.361691388915422074e-02 1.475060747645690640e+01 4.104000544091322666e+01
-3.154057263144849355e-02 1.483744531828671853e+01 3.763475345468005173e+01
-2.946423137374276635e-02 1.491145189975512153e+01 3.416938716509154261e+01
-2.738789011603715018e-02 1.498139500970972193e+01 3.065597251378849109e+01
-2.531154885833142298e-02 1.504083245967584048e+01 2.711685804801973276e+01
-2.323520760062580681e-02 1.509029594520480089e+01 2.274139619991598948e+01
-2.115886634292013513e-02 1.513045448678178673e+01 1.832374232838962769e+01
-1.908252508521440793e-02 1.516557889203004805e+01 1.450393177253824817e+01
-1.700618382750879176e-02 1.519505604825170764e+01 1.083799118218688129e+01
-1.492984256980306457e-02 1.521728455799802759e+01 7.479561672455387722e+00
-1.285350131209744839e-02 1.522279646833407440e+01 4.139118483527908232e+00
-1.077716005439172120e-02 1.521790874020675233e+01 1.080010163468397177e+00
-8.700818796685994005e-03 1.521260301913781632e+01 -2.216177024510306737e+00
-6.624477538980377833e-03 1.520642869213197201e+01 -5.797597174362047134e+00
-4.548136281274650639e-03 1.519613368457657288e+01 -9.278352948563675540e+00
-2.471795023569034466e-03 1.517623816998361264e+01 -1.222090711471616231e+01
-3.954537658633627828e-04 1.515287918339330275e+01 -1.469783503842767658e+01
1.680887491842364412e-03 1.511956349412634637e+01 -1.710316277280002240e+01
3.757228749547980584e-03 1.507467814616484958e+01 -2.054932528852475215e+01
5.833570007253707779e-03 1.502463428769145537e+01 -2.420164551775125261e+01
7.909911264959323951e-03 1.496904873184533358e+01 -2.762188277044525719e+01
9.986252522665051146e-03 1.491273152731436369e+01 -3.100531436494788906e+01
1.206259378037077834e-02 1.485748299411361018e+01 -3.408372687097723741e+01
1.413893503807639451e-02 1.477975457298618522e+01 -3.694978687749399171e+01
1.621527629578212171e-02 1.469362493364783262e+01 -4.036596693106397282e+01
1.829161755348773788e-02 1.460271362186576738e+01 -4.366745000954930589e+01
2.036795881119346507e-02 1.450910304915254301e+01 -4.726584415648223114e+01
2.244430006889919227e-02 1.441186901094052786e+01 -5.205499141561245580e+01
2.452064132660480844e-02 1.430747447659312144e+01 -5.525799634057274545e+01
2.659698258431053564e-02 1.418649906222993451e+01 -5.832244892494554733e+01
2.867332384201615181e-02 1.406236345110905717e+01 -6.154999439505644432e+01
3.074966509972187900e-02 1.393133130429045252e+01 -6.522295005523506006e+01
3.282600635742760620e-02 1.377664373065609738e+01 -6.957434100256666909e+01
3.490234761513322237e-02 1.363240999678538401e+01 -7.405493753594991801e+01
3.697868887283894956e-02 1.348265186411485672e+01 -7.728877234830970622e+01
3.905503013054456574e-02 1.332472569412567509e+01 -8.090857668699739236e+01
4.113137138825029293e-02 1.315485202766291906e+01 -8.455786035969674685e+01
4.320771264595602013e-02 1.296726826392739440e+01 -8.676958658565310145e+01
4.528405390366163630e-02 1.276984125516602120e+01 -9.015480098903805128e+01
4.736039516136736349e-02 1.258172039438776579e+01 -9.349939425491072598e+01
4.943673641907297966e-02 1.238242529233448863e+01 -9.624218000726328626e+01
5.151307767677870686e-02 1.217562156300891019e+01 -9.867497980011540903e+01
5.358941893448443405e-02 1.197501100523751916e+01 -1.006765060936584035e+02
5.566576019219005023e-02 1.176048866804752890e+01 -1.021385088101869627e+02
5.774210144989577742e-02 1.154128536549525563e+01 -1.048456679812662458e+02
5.981844270760139359e-02 1.132640960331949032e+01 -1.068058820983553829e+02
6.189478396530712079e-02 1.110602271104037442e+01 -1.089227697029067912e+02
6.397112522301284798e-02 1.087688043108818903e+01 -1.122776376102086857e+02
6.604746648071846415e-02 1.064909725673475549e+01 -1.156083021106974371e+02
6.812380773842419135e-02 1.040476653317561784e+01 -1.196906426921250244e+02
7.020014899612980752e-02 1.016477069666984789e+01 -1.247502876067147355e+02
7.227649025383553472e-02 9.914013156631703794e+00 -1.296418686071028787e+02
7.435283151154126191e-02 9.643744092359490594e+00 -1.332370313359919294e+02
7.642917276924687808e-02 9.360065793990088423e+00 -1.369545459637768943e+02
7.850551402695260528e-02 9.056099169665568382e+00 -1.410320661425380706e+02
8.058185528465822145e-02 8.736167912634773103e+00 -1.450877180104358501e+02
8.265819654236389313e-02 8.414215105890512802e+00 -1.495188324029341800e+02
8.473453780006962033e-02 8.110424978916739747e+00 -1.530321548091332033e+02
8.681087905777523650e-02 7.805453514585366293e+00 -1.555644623855595228e+02
8.888722031548096369e-02 7.476459557263332556e+00 -1.568549272067129152e+02
9.096356157318657987e-02 7.152254547755486414e+00 -1.573528031246666785e+02
9.303990283089230706e-02 6.809491951409768262e+00 -1.587966937215813914e+02
9.511624408859803426e-02 6.466274324501426918e+00 -1.620824904039526757e+02
9.719258534630365043e-02 6.130016679150678272e+00 -1.662210360672327170e+02
9.926892660400937762e-02 5.799255601328372478e+00 -1.675255554364215982e+02
1.013452678617149938e-01 5.468986741200925650e+00 -1.708504125985132873e+02
1.034216091194206655e-01 5.117053838276781619e+00 -1.723610599327931538e+02
1.054979503771263927e-01 4.745039359142619873e+00 -1.736668350187915735e+02
1.075742916348320088e-01 4.354137563735566374e+00 -1.760296607625473939e+02
1.096506328925377360e-01 3.998057332536305353e+00 -1.783868176192333124e+02
1.117269741502433522e-01 3.604816942012167402e+00 -1.811205065407168604e+02
1.138033154079490794e-01 3.230688151806369035e+00 -1.836622268912086327e+02
1.158796566656548066e-01 2.860358178054593026e+00 -1.856067802042322228e+02
1.179559979233604228e-01 2.475040206938555087e+00 -1.858072994415618382e+02
1.200323391810661500e-01 2.095336508792037478e+00 -1.903046861956896691e+02
1.221086804387717661e-01 1.708306937730501573e+00 -1.736138879477938133e+02
1.241850216964774933e-01 1.303599246513599041e+00 -1.555952318710367877e+02
1.262613629541832205e-01 8.912092046630419873e-01 -1.377595330244520255e+02
1.283377042118888367e-01 4.961439456016769611e-01 -1.192019906788495973e+02
1.304140454695945639e-01 4.668261770786585885e-02 -1.009148424429687054e+02
1.324903867273001801e-01 0.000000000000000000e+00 0.000000000000000000e+00
1.345667279850059073e-01 0.000000000000000000e+00 0.000000000000000000e+00
1.366430692427116345e-01 0.000000000000000000e+00 0.000000000000000000e+00
1.387194105004172506e-01 0.000000000000000000e+00 0.000000000000000000e+00
1.407957517581229778e-01 0.000000000000000000e+00 0.000000000000000000e+00
1.428720930158285940e-01 0.000000000000000000e+00 0.000000000000000000e+00
1.449484342735343212e-01 0.000000000000000000e+00 0.000000000000000000e+00
1.470247755312400484e-01 0.000000000000000000e+00 0.000000000000000000e+00
1.491011167889456646e-01 0.000000000000000000e+00 0.000000000000000000e+00
1.511774580466513918e-01 0.000000000000000000e+00 0.000000000000000000e+00
1.532537993043570079e-01 0.000000000000000000e+00 0.000000000000000000e+00
1.553301405620627351e-01 0.000000000000000000e+00 0.000000000000000000e+00
1.574064818197684623e-01 0.000000000000000000e+00 0.000000000000000000e+00
1.594828230774740785e-01 0.000000000000000000e+00 0.000000000000000000e+00
1.615591643351798057e-01 0.000000000000000000e+00 0.000000000000000000e+00
1.636355055928854219e-01 0.000000000000000000e+00 0.000000000000000000e+00
1.657118468505911490e-01 0.000000000000000000e+00 0.000000000000000000e+00
1.677881881082968762e-01 0.000000000000000000e+00 0.000000000000000000e+00
1.698645293660024924e-01 0.000000000000000000e+00 0.000000000000000000e+00
1.719408706237082196e-01 0.000000000000000000e+00 0.000000000000000000e+00
1.740172118814138358e-01 0.000000000000000000e+00 0.000000000000000000e+00
1.760935531391195630e-01 0.000000000000000000e+00 0.000000000000000000e+00
1.781698943968252902e-01 0.000000000000000000e+00 0.000000000000000000e+00
1.802462356545309063e-01 0.000000000000000000e+00 0.000000000000000000e+00
1.823225769122366335e-01 0.000000000000000000e+00 0.000000000000000000e+00
1.843989181699422497e-01 0.000000000000000000e+00 0.000000000000000000e+00
1.864752594276479214e-01 0.000000000000000000e+00 0.000000000000000000e+00
1.885516006853536486e-01 0.000000000000000000e+00 0.000000000000000000e+00
1.906279419430592648e-01 0.000000000000000000e+00 0.000000000000000000e+00
1.927042832007649920e-01 0.000000000000000000e+00 0.000000000000000000e+00
1.947806244584706081e-01 0.000000000000000000e+00 0.000000000000000000e+00
1.968569657161763353e-01 0.000000000000000000e+00 0.000000000000000000e+00
1.989333069738820625e-01 0.000000000000000000e+00 0.000000000000000000e+00
2.010096482315876787e-01 0.000000000000000000e+00 0.000000000000000000e+00
2.030859894892934059e-01 0.000000000000000000e+00 0.000000000000000000e+00
2.051623307469990221e-01 0.000000000000000000e+00 0.000000000000000000e+00
2.072386720047046937e-01 0.000000000000000000e+00 0.000000000000000000e+00
2.093150132624104209e-01 0.000000000000000000e+00 0.000000000000000000e+00
2.113913545201160371e-01 0.000000000000000000e+00 0.000000000000000000e+00
2.134676957778217643e-01 0.000000000000000000e+00 0.000000000000000000e+00
2.155440370355273805e-01 0.000000000000000000e+00 0.000000000000000000e+00
2.176203782932331077e-01 0.000000000000000000e+00 0.000000000000000000e+00
2.196967195509388349e-01 0.000000000000000000e+00 0.000000000000000000e+00
2.217730608086444510e-01 0.000000000000000000e+00 0.000000000000000000e+00
2.238494020663501782e-01 0.000000000000000000e+00 0.000000000000000000e+00
2.259257433240557944e-01 0.000000000000000000e+00 0.000000000000000000e+00
2.280020845817615216e-01 0.000000000000000000e+00 0.000000000000000000e+00
2.300784258394672488e-01 0.000000000000000000e+00 0.000000000000000000e+00
2.321547670971728650e-01 0.000000000000000000e+00 0.000000000000000000e+00
2.342311083548785922e-01 0.000000000000000000e+00 0.000000000000000000e+00
2.363074496125842083e-01 0.000000000000000000e+00 0.000000000000000000e+00
2.383837908702899355e-01 0.000000000000000000e+00 0.000000000000000000e+00
2.404601321279956627e-01 0.000000000000000000e+00 0.000000000000000000e+00
2.425364733857012789e-01 0.000000000000000000e+00 0.000000000000000000e+00
2.446128146434070061e-01 0.000000000000000000e+00 0.000000000000000000e+00
2.466891559011126223e-01 0.000000000000000000e+00 0.000000000000000000e+00
2.487654971588183495e-01 0.000000000000000000e+00 0.000000000000000000e+00
2.508418384165240766e-01 0.000000000000000000e+00 0.000000000000000000e+00
2.529181796742296928e-01 0.000000000000000000e+00 0.000000000000000000e+00
2.549945209319354200e-01 0.000000000000000000e+00 0.000000000000000000e+00
2.570708621896410362e-01 0.000000000000000000e+00 0.000000000000000000e+00
2.591472034473467634e-01 0.000000000000000000e+00 0.000000000000000000e+00
2.612235447050524906e-01 0.000000000000000000e+00 0.000000000000000000e+00
2.632998859627581067e-01 0.000000000000000000e+00 0.000000000000000000e+00
2.653762272204638339e-01 0.000000000000000000e+00 0.000000000000000000e+00
2.674525684781694501e-01 0.000000000000000000e+00 0.000000000000000000e+00
2.695289097358751773e-01 0.000000000000000000e+00 0.000000000000000000e+00
2.716052509935809045e-01 0.000000000000000000e+00 0.000000000000000000e+00
2.736815922512865207e-01 0.000000000000000000e+00 0.000000000000000000e+00
2.757579335089922479e-01 0.000000000000000000e+00 0.000000000000000000e+00
2.778342747666978640e-01 0.000000000000000000e+00 0.000000000000000000e+00
2.799106160244035912e-01 0.000000000000000000e+00 0.000000000000000000e+00
2.819869572821093184e-01 0.000000000000000000e+00 0.000000000000000000e+00
2.840632985398149346e-01 0.000000000000000000e+00 0.000000000000000000e+00
2.861396397975206618e-01 0.000000000000000000e+00 0.000000000000000000e+00
2.882159810552262780e-01 0.000000000000000000e+00 0.000000000000000000e+00
2.902923223129320052e-01 0.000000000000000000e+00 0.000000000000000000e+00
2.923686635706377324e-01 0.000000000000000000e+00 0.000000000000000000e+00
2.944450048283433485e-01 0.000000000000000000e+00 0.000000000000000000e+00
2.965213460860490757e-01 0.000000000000000000e+00 0.000000000000000000e+00
2.985976873437546919e-01 0.000000000000000000e+00 0.000000000000000000e+00
3.006740286014604191e-01 0.000000000000000000e+00 0.000000000000000000e+00
3.027503698591661463e-01 0.000000000000000000e+00 0.000000000000000000e+00
3.048267111168717625e-01 0.000000000000000000e+00 0.000000000000000000e+00
3.069030523745774897e-01 0.000000000000000000e+00 0.000000000000000000e+00
3.089793936322831058e-01 0.000000000000000000e+00 0.000000000000000000e+00
3.110557348899887775e-01 0.000000000000000000e+00 0.000000000000000000e+00
3.131320761476945047e-01 0.000000000000000000e+00 0.000000000000000000e+00
3.152084174054001209e-01 0.000000000000000000e+00 0.000000000000000000e+00
3.172847586631058481e-01 0.000000000000000000e+00 0.000000000000000000e+00
3.193610999208114642e-01 0.000000000000000000e+00 0.000000000000000000e+00
3.214374411785171914e-01 0.000000000000000000e+00 0.000000000000000000e+00
3.235137824362229186e-01 0.000000000000000000e+00 0.000000000000000000e+00
3.255901236939285348e-01 0.000000000000000000e+00 0.000000000000000000e+00
3.276664649516342620e-01 0.000000000000000000e+00 0.000000000000000000e+00
3.297428062093398782e-01 0.000000000000000000e+00 0.000000000000000000e+00
3.318191474670455499e-01 0.000000000000000000e+00 0.000000000000000000e+00
3.338954887247512771e-01 0.000000000000000000e+00 0.000000000000000000e+00
3.359718299824568932e-01 0.000000000000000000e+00 0.000000000000000000e+00
3.380481712401626204e-01 0.000000000000000000e+00 0.000000000000000000e+00
3.401245124978682366e-01 0.000000000000000000e+00 0.000000000000000000e+00
3.422008537555739638e-01 0.000000000000000000e+00 0.000000000000000000e+00
3.442771950132796910e-01 0.000000000000000000e+00 0.000000000000000000e+00
3.463535362709853072e-01 0.000000000000000000e+00 0.000000000000000000e+00
3.484298775286910343e-01 0.000000000000000000e+00 0.000000000000000000e+00
3.505062187863966505e-01 0.000000000000000000e+00 0.000000000000000000e+00
3.525825600441023777e-01 0.000000000000000000e+00 0.000000000000000000e+00
3.546589013018081049e-01 0.000000000000000000e+00 0.000000000000000000e+00
3.567352425595137211e-01 0.000000000000000000e+00 0.000000000000000000e+00
3.588115838172194483e-01 0.000000000000000000e+00 0.000000000000000000e+00
3.608879250749250645e-01 0.000000000000000000e+00 0.000000000000000000e+00
3.629642663326307916e-01 0.000000000000000000e+00 0.000000000000000000e+00
3.650406075903365188e-01 0.000000000000000000e+00 0.000000000000000000e+00
3.671169488480421350e-01 0.000000000000000000e+00 0.000000000000000000e+00
3.691932901057478622e-01 0.000000000000000000e+00 0.000000000000000000e+00
3.712696313634534784e-01 0.000000000000000000e+00 0.000000000000000000e+00
3.733459726211591501e-01 0.000000000000000000e+00 0.000000000000000000e+00
3.754223138788648773e-01 0.000000000000000000e+00 0.000000000000000000e+00
3.774986551365704934e-01 0.000000000000000000e+00 0.000000000000000000e+00
3.795749963942762206e-01 0.000000000000000000e+00 0.000000000000000000e+00
3.816513376519818368e-01 0.000000000000000000e+00 0.000000000000000000e+00
3.837276789096875640e-01 0.000000000000000000e+00 0.000000000000000000e+00
3.858040201673932912e-01 0.000000000000000000e+00 0.000000000000000000e+00
3.878803614250989074e-01 0.000000000000000000e+00 0.000000000000000000e+00
3.899567026828046346e-01 0.000000000000000000e+00 0.000000000000000000e+00
3.920330439405102507e-01 0.000000000000000000e+00 0.000000000000000000e+00
3.941093851982159224e-01 0.000000000000000000e+00 0.000000000000000000e+00
3.961857264559216496e-01 0.000000000000000000e+00 0.000000000000000000e+00
3.982620677136272658e-01 0.000000000000000000e+00 0.000000000000000000e+00
4.003384089713329930e-01 0.000000000000000000e+00 0.000000000000000000e+00
4.024147502290386091e-01 0.000000000000000000e+00 0.000000000000000000e+00
4.044910914867443363e-01 0.000000000000000000e+00 0.000000000000000000e+00
4.065674327444500635e-01 0.000000000000000000e+00 0.000000000000000000e+00
4.086437740021556797e-01 0.000000000000000000e+00 0.000000000000000000e+00
4.107201152598614069e-01 0.000000000000000000e+00 0.000000000000000000e+00
4.127964565175670231e-01 0.000000000000000000e+00 0.000000000000000000e+00
4.148727977752727503e-01 0.000000000000000000e+00 0.000000000000000000e+00
4.169491390329784775e-01 0.000000000000000000e+00 0.000000000000000000e+00
4.190254802906840936e-01 0.000000000000000000e+00 0.000000000000000000e+00
4.211018215483898208e-01 0.000000000000000000e+00 0.000000000000000000e+00
4.231781628060954370e-01 0.000000000000000000e+00 0.000000000000000000e+00
4.252545040638011642e-01 0.000000000000000000e+00 0.000000000000000000e+00
4.273308453215068914e-01 0.000000000000000000e+00 0.000000000000000000e+00
4.294071865792125076e-01 0.000000000000000000e+00 0.000000000000000000e+00
4.314835278369182348e-01 0.000000000000000000e+00 0.000000000000000000e+00
4.335598690946238509e-01 0.000000000000000000e+00 0.000000000000000000e+00
4.356362103523295781e-01 0.000000000000000000e+00 0.000000000000000000e+00
4.377125516100353053e-01 0.000000000000000000e+00 0.000000000000000000e+00
4.397888928677409215e-01 0.000000000000000000e+00 0.000000000000000000e+00
4.418652341254466487e-01 0.000000000000000000e+00 0.000000000000000000e+00
4.439415753831522649e-01 0.000000000000000000e+00 0.000000000000000000e+00
4.460179166408579920e-01 0.000000000000000000e+00 0.000000000000000000e+00
4.480942578985637192e-01 0.000000000000000000e+00 0.000000000000000000e+00
4.501705991562693354e-01 0.000000000000000000e+00 0.000000000000000000e+00
4.522469404139750626e-01 0.000000000000000000e+00 0.000000000000000000e+00
4.543232816716806788e-01 0.000000000000000000e+00 0.000000000000000000e+00
4.563996229293864060e-01 0.000000000000000000e+00 0.000000000000000000e+00
4.584759641870921332e-01 0.000000000000000000e+00 0.000000000000000000e+00
4.605523054447977493e-01 0.000000000000000000e+00 0.000000000000000000e+00
4.626286467025034765e-01 0.000000000000000000e+00 0.000000000000000000e+00
4.647049879602090927e-01 0.000000000000000000e+00 0.000000000000000000e+00
4.667813292179148199e-01 0.000000000000000000e+00 0.000000000000000000e+00
4.688576704756205471e-01 0.000000000000000000e+00 0.000000000000000000e+00
4.709340117333261633e-01 0.000000000000000000e+00 0.000000000000000000e+00
4.730103529910318905e-01 0.000000000000000000e+00 0.000000000000000000e+00
4.750866942487375066e-01 0.000000000000000000e+00 0.000000000000000000e+00
4.771630355064432338e-01 0.000000000000000000e+00 0.000000000000000000e+00
4.792393767641489610e-01 0.000000000000000000e+00 0.000000000000000000e+00
4.813157180218545772e-01 0.000000000000000000e+00 0.000000000000000000e+00
4.833920592795603044e-01 0.000000000000000000e+00 0.000000000000000000e+00
4.854684005372659206e-01 0.000000000000000000e+00 0.000000000000000000e+00
4.875447417949716478e-01 0.000000000000000000e+00 0.000000000000000000e+00
4.896210830526773750e-01 0.000000000000000000e+00 0.000000000000000000e+00
4.916974243103829911e-01 0.000000000000000000e+00 0.000000000000000000e+00
4.937737655680887183e-01 0.000000000000000000e+00 0.000000000000000000e+00
4.958501068257943345e-01 0.000000000000000000e+00 0.000000000000000000e+00
4.979264480835000617e-01 0.000000000000000000e+00 0.000000000000000000e+00
5.000027893412057889e-01 0.000000000000000000e+00 0.000000000000000000e+00
5.020791305989114051e-01 0.000000000000000000e+00 0.000000000000000000e+00
5.041554718566171323e-01 0.000000000000000000e+00 0.000000000000000000e+00
5.062318131143227484e-01 0.000000000000000000e+00 0.000000000000000000e+00
5.083081543720284756e-01 0.000000000000000000e+00 0.000000000000000000e+00
5.103844956297342028e-01 0.000000000000000000e+00 0.000000000000000000e+00
5.124608368874398190e-01 0.000000000000000000e+00 0.000000000000000000e+00
5.145371781451455462e-01 0.000000000000000000e+00 0.000000000000000000e+00
5.166135194028511624e-01 0.000000000000000000e+00 0.000000000000000000e+00
5.186898606605568895e-01 0.000000000000000000e+00 0.000000000000000000e+00
5.207662019182626167e-01 0.000000000000000000e+00 0.000000000000000000e+00
5.228425431759682329e-01 0.000000000000000000e+00 0.000000000000000000e+00
5.249188844336739601e-01 0.000000000000000000e+00 0.000000000000000000e+00
5.269952256913795763e-01 0.000000000000000000e+00 0.000000000000000000e+00
5.290715669490853035e-01 0.000000000000000000e+00 0.000000000000000000e+00
5.311479082067910307e-01 0.000000000000000000e+00 0.000000000000000000e+00
5.332242494644966468e-01 0.000000000000000000e+00 0.000000000000000000e+00
5.353005907222023740e-01 0.000000000000000000e+00 0.000000000000000000e+00
5.373769319799079902e-01 0.000000000000000000e+00 0.000000000000000000e+00
5.394532732376137174e-01 0.000000000000000000e+00 0.000000000000000000e+00
5.415296144953194446e-01 0.000000000000000000e+00 0.000000000000000000e+00
5.436059557530250608e-01 0.000000000000000000e+00 0.000000000000000000e+00
5.456822970107307880e-01 0.000000000000000000e+00 0.000000000000000000e+00
5.477586382684364041e-01 0.000000000000000000e+00 0.000000000000000000e+00
5.498349795261421313e-01 0.000000000000000000e+00 0.000000000000000000e+00
5.519113207838478585e-01 0.000000000000000000e+00 0.000000000000000000e+00
5.539876620415534747e-01 0.000000000000000000e+00 0.000000000000000000e+00
5.560640032992592019e-01 0.000000000000000000e+00 0.000000000000000000e+00
5.581403445569648181e-01 0.000000000000000000e+00 0.000000000000000000e+00
5.602166858146705453e-01 0.000000000000000000e+00 0.000000000000000000e+00
5.622930270723762725e-01 0.000000000000000000e+00 0.000000000000000000e+00
5.643693683300818886e-01 0.000000000000000000e+00 0.000000000000000000e+00
5.664457095877876158e-01 0.000000000000000000e+00 0.000000000000000000e+00
5.685220508454932320e-01 0.000000000000000000e+00 0.000000000000000000e+00
5.705983921031989592e-01 0.000000000000000000e+00 0.000000000000000000e+00
5.726747333609046864e-01 0.000000000000000000e+00 0.000000000000000000e+00
5.747510746186103026e-01 0.000000000000000000e+00 0.000000000000000000e+00
5.768274158763160298e-01 0.000000000000000000e+00 0.000000000000000000e+00
5.789037571340216459e-01 0.000000000000000000e+00 0.000000000000000000e+00
5.809800983917272621e-01 0.000000000000000000e+00 0.000000000000000000e+00
5.830564396494329893e-01 0.000000000000000000e+00 0.000000000000000000e+00
5.851327809071386055e-01 0.000000000000000000e+00 0.000000000000000000e+00
5.872091221648443327e-01 0.000000000000000000e+00 0.000000000000000000e+00
5.892854634225499488e-01 0.000000000000000000e+00 0.000000000000000000e+00
5.913618046802556760e-01 0.000000000000000000e+00 0.000000000000000000e+00
5.934381459379614032e-01 0.000000000000000000e+00 0.000000000000000000e+00
5.955144871956670194e-01 0.000000000000000000e+00 0.000000000000000000e+00
5.975908284533727466e-01 0.000000000000000000e+00 0.000000000000000000e+00
5.996671697110783628e-01 0.000000000000000000e+00 0.000000000000000000e+00
6.017435109687839789e-01 0.000000000000000000e+00 0.000000000000000000e+00
6.038198522264897061e-01 0.000000000000000000e+00 0.000000000000000000e+00
6.058961934841953223e-01 0.000000000000000000e+00 0.000000000000000000e+00
6.079725347419010495e-01 0.000000000000000000e+00 0.000000000000000000e+00
6.100488759996066657e-01 0.000000000000000000e+00 0.000000000000000000e+00
6.121252172573123929e-01 0.000000000000000000e+00 0.000000000000000000e+00
6.142015585150181201e-01 0.000000000000000000e+00 0.000000000000000000e+00
6.162778997727237362e-01 0.000000000000000000e+00 0.000000000000000000e+00
6.183542410304294634e-01 0.000000000000000000e+00 0.000000000000000000e+00
6.204305822881350796e-01 0.000000000000000000e+00 0.000000000000000000e+00
